1458 64
2615 0.0436043 -0.0277724 -0.800239 1.03786 1.0908 -1.04648 -0.136005 -0.0414154 -0.888378 1.48619 0.00563957 -0.188885 0.886759 1.57255 0.55906 0.440933 0.804643 0.491412 0.678362 -1.24542 -1.0079 0.754407 0.323574 0.859841 0.538659 0.726772 -0.280031 -2.1626 0.85065 0.0625644 1.23868 -0.0400084 -0.244432 -0.897577 -0.138437 0.269059 0.197865 0.0335985 0.385021 0.202938 -0.0150011 -0.434479 -0.718616 -0.417508 0.119326 -0.0136939 0.48211 -0.083417 0.333741 -0.195287 -0.462607 0.375414 -0.153738 0.278042 -0.562279 0.388814 -0.386517 0.179024 -0.787085 -0.545889 -0.208146 -1.26468 1.30047 -0.0407599
2285 0.0453823 -0.0260362 -0.79083 1.02898 1.10544 -1.03978 -0.135262 -0.0488127 -0.872467 1.50959 -0.0172669 -0.185467 0.91829 1.57721 0.539284 0.494036 0.766623 0.476676 0.702841 -1.26117 -1.04211 0.764967 0.302601 0.831484 0.534108 0.709695 -0.284236 -2.1791 0.8489 0.0136879 1.25664 -0.0592903 -0.226202 -0.912927 -0.160428 0.209064 0.214734 0.0916988 0.385053 0.216623 0.0487245 -0.412044 -0.733597 -0.402964 0.115903 -0.00249722 0.456764 -0.116048 0.297515 -0.207359 -0.498601 0.350663 -0.174965 0.247315 -0.591746 0.386602 -0.400395 0.160771 -0.810848 -0.547976 -0.207824 -1.25611 1.32959 -0.00991342
2169 -0.678871 -0.0547662 -1.26701 0.851246 0.986727 -0.625278 -0.978037 -0.134137 -1.164 1.52294 0.665924 -0.661455 -0.120251 1.13469 1.09388 -0.389934 0.147666 0.511899 1.17623 -0.36919 -1.88263 0.723287 0.331077 1.09084 1.02681 -0.0930316 -0.108122 -1.55047 1.4479 0.337043 1.11856 0.141167 -0.0890329 -0.24591 -0.435848 0.98083 0.391797 0.761488 -0.252579 -0.765504 0.525244 0.148159 0.0990718 -0.736766 -0.21722 0.100927 0.11504 -0.0105959 1.00649 0.431235 -0.0676928 0.00745937 0.200009 -0.0337977 0.0256136 -0.0025896 -1.0586 0.458058 -0.354926 -0.621648 -0.603511 -1.06226 0.182544 -0.844384
2046 -0.477895 -0.0930746 -0.846891 0.592643 0.720873 -0.480847 -0.663516 -0.13253 -0.80621 1.00046 0.397134 -0.431914 -0.215703 0.672686 0.827817 -0.287672 0.0237787 0.390034 0.848055 -0.257652 -1.39122 0.482273 0.22947 0.716411 0.724617 -0.114248 -0.0446413 -1.04943 0.977321 0.353418 0.783389 0.0872576 -0.0381307 -0.103094 -0.378643 0.657087 0.243391 0.49245 -0.187087 -0.561868 0.367208 0.101991 0.0815004 -0.525557 -0.18114 0.0362211 0.111864 -0.0192147 0.686523 0.352672 -0.0389689 -0.00848827 0.19282 -0.0815092 -0.00632657 -0.0412072 -0.699216 0.306931 -0.185732 -0.451777 -0.436708 -0.705905 0.0389407 -0.565029
3021 -0.642593 -0.0814112 -1.20095 0.820906 0.946307 -0.609814 -0.918218 -0.130122 -1.10394 1.44328 0.636677 -0.615083 -0.146616 1.06093 1.06458 -0.35692 0.109956 0.513532 1.15673 -0.365488 -1.81873 0.703087 0.292402 1.03996 0.982796 -0.124418 -0.086834 -1.47369 1.38541 0.336166 1.07529 0.155286 -0.0784636 -0.239225 -0.445184 0.917488 0.369617 0.688127 -0.257895 -0.731705 0.491457 0.132053 0.107783 -0.701213 -0.188836 0.0857898 0.112023 0.00254611 0.948381 0.424524 -0.075037 0.00670683 0.191922 -0.0486264 0.0306807 0.0177911 -1.00567 0.4378 -0.323803 -0.601995 -0.578878 -1.00674 0.169218 -0.765202
3305 -0.629779 -0.0930255 -1.21149 0.823428 0.94159 -0.59716 -0.920898 -0.146109 -1.0936 1.45025 0.634093 -0.615326 -0.151233 1.0559 1.04171 -0.325321 0.128852 0.520393 1.13689 -0.365078 -1.77996 0.690874 0.287471 1.00276 0.982627 -0.103777 -0.106541 -1.4681 1.34158 0.327265 1.04798 0.154003 -0.0721902 -0.239011 -0.410181 0.886692 0.342585 0.68892 -0.241507 -0.745392 0.481584 0.132623 0.103727 -0.68915 -0.192313 0.0914121 0.129771 0.00775191 0.91414 0.391318 -0.0772634 -0.00746907 0.187415 -0.0371271 0.00990409 -0.00573279 -0.984954 0.428057 -0.312085 -0.589502 -0.568779 -1.00491 0.176808 -0.768616
2166 -0.465557 -0.0938724 -0.852177 0.616106 0.732505 -0.449294 -0.680264 -0.124087 -0.792182 1.01987 0.395233 -0.419373 -0.172681 0.686688 0.818649 -0.277329 0.034237 0.367935 0.838561 -0.245436 -1.37695 0.526035 0.238232 0.752925 0.717519 -0.102583 -0.0198956 -1.05591 0.9358 0.330197 0.758696 0.139777 -0.0354444 -0.0934492 -0.374313 0.680209 0.237913 0.456873 -0.174992 -0.556622 0.342229 0.0937525 0.0838445 -0.546227 -0.165613 0.0301319 0.0946213 -0.024765 0.660129 0.324891 -0.0748739 -0.0363441 0.174189 -0.0774491 0.0172351 -0.0340308 -0.713214 0.32021 -0.200451 -0.431741 -0.486639 -0.718391 0.0584942 -0.52979
2654 -0.662201 -0.0622492 -1.21249 0.829188 0.962431 -0.605002 -0.94333 -0.130284 -1.13372 1.44649 0.63884 -0.625259 -0.136403 1.09625 1.03786 -0.359792 0.108208 0.502978 1.1159 -0.377389 -1.79796 0.672761 0.292364 1.0354 0.961211 -0.101808 -0.115709 -1.47485 1.36476 0.335625 1.06468 0.154186 -0.0860676 -0.238723 -0.409419 0.948684 0.382677 0.703367 -0.26006 -0.738264 0.49748 0.141936 0.0660088 -0.721083 -0.190606 0.095231 0.108404 -0.000965401 0.937934 0.396022 -0.0785661 0.00973798 0.191576 -0.0378254 0.0202742 -0.00360877 -0.999566 0.43285 -0.317915 -0.598662 -0.597789 -1.03895 0.161939 -0.786858
1642 -0.435958 -0.0270325 -1.12309 0.807996 0.529021 -0.0171916 -0.338672 -0.107533 -0.621318 0.948181 0.597927 -0.403781 0.385578 0.650907 0.408108 -0.156051 0.489496 0.407561 0.246205 -0.0308526 -0.524971 0.199062 0.0421605 0.938241 0.587208 0.264085 -0.375159 -0.9382 0.337881 -0.045609 0.238431 -0.155369 -0.10303 -0.422723 0.0850859 0.278043 0.104827 0.555438 -0.0342089 -0.118636 0.0154941 0.174129 -0.222738 -0.170916 -0.239967 0.163233 0.0617996 -0.112149 0.641589 -0.068674 0.107415 0.237167 -0.00493803 0.344111 -0.0719438 -0.0781572 -0.249813 0.149726 -0.457318 -0.0389568 -0.436753 -0.545075 0.653346 -0.413045
1264 -0.486064 -0.0776684 -1.15202 0.821556 0.543731 -0.0135903 -0.344291 -0.0827434 -0.643666 0.966781 0.584839 -0.424963 0.448313 0.638008 0.413748 -0.173374 0.536596 0.451594 0.221132 -0.0301537 -0.554992 0.192752 0.0238658 1.01297 0.619183 0.3314 -0.390303 -0.977113 0.344666 -0.0406836 0.26958 -0.190644 -0.133001 -0.485967 0.129926 0.323526 0.079993 0.503918 -0.0407259 -0.144776 -0.0243317 0.205171 -0.282198 -0.187608 -0.259634 0.155617 0.0147378 -0.164991 0.706239 -0.0519887 0.207672 0.28825 0.0565756 0.371398 -0.0381133 -0.127439 -0.228967 0.230622 -0.492624 -0.0267954 -0.460508 -0.586751 0.71424 -0.493821
1416 -0.460496 0.0357157 -1.34353 0.986056 0.755112 -0.0567896 -0.422042 -0.123538 -0.866806 1.1701 0.797887 -0.528534 0.505355 0.873204 0.52528 -0.0772622 0.642116 0.451002 0.344658 0.0825838 -0.666259 0.293526 0.127127 1.14213 0.743491 0.400493 -0.482384 -1.18849 0.391498 -0.203511 0.407337 -0.180287 -0.129511 -0.56328 0.130824 0.44013 0.143294 0.620315 0.0949513 -0.177671 0.177698 0.240346 -0.371048 -0.213044 -0.287071 0.168117 0.0981549 -0.113051 0.764101 -0.224933 0.0512654 0.248861 0.0825167 0.404418 -0.0024487 -0.0438726 -0.273249 0.210914 -0.49993 -0.105722 -0.43127 -0.578137 0.653929 -0.393341
905 -0.190523 0.268645 -1.5067 1.10889 0.940278 -0.102225 -0.529464 -0.183836 -0.828004 0.943151 0.584185 -0.473343 0.197055 1.25414 0.710733 0.229409 0.654791 0.446679 0.536093 -0.053866 -0.593877 0.474177 0.15067 1.30254 0.81267 0.161887 -0.372784 -1.23067 0.581223 -0.0853126 0.301612 -0.27597 -0.221938 -0.534896 -0.0923472 0.158317 0.156508 0.552417 0.122474 -0.228538 0.0135058 -0.117536 0.065153 0.0471093 -0.313305 0.132445 0.0303339 -0.0937595 0.880595 -0.0957497 -0.0461418 0.0874221 0.00874308 0.36165 0.0417493 0.191447 -0.369323 0.268921 -0.377522 -0.192299 -0.0126894 -0.564501 0.586599 -0.241234
1004 -0.445816 0.320361 -1.0544 1.09166 0.981351 -0.413195 -0.0440289 -0.14804 -0.856321 1.16578 0.672622 -0.310022 0.328907 1.24438 0.701117 0.168623 0.66516 0.455147 0.718102 0.16599 -0.933225 0.245363 0.230737 0.896858 0.754037 0.275697 0.0370929 -1.04642 0.692345 -0.374091 0.366981 0.201754 -0.117107 -0.879501 -0.0127816 0.00258389 -0.0749035 0.54462 -0.0877347 -0.294803 -0.00337527 -0.1879 0.279042 -0.278428 0.00240031 0.402053 0.0342949 0.0283446 0.601616 -0.184996 -0.0762657 0.023347 0.0633225 0.324348 -0.0327045 0.176955 -0.331926 0.0638138 -0.457428 -0.0980384 -0.0062164 -0.31396 0.590191 -0.177453
69 -0.31025 0.392279 -1.01504 0.905748 0.949406 -0.5018 -0.292803 -0.129956 -0.769491 0.838678 0.790422 -0.174369 0.535737 1.18692 0.458349 -0.0244647 0.561464 0.57238 0.692652 -0.173668 -0.687825 0.406771 0.0371695 1.0308 0.606809 0.174981 -0.371002 -1.15172 0.789178 -0.363488 0.513684 0.151755 -0.21844 -0.578416 -0.0371139 0.334227 0.256412 0.642918 -0.0913669 -0.35706 0.310684 -0.153008 -0.0755268 -0.195242 0.0943557 0.250343 0.130181 0.0422049 0.66665 -0.117777 -0.118266 0.165632 0.0641668 0.452989 0.175767 0.361843 -0.440372 0.130116 -0.272829 -0.245783 -0.0592304 -0.463936 0.529288 -0.276992
977 -0.389759 0.345722 -0.97572 0.883335 0.800052 -0.367163 -0.301161 -0.107905 -0.835669 1.00868 0.867735 -0.344613 0.533597 1.23142 0.583074 -0.143654 0.457398 0.449262 0.69077 -0.124859 -0.716984 0.411481 -0.0130703 0.963307 0.665028 0.229407 -0.198712 -1.0206 0.834477 -0.379107 0.477644 0.144141 -0.158306 -0.646837 -0.0200537 0.320188 0.274134 0.50824 -0.2094 -0.399202 0.259712 -0.164893 -0.068661 -0.272726 -0.00638581 0.229708 0.273229 0.0748404 0.542677 -0.0638669 -0.110764 0.198069 0.0680585 0.373412 0.142568 0.375191 -0.380817 0.175123 -0.273534 -0.267076 -0.169477 -0.352453 0.481746 -0.208261
699 -0.712991 0.117078 -1.37329 0.879727 0.931319 -0.581628 -0.461964 -0.117952 -0.690811 1.20843 0.771362 -0.391575 0.302382 1.07367 0.457039 0.0615966 0.547834 0.576327 0.643443 -0.12802 -0.839425 0.551944 -0.0684101 0.966603 0.668362 0.25093 -0.381088 -1.11175 0.817973 -0.247896 0.311906 -0.0268683 -0.306614 -0.616825 0.0534891 0.245406 0.27866 0.76578 -0.0522357 -0.342938 0.166701 -0.24411 -0.0457741 -0.0373023 0.0146099 0.250353 0.108586 -0.0357986 0.679525 -0.00290439 -0.0470184 0.0120983 0.0955372 0.487082 0.133453 0.103753 -0.330635 0.00306548 -0.355593 0.142042 -0.133952 -0.259173 0.483655 -0.274267
291 -0.421138 0.331865 -1.05298 1.01584 1.08515 -0.469412 -0.409486 -0.0159704 -0.807097 0.933767 0.714718 -0.349221 0.214715 1.16032 0.672426 -0.0994298 0.648494 0.471403 0.537544 -0.188679 -0.801879 0.321293 0.179159 1.18566 0.752844 0.138838 -0.233247 -0.952528 0.651683 -0.377884 0.638916 0.412784 -0.0976929 -0.749062 -0.0289558 0.306617 0.0993271 0.693551 -0.0945551 -0.337569 0.177774 -0.1836 -0.12041 -0.186046 -0.197875 0.292634 -0.0627287 0.151942 0.670987 -0.129634 -0.0585226 -0.0100134 -0.0265808 0.456803 0.090084 0.0882444 -0.230164 -0.0900716 -0.0678352 0.0734754 -0.0821538 -0.270461 0.606589 -0.300205
302 -0.253902 0.28281 -1.06232 0.78641 1.01991 -0.404629 -0.27791 0.0994202 -0.80634 1.01993 0.852561 -0.271682 0.666646 1.06353 0.383328 -0.272807 0.453501 0.468685 0.716185 -0.181563 -0.778678 0.42976 -0.175793 0.8432 0.542965 0.187214 -0.3782 -1.3979 0.867023 -0.353153 0.410897 0.0639021 -0.0924625 -0.576107 -0.0266347 0.211349 0.0578466 0.631496 0.0348658 -0.342689 0.345258 -0.17605 -0.0725668 -0.135219 -0.0105014 0.367885 0.102768 0.135396 0.56416 0.0660384 -0.0695011 0.1207 -0.0738277 0.393878 0.265718 0.484176 -0.34794 0.185983 -0.246902 -0.109634 -0.0488442 -0.552173 0.502148 -0.115541
668 -0.22238 0.175918 -1.13176 0.858387 0.784676 -0.314259 -0.178815 0.187566 -0.797511 0.995853 0.776806 -0.375304 0.469177 1.10209 0.473861 -0.243004 0.403721 0.245857 0.714573 -0.0757762 -0.937201 0.37253 -0.406285 1.02241 0.758585 0.231021 -0.285923 -1.34343 0.75434 -0.345658 0.277557 -0.0893414 -0.0629733 -0.431958 -0.0523285 0.1341 -0.027396 0.685476 0.0432383 -0.246027 0.37445 -0.211014 0.0197316 -0.0979662 -0.289392 0.355564 -0.0587074 0.137599 0.538279 -0.171799 0.0015119 0.141186 -0.158339 0.299616 0.250507 0.344632 -0.351866 0.177819 -0.43743 -0.0319888 -0.144215 -0.620256 0.6977 -0.0946162
364 -0.620522 0.321028 -1.23499 0.756545 1.12179 -0.399965 -0.530684 -0.270154 -0.976771 1.15128 0.734882 -0.488166 0.332644 1.00684 0.465288 -0.118302 0.573978 0.304429 0.564525 -0.0342828 -0.709125 0.596623 -0.101676 1.12907 0.543986 0.250238 -0.284784 -1.06885 0.976923 -0.475897 0.563045 0.175632 -0.0598189 -0.758956 0.0864276 0.321947 0.144608 0.505644 -0.0500945 -0.331027 0.22822 0.108673 0.0734014 -0.132307 -0.0628622 0.301971 0.108232 -0.087091 0.454298 -0.206928 -0.0756207 0.185545 -0.0414306 0.195847 -0.0873714 0.488237 -0.344215 0.0476822 -0.0955843 -0.241159 -0.243245 -0.454111 0.51335 -0.140973
805 -0.332125 0.273599 -1.11146 0.774127 0.930245 -0.402785 -0.186945 -0.0184569 -0.76858 0.961292 0.896978 -0.190392 0.663401 1.1282 0.454989 -0.181612 0.508089 0.5694 0.667046 -0.119801 -0.652045 0.426751 -0.108891 0.94131 0.52447 0.183542 -0.316811 -1.25577 0.793807 -0.420431 0.446073 0.0760829 -0.144437 -0.614058 -0.0409354 0.318509 0.208651 0.566032 -0.0935344 -0.330326 0.242224 -0.202296 -0.124536 -0.172406 0.140785 0.311109 0.166414 0.0124243 0.665115 -0.00978633 0.00604974 0.150153 0.0734243 0.460751 0.253723 0.412105 -0.331826 0.149693 -0.238691 -0.182918 -0.142267 -0.5376 0.514555 -0.254087
747 -0.334365 0.343103 -1.17046 1.07162 0.977532 -0.456952 -0.186491 -0.288322 -0.918111 0.960206 0.976775 -0.180872 0.385256 1.3529 0.500803 -0.0645064 0.505688 0.348199 0.684719 -0.21893 -0.703694 0.327824 0.11902 0.920863 0.660987 0.10754 -0.18541 -1.30337 0.800396 -0.556901 0.446449 0.027756 -0.244262 -0.687863 0.109765 0.299812 0.315789 0.761953 -0.0866546 -0.533321 0.0652913 -0.0655219 0.0125966 -0.189353 0.0743303 0.194286 0.122451 0.0863011 0.396724 -0.0657782 -0.0660185 0.224805 0.138758 0.272692 0.31119 0.345778 -0.267138 0.0361237 -0.379675 -0.215369 -0.246815 -0.487014 0.39557 -0.0567134
772 -0.324495 0.358592 -1.0743 0.915483 0.919632 -0.442357 -0.249951 -0.0444024 -0.800257 1.08361 0.861627 -0.211495 0.598556 1.24793 0.494591 -0.156741 0.579971 0.447936 0.701424 -0.21242 -0.676717 0.438437 0.0109118 1.06999 0.588214 0.234823 -0.350248 -1.19144 0.78894 -0.392936 0.582486 0.22337 -0.0918002 -0.63636 0.0509853 0.288091 0.235824 0.713569 -0.0502888 -0.423128 0.25364 -0.183134 -0.0329443 -0.196728 0.0251523 0.235683 0.0664008 0.0806116 0.560045 -0.176765 -0.149065 0.154838 0.0536148 0.377107 0.254216 0.336299 -0.342597 0.107649 -0.253374 -0.154399 -0.148568 -0.453815 0.540311 -0.207216
976 -0.366897 0.312612 -1.01416 0.896598 0.977224 -0.434861 -0.17185 -0.0453579 -0.818759 0.922702 0.75877 -0.238705 0.580215 1.22769 0.466008 -0.0914044 0.477063 0.515781 0.738776 -0.150649 -0.710488 0.40479 -0.0715455 0.949444 0.542755 0.180899 -0.242497 -1.15288 0.78991 -0.418309 0.434293 0.206116 -0.252253 -0.693433 -0.00145914 0.268972 0.263957 0.573835 -0.134202 -0.394291 0.313974 -0.138251 -0.0575075 -0.229167 0.0975737 0.293209 0.160512 0.136076 0.563397 -0.0791891 -0.156117 0.0927183 0.0714528 0.391608 0.189261 0.460604 -0.428157 0.143919 -0.287191 -0.261614 -0.137119 -0.510353 0.516923 -0.150035
608 -0.306037 0.422987 -0.85955 0.874223 0.696625 -0.381622 -0.360262 -0.197337 -0.78225 1.09572 0.703917 -0.358463 0.299867 1.25282 0.426033 -0.036355 0.686783 0.554148 0.626777 -0.295017 -0.650838 0.395651 0.085056 1.08013 0.562392 0.109777 -0.256867 -0.97684 1.00561 -0.279218 0.45586 0.224336 -0.258326 -0.770317 0.193856 0.320945 0.304257 0.728158 -0.173217 -0.312473 0.173757 -0.0161009 0.00341606 -0.206693 0.0238731 0.26209 0.0476028 0.218139 0.582293 -0.0567018 -0.140787 0.135182 -0.0335322 0.176922 0.0584917 0.248229 -0.350362 0.171868 -0.370499 -0.167266 -0.21088 -0.355351 0.333926 -0.259883
439 -0.472573 0.337397 -1.25428 0.731643 0.981985 -0.501705 -0.327707 -0.327115 -1.07947 0.982557 0.778475 -0.524928 0.537995 1.24736 0.542715 -0.123489 0.620241 0.348325 0.751969 -0.220405 -0.873404 0.446803 0.202073 1.01506 0.601752 0.193709 -0.285033 -0.903479 0.786011 -0.316972 0.507547 0.130567 -0.187004 -0.781254 0.050947 0.381572 0.108693 0.69409 -0.0320632 -0.396258 0.157559 -0.158401 -0.104556 -0.194768 -0.135882 0.169499 0.220241 0.121766 0.362181 -0.104935 -0.0883339 0.0753536 0.075886 0.124492 -0.00295935 0.367454 -0.231126 0.0458892 -0.267319 -0.0495473 -0.244159 -0.355168 0.404941 -0.204556
390 -0.496751 0.297985 -1.23173 0.88172 1.04613 -0.591748 -0.573503 -0.16294 -0.887463 0.970197 0.724615 -0.451238 0.398124 1.22987 0.526861 -0.0251664 0.568851 0.377765 0.647484 -0.178939 -0.987305 0.4016 0.25 1.05876 0.734756 0.190984 -0.262702 -1.10396 0.870862 -0.456838 0.291212 0.103722 -0.289573 -0.575375 0.187987 0.34357 0.0400685 0.823339 -0.0482102 -0.304407 0.291479 0.128929 -0.104326 -0.175603 -0.117919 0.226733 -0.046558 -0.0469672 0.472021 -0.233737 -0.00135573 0.199702 -0.214264 0.143644 0.199102 0.183278 -0.28435 0.078286 -0.18083 -0.0926107 -0.161066 -0.478143 0.4091 -0.242588
318 -0.27374 0.344299 -1.09933 0.852511 0.845796 -0.449915 -0.311034 -0.290017 -0.702471 1.01208 0.739085 -0.351248 0.59977 1.32636 0.376142 -0.111326 0.627165 0.393413 0.622549 -0.173276 -0.672954 0.397245 0.186003 0.934483 0.725585 0.10642 -0.262402 -0.966695 0.821893 -0.365248 0.533787 0.26401 -0.339411 -0.740286 0.19623 0.414073 0.298133 0.760678 -0.118575 -0.326581 0.173651 0.007887 -0.0741266 -0.101778 0.0384711 0.266077 0.0532884 0.225332 0.458114 -0.243907 -0.118075 0.318245 -0.113354 0.18553 -0.0954539 0.324833 -0.556722 0.143037 -0.449866 -0.361479 -0.200852 -0.572715 0.515029 -0.157349
616 -0.257571 0.204961 -1.12 0.939856 1.05595 -0.472307 -0.521282 -0.313042 -0.610192 1.04594 0.536798 -0.444672 0.421714 1.11856 0.452862 -0.203335 0.754887 0.438209 0.55509 -0.249506 -0.906055 0.513782 0.403289 0.788382 0.774057 0.0875302 -0.240939 -0.880148 0.745535 -0.116534 0.443678 0.21835 -0.321807 -0.683802 0.238165 0.265806 0.0488514 0.760725 -0.114818 -0.409494 -0.0471673 -0.0843344 -0.122226 0.0335759 0.0941005 0.261411 0.206787 0.183607 0.56073 -0.0799007 0.0957804 0.433632 0.0309407 0.379215 0.00895731 0.273715 -0.633004 -0.0787413 -0.339343 -0.0121836 -0.313032 -0.579523 0.524627 -0.161058
1001 -0.266578 0.0752918 -0.996455 0.724819 0.38003 -0.188868 -0.221896 0.000340452 -0.429496 0.994594 0.593078 -0.339571 0.438525 1.16801 0.464691 -0.17357 0.514612 0.261507 0.641489 0.0502407 -1.03671 0.326539 -0.226001 1.12102 0.937706 0.161626 -0.163837 -1.04336 0.714216 -0.26415 0.296956 -0.0496212 -0.226922 -0.548606 -0.0710022 0.229829 0.0951151 0.622306 -0.300214 -0.249453 0.0665264 -0.167041 0.0575773 0.00446588 -0.285224 0.323361 0.073777 0.129316 0.34792 -0.181475 -0.00547498 0.280898 -0.098197 0.350885 -0.108635 0.117212 -0.551456 -0.0320532 -0.385869 -0.113395 -0.31885 -0.604344 0.74955 -0.0746209
673 -0.20541 0.194779 -1.08449 0.869001 0.58961 -0.135275 -0.238289 0.147491 -0.608369 1.02273 0.660595 -0.441112 0.42221 1.1014 0.398453 -0.103302 0.473528 0.193606 0.75523 0.0739904 -1.03226 0.358679 -0.364691 1.25637 0.83405 0.145996 -0.160625 -1.20595 0.840204 -0.38555 0.30653 -0.108595 -0.0683608 -0.495879 -0.137146 0.196367 0.0805572 0.615914 -0.256049 -0.175995 0.214147 -0.207213 0.0329575 0.0904084 -0.295209 0.354324 0.022496 0.180471 0.535434 -0.229702 0.0663454 0.304527 -0.289223 0.220668 0.130499 0.122839 -0.43319 0.111085 -0.475614 -0.139051 -0.339686 -0.583287 0.811279 -0.0712669
754 -0.213155 0.152159 -1.10191 0.876436 0.617152 -0.167902 -0.158571 0.106154 -0.733052 0.867534 0.589466 -0.445026 0.299623 0.956339 0.457235 -0.0121193 0.331106 0.17698 0.666225 0.141767 -0.874927 0.367675 -0.309377 1.14931 0.872858 0.167995 -0.109351 -1.11378 0.670237 -0.316877 0.263033 -0.0351749 -0.0147479 -0.470617 -0.0651397 0.164319 0.104671 0.617718 -0.132608 -0.222877 0.252731 -0.112099 0.00688234 0.0107656 -0.349297 0.274433 0.0431364 0.175997 0.547983 -0.314995 -0.0529228 0.240688 -0.261302 0.146332 0.0556666 0.232616 -0.515546 0.151204 -0.599966 -0.260271 -0.268381 -0.528641 0.831327 0.0254543
471 -0.156588 0.18306 -1.37175 1.19168 0.953554 -0.529532 -0.34785 0.136166 -0.726503 1.03436 0.764093 -0.641393 0.165585 1.30796 0.630493 0.143034 0.495878 0.123365 0.657582 -0.0229698 -0.799555 0.407986 0.140993 0.896441 0.69299 0.40998 -0.0259816 -1.04038 0.778018 -0.253048 0.528607 -0.415274 -0.212176 -0.782043 -0.127625 0.233965 -0.184307 0.544116 -0.0523584 -0.526957 0.117334 -0.164851 -0.0504671 -0.157239 -0.278123 0.252144 0.057219 -0.0417048 0.574075 -0.0630612 0.0774826 0.169839 -0.0545675 0.294157 -0.0228119 0.316413 -0.475575 0.0901291 -0.313056 -0.0315987 -0.105253 -0.583453 0.629254 -0.190922
801 -0.193774 0.0813759 -1.00052 0.830584 0.663676 -0.305623 -0.0839919 0.074304 -0.773261 0.992048 0.675334 -0.535928 0.311199 0.94734 0.470663 -0.0321718 0.325141 0.0416537 0.625197 0.0842602 -1.08161 0.427164 -0.258148 1.18662 0.997012 0.179311 -0.237839 -1.20779 0.928844 -0.339821 0.140835 -0.0369487 0.0264154 -0.406962 -0.0059792 0.139941 0.165534 0.693818 -0.0842723 -0.128318 0.23486 -0.104754 0.135221 0.0191886 -0.32109 0.455269 -0.0794662 0.264934 0.718297 -0.285643 0.0956986 0.254404 -0.285297 0.298406 0.183858 0.247627 -0.582173 0.150735 -0.619123 -0.135033 -0.117462 -0.542367 0.946785 -0.083665
999 -0.49947 0.192949 -0.950867 1.04788 0.881279 -0.391059 -0.472262 -0.433772 -0.533761 1.15883 0.821388 -0.272249 0.556534 1.00562 0.453803 -0.198676 0.618486 0.36413 0.578299 -0.269297 -0.76679 0.385406 0.0967889 0.981771 0.766057 0.194069 -0.407118 -1.34947 0.950089 -0.179315 0.390527 0.133662 -0.146463 -0.736649 -0.0177018 0.289023 0.110239 0.790527 -0.107195 -0.205697 0.185657 -0.00770603 -0.141996 -0.133253 -0.215219 0.405736 0.0608395 0.0814875 0.63075 -0.156239 0.169876 0.25027 0.035405 0.458785 -0.0830133 0.112747 -0.439025 0.061429 -0.213875 0.0594537 -0.357852 -0.683235 0.590017 -0.458495
442 -0.420179 0.0602373 -0.860928 0.753594 0.717372 -0.368737 -0.29984 -0.22254 -0.535711 1.0901 0.694444 -0.313483 0.500149 0.912005 0.379787 -0.224141 0.582839 0.489395 0.531381 -0.247958 -0.73732 0.364684 0.112064 0.921777 0.572693 0.263264 -0.394444 -1.07396 0.796595 -0.258141 0.241193 0.040219 -0.207634 -0.695613 0.0767952 0.255528 0.101623 0.674433 -0.184123 -0.251079 0.116551 0.00335351 -0.137492 -0.272676 -0.183985 0.294719 0.0649434 0.0357272 0.68821 -0.0187054 0.172231 0.289192 0.0520717 0.41304 0.0351074 0.141182 -0.280709 0.160769 -0.288049 0.021688 -0.279945 -0.594862 0.683241 -0.511565
748 -0.620337 0.0430747 -1.1936 0.890221 0.964987 -0.256937 -0.515483 -0.469008 -0.609266 1.18782 0.66895 -0.432975 0.612142 1.0908 0.38245 -0.0471289 0.557606 0.485205 0.527104 -0.142983 -0.925283 0.368923 0.28676 0.93309 0.695112 0.224931 -0.306499 -1.19989 0.706663 -0.147202 0.178989 -0.041686 -0.0809421 -0.931972 0.123385 0.278477 0.0999636 0.650592 -0.244689 -0.254316 0.135953 -0.0902192 -0.0410085 -0.201888 -0.0446508 0.292316 0.0800079 0.225249 0.595971 -0.125419 0.192813 0.246774 -0.072813 0.333215 0.170864 0.0894639 -0.329994 0.210736 -0.206131 0.0201613 -0.275089 -0.51647 0.583993 -0.300731
554 -0.461211 0.0546711 -1.08223 0.923231 0.739535 -0.404312 -0.349714 -0.273762 -0.517058 1.16429 0.713017 -0.296783 0.367724 1.05625 0.400483 -0.0806539 0.659006 0.661515 0.522764 -0.172877 -0.768872 0.457757 0.100956 1.00152 0.749153 0.203315 -0.352264 -1.1829 0.799882 -0.250464 0.195706 0.0348084 -0.196652 -0.697209 0.0811705 0.295862 0.157327 0.712624 -0.225111 -0.27745 0.0953888 0.0546305 -0.100311 -0.234758 -0.103704 0.303099 0.111842 0.0592678 0.680163 -0.132431 0.0287864 0.282267 -0.01121 0.460393 -0.0402799 0.111112 -0.428679 0.0566437 -0.295036 -0.00246946 -0.377323 -0.645145 0.64552 -0.382302
184 -0.55584 0.140418 -1.09755 1.1534 0.880366 -0.345305 -0.42954 -0.368619 -0.778403 1.21674 0.649869 -0.391367 0.517529 1.07841 0.435427 -0.108312 0.547955 0.347536 0.591064 -0.233153 -0.878664 0.389679 0.0404157 0.950526 0.715637 0.232668 -0.37825 -1.09548 0.818035 -0.136235 0.327636 -0.123738 -0.253171 -0.646094 0.145055 0.27708 0.132022 0.618252 -0.166914 -0.286432 0.134871 -0.0237286 -0.127046 -0.209724 -0.13185 0.232939 0.200154 0.0710886 0.521668 0.00854722 0.0247952 0.334149 0.060156 0.351817 0.0840535 0.138528 -0.38624 0.179487 -0.482464 -0.014779 -0.375027 -0.550803 0.602166 -0.360098
522 -0.564344 0.0201471 -1.22593 1.09476 0.881665 -0.394602 -0.495784 -0.300155 -0.668498 1.21722 0.647717 -0.500526 0.486033 1.11829 0.484976 -0.116291 0.503707 0.373134 0.585086 -0.196008 -0.926404 0.482041 0.290008 1.05531 0.636728 0.210118 -0.423913 -1.18852 0.773708 -0.302618 0.217984 -0.0475572 -0.193939 -0.560047 0.20639 0.29953 0.122803 0.690186 -0.0668635 -0.241495 0.179033 0.053186 -0.0445048 -0.0979102 -0.0300077 0.220543 0.148366 0.0796163 0.558294 -0.061477 0.0983584 0.231425 0.185776 0.295865 -0.0312632 0.29921 -0.155452 0.0740871 -0.244206 0.153548 -0.42468 -0.595406 0.56231 -0.348865
40 -0.75049 0.17053 -1.01331 0.902564 0.848586 -0.190102 -0.155563 0.135474 -1.35897 1.36844 0.679165 -0.398851 0.810832 1.12611 0.539493 0.0551449 0.620313 0.53821 0.711164 -0.271792 -0.929094 0.612239 0.241035 1.00468 0.843817 0.29913 -0.528928 -1.66292 1.24356 -0.000633501 0.478483 0.111012 -0.337695 -0.948136 0.0613322 0.771845 0.0545697 1.44939 -0.255979 -0.220867 0.155161 0.0696329 -0.137542 -0.32147 -0.266618 0.289982 0.0376078 0.14139 0.849028 0.104486 0.0349672 0.406431 -0.118066 0.729655 0.0485527 0.36048 -0.482407 0.212496 -0.754856 -0.430657 -0.0832677 -0.357689 0.544734 -0.432944
620 -0.640875 0.240833 -0.7676 0.795414 0.695662 -0.199454 -0.173856 0.117667 -1.40155 1.39092 0.525307 -0.436452 0.958872 1.08193 0.510594 0.0372918 0.691509 0.665891 0.648505 -0.250998 -0.932331 0.737312 0.155516 1.04747 0.886991 0.342833 -0.460509 -1.51021 1.37092 0.024422 0.530527 0.0363466 -0.297582 -0.932101 0.0920436 0.904972 0.0109871 1.4015 -0.239683 -0.161633 0.160378 0.00514772 -0.172584 -0.377521 -0.338419 0.283873 -0.0541053 0.0742281 0.947561 0.042825 0.049873 0.536073 -0.0196953 0.83968 0.102819 0.382575 -0.473039 0.261225 -0.733502 -0.455055 -0.0241144 -0.304827 0.577583 -0.50806
623 -0.724559 0.29997 -0.792858 0.723585 0.642955 -0.249694 -0.110632 0.0166452 -1.42303 1.32357 0.529243 -0.375741 0.943242 1.08568 0.538007 0.0298388 0.755491 0.664711 0.627725 -0.229328 -0.951779 0.681154 0.17962 1.03165 0.84907 0.365754 -0.486333 -1.47692 1.3325 -0.0127473 0.501874 0.0122997 -0.3136 -0.994869 0.11132 0.916735 -0.0275443 1.40684 -0.213674 -0.1677 0.173106 0.0276173 -0.146449 -0.324383 -0.337405 0.282741 -0.0241456 0.0875943 0.891947 0.0470499 -0.0034328 0.49286 -0.0334474 0.822348 0.154877 0.39896 -0.458017 0.250286 -0.753486 -0.492208 -0.0221357 -0.245159 0.555968 -0.509965
230 -0.708392 0.248866 -0.96574 0.9087 0.803912 -0.212853 -0.183022 0.0954115 -1.44252 1.27043 0.636359 -0.347787 0.893387 1.13801 0.573844 0.0157131 0.653175 0.611682 0.662212 -0.290893 -0.95566 0.612038 0.20499 1.0082 0.885072 0.292206 -0.581847 -1.62482 1.22331 0.0509715 0.540687 0.0487649 -0.36675 -0.910617 -0.0135576 0.775022 -0.0196062 1.47588 -0.195444 -0.175894 0.148685 0.0574057 -0.0605358 -0.300436 -0.278091 0.375678 0.0203712 0.126122 0.855339 0.0224394 0.037221 0.45025 -0.0995316 0.876863 0.0929122 0.370927 -0.477611 0.164197 -0.815401 -0.479302 -0.0942514 -0.359171 0.487554 -0.397135
624 -0.739764 0.272588 -0.880791 0.833836 0.706167 -0.220362 -0.0698448 0.0434212 -1.48489 1.41102 0.575685 -0.434462 0.951583 1.16905 0.550494 0.0537251 0.766978 0.630187 0.645301 -0.242142 -1.08204 0.732269 0.153978 1.06846 0.884005 0.355451 -0.49765 -1.52387 1.34638 0.0603005 0.516918 -0.0100533 -0.345224 -1.00998 0.0977264 0.95065 -0.0360606 1.42041 -0.218453 -0.186202 0.207188 0.0808239 -0.163409 -0.404728 -0.359954 0.325928 -0.0185813 0.0885465 1.03269 0.0377544 0.0012151 0.494042 -0.0019041 0.886798 0.154551 0.350154 -0.548364 0.266371 -0.782458 -0.472935 -0.0318697 -0.269253 0.587892 -0.457226
625 -0.648509 0.267917 -0.701644 0.590794 0.553376 -0.194665 -0.0661689 0.0642195 -1.34322 1.25867 0.424464 -0.454682 0.89738 1.04233 0.462137 -0.0031209 0.697532 0.651171 0.616421 -0.246723 -0.925091 0.657698 0.144008 1.01458 0.766869 0.363869 -0.413031 -1.321 1.28231 0.0522263 0.529519 0.0138116 -0.271553 -0.897942 0.150223 0.869434 -0.0112969 1.20496 -0.222176 -0.167893 0.158914 0.002204 -0.13276 -0.339109 -0.346983 0.231582 -0.128911 0.0511046 0.908627 0.0346459 0.0414047 0.505221 0.0477207 0.768944 0.076749 0.331152 -0.450775 0.264319 -0.66509 -0.457818 0.0199705 -0.17437 0.581244 -0.521658
621 -0.640874 0.276518 -0.625043 0.68034 0.570966 -0.191844 -0.118027 0.0391807 -1.28382 1.26703 0.462958 -0.424211 0.92141 1.01225 0.484522 0.0392914 0.64975 0.636778 0.582233 -0.220135 -0.937386 0.676915 0.119084 0.966665 0.774225 0.359702 -0.459179 -1.3434 1.23532 0.0346811 0.478888 -0.00371744 -0.252297 -0.883719 0.113535 0.888173 0.016727 1.28527 -0.242605 -0.124135 0.0847026 -0.031959 -0.0959537 -0.317112 -0.30185 0.244053 -0.105562 0.0228184 0.82827 0.0481462 0.0437321 0.519361 -0.0194968 0.783828 0.133448 0.358644 -0.434399 0.266185 -0.669921 -0.502774 -0.012175 -0.189561 0.531083 -0.485108
822 -0.827893 0.0600193 -1.14682 0.908599 0.973917 -0.197257 -0.200901 0.139667 -1.07873 1.36281 0.930233 -0.319453 0.546119 1.18705 0.558287 0.000819453 0.739297 0.277232 0.835198 -0.0973838 -0.801981 0.281989 0.416516 1.01691 0.731853 0.370887 -0.650922 -1.61464 1.16426 0.054755 0.36607 0.152971 -0.511194 -0.967718 0.0260267 0.674848 0.0928204 1.3786 -0.186923 -0.368725 0.19558 0.20278 -0.135842 -0.393178 -0.062308 0.322226 0.141128 0.180254 0.81952 0.0988187 0.0965344 0.268244 -0.111671 0.403834 -0.0729848 0.286692 -0.794981 0.266534 -0.617576 -0.485434 -0.29266 -0.612602 0.791489 -0.297512
767 -0.880977 0.22201 -0.892499 0.737001 1.08663 -0.145475 -0.42795 -0.0631543 -0.821623 1.26018 0.823534 -0.258079 0.249867 0.873076 0.35412 0.30078 0.598752 0.178666 0.951068 -0.00960768 -0.348107 0.308753 0.317213 0.899655 0.476221 0.242961 -0.478526 -1.26369 0.99316 -0.0118331 0.139015 0.0823137 -0.201557 -0.887148 -0.0210315 0.429805 0.349675 1.20058 -0.0576282 -0.245525 0.361399 0.0604464 -0.221337 -0.311026 -0.156211 0.253965 0.586648 0.430732 0.758318 0.127237 0.0623247 0.199592 -0.206875 0.32036 -0.146894 0.523825 -0.611913 0.164657 -0.652584 -0.256814 -0.224785 -0.615407 0.464048 -0.329405
1003 -1.03172 0.227227 -1.02106 0.742307 1.04344 -0.131672 -0.450199 -0.0811677 -0.803887 1.16304 0.897228 -0.230939 0.154102 0.993024 0.438541 0.285335 0.733801 0.065518 0.876707 -0.119827 -0.344574 0.314957 0.267747 0.923789 0.549208 0.289907 -0.39948 -1.24663 0.890972 -0.139504 0.0643728 -0.0197497 -0.141107 -0.864433 0.0265101 0.262165 0.35069 1.07986 -0.136277 -0.332172 0.450998 0.184137 -0.301827 -0.385181 -0.144969 0.31291 0.635687 0.527094 0.789979 0.165936 0.0390976 0.1844 -0.207312 0.307658 -0.136489 0.394053 -0.71084 0.0975874 -0.678298 -0.198655 -0.307065 -0.667144 0.484416 -0.335948
933 -1.05002 0.21236 -1.54387 0.84163 1.05647 -0.329553 -0.253902 -0.12403 -0.964141 0.912745 0.760619 -0.293904 0.211958 1.29113 0.438534 0.195596 0.721319 0.220614 0.934831 -0.42785 -0.57752 0.435648 0.251671 1.08838 0.789913 0.266175 -0.257536 -1.44131 1.04176 -0.363328 0.409902 0.161495 -0.179834 -1.01582 0.192563 0.169527 0.303791 0.881698 -0.350237 -0.551889 0.317054 0.148877 -0.299783 -0.279148 -0.13544 0.272897 0.378465 0.591183 0.861188 0.105947 0.0944252 0.332841 -0.110021 0.401507 -0.0864582 0.302546 -0.690686 0.125969 -0.675499 -0.193339 -0.232551 -0.713552 0.580126 -0.414453
847 -0.73252 0.0194012 -1.50639 0.99853 0.912205 -0.130632 -0.202669 0.210377 -1.29446 0.956578 1.06759 -0.468985 0.226055 1.48115 0.485472 0.150423 0.537923 0.18091 0.878988 -0.0935424 -0.698145 0.404592 0.258976 0.926263 0.928727 -0.0686004 -0.429401 -1.61512 0.991809 -0.0584594 0.703361 0.23098 -0.411211 -0.986333 0.227129 0.276067 0.557948 1.14894 -0.390046 -0.613042 0.477503 0.000365738 -0.160374 -0.353242 -0.130593 0.223867 0.197314 0.20517 0.49744 -0.113242 0.111866 0.299051 0.134892 0.310094 0.0661146 -0.0384101 -0.547558 -0.0821576 -0.38728 0.144363 -0.372202 -0.305784 0.657461 -0.236087
857 -0.452613 0.0649868 -1.10808 0.773566 0.584639 -0.218126 -0.142521 0.0421329 -0.816313 0.838998 0.566591 -0.256931 0.41772 0.986866 0.378057 -0.0424945 0.457393 0.246697 0.367627 -0.252991 -0.674187 0.377133 0.105742 0.768804 0.699139 0.12731 -0.304667 -1.24875 0.886734 -0.238427 0.429979 0.172188 -0.294866 -0.632152 0.0970356 0.308255 0.151445 0.622529 -0.21942 -0.306478 0.285033 0.123521 -0.210589 -0.316338 -0.181599 0.346218 0.172932 0.158765 0.733759 0.0207277 0.200257 0.304559 0.0360559 0.436625 -0.136964 0.270775 -0.431926 0.0736015 -0.574186 -0.11398 -0.0825997 -0.512331 0.508098 -0.259033
564 -0.520456 0.153608 -1.14495 0.837486 0.687343 -0.204939 -0.0818647 0.105779 -1.00762 0.900078 0.389654 -0.31818 0.570886 1.01863 0.415738 -0.0275353 0.457685 0.371949 0.47532 -0.333567 -0.786551 0.515176 0.0389183 0.940285 0.780145 0.191399 -0.294423 -1.35021 1.06358 -0.141822 0.541117 0.236821 -0.310003 -0.742641 0.083499 0.410733 0.135762 0.786522 -0.289535 -0.302857 0.239751 0.0960103 -0.206948 -0.318052 -0.200231 0.333668 0.130382 0.250823 0.90417 0.0241996 0.11104 0.394549 0.100702 0.558865 -0.0487335 0.230533 -0.474298 0.0957249 -0.61203 -0.156375 -0.0265956 -0.389528 0.478966 -0.2864
386 -0.975733 0.244834 -1.62137 0.77357 0.980581 -0.334731 -0.171748 -0.154703 -0.966539 0.891147 0.647369 -0.323444 0.289004 1.43229 0.549968 0.0812215 0.817655 0.191374 0.730825 -0.414114 -0.703531 0.433608 0.305282 1.09717 0.842961 0.408278 -0.29956 -1.44207 1.02937 -0.433223 0.417962 0.144604 -0.202556 -1.1055 0.297544 0.192227 0.321308 0.855396 -0.403501 -0.61911 0.258404 0.259583 -0.337701 -0.204688 -0.200597 0.313363 0.252513 0.520268 0.774613 0.175249 0.157252 0.304031 -0.0425665 0.429352 -0.0561954 0.28114 -0.641783 0.0899017 -0.635646 -0.234297 -0.240789 -0.734855 0.605314 -0.44056
387 -0.882643 0.170618 -1.38562 0.76681 0.955523 -0.388654 -0.200621 -0.145361 -1.03335 0.87405 0.728812 -0.263266 0.36325 1.37654 0.475411 0.0730881 0.767579 0.162191 0.686589 -0.451077 -0.646824 0.501855 0.147172 1.05056 0.824405 0.335582 -0.224521 -1.41015 1.0642 -0.381759 0.388048 0.102431 -0.239603 -0.909804 0.204968 0.239826 0.318051 0.861404 -0.408628 -0.494385 0.357331 0.211666 -0.27566 -0.263206 -0.209883 0.298357 0.195515 0.524128 0.844846 0.13369 0.244689 0.357421 -0.0511483 0.494009 -0.0593856 0.304655 -0.732294 0.0757824 -0.754087 -0.177989 -0.22232 -0.783687 0.651125 -0.363644
848 -0.43688 0.0675118 -1.47749 0.889767 0.965838 -0.0580238 -0.199717 0.0663039 -1.21323 1.15565 0.723647 -0.421336 0.207684 1.17428 0.469293 0.134549 0.148681 0.246536 0.755662 -0.110208 -0.678004 0.569383 0.222069 0.762729 0.742792 0.187583 -0.331214 -1.53461 0.901286 -0.0382785 0.43018 0.289308 -0.0169994 -1.00439 0.190823 0.286127 0.256646 0.975358 -0.0696691 -0.535808 0.378583 -0.0394414 -0.275669 -0.435306 -0.371723 0.402313 0.432651 0.118628 0.791588 -0.101203 -0.0522022 0.391478 -0.0123511 0.477259 0.138034 0.395882 -0.425589 0.166955 -0.427469 -0.0205972 -0.213896 -0.514735 0.570022 -0.223737
612 -0.464946 0.124981 -1.22146 1.1137 0.382957 -0.273838 -0.150186 -0.0725598 -0.967704 1.47174 0.820195 -0.237814 0.478493 1.44695 0.591383 0.04531 0.63697 0.160917 0.385238 -0.191397 -1.09139 0.367431 0.119286 0.808401 0.957397 0.102594 -0.579551 -1.69941 1.11534 -0.172202 0.726721 0.167754 -0.581305 -0.978524 0.180474 0.306323 0.147203 0.600981 -0.116168 -0.543049 0.482464 0.0927304 -0.00290211 -0.611689 -0.114212 0.739135 0.287348 -0.0924647 0.709542 -0.127314 -0.0519297 0.388765 0.0220081 0.472818 0.0350321 0.265093 -0.852496 0.20247 -0.450087 -0.126152 -0.423972 -0.696026 0.843483 -0.314164
2586 -0.581722 0.442798 -0.845135 1.36768 0.460987 -0.537711 -0.161165 -0.235984 -0.994509 1.53616 1.18475 -0.241146 0.556039 1.1956 0.624724 0.506804 0.423956 0.187527 0.755833 -0.0654582 -1.05449 0.453459 0.218008 0.75241 0.932487 0.0832082 -0.829907 -1.27256 0.882938 -0.249626 0.462665 0.20935 -0.213201 -1.15488 0.15284 0.465753 -0.0749998 1.04035 -0.137749 -0.384964 0.125433 0.0837122 -0.228652 -0.276963 0.281794 0.694187 0.418333 0.0502256 0.7641 -0.428035 0.0580368 0.430745 -0.0520477 0.30092 0.220184 0.481661 -0.660857 0.302911 -0.364265 -0.587708 -0.539049 -0.621237 0.795901 -0.157868
2585 -0.511258 0.366749 -0.59849 1.11876 0.391078 -0.43256 -0.117634 -0.178148 -0.762721 1.22345 1.00124 -0.123618 0.440283 0.895714 0.536768 0.395138 0.39247 0.0721942 0.580957 -0.028248 -0.763347 0.308257 0.176208 0.598944 0.701102 0.0883963 -0.659073 -0.900567 0.613571 -0.130418 0.300232 0.112817 -0.179766 -0.852298 0.0551369 0.329779 -0.17321 0.819043 -0.0567239 -0.287953 0.0885175 0.0752972 -0.138907 -0.209623 0.290992 0.509183 0.325713 0.0131172 0.513807 -0.327441 0.0476602 0.277197 -0.0567191 0.187283 0.18509 0.346031 -0.572208 0.24717 -0.300951 -0.512221 -0.467671 -0.449744 0.611432 -0.0661668
354 -0.545106 0.432546 -0.891202 1.44346 0.537029 -0.454189 -0.259016 -0.209081 -1.13078 1.64008 1.17873 -0.279016 0.613867 1.19949 0.633052 0.571568 0.481709 0.250693 0.738511 -0.071616 -1.19316 0.571383 0.176368 0.833022 1.00103 0.102605 -0.926845 -1.56053 0.971598 -0.320156 0.502018 0.271815 -0.229831 -1.19977 0.144518 0.461509 0.0573453 1.15847 -0.215012 -0.365308 0.125216 0.0657603 -0.215199 -0.334899 0.248906 0.7546 0.432872 0.000994956 0.658083 -0.39586 0.0130349 0.395149 -0.123385 0.32925 0.20826 0.560312 -0.622702 0.260007 -0.346061 -0.587195 -0.537098 -0.64691 0.722882 -0.172424
352 -0.582083 0.384995 -0.766719 1.17765 0.577202 -0.444134 -0.201574 -0.177958 -0.958893 1.36001 1.04658 -0.218229 0.520555 1.01687 0.588768 0.446088 0.402058 0.20502 0.734126 -0.0631215 -0.888974 0.428234 0.21891 0.72805 0.829987 0.106047 -0.659761 -1.10012 0.762494 -0.223951 0.332527 0.127164 -0.176494 -0.992351 0.0398674 0.472632 -0.111154 1.08446 -0.0862244 -0.300694 0.0756127 0.0435047 -0.197636 -0.200714 0.221648 0.492311 0.370608 0.0802477 0.727332 -0.311854 0.0348185 0.306756 -0.0731965 0.301036 0.16505 0.405056 -0.535103 0.232296 -0.400882 -0.475227 -0.447183 -0.549992 0.627446 -0.162325
2486 -0.484947 0.304411 -0.668029 1.04554 0.503507 -0.365003 -0.165808 -0.114788 -0.839107 1.18288 0.888502 -0.20551 0.481923 0.897287 0.517567 0.318956 0.362215 0.181671 0.614105 -0.0612422 -0.777975 0.336907 0.180186 0.673965 0.726169 0.111035 -0.530836 -0.952009 0.650225 -0.149804 0.271182 0.0759433 -0.200652 -0.828447 0.0406622 0.426544 -0.122626 0.939824 -0.0827396 -0.258295 0.0554872 0.063339 -0.161063 -0.197523 0.180166 0.41841 0.27362 0.0445884 0.648788 -0.241314 0.048358 0.267318 -0.0553244 0.262404 0.126621 0.30992 -0.493835 0.211681 -0.332448 -0.442565 -0.384724 -0.456502 0.576237 -0.135143
1959 -0.583118 0.43073 -0.750158 1.22441 0.619729 -0.435703 -0.236881 -0.206949 -1.11092 1.53146 1.04655 -0.283274 0.514485 1.04273 0.575657 0.587454 0.396272 0.333138 0.885523 -0.069507 -1.03148 0.637525 0.16412 0.755996 0.890744 0.0332753 -0.779857 -1.24706 0.850868 -0.28382 0.311641 0.235553 -0.0933499 -1.09917 0.0204213 0.524716 -0.0864352 1.16681 -0.0956522 -0.322406 0.149029 -0.0270792 -0.256998 -0.223926 0.214169 0.600248 0.434624 0.178228 0.862736 -0.405022 -0.0870277 0.325012 -0.0921913 0.334699 0.279129 0.477733 -0.481475 0.195685 -0.405119 -0.458913 -0.471774 -0.520673 0.667103 -0.114638
1102 -0.593515 0.441506 -0.792301 1.27355 0.661506 -0.474267 -0.22487 -0.226283 -1.08858 1.51585 1.07113 -0.286866 0.53075 1.0565 0.568471 0.609385 0.419499 0.292851 0.895693 -0.0762379 -1.02332 0.656912 0.171322 0.76573 0.866838 0.0628023 -0.767185 -1.23673 0.836059 -0.2708 0.305658 0.22134 -0.0892786 -1.13378 0.0464897 0.509659 -0.107251 1.13227 -0.0995827 -0.319887 0.104313 0.011289 -0.240575 -0.22086 0.21261 0.588362 0.440052 0.200478 0.851661 -0.414146 -0.0335046 0.336632 -0.0898714 0.354048 0.258755 0.463811 -0.506555 0.206935 -0.3839 -0.487965 -0.485326 -0.548037 0.674969 -0.123808
2580 -0.518274 0.373796 -0.757493 1.13483 0.458569 -0.397194 -0.208749 -0.143863 -0.889682 1.27153 0.991354 -0.219888 0.465856 0.968367 0.536419 0.410499 0.337049 0.190568 0.661257 -0.0469482 -0.844749 0.388064 0.18233 0.668228 0.795317 0.0850539 -0.62934 -1.05637 0.659131 -0.20151 0.343756 0.14238 -0.165776 -0.911154 0.044053 0.338863 -0.0920815 0.993974 -0.083051 -0.298266 0.0954437 0.0497235 -0.195251 -0.195346 0.215651 0.52414 0.379732 0.0500504 0.693643 -0.35892 0.0681794 0.354419 -0.042155 0.225868 0.119089 0.375152 -0.496031 0.230889 -0.367151 -0.507144 -0.407723 -0.464734 0.583106 -0.107153
416 -0.781125 0.141911 -1.09986 1.06706 0.83196 -0.360058 -0.341773 0.212533 -1.30082 1.35941 1.04154 -0.217613 0.670412 1.12238 0.63819 0.277 0.698154 0.321829 1.00292 -0.104499 -0.902324 0.347379 0.39531 1.12104 0.835406 0.272752 -0.569337 -1.5559 0.97457 -0.117471 0.371411 0.317919 -0.297609 -0.797278 0.0144267 0.467568 0.023924 1.28234 -0.252223 -0.32979 0.178764 0.0502991 -0.184385 -0.326234 -0.0205192 0.372946 0.201364 0.0900362 0.673145 -0.0373213 0.215899 0.298063 -0.0938678 0.415583 -0.212432 0.472864 -0.516084 0.255926 -0.500331 -0.566423 -0.267739 -0.606966 0.66601 -0.278787
119 -0.711233 0.0833736 -1.06588 0.887163 0.828508 -0.243991 -0.13308 0.160383 -0.819431 1.27294 0.932517 -0.195959 0.512078 1.18998 0.59275 -0.0928745 0.81643 0.228352 0.771281 0.0446095 -0.845314 0.0376119 0.353622 0.999834 0.768164 0.319338 -0.523484 -1.38391 0.835464 -0.0364851 0.326654 0.0469518 -0.535157 -0.867068 0.141486 0.543306 -0.120899 1.15202 -0.0313631 -0.448437 0.0469632 0.273134 -0.135083 -0.28892 0.0695556 0.410496 0.0572228 -0.0197002 0.762289 0.078352 0.214801 0.296955 -0.0474569 0.297138 -0.124493 0.189448 -0.71515 0.403349 -0.575669 -0.613247 -0.266749 -0.63595 0.819114 -0.265409
448 -0.639013 0.0272882 -1.00949 0.869373 0.873279 -0.246541 -0.118518 0.155585 -0.940257 1.29456 0.91839 -0.192577 0.541638 1.14813 0.566876 -0.0754457 0.768623 0.278783 0.74349 -0.00465725 -0.865613 0.155107 0.28455 0.991126 0.805267 0.266601 -0.499796 -1.444 0.912775 0.0834461 0.342865 0.0354746 -0.528855 -0.81942 0.0973166 0.618575 -0.205735 1.21312 0.00594654 -0.400762 0.0774637 0.26416 -0.110517 -0.351258 0.0442034 0.400201 -0.0175536 -0.0439168 0.759808 0.0896755 0.153592 0.266447 -0.0901463 0.430481 -0.107208 0.226986 -0.694444 0.409142 -0.59449 -0.574323 -0.238345 -0.622 0.773176 -0.268181
631 -0.440764 0.328439 -1.24984 1.05967 0.924929 -0.19413 -0.418609 0.098652 -1.35851 1.08042 0.688863 -0.637421 0.577315 1.10828 0.524572 0.172982 0.0349803 0.413815 0.772208 -0.370787 -1.07233 0.477779 0.292811 1.11128 0.735053 0.310538 -0.625545 -1.714 0.916654 -0.00580016 0.67589 0.300077 -0.193005 -0.912405 0.0628543 0.235927 0.32958 1.23991 -0.378556 -0.328742 0.134824 0.0122116 -0.0715144 -0.174564 -0.304101 0.482105 0.243368 0.164278 0.644575 -0.0865463 0.169023 0.526722 -0.00133161 0.542284 -0.055534 0.488537 -0.181728 0.0881678 -0.407827 -0.185083 -0.303464 -0.527564 0.320413 -0.357966
741 -0.350243 0.128604 -1.26082 1.19448 0.74113 -0.242279 -0.409626 0.141258 -0.990538 0.959627 0.56966 -0.592274 0.510982 1.02124 0.49483 0.103995 0.234509 0.417144 0.578181 -0.242368 -0.826356 0.583713 0.177007 1.03413 0.876627 0.265168 -0.332703 -1.60015 1.00416 -0.551275 0.565816 0.448405 -0.177008 -0.797862 0.0671013 0.273306 0.325063 0.902133 -0.517993 -0.379 0.0466957 -0.0812352 -0.303528 -0.253145 -0.219408 0.237552 0.0885823 0.0900517 0.724384 -0.0509087 0.250311 0.462453 0.0730415 0.305239 -0.0915674 0.340778 -0.215838 0.107656 -0.458551 -0.292864 -0.240349 -0.567568 0.614771 -0.276591
245 -0.313573 0.179204 -1.28717 1.21322 0.842686 -0.359779 -0.357978 0.0714688 -1.07984 1.00689 0.651615 -0.666187 0.584586 1.17331 0.544079 0.0791116 0.237496 0.430491 0.623001 -0.278992 -0.878349 0.607487 0.19807 1.00965 0.903244 0.209941 -0.386886 -1.72911 1.0998 -0.561351 0.68421 0.549556 -0.180996 -0.796815 0.0876202 0.295987 0.281257 0.924398 -0.49368 -0.441078 0.0219196 -0.10602 -0.297367 -0.255938 -0.185981 0.279112 0.0972931 0.0554234 0.751146 -0.0400856 0.325107 0.476027 0.0825353 0.332061 -0.207368 0.401297 -0.218529 0.0785428 -0.494707 -0.300589 -0.289067 -0.553651 0.691246 -0.308962
320 -0.330526 0.103072 -1.23377 1.14379 0.770742 -0.255721 -0.402978 0.0790275 -1.02501 0.956214 0.594486 -0.592054 0.561154 1.08298 0.529814 0.118065 0.276426 0.416161 0.505285 -0.261171 -0.822054 0.574397 0.0993065 1.00611 0.9223 0.228437 -0.282634 -1.63642 1.02363 -0.543892 0.590337 0.396202 -0.193001 -0.744635 0.0604279 0.26309 0.303058 0.870415 -0.474953 -0.398335 0.0735411 -0.0730701 -0.250154 -0.306191 -0.254282 0.280756 0.124748 0.0528936 0.686914 0.015675 0.297258 0.474856 0.0249921 0.393125 -0.159563 0.384543 -0.256757 0.0970555 -0.555751 -0.254207 -0.235231 -0.592941 0.624725 -0.32157
404 -0.277901 0.593697 -1.16643 0.98731 0.741419 -0.161987 -0.629064 -0.0285913 -1.05642 1.23664 0.623358 -0.609066 0.643941 1.2777 0.496436 -0.211862 0.0814837 0.587348 0.858059 -0.42499 -0.904567 0.431954 0.388488 1.10821 0.963915 0.65578 -0.393945 -1.70115 0.712505 -0.0383628 0.824355 0.19177 -0.22798 -1.05934 0.165638 -0.0857602 0.200987 1.01611 -0.421893 -0.50239 -0.107333 -0.0951748 -0.0339913 -0.0763576 -0.140278 0.54312 0.349886 0.327641 0.950059 -0.52421 0.101391 0.901426 0.338631 0.473929 0.0879346 0.214984 -0.234422 0.191606 -0.296473 -0.276826 -0.0684769 -0.633283 0.282728 -0.292171
401 -0.313921 0.645511 -1.23264 0.967356 0.746911 -0.277935 -0.503591 -0.132748 -1.06219 1.28768 0.646041 -0.531026 0.715364 1.43209 0.54868 -0.343048 0.194332 0.5594 0.873903 -0.532888 -0.964378 0.414948 0.400084 1.07971 0.905982 0.732693 -0.44503 -1.68688 0.710813 0.0679721 0.848794 0.162278 -0.247774 -0.992874 0.164278 -0.0994351 0.0821737 0.998736 -0.380334 -0.520869 -0.102551 -0.101899 0.0469038 -0.0194463 -0.0383793 0.545565 0.24616 0.368022 0.971763 -0.606444 0.115203 0.950253 0.388414 0.463999 0.163696 0.137715 -0.412 0.232059 -0.291004 -0.264944 -0.195422 -0.667965 0.403891 -0.314581
400 -0.258086 0.657649 -1.13229 0.957186 0.755478 -0.227696 -0.58387 -0.149561 -1.02849 1.18689 0.598587 -0.581882 0.682287 1.32072 0.497448 -0.316846 0.129868 0.553293 0.829735 -0.530112 -0.873235 0.486144 0.387391 1.14835 0.864787 0.737297 -0.407578 -1.66299 0.598613 0.0280601 0.817036 0.184444 -0.227675 -0.967264 0.0946014 -0.141654 0.120433 0.959073 -0.432836 -0.490646 -0.160079 -0.159665 0.10229 0.040361 -0.0538606 0.518845 0.230326 0.360256 0.943031 -0.572174 0.134626 0.937764 0.381806 0.471794 0.147694 0.16318 -0.315771 0.208046 -0.262286 -0.247742 -0.182361 -0.676414 0.275735 -0.286717
3185 -0.224431 0.678431 -1.18849 1.0049 0.802658 -0.249399 -0.515586 -0.193232 -0.920849 1.15441 0.584129 -0.358049 0.62252 1.24388 0.554849 -0.360597 0.224659 0.604691 0.971613 -0.545111 -0.749894 0.614233 0.36093 1.06069 0.824937 0.642955 -0.521129 -1.73652 0.706132 0.0713015 0.835618 0.171764 -0.18334 -0.997653 0.160677 0.0541353 0.0365233 0.990011 -0.345622 -0.532357 -0.25607 -0.300788 0.0591929 0.163031 0.0017316 0.488338 0.17224 0.392107 0.954717 -0.541921 -0.0127191 0.854107 0.321475 0.342712 0.124037 0.14339 -0.422865 0.217095 -0.173456 -0.332551 -0.304057 -0.688656 0.366336 -0.196071
403 -0.266224 0.597772 -1.12434 0.841189 0.715462 -0.173143 -0.489099 -0.116988 -1.02855 1.11255 0.550343 -0.524157 0.607376 1.28562 0.486229 -0.31067 0.14807 0.567056 0.822426 -0.502327 -0.838962 0.428265 0.350148 1.02181 0.865969 0.653475 -0.378645 -1.58 0.628336 0.0574088 0.786668 0.140717 -0.19271 -0.938793 0.169195 -0.081913 0.0771102 0.917438 -0.344463 -0.477913 -0.0924849 -0.0790875 0.0129262 -0.0285688 -0.0958873 0.522201 0.268451 0.362241 0.954416 -0.52473 0.0929601 0.882526 0.353338 0.470552 0.113238 0.11481 -0.316817 0.200312 -0.311173 -0.229529 -0.111651 -0.575844 0.321479 -0.276913
916 -0.608092 0.426251 -1.61503 0.960561 0.507105 -0.380844 -0.257765 -0.0585464 -0.995219 1.20522 0.738214 -0.401468 0.499158 1.48566 0.523799 -0.35981 0.430365 0.497984 0.898422 -0.472184 -1.08574 0.177827 0.41839 1.20285 0.968183 0.51541 -0.527026 -1.56564 0.935446 0.0265043 0.699403 0.318146 -0.305338 -0.988332 0.19578 -0.0354241 0.165143 0.801042 -0.234587 -0.571526 0.0962288 0.10942 -0.0546846 -0.249281 -0.0490658 0.527135 0.185762 0.34093 1.02446 -0.405727 0.0966241 0.751317 0.238362 0.340577 0.0495163 0.144457 -0.669733 0.320476 -0.354268 -0.171834 -0.253071 -0.695899 0.80049 -0.398142
661 -0.712158 0.402138 -1.73666 0.994981 0.54615 -0.454031 -0.121001 -0.0782806 -1.06274 1.17978 0.778101 -0.545516 0.495161 1.51787 0.51757 -0.0675695 0.565665 0.443665 0.91393 -0.21663 -0.993132 0.146729 0.413143 1.11759 0.728051 0.319042 -0.557862 -1.55277 0.987122 -0.102836 0.78629 0.397099 -0.293828 -0.929656 0.155508 0.253535 0.170603 0.685646 -0.209984 -0.545222 0.202466 -0.0935598 -0.154508 -0.321366 -0.1634 0.449886 0.205021 0.117069 0.964527 -0.259326 0.0907562 0.621459 0.283339 0.342942 -0.127269 0.252607 -0.610546 0.255074 -0.352828 -0.29325 -0.227149 -0.497879 1.09999 -0.463181
718 -0.475277 0.268741 -1.33044 0.968197 0.370945 -0.315819 -0.229267 0.0190559 -0.839311 1.15106 0.623395 -0.631944 0.465214 1.24244 0.379151 -0.0329509 0.536601 0.678459 0.892966 -0.227522 -0.916728 0.321393 0.303938 1.03313 0.789278 0.211852 -0.515709 -1.39634 1.16062 -0.268099 0.67987 0.475363 -0.251701 -0.870567 0.150696 0.438395 0.344588 0.67871 -0.27523 -0.375622 0.0864115 -0.140881 -0.16623 -0.266896 -0.168091 0.275565 0.162639 0.0947496 0.975281 -0.123418 0.146022 0.505819 0.123024 0.281809 -0.201469 0.358599 -0.389159 0.236261 -0.388156 -0.276863 -0.074991 -0.363085 0.840155 -0.425278
1913 -0.171764 0.551547 -1.61734 1.16346 0.851983 0.0107949 -0.307719 -0.0702256 -0.69958 0.700558 1.48762 -0.642743 0.950098 0.539695 -0.547352 -0.438294 0.485667 0.322693 0.787173 -0.0848762 -0.52098 0.203664 0.389338 0.759981 1.23725 0.291686 -0.636232 -1.11361 1.79483 -0.627053 -0.150707 0.869234 -0.268841 -1.20178 -0.0629394 0.23759 0.482296 1.09726 -0.699026 -0.956998 0.388346 -0.274887 0.437829 -0.750827 0.453947 0.707037 -0.433495 0.176505 1.22425 -0.0700317 -0.0871618 0.0012354 0.041612 0.397937 0.732039 0.823709 -0.774724 0.212726 -0.158743 0.142713 -0.467909 -0.531483 0.700641 -0.840718
2142 -0.187446 0.563809 -1.63018 1.17194 0.844392 0.0117156 -0.328306 -0.0919447 -0.683363 0.700768 1.4803 -0.635844 0.942176 0.533555 -0.558341 -0.441297 0.507087 0.322726 0.789384 -0.105303 -0.536676 0.206272 0.394327 0.763593 1.25435 0.275574 -0.65005 -1.13351 1.812 -0.618207 -0.141485 0.863045 -0.27828 -1.21023 -0.0562581 0.254481 0.477131 1.0734 -0.725956 -0.940907 0.408133 -0.267179 0.452566 -0.744485 0.468915 0.708899 -0.428018 0.201233 1.2335 -0.0878661 -0.085782 0.00812429 0.03605 0.410127 0.739695 0.834187 -0.79613 0.208717 -0.171847 0.159025 -0.458232 -0.524094 0.697017 -0.836681
1680 -0.119083 0.0933044 -1.18581 0.937303 0.561604 -0.362422 -0.255673 -0.252816 -0.936167 1.18418 0.69202 -0.50669 0.82297 1.35583 0.187372 0.0105395 0.847987 0.442728 0.853216 -0.503981 -1.25888 0.932077 0.412657 0.958294 0.165396 0.285097 -0.773275 -2.07093 0.621634 -0.717888 0.50906 0.320357 -0.196741 -0.68291 0.221385 0.116418 0.0101097 0.705715 -0.393025 0.0798026 0.411802 -0.193811 -0.0489186 -0.458545 -0.356683 0.241679 -0.137547 0.250023 1.5416 -0.340911 -0.0573032 0.153711 -0.189942 0.490964 0.111688 0.53424 -0.704298 0.245043 -0.609616 0.0471425 -0.33575 -0.296368 0.576052 -0.218926
1014 -0.128748 0.155265 -1.15802 1.01384 0.537711 -0.413034 -0.305278 -0.276964 -0.976399 1.21203 0.678885 -0.426073 0.75096 1.43193 0.133747 -0.0746984 0.794788 0.42935 0.842406 -0.579682 -1.36084 0.888716 0.40202 0.922835 0.260274 0.298791 -0.858216 -2.16722 0.540278 -0.645241 0.526872 0.210564 -0.212641 -0.599242 0.248425 0.0705958 -0.0392789 0.584647 -0.437239 0.125807 0.438192 -0.199897 -0.101006 -0.449716 -0.279363 0.157116 -0.169387 0.187786 1.54238 -0.230946 -0.0769096 0.115046 -0.0659108 0.466317 0.15144 0.565498 -0.700373 0.191464 -0.63966 0.0217872 -0.244939 -0.31422 0.373499 -0.206954
1744 -0.109287 0.145539 -1.22266 1.04424 0.600746 -0.424205 -0.312246 -0.305659 -0.999979 1.25304 0.705419 -0.458412 0.795845 1.51463 0.138594 -0.0537933 0.885359 0.462037 0.894262 -0.597114 -1.4163 0.928135 0.417911 0.983975 0.28515 0.305433 -0.879476 -2.26948 0.554718 -0.688993 0.565339 0.230949 -0.248301 -0.650772 0.240042 0.0850759 -0.0393735 0.616595 -0.447274 0.132667 0.45578 -0.196624 -0.0988902 -0.459937 -0.316963 0.167907 -0.170844 0.202749 1.63595 -0.259673 -0.0833138 0.105341 -0.0840093 0.519287 0.149484 0.600787 -0.739886 0.209751 -0.681696 0.028672 -0.274622 -0.344014 0.411115 -0.212091
1380 -0.140351 0.171867 -1.23326 1.03627 0.605654 -0.430671 -0.295341 -0.313254 -0.993995 1.26526 0.707361 -0.454569 0.794225 1.51046 0.17668 -0.0735007 0.834247 0.462269 0.862306 -0.553211 -1.39143 0.894714 0.408201 1.00284 0.298591 0.299688 -0.855155 -2.23218 0.589957 -0.642384 0.563406 0.234011 -0.210338 -0.664098 0.248303 0.101567 -0.0510846 0.655027 -0.43696 0.0914437 0.433316 -0.215725 -0.102861 -0.452167 -0.280453 0.19415 -0.155876 0.178943 1.58273 -0.259155 -0.0822013 0.142158 -0.102229 0.503563 0.156869 0.580808 -0.721822 0.215035 -0.694301 -0.00277387 -0.278231 -0.324939 0.431253 -0.226787
1059 -0.11902 0.104336 -1.17689 0.953481 0.549104 -0.382558 -0.287192 -0.257444 -0.955953 1.1922 0.659385 -0.429292 0.78698 1.41106 0.161316 -0.0522694 0.801133 0.429135 0.848837 -0.536626 -1.29418 0.90421 0.409092 0.938001 0.23139 0.287853 -0.796566 -2.10315 0.535845 -0.644684 0.513907 0.256371 -0.219002 -0.610365 0.239723 0.0853146 -0.0511612 0.597956 -0.426136 0.0852073 0.432574 -0.191615 -0.0823762 -0.445564 -0.327704 0.193432 -0.148737 0.195104 1.51783 -0.270941 -0.0764635 0.120538 -0.108998 0.471595 0.130352 0.547242 -0.703272 0.210648 -0.618818 0.0280347 -0.277411 -0.312022 0.444504 -0.184288
1731 -0.346145 -0.190396 -1.4832 0.918752 0.811099 -0.236574 -0.141697 -0.159127 -1.00935 1.31162 1.01582 -0.831508 1.23193 1.39649 0.450749 0.124457 1.12339 0.47399 1.01941 -0.265205 -1.03959 1.08867 0.501045 1.27842 0.171428 0.331396 -0.531579 -1.92698 1.12029 -0.835287 0.535898 0.574055 -0.174152 -1.07182 0.154199 0.316653 0.241058 1.22526 -0.300577 -0.288034 0.220235 -0.131808 0.0436851 -0.396376 -0.460272 0.460683 -0.0185002 0.341396 1.3976 -0.471518 0.0724798 0.340559 -0.523609 0.612724 -0.0802746 0.418232 -0.77578 0.369589 -0.553025 -0.0328763 -0.678794 -0.548911 1.32745 -0.477126
1736 -0.365031 -0.151105 -1.31631 0.847007 0.776151 -0.166801 -0.178199 -0.107438 -0.881961 1.19758 0.919783 -0.783857 1.02935 1.16227 0.478075 0.174538 1.04513 0.440522 0.941625 -0.189196 -0.881194 0.976149 0.431842 1.17569 0.132255 0.2926 -0.402827 -1.66981 1.11771 -0.85658 0.452345 0.528026 -0.170352 -1.0652 0.139793 0.364214 0.308313 1.18039 -0.19239 -0.325197 0.244895 -0.0686306 0.0326177 -0.416264 -0.513545 0.523187 0.0949493 0.364065 1.24619 -0.479788 0.0859783 0.352915 -0.498941 0.548762 -0.0862131 0.347703 -0.662564 0.378586 -0.465261 0.00071915 -0.663398 -0.548153 1.3072 -0.45393
1406 -0.376765 -0.143689 -1.34384 0.909382 0.78147 -0.193532 -0.221527 -0.118449 -0.924169 1.25057 0.944207 -0.772524 1.03726 1.20412 0.485778 0.179387 1.06051 0.442315 0.970682 -0.228283 -0.952818 0.988499 0.452252 1.22646 0.146032 0.300795 -0.442384 -1.79589 1.17914 -0.910754 0.489157 0.541608 -0.175525 -1.09729 0.166042 0.347652 0.290455 1.21396 -0.242898 -0.322522 0.279128 -0.0949933 0.036524 -0.464616 -0.523141 0.528822 0.0594972 0.368674 1.28113 -0.479156 0.0468248 0.362877 -0.523978 0.569089 -0.0530894 0.368422 -0.745785 0.396146 -0.496501 -0.0155721 -0.721535 -0.576034 1.32271 -0.492698
1657 -0.393557 -0.171956 -1.39448 0.941285 0.818821 -0.176887 -0.188741 -0.130859 -0.962093 1.28123 1.00033 -0.78705 1.07679 1.26827 0.471589 0.189697 1.12012 0.493982 1.04501 -0.219622 -0.973951 1.05317 0.490628 1.27503 0.150834 0.319607 -0.467134 -1.84475 1.15782 -0.925547 0.481898 0.570492 -0.185233 -1.13964 0.165665 0.398687 0.307295 1.27468 -0.245028 -0.322285 0.278957 -0.109897 0.01382 -0.436897 -0.516511 0.532438 0.0726085 0.381388 1.33058 -0.505414 0.0719646 0.386626 -0.538707 0.592621 -0.0654748 0.376757 -0.733843 0.40062 -0.510284 -0.024475 -0.694919 -0.594119 1.34902 -0.506488
1080 -0.262278 -0.14251 -1.13321 0.749255 0.65583 -0.13787 -0.138536 -0.0807891 -0.755749 1.07424 0.776057 -0.663085 0.894791 0.989254 0.38933 0.10912 0.872855 0.401093 0.796232 -0.180152 -0.791594 0.850256 0.368513 0.997571 0.064188 0.244961 -0.385337 -1.47491 0.925042 -0.756564 0.372225 0.454988 -0.150973 -0.886995 0.112383 0.280289 0.2698 1.01709 -0.18531 -0.227386 0.223732 -0.0745834 0.0209648 -0.378344 -0.431694 0.423351 0.0542151 0.300177 1.09742 -0.398428 0.0513467 0.304606 -0.449361 0.452437 -0.0810765 0.298392 -0.576107 0.288457 -0.422096 -0.000928686 -0.552556 -0.431108 1.10073 -0.375159
1732 -0.195677 -0.122718 -0.95189 0.64558 0.56009 -0.132803 -0.131762 -0.0747278 -0.618628 0.842775 0.643414 -0.570122 0.788466 0.827173 0.286573 0.0930931 0.793144 0.336839 0.685407 -0.167665 -0.709797 0.741436 0.309628 0.845326 -0.0150313 0.206021 -0.369037 -1.30884 0.72607 -0.663075 0.317069 0.395095 -0.135005 -0.69333 0.124086 0.231571 0.193344 0.827164 -0.203325 -0.125949 0.222335 -0.0708174 -0.00465392 -0.331929 -0.405042 0.336277 0.0357708 0.239037 0.980936 -0.335927 0.0807778 0.222721 -0.370644 0.388789 -0.0734169 0.28791 -0.499513 0.252547 -0.353608 0.0365663 -0.443171 -0.323388 0.855323 -0.331809
1737 -0.355873 -0.177542 -1.25624 0.807137 0.764585 -0.153166 -0.162357 -0.102961 -0.851343 1.16242 0.894508 -0.779826 0.992793 1.11386 0.465754 0.165526 0.997139 0.421533 0.899236 -0.16387 -0.853913 0.934197 0.416632 1.14824 0.117495 0.271205 -0.386208 -1.60272 1.08194 -0.835233 0.437001 0.509089 -0.169835 -1.03228 0.14711 0.363095 0.305716 1.18662 -0.195131 -0.31392 0.231511 -0.0672807 0.0197067 -0.397584 -0.473868 0.49882 0.0694705 0.338921 1.18646 -0.4622 0.0883741 0.367028 -0.509373 0.546039 -0.118555 0.308018 -0.647625 0.368125 -0.459744 2.12692e-05 -0.650922 -0.526865 1.29728 -0.479612
1584 -0.242677 -0.0924906 -1.07099 0.702553 0.603838 -0.153142 -0.146446 -0.0893382 -0.722259 0.971087 0.709449 -0.63461 0.848024 0.966748 0.334167 0.126959 0.831439 0.362581 0.765695 -0.187252 -0.761956 0.837711 0.331264 0.946888 0.023923 0.244231 -0.398577 -1.45245 0.808769 -0.708137 0.358459 0.453751 -0.1418 -0.804056 0.088917 0.237005 0.221632 0.924005 -0.198753 -0.178775 0.22477 -0.0915909 0.0053478 -0.340386 -0.404792 0.393821 0.0404648 0.296777 1.06011 -0.383571 0.0282273 0.260756 -0.414826 0.430268 -0.0840731 0.307573 -0.545543 0.270674 -0.397196 -0.000197832 -0.50322 -0.372117 0.958291 -0.325057
1735 -0.326907 -0.167549 -1.28359 0.825658 0.748611 -0.131414 -0.174341 -0.11283 -0.913299 1.1899 0.90282 -0.777571 1.03433 1.15759 0.456145 0.176272 1.05905 0.452452 0.953762 -0.185367 -0.909601 1.00335 0.465679 1.1658 0.109191 0.294516 -0.40625 -1.6885 1.08299 -0.860595 0.448608 0.554788 -0.161465 -1.04644 0.138004 0.34686 0.320476 1.22021 -0.209065 -0.287163 0.27812 -0.0643951 -0.00323432 -0.438087 -0.513773 0.513557 0.0920823 0.369286 1.26583 -0.499439 0.0545883 0.358509 -0.527618 0.566686 -0.0781791 0.341708 -0.686506 0.356227 -0.47242 -0.013373 -0.666725 -0.535117 1.28199 -0.470706
1985 -0.180647 -0.0932132 -1.00695 0.678176 0.564105 -0.134278 -0.126603 -0.120479 -0.660331 0.916291 0.652343 -0.56764 0.764514 0.923323 0.279457 0.107771 0.773243 0.365648 0.695605 -0.192136 -0.763084 0.749574 0.321284 0.835198 -0.0112513 0.194733 -0.413169 -1.3829 0.723394 -0.677646 0.353475 0.397201 -0.142517 -0.723561 0.11457 0.218827 0.200233 0.827138 -0.200689 -0.113096 0.251757 -0.0732172 -0.012163 -0.328306 -0.402927 0.343826 0.0341887 0.268236 1.06349 -0.348901 0.0364432 0.221886 -0.372703 0.389285 -0.0532757 0.311036 -0.526061 0.244021 -0.4186 0.0113731 -0.422772 -0.30665 0.855599 -0.30244
1469 -0.262063 0.255344 -1.18068 0.937956 0.889805 -0.0641457 -0.503867 -0.224087 -0.846467 0.942229 0.628245 -0.582872 0.296095 0.821158 0.438575 -0.0573571 0.570053 0.583922 0.475672 -0.0299316 -0.525148 0.309936 0.147469 1.09246 0.717428 0.127557 -0.197942 -1.17151 0.534602 -0.0162525 0.481784 -0.0670623 0.209859 -0.570129 0.0690054 0.298889 0.141227 0.611267 0.00843268 -0.199195 -0.0973284 0.0517072 -0.235875 -0.096277 -0.156676 0.218042 0.296514 0.0428688 0.839937 -0.141553 -0.0323148 0.312753 -0.375475 0.194357 0.081641 0.0739943 -0.341369 0.301859 -0.573327 -0.175979 -0.416214 -0.394687 0.607566 -0.261177
1678 -0.183874 0.43936 -1.28868 1.11273 0.805775 -0.0813743 -0.589753 -0.100961 -0.892856 0.86201 0.559273 -0.619557 0.217036 0.936148 0.561647 0.0684776 0.641042 0.763183 0.516555 -0.215263 -0.472383 0.252673 0.311715 1.3037 0.641354 0.178042 -0.216126 -1.23179 0.633695 -0.0937688 0.534139 -0.0588615 0.136171 -0.632737 0.0447494 0.286035 0.294127 0.730271 -0.114297 -0.229847 0.0283652 -0.100889 -0.0844548 -0.0847242 -0.104034 0.21224 0.231539 -0.0432578 0.945493 -0.177629 -0.168934 0.200197 -0.399585 0.0578436 0.128474 0.0741467 -0.225 0.321005 -0.539889 -0.24797 -0.552591 -0.235812 0.603831 -0.295882
1850 -0.272014 0.425123 -1.12618 1.11245 0.730116 -0.272733 -0.483173 0.0175469 -0.825114 0.745692 0.591006 -0.564835 0.344736 1.02423 0.539704 0.0644678 0.577247 0.655311 0.6748 -0.281543 -0.363448 0.376413 0.30755 1.34051 0.68211 0.297317 -0.176585 -1.20055 0.748298 -0.418731 0.542346 -0.222496 0.163396 -0.55514 0.0349298 0.372023 0.391092 0.767342 -0.273535 -0.188078 0.110987 -0.295923 -0.146397 -0.0396176 -0.0635156 0.00604897 0.0659777 -0.0902421 0.806704 -0.176265 0.063987 0.19906 -0.208411 0.0530833 0.0687556 0.162108 -0.01583 0.289138 -0.556418 -0.382974 -0.544754 -0.349037 0.645444 -0.526179
88 -0.144816 0.563897 -1.09692 0.914723 0.976758 -0.250049 -0.404263 0.0697619 -0.862446 0.692598 0.533298 -0.668156 0.250497 1.12474 0.510644 0.131988 0.433234 0.514047 0.668823 -0.208358 -0.653858 0.191434 0.0893658 1.40464 0.476603 0.153247 -0.220586 -1.18471 0.776877 -0.203733 0.546727 -0.00496367 -0.115292 -0.783813 -0.00893133 0.372657 0.317418 0.614116 -0.15775 -0.238323 0.290866 -0.114767 -0.0948543 -0.0569264 0.0814086 0.232161 0.177126 -0.043251 0.901421 0.0309856 -0.0567146 0.195899 -0.209751 0.0376457 0.149757 0.178474 -0.290701 0.38267 -0.401604 -0.312017 -0.368309 -0.375692 0.593506 -0.444456
483 -0.258242 0.216384 -1.21855 1.13208 0.886047 -0.455249 -0.290158 -0.211565 -0.757882 0.891703 0.674446 -0.312054 0.561872 1.35031 0.468881 -0.0926678 0.724314 0.493094 0.793627 -0.173266 -0.597416 0.479126 0.279236 1.06117 0.678577 0.151636 -0.289335 -1.14603 0.768146 -0.211094 0.685686 0.13604 -0.234173 -0.693859 0.280591 0.366213 0.341258 0.568615 -0.0268258 -0.3393 0.0868775 -0.0432741 -0.0886856 -0.0857275 0.105997 0.19086 -0.098832 0.281275 0.503694 -0.206408 -0.123946 0.0823589 -0.0788051 0.180474 0.0374831 0.321231 -0.462626 0.0649433 -0.217457 -0.238675 -0.309617 -0.483935 0.476266 -0.150656
275 -0.621859 0.0713924 -1.17106 1.07136 0.852007 -0.37988 -0.449916 -0.343457 -0.638449 1.15843 0.652609 -0.415124 0.505926 1.08036 0.397013 -0.131388 0.470018 0.362268 0.615227 -0.196446 -0.838506 0.505319 -0.0138301 1.0233 0.629951 0.268565 -0.44351 -1.12232 0.814399 -0.218917 0.432392 -0.042681 -0.130914 -0.69181 0.0520773 0.252648 0.124902 0.642106 -0.117231 -0.281268 0.086091 -0.0356909 -0.191388 -0.23302 -0.123141 0.23007 0.119089 0.0596358 0.645315 -0.0841832 0.0617427 0.232816 -0.0268194 0.425742 0.0506195 0.127776 -0.311154 0.065399 -0.336803 0.00725234 -0.269376 -0.481438 0.626037 -0.440498
422 -0.626286 0.0488861 -1.01798 0.896799 0.879096 -0.364182 -0.387756 -0.549042 -0.664498 1.1658 0.857194 -0.422868 0.426281 0.998538 0.557879 -0.129397 0.629217 0.475322 0.579519 -0.123721 -0.861971 0.478486 0.231066 1.09742 0.67027 0.341097 -0.351571 -1.14197 0.763368 -0.280305 0.175866 0.1983 -0.0799076 -0.753483 -0.0267464 0.192574 -0.101744 0.749263 -0.215526 -0.287309 0.00268474 -0.0479067 -0.143679 -0.294016 -0.229732 0.272751 0.110415 0.13989 0.752634 -0.0799928 0.0249053 0.0771263 0.0238535 0.487979 -0.03367 0.111705 -0.283777 0.110762 -0.369639 0.143787 -0.204561 -0.47879 0.579888 -0.438574
714 -0.514502 0.199963 -1.00206 0.978365 0.857054 -0.373356 -0.449059 -0.246898 -0.554801 1.08099 0.748359 -0.314656 0.510478 0.950112 0.443264 -0.255365 0.567802 0.486709 0.570878 -0.275014 -0.714948 0.448918 0.00535253 1.02603 0.785441 0.279877 -0.476515 -1.2295 0.922497 -0.31913 0.251041 -0.0313425 -0.21095 -0.782254 -0.0299502 0.286337 0.206447 0.701395 -0.286695 -0.194506 0.210887 -0.0544699 -0.159221 -0.182798 -0.0362176 0.288275 0.16158 0.0578569 0.692782 -0.070972 0.034875 0.222864 0.127281 0.457241 -0.0163119 0.11892 -0.383705 0.0510917 -0.244331 -0.0532722 -0.360651 -0.646232 0.676656 -0.478028
998 -0.547567 0.0282939 -1.04378 0.906481 0.814 -0.428363 -0.361612 -0.280256 -0.580008 1.28803 0.779334 -0.347184 0.508413 0.99223 0.45671 -0.217557 0.490858 0.436562 0.568497 -0.272198 -0.849825 0.413781 0.0893842 1.03058 0.741676 0.179173 -0.36177 -1.25651 0.960912 -0.359611 0.214228 0.0839846 -0.215539 -0.756564 0.0721973 0.25232 0.128756 0.746631 -0.189633 -0.223398 0.100323 -0.0375063 -0.0559444 -0.213032 -0.0341258 0.409313 0.143467 0.0812138 0.66584 0.00372619 0.118481 0.276257 0.0815089 0.444784 0.0554065 0.217818 -0.280476 0.100106 -0.219089 0.0753917 -0.28331 -0.623072 0.604482 -0.378012
1000 -0.351848 0.072786 -0.945829 0.789642 0.72213 -0.409833 -0.402951 -0.344302 -0.521487 1.08756 0.741304 -0.293043 0.497993 1.04417 0.36846 -0.229386 0.672205 0.36164 0.526322 -0.261975 -0.8172 0.434728 0.152837 1.09869 0.735071 0.174708 -0.390245 -1.06986 0.903562 -0.229543 0.318092 0.124107 -0.234788 -0.667824 0.131498 0.358412 0.157252 0.748951 -0.147467 -0.248434 0.0199629 -0.0332913 -0.159488 -0.226739 -0.111085 0.361157 0.108893 0.0458542 0.654138 0.0178259 0.161932 0.314842 0.114704 0.603459 -0.012078 0.10954 -0.377639 0.0851567 -0.26356 0.0927678 -0.229602 -0.581887 0.583109 -0.561025
265 -0.561767 0.150143 -0.593818 0.938768 0.932527 -0.653907 -0.150534 -0.393918 -0.963124 0.861683 0.644509 -0.446686 0.257228 1.11716 0.721181 0.265661 0.524796 0.58943 0.722899 -0.205533 -1.0866 0.377122 0.45749 1.20558 0.853027 0.498562 -0.169355 -1.26647 0.854229 -0.479057 0.355158 0.0870241 -0.296914 -0.772501 -0.0603542 0.250424 0.215585 0.611119 -0.456771 -0.686287 0.254557 -0.204586 0.141328 -0.523585 -0.248976 0.218163 0.3904 0.0148509 0.836325 -0.223868 -0.0993739 0.290458 0.107891 0.454836 -0.130137 0.414986 -0.465091 0.108961 -0.349672 -0.132187 -0.292902 -0.333001 0.733565 -0.277457
276 -0.53752 0.0925753 -0.600235 1.00505 0.982455 -0.536819 -0.130525 -0.321118 -0.886795 0.996759 0.780186 -0.428248 0.293677 1.16185 0.819768 0.244097 0.675062 0.612016 0.768714 -0.131072 -1.1202 0.469059 0.589378 1.16244 0.882658 0.542971 -0.134977 -1.39042 0.8831 -0.453516 0.503715 0.145243 -0.196513 -0.934186 -0.0406925 0.16393 0.166997 0.611798 -0.41592 -0.788725 0.276991 -0.290886 0.172327 -0.539228 -0.331986 0.242141 0.412379 0.0725161 0.884574 -0.188725 -0.0695695 0.203928 0.139496 0.428856 0.00326563 0.528129 -0.400997 0.152032 -0.396028 -0.10715 -0.328208 -0.234217 0.694372 -0.177284
25 -0.593856 0.149466 -0.523296 0.937368 0.853486 -0.49674 -0.160361 -0.394225 -0.904978 0.832412 0.681992 -0.348808 0.234238 1.01799 0.754444 0.241494 0.714189 0.703432 0.777736 -0.112795 -1.03494 0.445225 0.46815 1.13615 0.902544 0.416517 -0.152674 -1.34032 0.901839 -0.461715 0.383924 0.103454 -0.195907 -0.832045 -0.0927854 0.16297 0.167371 0.621053 -0.371209 -0.616446 0.261923 -0.239805 0.1492 -0.464448 -0.30279 0.283333 0.383668 0.0555538 0.890295 -0.202683 -0.0724246 0.239483 0.076794 0.425502 -0.0440123 0.439949 -0.377916 0.147519 -0.364148 -0.14232 -0.315236 -0.249568 0.660022 -0.206675
502 -0.539162 0.190784 -0.431992 0.798795 0.788599 -0.46642 -0.143771 -0.338973 -0.735877 0.847898 0.57428 -0.295783 0.280894 1.0093 0.660953 0.137063 0.615096 0.604056 0.786995 -0.148534 -0.973091 0.469756 0.382748 1.09469 0.787045 0.414135 -0.166172 -1.17663 0.777599 -0.397164 0.396524 0.151244 -0.209317 -0.733948 -0.0656642 0.178681 0.0899867 0.549769 -0.286534 -0.611002 0.346188 -0.119793 0.0776316 -0.378953 -0.182955 0.202486 0.362698 0.164035 0.853651 -0.232925 -0.0638693 0.251716 0.113857 0.327555 0.0578636 0.435904 -0.433734 0.115995 -0.316106 -0.17241 -0.250199 -0.321357 0.586573 -0.171687
372 -0.577434 0.146549 -0.610256 1.01425 0.945672 -0.557254 -0.192033 -0.384325 -0.908843 0.860993 0.626499 -0.413321 0.325563 1.1505 0.724124 0.310774 0.691035 0.706709 0.821038 -0.142503 -1.15792 0.420761 0.52064 1.19121 0.895386 0.495371 -0.141813 -1.37066 0.840767 -0.480603 0.401366 0.0198372 -0.31404 -0.887577 -0.0890675 0.239505 0.167355 0.611917 -0.460403 -0.683839 0.355666 -0.185554 0.0679667 -0.470452 -0.311965 0.253518 0.453247 0.0406282 0.846226 -0.149595 -0.0458653 0.27152 0.0832252 0.404593 -0.0127022 0.423241 -0.368713 0.164078 -0.391993 -0.110219 -0.42368 -0.316246 0.688572 -0.205917
664 -0.462677 0.0926498 -0.452901 0.646354 0.497386 -0.344728 -0.0920417 -0.341748 -0.573143 0.679939 0.583374 -0.244834 0.204777 0.87064 0.578382 0.0791695 0.38562 0.376005 0.627686 -0.00145292 -0.865128 0.322685 0.302738 0.83983 0.835939 0.263978 -0.0562209 -0.895543 0.613376 -0.399545 0.256665 0.0593043 -0.134059 -0.54646 -0.156681 0.146186 0.171226 0.509873 -0.325821 -0.489362 0.202182 -0.178335 0.105026 -0.331876 -0.236589 0.193957 0.389783 0.104735 0.565854 -0.231725 -0.132157 0.150262 0.0755423 0.35475 -0.100858 0.348147 -0.343812 -0.0455732 -0.285327 -0.194716 -0.232372 -0.231834 0.520662 -0.0723634
338 -0.551095 0.107391 -0.627498 1.04786 0.915692 -0.57276 -0.0514739 -0.428275 -1.00376 0.836695 0.784801 -0.375618 0.308571 1.18224 0.845672 0.264958 0.677608 0.717271 0.815675 -0.123105 -1.12494 0.460258 0.51301 1.19269 0.961792 0.51188 -0.100067 -1.42589 0.811344 -0.519894 0.450818 0.170428 -0.21869 -0.867293 -0.0762658 0.191622 0.070988 0.663283 -0.41289 -0.711235 0.286284 -0.20471 0.0547181 -0.582081 -0.374585 0.170149 0.373227 0.0859839 0.88542 -0.235457 -0.069541 0.232833 0.12121 0.47331 0.0100728 0.411125 -0.362992 0.217579 -0.501644 -0.117179 -0.269255 -0.319892 0.695041 -0.254727
691 -0.428216 0.116398 -1.33339 1.19266 0.866924 -0.414452 -0.432637 0.174414 -1.12071 0.950373 0.875329 -0.429218 0.490445 1.06959 0.559804 0.129562 0.180273 0.225742 0.615186 -0.208116 -0.753039 0.235849 0.337442 0.963777 0.881002 0.381042 -0.392454 -1.56136 1.01278 -0.493225 0.458635 0.415642 -0.288178 -0.961249 0.2891 0.362414 0.288381 1.01887 -0.332175 -0.54791 -0.0325968 -0.0296597 -0.082743 -0.374281 -0.171376 0.25123 0.113228 -0.102452 0.460132 -0.0748284 0.325214 0.504672 -0.154979 0.146634 0.0133774 0.563458 -0.432299 0.263543 -0.407803 -0.290903 -0.194921 -0.665641 0.802666 -0.369703
41 -0.742847 0.23624 -0.845055 0.912988 0.845478 -0.266909 -0.31953 0.0257362 -0.83007 1.26112 0.91345 -0.178027 0.534045 1.0944 0.55534 0.184769 0.795974 0.218477 0.821135 -0.0181449 -0.715762 0.211932 0.373987 0.996082 0.673849 0.371565 -0.57738 -1.31069 0.818844 -0.193416 0.255611 0.162763 -0.425303 -0.838855 -0.0642114 0.555252 0.131607 1.07629 -0.216702 -0.331878 0.0540667 0.141717 -0.153747 -0.196528 0.0485211 0.235694 0.214423 0.189564 0.698367 0.0984075 0.394749 0.37558 -0.0860297 0.294924 -0.157651 0.403976 -0.646986 0.225775 -0.588003 -0.531978 -0.165474 -0.645261 0.705337 -0.23703
144 -0.728548 0.121686 -0.945049 1.05561 0.866043 -0.182811 -0.308956 0.281403 -1.29315 1.31559 0.990665 -0.272442 0.735165 1.16856 0.604233 0.0571237 0.727578 0.367204 0.78655 -0.145825 -0.885297 0.422888 0.235203 1.02556 0.956848 0.167297 -0.566043 -1.51648 0.996664 -0.0252141 0.436702 0.0850993 -0.524521 -0.705245 -0.197865 0.680738 0.0315498 1.45402 -0.148691 -0.245117 0.186902 0.0614175 -0.0752729 -0.360563 -0.0160107 0.276838 -0.0598074 0.124858 0.809876 -0.0181657 0.174008 0.397216 -0.0551638 0.542108 -0.124653 0.261162 -0.595478 0.141521 -0.78122 -0.379536 -0.229331 -0.520321 0.713773 -0.234232
979 -0.588337 0.185936 -1.28637 1.07791 0.986443 -0.255315 -0.520331 0.0538804 -1.0644 1.14614 0.780594 -0.394253 0.335706 1.08356 0.415811 0.0535827 0.355529 0.353814 0.827482 -0.156618 -0.833298 0.347002 0.428552 1.00397 0.77429 0.299043 -0.503411 -1.79819 0.954083 -0.310829 0.506483 0.392815 -0.32485 -0.84113 0.0394035 0.258383 0.375268 1.01968 -0.264315 -0.41962 0.0959541 0.00650117 -0.213365 -0.290274 -0.00793815 0.364553 0.349143 0.181527 0.623619 -0.0313651 0.0532332 0.407572 -0.11157 0.374325 -0.24066 0.628699 -0.335552 0.190279 -0.416315 -0.199027 0.00581727 -0.739576 0.521039 -0.322608
659 -0.658883 0.155197 -1.51438 1.20573 0.775076 -0.2221 -0.309274 0.353757 -1.06842 1.2077 0.56518 -0.476716 0.590941 1.09825 0.513473 0.0496176 0.298364 0.554513 0.838131 -0.261911 -0.870814 0.386289 0.43717 0.953669 1.00847 0.267699 -0.522422 -1.70737 1.23563 -0.359289 0.628408 0.468329 -0.346365 -1.10875 0.0722563 0.430918 0.424562 1.07003 -0.432203 -0.378559 0.0366462 -0.157084 -0.133893 -0.268118 -0.234374 0.133529 0.258007 0.15495 0.66713 -0.0514671 0.103592 0.421989 -0.0393754 0.254233 0.238483 0.194249 -0.375377 0.108594 -0.361982 -0.192222 -0.187332 -0.355664 0.563768 -0.379553
986 -0.473318 0.318268 -1.33497 0.962439 0.924255 -0.278805 -0.374989 -0.0735657 -1.16082 1.07914 0.797414 -0.478573 0.313902 1.1322 0.350745 0.0263194 0.335246 0.459728 0.765515 -0.211023 -0.910977 0.34808 0.4578 1.05116 0.712668 0.410828 -0.588466 -1.81225 1.01699 -0.21526 0.483857 0.326609 -0.272098 -0.913562 0.193739 0.329614 0.565449 1.26204 -0.310174 -0.413897 0.0600659 0.00805968 -0.119517 -0.238807 -0.195558 0.372796 0.231618 0.125005 0.602805 -0.0529435 0.026395 0.496861 -0.243483 0.396473 -0.0759803 0.655093 -0.394004 0.203485 -0.388632 -0.255909 -0.0259938 -0.714932 0.576265 -0.373864
410 -0.630931 0.297679 -1.1151 0.959558 0.755285 -0.249444 -0.142017 0.0322072 -1.2655 1.12878 0.464055 -0.55203 0.782468 1.19289 0.516038 0.0917115 0.532437 0.616124 0.695263 -0.358208 -1.00067 0.651445 0.172704 1.09794 0.854427 0.263744 -0.499052 -1.62983 1.21048 -0.176187 0.661645 0.313064 -0.289342 -0.888461 -0.046118 0.604517 0.206505 1.12727 -0.411943 -0.242489 0.130212 0.00159027 -0.192493 -0.246935 -0.26375 0.351232 0.100753 0.241339 1.0252 0.028869 0.173577 0.510611 0.0751861 0.71478 -0.0505951 0.337787 -0.338621 0.0855663 -0.688027 -0.32076 -0.100971 -0.307268 0.532817 -0.386768
657 -0.487037 0.0212438 -1.18321 1.08584 0.957199 -0.254565 -0.540658 0.136432 -0.901682 1.15521 0.795897 -0.519548 0.449004 1.01392 0.344604 0.126504 0.475008 0.43085 0.728473 -0.072113 -0.803086 0.386685 0.359005 1.14781 0.584563 0.360691 -0.474785 -1.8202 1.12188 -0.565652 0.484097 0.446402 -0.357818 -0.894458 0.160109 0.467947 0.514406 0.961822 -0.446464 -0.372853 0.146471 -0.0266602 -0.256791 -0.336528 -0.234375 0.206573 0.27896 0.0145952 0.588762 0.166006 0.17358 0.300286 -0.263009 0.276655 -0.205744 0.676629 -0.386597 0.22513 -0.513681 -0.270662 -0.0850163 -0.762913 0.642512 -0.47306
995 -0.310423 0.0479213 -1.14418 1.05362 0.865908 -0.204761 -0.554514 0.192041 -0.823622 1.11776 0.929791 -0.448266 0.418636 1.00471 0.303752 0.0717607 0.349948 0.420209 0.740676 -0.0899726 -0.726685 0.271269 0.34944 1.03908 0.59735 0.377021 -0.467836 -1.79818 0.978127 -0.393499 0.578386 0.406939 -0.451477 -0.914941 0.177487 0.34352 0.47916 1.02611 -0.378202 -0.432308 0.200171 -0.0588358 -0.11397 -0.309892 -0.222695 0.268162 0.327531 0.015269 0.537607 -0.0131373 0.157442 0.383166 -0.266587 0.299485 -0.108733 0.677028 -0.374417 0.189479 -0.426887 -0.128858 -0.0415097 -0.807679 0.589871 -0.455231
908 -0.327637 0.236429 -1.13239 0.675681 0.251561 -0.287023 -0.0800614 -0.0263258 -0.593187 0.816765 0.471027 -0.406376 0.282776 0.956746 0.254265 -0.18196 0.427767 0.583475 0.739016 -0.189969 -0.750679 0.177243 0.210258 0.736153 0.646687 0.0807262 -0.392859 -0.934552 0.801559 -0.0337317 0.511246 0.345798 -0.159501 -0.631783 0.101485 0.249663 0.0615352 0.413341 -0.0407287 -0.297506 0.0563451 -0.0265268 -0.153297 -0.159877 -0.0368473 0.251916 0.116445 0.166886 0.890217 -0.227875 0.0814076 0.372928 0.166815 0.168552 -0.120981 0.100267 -0.343896 0.187727 -0.265008 -0.116139 -0.0893078 -0.30273 0.702455 -0.247616
97 -0.645424 0.427559 -1.60599 0.955106 0.49189 -0.477519 -0.1522 -0.103188 -0.966954 1.17709 0.697903 -0.497773 0.452136 1.47499 0.473748 -0.214813 0.622586 0.585088 1.01576 -0.392028 -1.01265 0.25516 0.375779 1.15503 0.899911 0.357344 -0.520437 -1.43351 1.12163 -0.0834817 0.757508 0.380245 -0.240581 -0.93797 0.200258 0.234731 0.0825187 0.592688 -0.171975 -0.521357 0.162725 -0.0267272 -0.199978 -0.270391 -0.0454233 0.394686 0.137924 0.296388 1.13905 -0.376059 0.0611852 0.628392 0.286981 0.279017 -0.0729728 0.111949 -0.607766 0.306372 -0.355622 -0.222824 -0.210685 -0.556906 0.965346 -0.393038
243 -0.551375 0.334196 -1.39067 0.827375 0.420853 -0.362794 -0.178952 -0.0271583 -0.872305 1.03006 0.599777 -0.45978 0.405661 1.26516 0.393295 -0.1854 0.494643 0.583834 0.925615 -0.360486 -0.910814 0.267632 0.227006 1.01384 0.862831 0.256877 -0.4001 -1.22623 0.944607 -0.0202008 0.585656 0.309308 -0.194597 -0.845621 0.168603 0.130431 0.0121319 0.62107 -0.15558 -0.45374 0.0861317 -0.00471766 -0.129216 -0.262669 -0.0822705 0.379364 0.139221 0.301701 1.0833 -0.323197 0.0861592 0.570859 0.264516 0.339773 -0.0734368 0.0937679 -0.510147 0.237471 -0.38563 -0.181399 -0.11389 -0.488836 0.810238 -0.33013
126 -0.469463 0.385967 -1.34414 0.866369 0.359894 -0.306457 -0.242421 -0.0316023 -0.817587 1.09604 0.593025 -0.497295 0.409212 1.25655 0.381683 -0.190836 0.444005 0.586744 0.896227 -0.369591 -0.910175 0.292363 0.277784 0.99904 0.857371 0.287487 -0.425037 -1.25997 0.943084 -0.0360854 0.646445 0.323783 -0.208284 -0.840698 0.168955 0.13804 0.086954 0.5406 -0.184305 -0.441794 0.10598 -0.0246321 -0.155312 -0.243492 -0.0893256 0.397856 0.164932 0.274269 1.08788 -0.364448 0.0702558 0.605008 0.274538 0.290205 -0.0775257 0.103071 -0.48333 0.260686 -0.319699 -0.12696 -0.122214 -0.514114 0.750535 -0.317844
328 -0.447863 0.391621 -1.36516 0.830163 0.376088 -0.332349 -0.234859 -0.0457822 -0.824923 1.09479 0.559207 -0.535754 0.422587 1.30592 0.38299 -0.223389 0.49562 0.620168 0.907105 -0.367173 -0.932485 0.273782 0.294929 0.996357 0.862791 0.278246 -0.417015 -1.24437 0.965451 -0.0318411 0.695155 0.305753 -0.21049 -0.833184 0.152152 0.125887 0.080576 0.532326 -0.145525 -0.444741 0.158858 -0.0690078 -0.112273 -0.222625 -0.107584 0.409042 0.178957 0.272354 1.10316 -0.368065 0.0585205 0.59255 0.316049 0.296727 -0.0513064 0.108657 -0.453084 0.225072 -0.335172 -0.079652 -0.123136 -0.462764 0.770832 -0.343152
662 -0.460059 0.1997 -1.26241 0.875534 0.489255 -0.358703 -0.134549 -0.0277383 -0.885709 1.12019 0.52616 -0.621216 0.448476 1.20626 0.331428 -0.0233416 0.567842 0.682136 0.899614 -0.212422 -0.888006 0.390319 0.278552 1.00004 0.708214 0.156557 -0.499677 -1.32181 1.20086 -0.136255 0.631667 0.534545 -0.185736 -0.823099 0.136663 0.510196 0.314835 0.674185 -0.255768 -0.356952 0.0982823 -0.125971 -0.253969 -0.310181 -0.189929 0.247224 0.116862 0.142234 0.982098 -0.00569853 0.153471 0.448391 0.116174 0.357618 -0.256983 0.337011 -0.447606 0.230856 -0.431702 -0.243919 -0.0851153 -0.351157 0.878472 -0.428329
2613 -0.395064 0.29004 -0.825187 0.812697 0.714934 -0.263151 -0.501336 -0.0976749 -0.562429 1.01949 0.535281 -0.570189 0.562595 0.830932 0.223821 -0.153143 0.0988337 0.560034 0.334668 -0.0507241 -0.54209 0.202536 0.348573 0.910289 0.250855 0.305723 -0.25713 -1.27565 0.883645 -0.0490695 0.496554 0.258651 0.0257536 -0.502546 -0.134751 0.143871 0.542901 0.78646 0.219566 -0.454572 -0.00924576 0.0795222 0.125618 -0.150477 0.142203 0.133895 0.205092 -0.165421 0.262704 -0.109171 -0.119002 0.389654 0.222763 0.278788 0.282089 -0.101416 -0.936412 0.146355 -0.898745 -0.383671 -0.226618 -0.347537 0.69654 -0.629958
2322 -0.507372 0.366782 -1.01738 0.980069 0.836722 -0.334257 -0.660324 -0.109093 -0.756876 1.28916 0.714879 -0.720198 0.725571 1.09164 0.307979 -0.177886 0.141885 0.700541 0.463461 -0.0494384 -0.741895 0.293297 0.458558 1.17769 0.376661 0.414314 -0.309271 -1.60047 1.12912 -0.0902819 0.671587 0.319667 0.0344415 -0.648561 -0.193815 0.210868 0.687169 0.979633 0.283196 -0.578049 0.00388822 0.0773832 0.14399 -0.20117 0.182531 0.160347 0.252603 -0.186293 0.382412 -0.195142 -0.156942 0.489304 0.295813 0.371186 0.36463 -0.0764198 -1.1951 0.184558 -1.10579 -0.480392 -0.251486 -0.483438 0.863327 -0.7778
3202 -0.598478 0.432766 -1.15573 1.0846 0.955297 -0.385684 -0.798149 -0.146707 -0.930371 1.52029 0.85611 -0.805862 0.830602 1.30609 0.37996 -0.147091 0.126006 0.787364 0.595056 -0.0455611 -0.899822 0.388071 0.525876 1.39032 0.510125 0.466339 -0.314477 -1.87186 1.37102 -0.194525 0.761645 0.350373 0.0840195 -0.808537 -0.173086 0.264166 0.77019 1.16891 0.326435 -0.742894 0.060327 0.0923479 0.14571 -0.26277 0.247773 0.192216 0.327181 -0.186635 0.45779 -0.239966 -0.210724 0.58469 0.379645 0.475185 0.418436 -0.038559 -1.44663 0.165663 -1.25959 -0.525384 -0.304 -0.578966 1.01853 -0.887444
3057 -0.509734 0.404529 -1.01908 1.01287 0.871284 -0.341157 -0.648423 -0.149972 -0.777162 1.35591 0.735947 -0.72557 0.752093 1.12744 0.319075 -0.190157 0.120356 0.71386 0.482743 -0.0662032 -0.760057 0.302641 0.478276 1.19639 0.374905 0.434617 -0.31329 -1.65377 1.16836 -0.0884619 0.676138 0.349567 0.0595962 -0.673842 -0.198438 0.205798 0.663629 1.01965 0.259439 -0.602195 0.00733438 0.0602835 0.14853 -0.193485 0.214312 0.167033 0.254232 -0.186603 0.367381 -0.207835 -0.202839 0.499441 0.323044 0.390163 0.381112 -0.0570176 -1.23658 0.18137 -1.12431 -0.49376 -0.247718 -0.471319 0.877366 -0.760331
2232 -0.602048 0.435036 -1.15053 1.11064 0.96469 -0.383267 -0.779937 -0.140076 -0.915181 1.51821 0.849809 -0.819154 0.825874 1.29519 0.388138 -0.190673 0.172848 0.772284 0.548193 -0.0477935 -0.870869 0.363592 0.53876 1.39219 0.485231 0.507778 -0.335905 -1.87219 1.36118 -0.174282 0.783642 0.373268 0.0463182 -0.79348 -0.193025 0.240386 0.760071 1.16177 0.331613 -0.749476 0.0878167 0.0999673 0.12786 -0.249472 0.256031 0.208059 0.328591 -0.204101 0.445726 -0.226046 -0.21279 0.594446 0.395755 0.428239 0.454388 -0.0471485 -1.41088 0.182495 -1.29979 -0.548386 -0.25578 -0.566003 1.03726 -0.889035
3204 -0.393456 0.285274 -0.836763 0.818664 0.709303 -0.262632 -0.550071 -0.103098 -0.566906 1.05392 0.53942 -0.589613 0.611756 0.853771 0.238522 -0.190707 0.0542308 0.553154 0.297641 -0.050682 -0.562578 0.221927 0.373871 0.948632 0.228326 0.357966 -0.260824 -1.32729 0.923062 -0.0553741 0.53069 0.299796 0.0510561 -0.456758 -0.17329 0.125753 0.59093 0.820026 0.237439 -0.462301 0.00266106 0.0639941 0.15211 -0.168898 0.185331 0.123333 0.192207 -0.193914 0.21431 -0.137241 -0.14866 0.397252 0.26761 0.281543 0.321936 -0.112603 -0.998427 0.126262 -0.955003 -0.431985 -0.20957 -0.312219 0.706672 -0.659204
2540 -0.487454 0.372695 -1.03694 0.979202 0.865643 -0.315979 -0.652342 -0.136057 -0.780196 1.30422 0.707942 -0.730303 0.732795 1.10025 0.323499 -0.180562 0.108058 0.706978 0.44635 -0.0245863 -0.746616 0.311545 0.443721 1.19591 0.375497 0.425689 -0.293398 -1.65408 1.1422 -0.108893 0.676042 0.3076 0.0510553 -0.666012 -0.189458 0.191077 0.690578 1.02182 0.283133 -0.61397 0.0322854 0.0835303 0.147386 -0.193063 0.213644 0.16118 0.27138 -0.204924 0.35817 -0.181708 -0.183725 0.497528 0.327376 0.372591 0.380383 -0.0615369 -1.24039 0.177983 -1.12572 -0.475278 -0.252482 -0.467561 0.897941 -0.773547
3033 -0.449209 0.366173 -0.999471 0.976099 0.863027 -0.298338 -0.660307 -0.105563 -0.708586 1.26682 0.674353 -0.72122 0.716956 1.03047 0.298761 -0.185005 0.0591939 0.692248 0.426116 -0.0305031 -0.682485 0.261551 0.448187 1.13679 0.320958 0.4239 -0.308581 -1.57375 1.10246 -0.078173 0.641722 0.329554 0.0915922 -0.611716 -0.205288 0.209044 0.685099 0.979121 0.283766 -0.573203 0.0305634 0.0883768 0.130608 -0.187798 0.221721 0.154051 0.268545 -0.197909 0.32567 -0.183599 -0.183108 0.494819 0.339103 0.345992 0.380672 -0.0686668 -1.19477 0.148984 -1.12231 -0.478831 -0.237558 -0.444081 0.834701 -0.752129
2085 -0.646556 0.628009 -0.947517 0.046511 0.481176 -0.888014 -0.538863 0.199107 -1.22558 1.52265 0.952659 0.0478929 0.131833 1.80209 0.843594 -0.0287721 1.07008 0.343514 0.611107 0.134055 -0.818507 0.377667 -0.0175601 1.33348 1.13742 0.265415 -1.01781 -1.52942 0.894208 0.322313 0.154778 -0.19753 0.0902619 -0.628475 0.104204 -0.0465321 0.248305 1.46705 0.774769 -0.529382 -0.245694 -0.271925 -0.0991442 -0.188868 -0.340436 -0.00754271 0.436693 0.951139 0.586809 -0.360472 0.330617 1.1467 -0.559582 0.507145 -0.262522 -0.144408 -0.40915 0.133644 0.306548 -0.0189639 -0.779542 -0.87386 0.351909 -0.563403
2089 -0.647569 0.623528 -0.985603 0.0560223 0.517333 -0.884797 -0.573048 0.199102 -1.23681 1.51883 0.969901 0.0474141 0.133883 1.8273 0.820149 0.0169078 1.06958 0.323541 0.612732 0.121034 -0.779976 0.350768 -0.0331917 1.33696 1.12008 0.247979 -1.0297 -1.52064 0.89345 0.315619 0.15328 -0.220706 0.0743776 -0.628137 0.0678335 -0.0418959 0.249269 1.46351 0.768836 -0.530153 -0.220762 -0.239542 -0.116289 -0.218707 -0.312 0.00538596 0.439031 0.967413 0.580605 -0.346885 0.338648 1.1571 -0.569166 0.526174 -0.283293 -0.16433 -0.386466 0.0995316 0.296541 -0.0203592 -0.765071 -0.879724 0.329489 -0.599711
1915 -0.414938 -0.341401 -1.08429 0.789665 0.719923 0.392011 -0.531847 0.0940424 -0.809054 1.29896 0.610671 -0.585312 0.854065 0.959421 0.4941 -0.244171 0.120054 0.760022 0.933657 -0.101144 -0.730703 0.187883 0.499219 1.02421 0.762699 -0.0977722 -0.276089 -1.05174 1.02292 -0.412808 0.834177 -0.169698 -0.33852 -0.644941 0.484929 0.245054 -0.117477 0.843732 -0.467116 -0.0084004 0.525201 -0.0683228 0.0807758 -0.577397 0.22074 0.573514 -0.0598561 0.213544 0.151117 0.0556727 0.0173147 0.113924 0.256748 0.194182 0.725285 0.830298 -0.466783 0.236585 -0.486825 -0.175744 -0.410067 -0.770033 0.560825 -0.437813
1847 -0.440508 -0.321667 -1.10645 0.841589 0.754174 0.370007 -0.537986 0.0848966 -0.819044 1.32884 0.629113 -0.615259 0.875404 0.999153 0.493253 -0.247587 0.146946 0.77625 0.930576 -0.131127 -0.767358 0.202085 0.53127 1.04185 0.759048 -0.0918389 -0.307247 -1.10553 1.05105 -0.417749 0.826897 -0.149088 -0.352028 -0.658515 0.452332 0.237005 -0.102643 0.880612 -0.455571 -0.0199949 0.528224 -0.0483107 0.0565588 -0.599183 0.172589 0.601338 -0.0403597 0.227972 0.202144 0.0634216 0.0411667 0.136028 0.255235 0.221383 0.713036 0.82324 -0.516741 0.247117 -0.538645 -0.201538 -0.404374 -0.788722 0.577851 -0.477502
2022 -0.527517 -0.411659 -1.28198 0.9834 0.881092 0.437803 -0.632684 0.0909818 -0.968065 1.53492 0.743129 -0.730437 1.01724 1.13703 0.580338 -0.27056 0.145663 0.887133 1.0722 -0.128236 -0.864902 0.233461 0.673254 1.25555 0.900931 -0.0860137 -0.356924 -1.27979 1.20322 -0.501957 0.977511 -0.198389 -0.393528 -0.740831 0.499128 0.2936 -0.109351 1.02942 -0.572598 -0.0232689 0.578996 -0.0418659 0.079783 -0.695754 0.214912 0.685082 -0.0594732 0.283611 0.264681 0.0152517 0.100381 0.167047 0.312703 0.255453 0.824574 0.961165 -0.586903 0.292851 -0.606282 -0.217205 -0.471922 -0.911673 0.673706 -0.56087
1927 -0.548765 -0.372058 -1.33121 0.98237 0.901317 0.420233 -0.691316 0.0547229 -0.997593 1.54818 0.758769 -0.727896 0.989916 1.16673 0.603932 -0.238419 0.157624 0.920983 1.09241 -0.138391 -0.903418 0.244977 0.658305 1.25159 0.955012 -0.0716802 -0.357893 -1.30126 1.23246 -0.490062 0.99094 -0.170082 -0.364116 -0.765516 0.507663 0.315268 -0.102803 1.044 -0.580971 -0.0324577 0.590976 -0.0431198 0.0456084 -0.690719 0.21313 0.658718 -0.0153379 0.284553 0.284159 0.0320781 0.113964 0.18054 0.308777 0.268883 0.838414 0.937521 -0.572662 0.264311 -0.624835 -0.216496 -0.456912 -0.934974 0.690569 -0.590416
1928 -0.563772 -0.383871 -1.3239 0.986548 0.907335 0.420188 -0.695931 0.0742034 -1.0181 1.59158 0.736499 -0.732252 1.0414 1.17862 0.590686 -0.245344 0.200338 0.923834 1.0836 -0.125535 -0.904086 0.282827 0.698056 1.27381 0.936724 -0.0629515 -0.390614 -1.32439 1.24872 -0.521688 0.979929 -0.154391 -0.390695 -0.78768 0.506179 0.311728 -0.0954047 1.0912 -0.579418 -0.0252414 0.610853 -0.0769557 0.0691254 -0.704486 0.203061 0.670625 -0.0475591 0.285719 0.283824 0.0099739 0.0871379 0.159504 0.304133 0.27198 0.852938 0.965032 -0.63378 0.284355 -0.654429 -0.193504 -0.45695 -0.948686 0.72275 -0.594329
1756 -0.475145 -0.372625 -1.20802 0.891542 0.846863 0.405747 -0.612293 0.0872366 -0.903132 1.44318 0.691661 -0.671928 0.949468 1.07255 0.545742 -0.232385 0.140074 0.854334 1.02185 -0.119485 -0.818442 0.221467 0.59756 1.11732 0.854453 -0.0908959 -0.325488 -1.19137 1.12878 -0.463227 0.932108 -0.18531 -0.350398 -0.711186 0.501687 0.241735 -0.122215 0.9572 -0.534488 -0.0232709 0.57261 -0.0471701 0.0686241 -0.625201 0.202542 0.63067 -0.0329393 0.2363 0.229621 0.0625956 0.0539243 0.134897 0.291152 0.234861 0.771627 0.875098 -0.55605 0.263797 -0.572941 -0.204501 -0.414398 -0.84249 0.630217 -0.525643
1786 -0.405392 -0.393663 -1.13145 0.834146 0.747644 0.425576 -0.559119 0.115198 -0.834545 1.34205 0.633117 -0.61814 0.924157 1.02198 0.484281 -0.264294 0.0893659 0.807437 0.936368 -0.0818043 -0.763394 0.210851 0.55448 1.06746 0.764447 -0.129595 -0.276102 -1.10049 1.07198 -0.41994 0.90728 -0.155038 -0.349784 -0.68673 0.531616 0.279282 -0.0979442 0.870405 -0.497636 -0.000801534 0.563576 -0.0426349 0.072081 -0.630568 0.213386 0.620903 -0.0606477 0.223432 0.173183 0.0354012 0.064458 0.0947153 0.269504 0.208585 0.780892 0.905443 -0.52019 0.262136 -0.525151 -0.183509 -0.419848 -0.8284 0.592282 -0.475043
1631 -0.316598 0.208503 -0.888897 0.784966 0.581396 -0.235395 -0.316162 -0.083089 -0.673447 0.780587 0.580574 -0.444213 0.231379 0.865595 0.36956 0.0754183 0.521156 0.235742 0.538499 -0.0554205 -0.51274 0.403091 0.30444 0.88836 0.734864 0.279817 -0.298085 -1.02796 0.591393 -0.243107 0.515699 -0.271967 0.111483 -0.590384 0.0398576 0.335838 0.174744 0.573454 -0.110412 -0.235474 0.149798 -0.237711 -0.148849 0.0223826 -0.222677 0.0842378 0.0507632 -0.107659 0.728925 -0.192806 0.297473 0.239197 0.0401191 0.249421 0.0704152 0.147025 -0.160431 0.169725 -0.501902 -0.152978 -0.345435 -0.486205 0.716111 -0.444716
862 -0.375448 0.418365 -1.22737 1.06043 0.820876 -0.439424 -0.441894 -0.0619691 -0.868676 0.70148 0.777965 -0.577813 0.22055 1.16341 0.414624 0.352499 0.750312 0.438955 0.638448 -0.196195 -0.623481 0.451292 0.404527 1.0608 0.777672 0.351007 -0.387863 -1.12335 0.845431 -0.442299 0.565778 -0.37726 0.154876 -0.619669 0.0345089 0.355865 0.408765 0.754565 -0.187523 -0.255806 0.256651 -0.39592 -0.105732 -0.0505252 -0.200595 0.0257809 -0.0887208 -0.143952 0.892187 -0.222369 0.363086 0.06841 0.0359381 0.198809 0.039898 0.269831 -0.152179 0.0459993 -0.500748 -0.234613 -0.456625 -0.674571 0.60881 -0.494179
533 -0.390664 0.267897 -1.01003 0.913691 0.872072 -0.48215 -0.246029 -0.166122 -0.798583 0.892354 0.672731 -0.457037 0.16631 1.11464 0.41115 0.283736 0.688632 0.381052 0.723165 -0.0542131 -0.800246 0.420739 0.333811 0.961685 0.863859 0.316644 -0.337388 -1.15802 0.733508 -0.258839 0.597811 -0.18102 -0.0695046 -0.793443 0.106313 0.344386 0.0650066 0.701433 -0.114103 -0.466651 0.210619 -0.247878 -0.0271392 0.0200025 -0.26608 0.0265776 -0.034246 -0.100543 0.780948 -0.226556 0.389446 0.246811 0.155489 0.131829 0.0666912 0.294641 -0.296616 0.151134 -0.509116 -0.213895 -0.336542 -0.631875 0.715139 -0.449349
429 -0.279053 0.156919 -1.10846 0.981564 0.938697 -0.463219 -0.115287 -0.111856 -0.984898 0.998797 0.805949 -0.524999 0.0724976 1.0201 0.390157 0.252155 0.528432 0.0919376 0.65606 -0.137918 -0.903983 0.517864 0.216892 1.01707 1.01708 0.186349 -0.500913 -1.07934 0.907448 -0.256767 0.33714 -0.160279 0.0618915 -0.64428 0.12601 0.259758 0.266619 0.695364 0.139302 -0.294608 0.0835284 -0.153545 0.161702 -0.0408592 -0.280037 0.176762 -0.317495 0.082933 0.760068 -0.308532 0.397021 0.224882 -0.00963264 0.227879 0.118978 0.25325 -0.449781 0.0746647 -0.399713 -0.0722327 -0.230627 -0.728268 0.918308 -0.330049
289 -0.325565 0.200939 -0.988118 0.91171 0.872492 -0.470893 -0.268518 -0.136418 -0.797583 0.885885 0.633718 -0.449188 0.183493 1.06388 0.411317 0.207872 0.689749 0.340285 0.632976 -0.0483587 -0.777497 0.513192 0.239735 0.901006 0.922961 0.336397 -0.30655 -1.18005 0.754898 -0.270034 0.559932 -0.196054 -0.0692512 -0.798019 0.0967688 0.376104 0.0974111 0.646726 -0.071207 -0.41774 0.234277 -0.176386 -0.0624015 -0.00235452 -0.252914 0.0970983 -0.0287165 -0.0199776 0.69497 -0.225182 0.286383 0.248659 0.133588 0.315808 0.110127 0.330631 -0.37238 0.122681 -0.493661 -0.0972637 -0.307063 -0.704438 0.737158 -0.36506
218 -0.443879 0.302439 -1.13223 0.911467 0.989855 -0.636249 -0.324586 -0.167831 -0.987841 0.805283 0.58864 -0.503402 0.0960963 1.22212 0.391068 0.262386 0.750745 0.524338 0.71992 -0.225955 -0.880523 0.535991 0.244811 1.01887 0.879794 0.326498 -0.460675 -1.20231 0.599718 -0.178299 0.52331 -0.0362086 -0.37474 -0.831148 0.115547 0.432505 0.0456935 0.83035 -0.0401163 -0.548483 0.368865 -0.00964162 -0.107783 0.090808 -0.131112 -0.0597081 -0.106233 -0.0761566 0.674681 -0.261436 0.150763 0.135465 0.209949 0.191356 0.0577738 0.409436 -0.351429 0.113509 -0.478372 -0.104593 -0.344962 -0.846402 0.667695 -0.334003
2340 -0.354016 0.105502 -0.872819 0.651567 0.708486 -0.351401 -0.19347 -0.116163 -0.735761 0.863876 0.456258 -0.318395 0.246532 0.979421 0.320076 0.0836098 0.710885 0.413396 0.581612 -0.141383 -0.726021 0.503368 0.0381694 0.960714 0.642578 0.305676 -0.42745 -1.10163 0.534576 -0.108033 0.433402 0.0510741 -0.282693 -0.755326 0.150231 0.23859 -0.126295 0.72798 -0.0148089 -0.43863 0.265423 -0.0117503 -0.0579759 0.0523416 -0.308494 0.135537 -0.159369 -0.0627436 0.713709 -0.224956 0.251728 0.244367 0.20108 0.189096 0.0337022 0.334222 -0.362402 0.223452 -0.513455 -0.0482832 -0.303104 -0.741731 0.774421 -0.316236
992 -0.355768 0.165209 -0.836771 0.619634 0.744261 -0.343502 -0.242565 -0.142337 -0.65397 0.803692 0.396961 -0.284748 0.196897 0.936721 0.309806 0.100392 0.606152 0.415813 0.618036 -0.137484 -0.701515 0.492395 0.0629193 0.994914 0.637765 0.256634 -0.426214 -1.10371 0.493702 -0.0793867 0.384402 0.10958 -0.308324 -0.797911 0.0875961 0.303256 -0.0992309 0.795914 -0.0282583 -0.425997 0.208106 0.000664318 -0.0762838 0.130601 -0.266293 0.0739138 -0.175621 -0.0653547 0.773049 -0.214961 0.239003 0.243979 0.128569 0.125524 0.0307998 0.284097 -0.377042 0.196189 -0.433746 -0.0339499 -0.319359 -0.751397 0.767682 -0.338875
1 -0.343666 0.390069 -0.965214 0.824993 0.851265 -0.553871 -0.347287 -0.181166 -0.798307 0.8319 0.653422 -0.348209 0.206229 1.12006 0.487852 0.0689315 0.587235 0.450679 0.576231 -0.168736 -0.584 0.374506 0.208119 0.972917 0.87833 0.234003 -0.391595 -1.17685 0.75269 -0.297333 0.324478 -0.261725 0.0590857 -0.647007 0.0243135 0.351535 0.267978 0.783483 -0.114989 -0.226353 0.156231 -0.191344 -0.0338223 -0.017433 -0.147599 0.102148 -0.193773 -0.0566123 0.769477 -0.25953 0.343 0.231896 0.00881509 0.266302 0.0925816 0.0685603 -0.219243 0.116693 -0.270866 -0.197361 -0.191171 -0.615377 0.73651 -0.53113
266 -0.246804 0.219002 -1.29216 0.926282 0.957325 -0.274597 -0.210231 -0.108619 -0.927035 0.768375 0.695395 -0.370086 0.111467 1.14281 0.601878 0.121917 0.788792 0.529191 0.512013 -0.0671458 -0.551379 0.429025 0.231894 1.16745 0.7958 0.204284 -0.40651 -1.34711 0.652138 -0.196103 0.60164 -0.1301 -0.109562 -0.900672 -0.0128397 0.196299 0.149344 0.51702 -0.0196464 -0.358038 0.304279 -0.0249809 -0.142834 0.104139 -0.145619 0.203344 -0.0497704 -0.124286 0.883762 -0.256618 0.236386 0.220836 0.0652322 0.240032 0.168919 0.0850308 -0.309949 0.198739 -0.303865 -0.125079 -0.316249 -0.636513 0.698937 -0.289947
295 -0.0501109 0.318379 -1.26231 0.864836 0.939195 -0.425587 -0.388978 -0.288961 -0.884118 0.687895 0.791837 -0.388288 0.17207 1.25342 0.285966 0.15816 0.664519 0.353654 0.577038 -0.133148 -1.04041 0.366441 0.204944 1.04798 1.06264 0.085529 -0.409415 -1.5249 0.823385 -0.41831 0.516126 -0.125142 -0.171607 -0.860541 0.0970983 0.441195 0.259963 0.979251 -0.0129311 -0.418993 0.182328 -0.0677838 -0.146479 0.0751459 -0.156017 0.272026 -0.105888 -0.214578 0.698444 -0.14633 0.285484 0.217685 -0.164801 0.405513 0.147802 0.404981 -0.211422 0.249731 -0.37647 -0.140074 -0.321 -0.897867 0.737299 -0.356519
770 -0.102663 0.191086 -0.843556 0.635626 0.468144 -0.204164 -0.202463 -0.0133888 -0.663116 0.552734 0.445889 -0.162218 0.210194 0.929614 0.416611 -0.11494 0.493272 0.197311 0.558128 0.0666694 -0.82146 0.256372 -0.135602 1.00005 0.80259 0.112985 -0.138169 -1.12338 0.554846 -0.261848 0.319015 -0.0132132 -0.216245 -0.632884 -0.0338675 0.237183 0.0523978 0.771071 -0.0210185 -0.336578 0.126932 -0.145864 0.000210202 0.060298 -0.196955 0.184066 -0.0597023 0.0350266 0.382441 -0.157646 0.0659079 0.131317 -0.146286 0.258322 0.0586425 0.427676 -0.236745 0.155025 -0.326645 -0.120722 -0.143156 -0.558443 0.66023 -0.0870487
566 -0.0328727 0.306779 -1.11501 1.03611 0.6518 -0.190274 -0.337463 0.121776 -0.73136 0.74121 0.561915 -0.306612 0.340386 1.04171 0.510808 -0.0973784 0.42368 0.133347 0.65539 0.0713762 -0.849943 0.303771 -0.187881 1.28328 0.801634 0.100248 -0.182213 -1.36997 0.804305 -0.447865 0.430066 -0.0703689 -0.152099 -0.699223 -0.152421 0.368183 0.218262 0.697961 -0.158341 -0.143872 0.248707 -0.254786 -0.0639787 0.131772 -0.118228 0.364908 -0.0095719 0.053093 0.54953 -0.203163 0.0258337 0.254264 -0.301038 0.289466 0.223088 0.224407 -0.25348 0.257411 -0.323245 -0.085351 -0.297089 -0.495845 0.804182 -0.15246
2494 -0.256816 0.332836 -1.29668 1.01472 0.866759 -0.14208 -0.565321 -0.225674 -0.856831 0.983228 0.611785 -0.670561 0.220481 0.923811 0.528695 0.0754207 0.647066 0.637382 0.426673 -0.130248 -0.445219 0.29474 0.240985 1.26507 0.733821 0.183624 -0.262144 -1.19049 0.507618 -0.0360261 0.619452 -0.134327 0.177555 -0.646845 0.0903425 0.297833 0.249145 0.623776 -0.0291075 -0.305652 -0.0415042 0.0299717 -0.142624 -0.106311 -0.184278 0.195147 0.304413 -0.0777757 0.906295 -0.211756 -0.141548 0.261544 -0.298125 0.130934 0.0209336 0.132496 -0.344803 0.229057 -0.516977 -0.327255 -0.57957 -0.398119 0.673482 -0.336266
32 -0.340275 0.226091 -1.34921 1.09981 1.045 -0.160263 -0.548192 -0.328064 -0.905923 1.24554 0.809914 -0.498086 0.188554 1.00995 0.456371 0.0915175 0.594773 0.36526 0.623212 -0.112756 -0.582152 0.29333 0.220824 1.14226 0.710091 0.233515 -0.292132 -1.13451 0.644639 -0.0727197 0.349608 0.00795574 0.0100409 -0.548454 0.166011 0.144553 0.201945 0.818296 0.0916107 -0.27347 0.177951 0.0614275 -0.103218 -0.084666 -0.169785 0.150617 0.367502 0.0775387 0.765472 -0.132564 -0.149593 0.134377 -0.197239 0.141578 -0.0205879 0.248523 -0.311855 0.155097 -0.583265 -0.135943 -0.444213 -0.497606 0.399094 -0.192394
685 -0.419991 0.201922 -1.30569 1.11875 1.00771 -0.107868 -0.519699 -0.215592 -0.813143 1.1673 0.726436 -0.50285 0.148796 0.976298 0.481478 0.0233436 0.667898 0.517718 0.676783 -0.0180288 -0.497072 0.415444 0.207188 0.947909 0.587094 0.184119 -0.364884 -1.10619 0.552713 0.0265252 0.405509 0.0276748 0.0331317 -0.709072 0.0509692 0.140866 0.178632 0.729825 0.0719741 -0.246387 0.181298 0.0330471 -0.201237 -0.150738 -0.132071 0.14331 0.33526 0.113928 0.756778 -0.0330696 -0.0926919 0.0824992 -0.127837 0.191002 -0.00763385 0.382855 -0.318589 0.132009 -0.64109 -0.15208 -0.443365 -0.524783 0.4686 -0.23291
700 -0.284137 0.211167 -1.13451 1.19041 0.943471 -0.396951 -0.40275 -0.217115 -0.715825 1.25383 0.700653 -0.512042 0.488444 1.02112 0.32376 0.0940076 0.494645 0.278672 0.630288 -0.170693 -0.752305 0.348497 0.160056 0.867295 0.578781 0.303189 -0.280047 -0.988336 0.682673 -0.23363 0.387677 -0.0432351 -0.240369 -0.663796 0.203203 0.25125 0.100519 0.730142 -0.0973266 -0.371317 0.196525 0.0175387 -0.118351 -0.240388 -0.287465 0.222247 0.162756 0.16356 0.656511 -0.163284 -0.0980865 0.297768 -0.0774439 0.153481 0.00405746 0.308508 -0.474695 0.174616 -0.533289 -0.125136 -0.355876 -0.509143 0.604807 -0.21847
571 -0.330427 0.248688 -1.13908 1.14444 0.957166 -0.409727 -0.446214 -0.257268 -0.681189 1.17678 0.673536 -0.390534 0.46778 1.0735 0.331603 -0.0267455 0.572242 0.257617 0.650175 -0.237805 -0.725959 0.380302 0.205583 0.812466 0.608791 0.215085 -0.310883 -0.974564 0.687737 -0.142301 0.368248 -0.00108535 -0.155961 -0.642714 0.261574 0.18979 0.0291063 0.760371 -0.0717328 -0.387816 0.0757057 -0.026727 -0.0730259 -0.208146 -0.282796 0.227433 0.0633632 0.147962 0.614693 -0.12076 -0.0172924 0.32497 -0.0937814 0.164329 -0.0256409 0.224694 -0.490795 0.206718 -0.605392 -0.155084 -0.279323 -0.517983 0.585456 -0.298423
