1434 64
719 0.123196 -0.382063 0.163787 0.0570296 -0.698728 -0.678305 1.56504 -1.3507 -0.134874 1.54318 -0.0741455 1.36863 -1.26022 0.0211172 1.07423 -0.152048 -0.222359 -0.571418 0.0773007 -0.251402 -0.16469 0.17518 0.619956 0.349458 -0.972695 0.499858 0.300907 0.147042 -0.419982 0.438361 -0.343213 -0.196991 0.0831355 0.132578 0.321396 -0.377728 -0.496239 -0.291807 -0.304417 0.0271466 -0.371862 0.0763338 -0.267783 0.107692 -0.0751806 -0.175748 -0.10603 0.231514 -0.138052 0.27486 -0.129702 0.433768 -0.638764 0.340458 0.20948 0.0946772 0.0125813 -0.391138 0.171301 -0.294472 0.0640673 -0.272189 -0.0765804 -0.122622
747 -0.0218939 -0.0845483 0.362542 0.217212 -1.12462 -0.716567 1.34248 -0.949818 -0.263209 1.785 0.057649 1.00865 -1.31529 0.278861 1.05984 0.153869 -0.351051 -0.712858 0.218155 -0.279143 0.0761404 0.0174056 0.644642 0.0778449 -1.18505 0.0805097 0.259623 0.00874473 0.0876152 0.336733 -0.557451 -0.0355094 0.346525 -0.0766156 -0.00129556 -0.198796 -0.485197 -0.18473 -0.556024 0.280905 -0.357417 0.150534 -0.532793 0.424554 -0.130941 0.356149 -0.188162 0.0652836 -0.0804453 0.063031 -0.59301 0.242072 -0.374711 0.0101295 0.0315982 0.234837 0.0643769 -0.198184 0.342332 -0.109753 0.414001 0.0303353 0.101681 -0.273237
771 -0.0362267 -0.302752 0.257911 -0.108289 -1.03736 -0.672102 1.39943 -0.977709 -0.0536597 1.38343 -0.145951 1.12871 -1.19017 0.081871 0.80488 0.0263847 -0.300212 -0.740113 0.170574 -0.271313 -0.0419358 0.095463 0.452049 0.0325272 -1.08684 0.189247 0.25738 0.10908 0.000260015 0.349484 -0.579662 -0.114276 0.178525 0.0104523 0.0186633 -0.0835466 -0.344978 -0.0443365 -0.289323 0.344373 -0.257035 0.292928 -0.374602 0.0113999 -0.0197524 0.0213642 -0.17732 0.234316 -0.151544 0.182256 -0.201645 0.427684 -0.407624 0.177179 0.128169 0.19087 0.0560211 -0.420811 0.196336 -0.12167 0.376604 -0.0191239 0.173711 -0.126602
655 -0.0594078 -0.294541 0.283437 0.0245618 -0.846179 -0.529314 1.14874 -0.863285 -0.0148651 1.19318 -0.146408 0.899256 -0.891781 0.122728 0.64113 0.00618513 -0.255912 -0.538173 0.142444 -0.134639 -0.0509294 -0.0525529 0.393541 0.0825241 -0.79509 0.152165 0.327093 0.12865 0.0181718 0.243235 -0.520356 -0.143174 0.171788 -0.0788297 0.0216127 -0.0813571 -0.205382 -0.0713554 -0.307025 0.236479 -0.220748 0.1424 -0.337049 0.0757184 -0.04571 0.00721297 -0.134111 0.148659 -0.111016 0.116298 -0.232077 0.439561 -0.299045 0.182333 0.182877 0.150962 -0.0189796 -0.338223 0.169589 -0.181965 0.323459 0.0891079 0.130549 -0.0427989
74 -0.182532 -0.451526 0.0873426 0.132836 -0.823577 -0.476848 1.5282 -1.17708 -0.659013 1.55434 -0.225599 1.22882 -0.964147 0.132119 1.39224 -0.137715 -0.630251 -0.41453 0.448384 -0.0772117 -0.0801674 0.122509 0.384285 0.143574 -1.28008 0.117452 0.163514 -0.0556182 0.100783 0.257448 -0.124959 -0.087196 -0.113506 -0.126488 -0.0453469 -0.101124 -0.368641 -0.36191 0.0105569 0.178807 -0.386533 0.117936 -0.442669 0.0073519 0.0833025 0.288652 -0.44531 0.0382971 0.153977 -0.0861776 -0.469959 0.321297 -0.593375 0.600619 -0.158303 -0.0983761 -0.0149918 -0.348106 0.321668 -0.576504 0.469761 0.286618 -0.141781 -0.422978
2338 0.0716221 -0.272221 0.178243 -0.156461 -1.04602 -0.501758 1.85577 -0.917698 -0.0865365 1.35614 -0.0408651 1.08112 -1.179 0.174858 1.25906 -0.128828 0.0160572 -0.716645 0.199025 -0.414909 -0.741444 0.23617 0.405812 -0.0569335 -1.41384 0.566374 0.0795931 0.0476181 -0.0198784 0.453959 -0.455767 -0.172173 0.218576 0.044493 -0.205507 -0.267644 -0.571005 -0.351809 -0.104606 0.338755 -0.337197 -0.0914957 -0.38097 0.330235 -0.132581 0.0330278 -0.114173 -0.0779433 -0.01053 0.158724 -0.491389 0.248976 -0.347266 0.426659 -0.0749349 0.135814 0.017873 -0.119472 0.290589 -0.283446 0.429628 -0.325531 -0.347616 -0.0424556
1335 0.0793747 -0.320859 0.43185 -0.20011 -0.934395 -0.321947 1.931 -0.992002 -0.180898 1.64136 -0.378344 1.12848 -1.05798 0.341396 1.41409 0.0514908 -0.0435049 -0.594488 0.215117 -0.240555 -0.653173 0.140383 0.321864 0.0552778 -1.28084 0.202576 0.340119 0.0100908 0.00158719 0.469991 -0.0168555 -0.128412 0.251856 -0.0956404 -0.532274 -0.05664 -0.522783 -0.254982 -0.303684 0.274214 -0.407143 0.00211663 -0.39894 0.489741 -0.136655 0.0356183 -0.123795 0.259155 0.00316422 0.271539 -0.269166 0.215492 -0.198316 0.226455 0.352183 -0.0310517 0.0357302 -0.0511708 0.209889 -0.0274674 0.920841 -0.062558 -0.2623 -0.0750685
1053 0.10749 -0.273244 0.115746 -0.102863 -0.992325 -0.424718 1.78998 -1.01644 -0.239491 1.67776 -0.454733 1.04963 -1.11274 0.0759456 1.41723 -0.216452 -0.120366 -0.407939 0.240035 -0.192845 -0.390866 -0.0818476 0.224752 0.125566 -1.22737 0.231314 0.109002 0.0333978 0.130806 0.576964 -0.343537 -0.215931 0.157823 0.0789957 -0.21812 -0.112285 -0.516724 -0.248686 -0.101583 0.214668 -0.578469 -0.0935735 -0.485284 0.0234644 -0.180961 0.0820945 -0.400181 -0.0689246 -0.0354593 0.188635 -0.401723 0.417027 -0.120449 0.319405 0.216363 0.089641 -0.0676157 -0.0669001 0.339608 -0.0157996 0.633511 -0.00577689 -0.0225658 -0.145313
1290 0.147365 -0.218142 0.26911 -0.00819313 -0.731127 -0.834724 1.51962 -1.0733 -0.184815 1.6749 -0.610932 1.37743 -1.02672 0.366799 1.47131 -0.153777 0.119406 -0.456313 0.17703 -0.345977 -0.081528 -0.0365519 0.581575 0.0374946 -1.03054 0.346591 0.287976 0.099273 0.131563 0.0952423 -0.299298 -0.147595 0.0250104 0.285517 0.210999 -0.232234 -0.671497 -0.0827767 -0.00141837 -0.0429035 -0.311668 -0.0865945 -0.464611 -0.194074 0.219478 0.249785 -0.37713 0.19532 -0.312389 0.150544 -0.158645 0.767807 -0.14322 0.261896 -0.125393 -0.0695965 -0.08788 -0.273236 0.373949 -0.214535 0.360195 -0.0304534 -0.146916 -0.0953764
1259 -0.123641 -0.368695 0.0713046 0.549694 -0.82915 -0.741031 1.60604 -1.15532 0.286181 1.79573 -0.35694 1.44209 -1.04204 0.358392 1.12603 -0.0872469 -0.0472173 -0.721422 0.0801538 -0.221419 -0.528145 0.114594 0.518511 0.0826543 -1.20168 0.223764 0.253089 -0.00551325 0.35532 0.289673 -0.230093 -0.18391 0.295964 -0.0385866 -0.00132462 -0.199912 -0.463109 -0.228042 -0.225459 0.189265 -0.371311 0.284951 -0.688763 -0.058644 0.24889 0.34857 -0.201432 0.41368 -0.152692 0.238985 -0.18796 0.569804 -0.42455 0.248797 0.213261 0.293221 0.0816703 -0.0409723 0.476141 -0.085365 0.0800906 0.259419 0.19322 -0.479052
2253 -0.024589 -0.292329 0.0103163 0.715563 -0.762978 -0.561878 1.86991 -1.30063 0.30894 1.79123 -0.418704 1.4384 -1.16936 0.435852 1.13305 0.017957 -0.242595 -0.529607 0.153867 -0.19736 -0.397524 -0.158455 0.658598 0.0983853 -1.03156 0.308525 0.420627 0.0487653 0.568119 0.424122 -0.18101 -0.40752 0.459607 -0.160089 -0.149012 -0.23314 -0.528966 -0.231156 -0.356749 0.160373 -0.505694 0.455044 -0.489928 -0.107701 0.165031 0.495743 -0.32617 0.572005 -0.0300877 0.202504 -0.392059 0.677568 -0.620885 0.348372 0.189929 0.243604 0.107128 -0.113244 0.433859 -0.0884518 0.0885045 0.226036 0.0810514 -0.236297
2126 -0.0199491 -0.384955 -0.0320663 0.634999 -0.711907 -0.578443 1.88285 -1.29123 0.187183 1.85188 -0.474104 1.40462 -1.16217 0.349495 1.18668 -0.0730763 -0.170145 -0.569445 0.199257 -0.174315 -0.382496 -0.193836 0.756001 -0.0374824 -1.05597 0.332614 0.458699 0.0948483 0.531216 0.420563 -0.307224 -0.365227 0.379276 -0.147795 -0.0251304 -0.11708 -0.666034 -0.306437 -0.263038 0.139275 -0.449355 0.41284 -0.551041 -0.102503 0.107051 0.437585 -0.234756 0.500409 -0.0893314 0.172628 -0.21467 0.66286 -0.603416 0.330884 0.18313 0.244594 0.00114448 -0.133677 0.450449 -0.0195505 0.174325 0.194513 0.114575 -0.154615
2427 0.0358525 -0.265661 0.0717013 0.668614 -0.88034 -0.519451 1.94163 -1.32726 0.197898 1.82464 -0.361018 1.5467 -1.20583 0.380192 1.3793 0.00700364 -0.188595 -0.442572 0.231792 -0.195825 -0.459661 -0.140209 0.538841 0.00858374 -1.05882 0.372597 0.498594 0.0965258 0.618375 0.508977 -0.422082 -0.422892 0.427829 -0.225564 -0.123722 0.0507061 -0.709542 -0.241084 -0.342141 0.107656 -0.542898 0.45487 -0.313229 0.0311099 0.0401715 0.372816 -0.411143 0.619502 -0.117348 0.253287 -0.450255 0.78487 -0.750622 0.172525 0.148795 0.230466 0.148772 -0.212683 0.277604 -0.142213 0.299976 0.0814649 -0.0898189 -0.0846136
507 0.0321913 -0.239251 -0.0272603 0.515659 -0.826126 -0.54026 1.77772 -1.28653 0.190566 1.66729 -0.298002 1.42988 -1.04452 0.390307 1.27621 0.0442734 -0.138926 -0.42951 0.207735 -0.147335 -0.36161 -0.152694 0.415559 0.00109874 -0.83469 0.258613 0.420052 -0.010329 0.501606 0.425377 -0.368305 -0.360021 0.412842 -0.181337 -0.136044 -0.0145146 -0.610522 -0.174261 -0.290467 0.0368473 -0.485033 0.302337 -0.297107 0.102065 0.172528 0.403679 -0.366246 0.58429 -0.124775 0.243053 -0.415809 0.760726 -0.707553 0.183716 0.0712644 0.142497 0.204545 -0.230373 0.356757 -0.155675 0.190511 0.141524 -0.11064 -0.062202
109 0.252084 -0.383655 0.18675 0.290107 -1.17394 -0.717738 1.937 -1.35285 0.0543133 1.58801 -0.246026 1.59243 -1.28248 0.331786 1.55469 0.0111346 -0.0761115 -0.287531 0.311189 -0.241855 -0.51669 -0.0272347 0.388738 0.0710191 -0.961893 0.341786 0.311895 -0.0224887 0.343027 0.273657 -0.452816 -0.169055 0.363922 -0.219358 -0.0954319 0.122816 -0.696141 -0.15332 -0.22118 0.102965 -0.307616 0.318953 -0.0678106 0.0323823 0.167842 0.27756 -0.335315 0.626169 -0.29597 0.158701 -0.286203 0.735097 -0.686825 0.0816925 -0.0624276 0.17133 0.120534 -0.410703 0.267251 -0.238171 0.21395 0.0551559 -0.171368 -0.073918
640 0.0670007 -0.0530531 0.124604 0.149864 -1.24276 -0.670143 1.79111 -1.35392 0.0909805 1.66375 -0.4335 1.37003 -1.40882 0.0597358 1.66054 0.0290112 -0.0908498 -0.58681 0.31793 -0.283133 -0.528892 -0.143933 0.297285 0.112728 -1.09706 0.208159 0.408664 0.130467 0.24633 0.406148 -0.433872 -0.185226 0.407658 -0.0612374 -0.0949615 -0.0162053 -0.724667 -0.0583664 -0.339132 0.0515209 -0.388276 0.0925337 -0.353947 0.190095 -0.0367305 0.21767 -0.385161 0.476412 -0.151037 0.209065 -0.392266 0.524081 -0.569579 0.00187679 0.0961978 0.205747 0.115228 -0.335644 0.122847 -0.243753 0.279722 0.0554125 -0.338981 -0.15233
549 -0.0177242 -0.175398 0.197008 0.287889 -1.00229 -0.603086 1.77746 -1.26423 0.107701 1.75973 -0.449378 1.43118 -1.29694 0.226159 1.39467 0.195422 -0.157202 -0.467077 0.306708 -0.337082 -0.526933 -0.120332 0.360362 0.107568 -1.08239 0.266478 0.48503 0.164483 0.323555 0.309487 -0.27489 -0.298837 0.357631 -0.144695 -0.122924 0.042047 -0.824697 -0.103786 -0.260902 0.014395 -0.444785 0.0536781 -0.350013 0.0509473 -0.0176946 0.303034 -0.441423 0.504039 -0.225721 0.315468 -0.408155 0.58292 -0.614562 0.0896524 0.144572 0.107359 0.13118 -0.239522 0.245237 -0.224113 0.340334 -0.0608788 -0.315961 -0.0567624
1560 0.159688 -0.0870046 -0.0752113 -0.147213 -1.10736 -0.674095 1.35484 -1.25498 0.240184 1.62808 -0.58128 1.35932 -1.24743 0.347631 1.59238 0.0204611 -0.20265 -0.609297 0.0681423 -0.0556063 -0.239143 0.0125936 0.0600702 0.119579 -1.23393 0.0481052 0.18614 0.0713122 0.118187 0.334455 -0.593861 -0.0825568 0.360943 0.15752 0.11082 -0.132168 -0.574717 -0.0265106 -0.0756454 0.128769 -0.470343 -0.0904104 -0.248764 0.0353805 -0.00789803 0.287796 -0.435476 0.53283 -0.125284 -0.0336705 -0.473133 0.589739 -0.382091 -0.0274061 -0.0445628 -0.117421 0.0935267 -0.616494 0.270754 -0.382188 0.467875 -0.0856229 -0.0210434 -0.407821
1592 0.264721 -0.00625848 -0.0998061 0.0549322 -1.34194 -0.633038 1.35345 -0.986501 -0.0238559 1.56551 -0.286711 1.41668 -1.31419 0.136652 1.17721 0.039341 -0.213709 -0.761857 0.156112 -0.043152 -0.186316 0.129331 0.0405247 0.0318627 -1.19002 -0.016754 0.295364 0.0787696 0.0756253 0.175127 -0.420334 0.14968 0.279176 0.0965537 0.307078 -0.0635774 -0.67264 -0.0272361 0.0441505 0.01178 -0.508315 -0.267158 -0.369973 -0.0557437 -0.0383373 0.149284 -0.39616 0.520443 -0.144519 -0.0084732 -0.294697 0.646541 -0.36939 0.0540843 0.312766 0.00143408 -0.165607 -0.539109 0.28104 -0.316775 0.550169 -0.108209 -0.15627 -0.276637
409 0.0857182 0.0618546 -0.0968765 -0.026606 -1.37695 -0.662685 1.62194 -1.32945 -0.126963 1.58413 -0.0955246 1.52954 -1.11304 0.372101 1.20786 0.241665 -0.270882 -0.715121 0.217538 -0.145336 -0.349621 -0.221167 0.274865 -0.0502343 -1.12395 0.337772 0.2719 0.527212 -0.0275876 0.366988 -0.631607 0.0343763 0.263986 -0.168139 0.0404264 0.0134019 -0.544176 0.0108519 0.0774376 0.0492245 -0.44662 -0.419055 -0.596896 0.236117 0.0894561 0.0528449 -0.233212 0.485014 -0.145539 0.0767798 -0.256251 0.702845 -0.524791 0.356897 -0.0402692 -0.164689 0.0735482 -0.483573 0.409942 -0.0625762 0.758498 -0.132525 -0.505449 -0.36348
2178 -0.0575957 0.0998551 -0.224451 0.0790477 -1.36803 -0.878625 1.89288 -1.39361 0.0173653 2.25772 -0.128184 1.60444 -1.20468 0.366058 1.17161 0.473486 -0.479783 -0.726436 0.206871 -0.128688 -0.444992 -0.113441 0.231411 -0.123302 -1.15545 0.54018 0.261406 0.519186 -0.0688893 0.678012 -0.415255 -0.0748473 0.453638 -0.0390747 -0.0758381 -0.0193318 -0.455951 -0.119737 -0.249888 0.031013 -0.549508 -0.265626 -0.457965 0.327461 -0.22142 0.178092 -0.312512 0.322946 -0.0866431 -0.0567834 -0.155454 0.841748 -0.716401 0.253749 -0.389193 -0.277756 0.0550036 -0.29803 0.649028 -0.0247358 0.597226 0.152227 -0.625748 -0.429904
1718 -0.0297978 -0.0640269 -0.0157905 -0.0334644 -0.964842 -0.659074 1.6653 -1.3805 -0.221103 1.72075 -0.121931 1.28542 -1.09584 0.16377 1.11027 -0.0360458 -0.448558 -0.579199 0.474829 -0.315407 -0.125639 -0.190061 0.452484 -0.0997177 -1.20855 0.22188 0.322682 0.504076 0.0582728 0.416418 -0.457803 0.0103453 0.267129 -0.329763 0.159433 -0.150039 -0.47441 -0.0875228 -0.114211 0.0989742 -0.341952 -0.311016 -0.535882 0.215963 -0.0359395 0.262523 -0.159074 0.449077 0.310614 -0.0572317 -0.155534 0.846746 -0.504343 0.263909 -0.0826856 -0.014676 0.21436 -0.209309 0.65564 0.0929739 0.383242 0.214995 -0.683366 -0.571453
1366 0.0313951 -0.172755 0.280707 0.112884 -1.2762 -0.533062 1.75173 -1.30046 -0.218585 1.75599 -0.102072 1.29447 -1.11703 0.253237 1.24253 0.145503 -0.395909 -0.368301 0.406432 -0.17157 -0.146916 -0.120907 0.495231 0.211416 -1.30254 0.0914213 0.253039 0.337602 -0.0167352 0.459488 -0.285592 0.0820187 0.611123 -0.156719 0.0642022 -0.229051 -0.35996 -0.226741 -0.00665376 0.194835 -0.472659 -0.218761 -0.34782 0.264935 -0.139485 0.158851 -0.0560044 0.458267 0.289163 -0.0430474 -0.295724 0.79379 -0.557393 0.411385 0.114469 -0.00208592 0.113443 -0.190575 0.515507 0.0739865 0.371081 0.155142 -0.480285 -0.361054
310 0.0880775 -0.322974 0.304524 0.22625 -1.11424 -0.477883 1.69711 -1.14371 -0.203443 1.5336 -0.161684 1.18777 -0.947985 0.30766 1.01972 0.0782719 -0.344158 -0.312233 0.246072 -0.148572 -0.141598 -0.150993 0.397619 0.0393888 -1.18757 0.118142 0.0286124 0.251791 0.00458254 0.44278 -0.311983 0.0899518 0.534973 -0.233562 -0.0422769 -0.209663 -0.238552 -0.255646 0.0450957 0.205779 -0.305568 -0.235743 -0.265772 0.240326 -0.0638576 0.142341 -0.0730778 0.261646 0.273499 -0.054964 -0.262443 0.665776 -0.380547 0.475987 0.0981718 0.0646921 0.162199 -0.0935652 0.473589 0.0815375 0.399029 0.110978 -0.271596 -0.264818
668 -0.0472854 -0.26464 0.175359 0.0921618 -1.14102 -0.387447 1.64092 -1.27631 -0.238776 1.60057 -0.0294916 1.20852 -1.0573 0.232971 1.29961 0.0633304 -0.242082 -0.480236 0.342348 -0.184299 -0.164469 -0.157609 0.58786 0.119692 -1.20099 0.141059 0.37689 0.140513 -0.111144 0.515059 -0.36913 0.00678366 0.390235 -0.142721 0.111505 -0.0992573 -0.22752 -0.239121 -0.142273 0.26857 -0.57382 -0.0907369 -0.333824 0.16144 -0.167996 0.0723268 -0.159657 0.167011 0.253249 0.0313115 -0.308677 0.80213 -0.583935 0.257459 0.109926 -0.0826158 0.0246331 -0.260801 0.343357 -0.0497572 0.264217 0.0395066 -0.198395 -0.263462
1608 0.0201175 -0.227311 0.176713 -0.184924 -1.02708 -0.430641 1.36864 -1.3288 -0.300869 1.40929 -0.454184 1.14211 -1.10124 0.357954 1.07062 -0.0543594 0.00850357 -0.650593 0.227706 -0.263634 -0.189841 0.20176 0.0375189 0.199062 -1.1048 0.00985455 0.0883626 0.0993465 0.011217 0.427219 -0.309626 -0.227744 0.301166 0.12625 -0.142618 0.00562124 -0.300875 -0.436802 -0.173626 0.155421 -0.668515 -0.174179 -0.301842 0.0923885 -0.0572557 0.189172 -0.478693 0.0601433 0.120931 -0.0231263 -0.504098 0.249937 -0.216144 0.404437 0.193609 -0.0713403 -0.112526 -0.398678 0.414984 -0.226619 0.423866 -0.0429637 0.121659 -0.17889
76 0.0368028 -0.282483 0.490405 -0.0241467 -1.09815 -0.720635 1.62151 -1.19714 -0.571599 1.68747 0.086398 1.39885 -1.15033 0.0934052 1.4929 0.000525943 -0.125131 -0.180568 0.259504 -0.465548 -0.0508342 0.055332 0.37776 -0.0984817 -1.21872 0.282272 0.155582 -0.0863509 -0.0300304 0.178418 -0.284858 0.333055 0.241888 -0.103448 0.086177 -0.218483 -0.367667 -0.234687 -0.089688 0.343042 -0.213553 0.267407 -0.0426774 0.132731 -0.0453662 0.0287056 -0.367761 0.260588 -0.0835699 0.0954187 -0.293116 0.755884 -0.446341 0.458895 0.0583443 0.166954 -0.103791 -0.268229 0.411426 -0.119939 0.156534 -0.0631007 -0.0525818 -0.104082
71 -0.0447298 -0.408802 0.153158 -0.086226 -1.10596 -0.475876 1.78459 -1.06247 -0.113801 1.44515 0.000589814 1.49195 -1.01386 0.336622 1.13672 0.0243097 0.189333 -0.590897 0.325125 -0.128214 -0.335764 0.359135 0.369733 -0.198832 -1.2533 0.0710222 0.218819 -0.144537 -0.0387671 0.290162 -0.496736 0.224319 0.263463 0.154342 0.080032 -0.00397492 -0.55709 -0.504155 -0.156785 0.35084 -0.215166 0.327396 -0.193474 0.378587 0.248553 0.0163744 -0.124619 0.171446 0.213075 0.0771311 -0.223236 0.356106 -0.683992 0.520773 -0.310162 0.0576661 0.109342 -0.225886 0.50733 -0.239149 0.0288087 0.0901062 -0.384464 -0.0075834
1697 -0.055926 -0.371024 0.231047 -0.0361271 -1.26596 -0.538124 1.69642 -1.02882 0.119421 1.93413 -0.0138097 1.63935 -0.814397 0.495525 1.11498 0.0493121 0.247912 -0.532689 0.197092 -0.028412 -0.405409 0.326075 0.128922 0.105265 -1.31446 0.299391 0.264495 -0.130356 0.0639115 0.350475 -0.418487 -0.0423468 0.543669 0.00608357 -0.221405 -0.0151193 -0.49217 -0.446781 -0.296139 0.229386 -0.0306017 0.210801 0.0342901 0.360532 0.146644 0.0942661 -0.229889 0.380184 -0.00481146 0.223967 -0.275084 0.648878 -0.672295 0.216468 -0.203356 0.18557 0.0263418 -0.51411 0.468847 -0.372913 -0.057727 0.223628 -0.337408 0.0809062
740 -0.0430735 -0.419985 0.348571 0.195314 -1.25543 -0.470126 1.86555 -1.12761 0.145014 1.84003 -0.0434349 1.5641 -0.966083 0.353765 1.04096 0.023951 0.0614505 -0.471846 0.130675 0.0898495 -0.475418 0.305957 0.209726 -0.0206815 -1.27436 0.207018 0.217946 -0.0753064 0.0594269 0.350662 -0.647363 0.0802757 0.531609 -0.0296562 -0.125091 0.140426 -0.60768 -0.522774 -0.293063 0.20724 -0.157906 0.132879 0.0269086 0.214823 0.0687697 0.142001 -0.292962 0.30947 -0.000375635 0.423703 -0.251905 0.627278 -0.614168 0.324847 -0.18559 0.29847 0.11043 -0.533315 0.631264 -0.310182 -0.0929354 0.226832 -0.426918 -0.0539609
38 -0.190248 -0.196754 0.250006 -0.0735157 -1.31963 -0.758542 1.60199 -1.2578 -0.0690551 1.30826 -0.167961 1.3502 -1.05774 0.270077 1.12526 0.0401824 -0.370706 -0.747138 0.18415 -0.354498 -0.233964 -0.0247218 0.0649661 0.279799 -1.33137 0.580034 0.489787 0.140312 0.112139 0.0920174 -0.185294 -0.269154 0.432877 0.0448427 -0.18778 -0.107161 -0.629511 0.0191392 -0.0835895 0.119337 -0.435819 -0.137444 -0.355564 -0.0814929 0.00559967 0.146293 -0.156233 0.263601 -0.299346 0.119809 -0.475743 0.463081 -0.410856 0.353592 0.266817 0.0451182 0.0116168 -0.198476 0.139424 0.0100852 0.298485 -0.113347 -0.256324 -0.30154
247 -0.407593 -0.270249 0.0555263 -0.144068 -1.42515 -0.802203 1.78578 -1.3438 -0.0712448 1.63892 -0.295302 1.5078 -1.15483 0.324348 1.12269 0.154966 -0.392394 -0.848301 0.00484035 -0.429808 -0.144396 0.264914 0.11806 0.34623 -1.39565 0.547445 0.454428 0.0926654 0.153363 0.208758 -0.227718 -0.32094 0.458545 0.0722541 -0.0104133 -0.154234 -0.671403 -0.0634555 -0.159583 0.258252 -0.3627 0.0250368 -0.298369 0.127758 -0.188207 0.0549816 -0.163673 0.16635 -0.346579 -0.00604863 -0.532704 0.571242 -0.420912 0.359104 0.079455 0.193214 0.0530586 -0.255709 -0.0843181 0.0421454 0.383095 -0.0780149 -0.0876215 -0.520826
910 -0.129273 -0.400671 0.224182 0.303615 -1.16158 -1.08036 1.77581 -1.33339 -0.108977 1.52245 -0.399575 1.43869 -1.36828 0.13922 1.26356 0.161959 -0.207687 -0.65252 -0.0851482 -0.706852 -0.168256 0.077145 0.167011 0.179119 -1.21427 0.460274 0.156561 -0.0587306 0.0720377 0.281007 -0.431637 -0.28098 0.274754 0.325809 -0.0150803 -0.115164 -0.664054 -0.083208 -0.239766 -0.227485 -0.300489 0.103528 -0.421324 0.282611 0.198912 0.0563092 -0.117917 0.281137 -0.168916 0.0654423 -0.155698 0.476137 -0.591838 0.332345 -0.135412 -0.0932239 -0.0614518 -0.417452 -0.0524491 -0.0776101 0.407135 0.146608 0.0132209 -0.397927
1573 -0.0742735 -0.324443 0.299274 0.233052 -1.12151 -1.11591 1.94209 -1.21655 -0.110197 1.70328 -0.354087 1.31305 -1.08847 0.0961001 1.12694 0.291642 -0.11857 -0.434486 -0.0351971 -0.664772 -0.225213 -0.0412288 0.265576 0.244558 -1.1974 0.365532 0.0206092 0.0472184 0.0251507 0.302551 -0.40865 -0.329852 0.246625 0.257149 -0.0390806 0.0951826 -0.625144 -0.0159165 -0.239462 -0.265677 -0.248295 0.0505939 -0.361873 0.40565 0.127846 0.0728711 -0.199603 0.403192 -0.251331 0.125623 -0.221447 0.526225 -0.544522 0.147916 -0.155148 -0.120662 0.0598125 -0.222748 0.142085 -0.171665 0.439127 0.15306 0.268511 -0.26528
163 -0.159433 -0.207047 0.0835474 0.0848224 -1.20132 -0.866379 1.6299 -1.14329 -0.266061 1.68577 0.0669396 1.63627 -1.0399 0.119267 1.19394 0.0968897 -0.189475 -0.740288 -0.0244464 -0.13892 -0.202132 0.0135466 0.159491 -0.0370087 -1.24344 0.279212 0.264325 0.393135 -0.0850467 0.202531 -0.359788 -0.267286 0.315454 -0.0621277 -0.192823 0.0635597 -0.528027 -0.129771 -0.135577 0.182953 -0.113528 0.0809569 -0.369014 0.216124 -0.222646 0.129742 -0.238832 0.249049 -0.00710709 -0.0136121 -0.174207 0.312037 -0.258635 0.120738 0.234457 0.251718 0.0578552 0.0979747 0.435807 -0.139285 0.191125 -0.156606 -0.120727 -0.0809575
1257 0.203974 -0.3161 0.24354 0.0876706 -1.01332 -0.755386 1.93483 -1.3894 -0.0836393 2.08638 -0.121848 1.44834 -1.12083 -0.0497831 1.26699 -0.0476581 -0.246848 -0.375597 0.0224594 -0.353097 -0.205977 -0.0604753 -0.0310621 0.000215592 -1.23244 0.335788 0.452094 0.414751 0.0929158 0.295728 -0.339514 -0.268049 0.509684 0.300172 -0.0561692 -0.0513634 -0.520546 -0.217217 -0.363958 0.206666 -0.547964 0.112224 -0.11013 0.329009 -0.0790447 -0.0321407 -0.0875354 0.521788 -0.0856912 0.179659 -0.535341 0.619923 -0.46693 0.426968 0.579082 -0.103343 -0.322835 -0.00243067 0.182349 -0.314118 0.226503 -0.0270649 -0.110785 0.0426867
846 -0.0244392 -0.299359 0.303541 0.209558 -1.11421 -0.89295 1.7897 -1.06952 -0.207661 1.43833 -0.129654 1.17422 -1.09976 0.126933 0.947444 0.0214554 -0.171019 -0.585698 0.196563 -0.134227 -0.124275 -0.221169 0.516323 0.0349169 -1.55316 0.46315 0.379815 0.351209 -0.198877 0.0775543 -0.429639 -0.348813 0.448613 0.0494942 -0.0035604 0.0255583 -0.596966 0.23189 -0.15209 -0.0702518 -0.097345 0.0731198 -0.380388 0.158547 -0.051452 -0.0896312 -0.253292 0.291607 -0.0904518 0.0560295 -0.358185 0.517444 -0.410551 0.183283 0.1542 -0.213563 0.143032 -0.108607 0.379936 -0.387859 0.183314 -0.141253 -0.149008 -0.320892
2204 0.0431058 -0.245088 0.148908 0.171386 -0.789492 -0.791603 1.4611 -0.973472 -0.166478 1.37538 -0.150671 1.06865 -0.902203 0.0917006 0.849429 0.0870688 -0.176065 -0.326986 0.106872 -0.210179 -0.237211 -0.161288 0.279868 0.0676836 -1.25371 0.379122 0.266841 0.188323 -0.135206 0.104358 -0.38223 -0.277559 0.341654 0.029251 -0.0681752 0.0871605 -0.423038 0.101449 -0.220201 -0.114584 -0.22422 0.0344769 -0.220863 0.312926 0.00735495 0.0495497 -0.234828 0.184487 -0.20851 0.0505744 -0.263832 0.522078 -0.418567 0.00530144 0.0804083 -0.220462 0.00292733 -0.0902296 0.390831 -0.325977 0.153099 -0.0565145 -0.116776 -0.270915
636 -0.00367462 -0.272542 0.168009 0.265414 -0.986676 -1.03737 1.7314 -1.19542 -0.172064 1.43467 -0.207614 1.30204 -1.19549 0.0875544 1.13535 0.211875 -0.109266 -0.548534 -0.0928116 -0.38739 -0.0941209 -0.113812 0.358645 0.0402708 -1.45013 0.2976 0.196079 0.0941431 -0.0913184 0.212601 -0.42595 -0.368221 0.3081 0.0462187 0.15636 0.0822948 -0.556583 0.210862 -0.532338 -0.178145 -0.166962 0.230051 -0.312013 0.430479 0.149229 0.0623666 -0.218776 0.18949 -0.0878449 0.204039 -0.211583 0.495316 -0.485483 0.122461 0.0758174 -0.0940339 0.202249 -0.226168 0.493108 -0.353664 0.0682136 -0.123177 0.0416436 -0.338971
1533 0.0967885 -0.391339 0.258849 0.229076 -1.11194 -0.574745 1.68724 -0.913093 -0.190206 1.74491 -0.281934 1.09064 -1.10037 0.246511 1.12552 -0.051642 -0.389236 -0.527367 -0.171935 -0.232273 -0.358938 -0.370333 0.369897 0.165128 -1.69899 0.724768 0.601572 0.304297 -0.0577598 -0.00637144 -0.30951 -0.237243 0.197179 0.0487587 0.0146284 -0.221788 -0.719017 0.0389696 -0.217209 0.0925653 -0.304616 0.0386815 -0.432963 0.153937 -0.315869 -0.0138065 -0.306599 0.102105 0.205929 0.167655 -0.43614 0.557765 -0.277928 0.282142 0.144426 0.0262866 0.035271 0.0693108 0.563134 -0.330017 0.115164 -0.0564356 -0.125968 -0.17479
2175 0.183492 -0.321219 0.152787 0.225782 -1.02529 -0.708594 1.90619 -1.34732 -0.0263505 1.91733 0.115666 1.60811 -1.23882 -0.0601135 1.28195 -0.0747127 -0.249821 -0.485456 0.000679351 -0.288293 -0.149299 -0.0129521 0.0634337 0.0347064 -1.26826 0.469537 0.662911 0.160238 -0.0105477 0.142519 -0.224335 -0.247029 0.375075 0.331568 -0.0409159 -0.0919776 -0.537091 -0.237022 -0.407763 0.0887986 -0.516726 0.171617 -0.125771 0.270225 -0.119592 -0.0837009 -0.127575 0.445835 -0.0443933 0.323518 -0.588971 0.711094 -0.423736 0.547812 0.513671 -0.0545589 -0.271439 -0.135816 0.115736 -0.218297 0.107721 -0.0254472 -0.213986 0.0146121
129 -0.0328377 -0.116211 0.205892 -0.193087 -1.11543 -0.769349 1.80683 -0.970203 -0.0310934 1.64944 0.0110525 1.44617 -1.37652 0.0581154 1.11804 0.190392 -0.275561 -0.937057 0.148494 -0.27671 -0.186136 0.0813707 0.0995304 0.252119 -1.14027 0.371826 0.569348 0.0410682 -0.0555173 0.0271122 -0.30807 -0.0159715 0.53882 0.104245 -0.281324 0.129015 -0.514691 -0.0051627 -0.24978 0.363191 -0.606125 0.330535 -0.270408 -0.0356546 0.0408653 0.012295 0.0211187 0.0993039 -0.300071 0.243882 -0.354026 0.539758 -0.485691 0.372542 0.0903772 0.227941 -0.0172603 -0.243709 0.00382753 -0.154611 0.243704 -0.157258 -0.00498215 -0.139406
538 -0.215904 -0.206302 0.390788 -0.27886 -1.3745 -0.814821 1.83192 -1.00975 -0.141511 1.3679 -0.0704249 1.31756 -1.33879 0.137028 1.05634 0.265369 -0.211895 -0.714401 0.37817 -0.146023 -0.284815 -0.000698901 0.0929947 0.319274 -1.29934 0.475515 0.581979 0.0941279 -0.172908 -0.0228713 -0.388725 -0.0448514 0.295086 0.00283028 -0.146133 0.173996 -0.536031 0.10261 -0.113695 0.354205 -0.334485 0.222267 -0.379902 -0.0925797 0.090325 -0.0585091 -0.0420201 0.256971 -0.393983 0.210548 -0.543562 0.461804 -0.398341 0.386228 0.313565 -0.0143755 -0.121699 -0.351407 0.171525 -0.247236 0.451875 -0.131392 -0.0280876 -0.0564054
2624 -0.363788 -0.125893 0.408918 -0.0226229 -1.19867 -0.641716 1.87762 -1.01725 -0.0386618 1.47363 -0.12211 1.42299 -1.36028 0.130427 1.00302 0.42134 -0.183535 -0.766166 0.213863 -0.127695 -0.246073 0.0944832 0.273348 0.201526 -1.17649 0.189061 0.567106 0.027695 0.141638 0.0570985 -0.294038 0.170177 0.241749 0.0306629 -0.143659 -0.0812795 -0.786473 -0.227928 -0.219588 0.334005 -0.475138 0.494504 -0.324199 0.129907 0.0862464 0.0426941 -0.0550632 0.346324 0.00236861 0.0785097 -0.248394 0.396166 0.0968306 0.37655 0.151379 0.0604015 0.0855653 -0.615343 0.25852 -0.0104638 0.978035 0.137792 -0.0714697 -0.157367
2252 -0.422877 -0.174238 0.567355 0.000759485 -1.22001 -0.573773 2.055 -1.07584 0.0246794 1.59798 -0.145682 1.50245 -1.45194 0.278557 1.33109 0.343594 -0.219832 -0.973856 0.30297 -0.215266 -0.303477 0.229509 0.427094 0.19169 -1.25821 0.254504 0.590174 0.269126 0.230218 0.185382 -0.0904304 0.176416 0.19459 0.0130955 -0.323866 -0.389222 -1.0544 -0.401054 -0.39251 0.311026 -0.563098 0.4335 -0.421739 0.216469 0.0914375 -0.0191854 -0.164041 0.556998 0.082257 0.379832 -0.25701 0.369782 0.0320087 0.452942 0.112928 0.113608 0.12875 -0.463999 0.337435 -0.0405853 1.15449 0.306848 -0.235357 -0.161446
2269 -0.315533 -0.112797 0.463685 -0.00469677 -1.08201 -0.540157 1.87944 -0.943976 -0.018096 1.39457 -0.15057 1.38314 -1.29996 0.211934 1.10886 0.316612 -0.219054 -0.736335 0.228837 -0.149119 -0.281348 0.202438 0.270599 0.140114 -1.06611 0.182151 0.534718 0.204642 0.184726 0.133231 -0.0521289 0.219463 0.194164 0.0128456 -0.258718 -0.239288 -0.869152 -0.323625 -0.342112 0.35426 -0.548739 0.397399 -0.331864 0.096204 0.125024 0.0252165 -0.130318 0.48482 0.0893185 0.332954 -0.252987 0.348065 0.0715487 0.4074 0.128324 0.0515587 0.169712 -0.410401 0.383392 -0.050708 0.989299 0.260648 -0.177341 -0.16824
1277 -0.374055 -0.0436238 0.427721 0.0520956 -1.10035 -0.464025 1.7706 -1.00778 0.0822521 1.47566 -0.165124 1.47376 -1.38601 0.261001 1.17077 0.250464 -0.165061 -0.898702 0.203588 -0.14717 -0.166999 0.19538 0.250113 0.0609908 -1.09781 0.229538 0.626763 0.222812 0.221002 0.13046 -0.0535813 0.137101 0.200151 0.0724163 -0.246558 -0.315244 -0.796361 -0.293176 -0.338697 0.333667 -0.648091 0.324629 -0.362619 0.0362794 0.134655 0.0136837 -0.174116 0.453566 0.132843 0.399939 -0.312149 0.459062 0.0917953 0.457345 0.178757 0.0975524 0.108994 -0.348751 0.402284 -0.0685479 0.916679 0.298673 -0.266143 -0.132639
1931 -0.287214 -0.0414048 0.291769 0.0374134 -1.10919 -0.615246 2.00725 -1.04607 0.0609292 1.56122 -0.21511 1.70295 -1.37492 0.223809 1.13649 0.362968 -0.119217 -0.808291 0.148812 -0.105374 -0.203977 0.15041 0.164367 0.11154 -1.16995 0.053405 0.560951 0.1622 0.105458 0.1597 -0.307511 0.289924 0.297306 0.0356597 0.00341435 -0.234179 -0.876625 -0.186102 -0.12359 0.197238 -0.443646 0.282054 -0.341636 0.25263 0.190219 -0.0470078 -0.20947 0.5186 0.151202 0.284179 -0.302141 0.406018 -0.0415513 0.331778 -0.0397547 7.35616e-05 0.188133 -0.582441 0.393278 -0.0411345 0.914617 0.29322 -0.206893 -0.177324
1178 -0.365562 -0.266411 0.533845 0.260242 -1.2321 -0.468419 1.64666 -1.19111 0.17533 1.90456 -0.135227 1.42341 -1.21039 0.475759 1.4146 -0.146015 0.0418379 -1.02495 0.149202 -0.329011 -0.0117483 -0.0746773 0.265078 5.40787e-05 -1.11483 0.622609 0.481829 0.350596 0.163578 0.330997 -0.278403 -0.04548 0.493367 0.212165 -0.174305 -0.336578 -0.617889 -0.209171 -0.366263 0.245761 -0.435123 0.188604 -0.270365 0.335603 -0.0870755 -0.111409 -0.228713 0.337209 0.195957 0.194839 -0.283778 0.534687 -0.302669 0.336483 0.223014 -0.124768 0.116786 0.0680972 0.461445 -0.270539 0.642343 0.40456 -0.209147 -0.206682
995 -0.268465 -0.308098 0.472046 0.340571 -1.4043 -0.788947 1.67247 -1.24426 0.0313218 1.93713 -0.154083 1.54132 -1.24845 0.282914 1.52727 -0.153854 -0.101291 -1.00352 0.0610303 -0.335599 -0.088973 0.0219127 0.233922 -0.0617436 -1.17403 0.636023 0.439841 0.394599 0.147507 0.346169 -0.197837 -0.122606 0.40888 0.382384 -0.148922 -0.324496 -0.676818 -0.130482 -0.3859 0.247629 -0.559051 0.16502 -0.24655 0.181869 -0.168548 -0.0909037 -0.26363 0.378075 0.153216 0.268047 -0.394726 0.690578 -0.297582 0.326798 0.117045 -0.0824415 0.0952367 -0.0169189 0.557793 -0.273439 0.479377 0.340982 -0.193855 -0.103122
1231 -0.176237 -0.328573 0.4065 0.36653 -1.47986 -0.73449 1.78937 -1.22928 0.0832157 2.02464 -0.276171 1.50006 -1.20426 0.283797 1.49177 -0.177144 -0.135497 -1.12825 0.0193865 -0.315972 -0.0379433 -0.0735195 0.25673 -0.222924 -1.11287 0.660867 0.486329 0.411321 0.200235 0.579888 -0.208699 -0.1815 0.475137 0.40654 -0.14645 -0.315932 -0.772165 -0.146647 -0.454062 0.243977 -0.595648 0.118321 -0.368978 0.169406 -0.177886 -0.06219 -0.32056 0.388993 0.343168 0.3351 -0.366736 0.704543 -0.360723 0.434692 0.0732936 -0.00615622 0.149242 -0.0557624 0.641503 -0.357303 0.520527 0.36425 -0.240424 -0.165471
2211 -0.162793 -0.260772 0.405335 0.306696 -1.38974 -0.686989 1.60378 -1.21557 0.0662412 1.89421 -0.228619 1.43582 -1.0803 0.239219 1.49395 -0.172259 -0.111232 -0.928987 0.0609388 -0.347975 -0.0309953 -0.0593661 0.196798 -0.240302 -1.00526 0.580818 0.403811 0.328078 0.238412 0.609326 -0.226665 -0.16404 0.448634 0.397772 -0.11832 -0.269809 -0.710368 -0.116755 -0.410211 0.226643 -0.537451 0.0965826 -0.334243 0.195323 -0.125722 -0.0755193 -0.283405 0.386455 0.23958 0.173764 -0.353258 0.61827 -0.300876 0.336082 0.097969 -0.0257941 0.0529237 0.0487421 0.44307 -0.407016 0.515761 0.355632 -0.149193 -0.0847379
2065 -0.0624206 -0.263941 0.357264 0.253312 -1.17992 -0.575433 1.2686 -1.01082 0.182235 1.64713 -0.18389 1.18937 -1.01722 0.229325 1.32957 -0.241154 -0.17913 -0.888718 0.0962637 -0.28826 -0.0547315 -0.0107848 0.259863 -0.0473339 -1.08401 0.574796 0.572124 0.293238 0.186765 0.52984 -0.265142 -0.170761 0.250025 0.361632 -0.216305 -0.387954 -0.521738 -0.146051 -0.403027 0.235845 -0.550661 0.0516873 -0.301822 -0.0234715 -0.117522 -0.118099 -0.262405 0.429958 0.117288 0.352765 -0.401593 0.537611 -0.303861 0.369741 0.224063 0.00695505 -0.138214 0.0937442 0.492164 -0.404499 0.37927 0.242275 -0.199309 -0.0256453
1495 -0.195552 -0.258536 0.368765 0.29189 -1.03256 -0.527996 1.19654 -0.945544 0.177596 1.40918 -0.202797 1.06356 -0.909192 0.233292 1.11492 -0.16228 -0.165222 -0.747152 0.06652 -0.254631 -0.0230368 -0.0240689 0.20138 -0.0618339 -0.884284 0.426209 0.396821 0.224641 0.212875 0.416926 -0.156109 -0.0894166 0.247024 0.295024 -0.204113 -0.365892 -0.451769 -0.114239 -0.300713 0.230696 -0.435607 0.150573 -0.254502 0.0136062 -0.0430717 -0.0426878 -0.146582 0.394835 0.148569 0.276918 -0.335902 0.491145 -0.163671 0.356717 0.0912955 0.0163263 -0.068146 0.0584611 0.415175 -0.306027 0.388757 0.22332 -0.166695 -0.0781077
1696 0.0787666 -0.199239 0.127561 0.302597 -1.2829 -0.760298 1.74872 -1.29658 0.0276021 1.95189 -0.0945481 1.30576 -1.08642 0.00501065 1.41286 -0.0104135 -0.223237 -0.816058 -0.00372159 -0.143252 -0.198258 -0.0418829 0.179458 -0.239042 -1.06145 0.46384 0.417675 0.412001 0.217278 0.481464 -0.295013 -0.2109 0.430807 0.439842 -0.0491612 0.00183899 -0.605601 -0.169041 -0.388555 0.186898 -0.5284 0.194188 -0.272731 0.303864 -0.12782 0.0698823 -0.151094 0.417938 0.150635 0.117551 -0.341839 0.586898 -0.381725 0.351735 0.255686 -0.125895 -0.0880498 -0.0138423 0.370257 -0.294484 0.370403 0.179677 -0.10314 -0.118582
188 -0.0923389 -0.292655 0.185855 0.167574 -1.09929 -0.908759 2.00935 -1.00001 -0.261878 1.67943 -0.229834 1.35214 -1.12627 0.101039 1.08854 -0.0106186 -0.0618908 -0.833164 0.262193 0.0314758 -0.135682 -0.0277031 0.365303 0.042456 -1.23945 0.313442 0.545934 0.454388 -0.0968813 0.00106638 -0.393107 -0.23577 0.440393 -0.0893836 -0.0208634 0.173352 -0.645072 -0.00294245 -0.168703 0.0604384 -0.204507 -0.0079898 -0.285956 0.288196 0.0752641 -0.191126 -0.0710593 0.225235 -0.0163829 0.0752667 -0.444275 0.336651 -0.467066 0.460532 0.235098 -0.0669787 -0.198795 -0.119098 0.28958 -0.305267 0.124016 -0.102586 -0.207142 -0.124692
2361 0.100835 -0.265683 0.307047 0.243505 -0.919286 -0.714122 1.62214 -1.07295 -0.0633209 1.71656 -0.154124 1.17891 -0.955844 -0.00686684 0.95696 -0.101542 -0.18652 -0.420373 0.0633229 -0.121883 -0.134249 -0.086411 0.21625 -0.0449197 -0.995614 0.315461 0.329448 0.337033 0.0428781 0.2285 -0.347975 -0.231724 0.473975 0.107751 -0.0291701 0.0231177 -0.448499 -0.127039 -0.298397 0.197855 -0.429845 0.142609 -0.157297 0.150452 -0.0230119 -0.0224485 -0.148172 0.312927 -0.0532674 0.113868 -0.417084 0.575827 -0.390502 0.342136 0.365386 -0.132429 -0.291087 -0.00462394 0.336929 -0.318621 0.282722 0.00348249 -0.166528 -0.0802032
826 0.126492 -0.0624523 0.134848 0.0309381 -1.17879 -0.499684 1.48321 -1.40751 -0.0227427 1.41682 -0.0774818 1.30029 -0.849541 0.538642 1.35857 0.0881372 0.105894 -0.536752 0.228455 -0.154328 -0.192265 -0.265183 0.0940122 -0.0129857 -1.35675 0.452697 0.129056 0.312424 0.133239 0.309337 -0.484449 -0.236562 0.108952 -0.168524 -0.296774 0.124156 -0.387177 -0.167735 -0.0296959 0.00440333 -0.471274 -0.162415 -0.312071 0.29055 0.103952 -0.0146093 -0.265397 0.45042 -0.114956 0.227781 -0.222306 0.547497 -0.209512 0.123622 0.0264038 -0.235865 -0.0809112 -0.34655 0.449779 -0.152924 0.75913 -0.27501 -0.381046 -0.183218
1484 0.325651 -0.231183 0.009747 -0.00579569 -1.02011 -0.815823 1.63198 -1.25113 -0.293171 1.53067 -0.351507 1.33758 -0.963984 0.410108 1.54622 -0.189892 0.0372265 -0.517642 0.176828 -0.219726 -0.309523 -0.0733888 0.197119 0.169097 -1.30874 0.545447 0.141556 -0.0319362 0.124217 0.290845 -0.274698 -0.159646 0.209091 0.0584424 -0.424952 0.0475083 -0.273899 -0.451472 -0.315732 0.0874092 -0.462991 -0.0770788 -0.344298 0.162319 -0.104324 0.0229573 -0.381453 -0.075317 -0.173797 0.138867 -0.456287 0.574375 -0.203411 0.0385869 0.240053 0.128792 0.135038 -0.216516 0.503226 -0.175629 0.500822 -0.274331 -0.03353 -0.0282159
1463 0.0570895 -0.454814 0.151868 0.0584963 -0.752254 -0.578884 1.67654 -1.1695 -0.321474 1.56304 -0.322046 1.24322 -0.931393 0.116226 1.29124 -0.150299 -0.0699818 -0.486436 0.252832 -0.182437 -0.37275 -0.185415 0.316397 0.151991 -1.29082 0.474433 0.269046 -0.0450267 0.255564 0.445544 -0.353447 -0.237154 0.352374 -0.145536 -0.237221 0.022717 -0.439747 -0.360494 -0.219756 0.142677 -0.603315 0.0171061 -0.482563 0.164914 -0.5524 0.169716 -0.556064 -0.212941 -0.141944 0.100364 -0.443004 0.428367 -0.113137 0.151532 0.240573 0.17848 -0.273376 -0.268084 0.32209 -0.344319 0.591457 -0.319518 0.0110669 -0.162265
1512 0.0613038 -0.475754 0.153621 0.00568621 -0.859433 -0.590174 1.86021 -1.1218 -0.271267 1.42498 -0.441558 1.2282 -0.967637 0.169562 1.11075 -0.12295 -0.0105505 -0.477798 0.213335 -0.377086 -0.440831 0.23393 0.277121 0.146384 -1.14277 0.23531 0.19174 0.134755 0.193167 0.536047 -0.503619 -0.184588 0.511904 -0.101025 -0.367141 -0.0651379 -0.466707 -0.401172 -0.314499 0.243236 -0.43847 -0.0899731 -0.351416 0.110146 -0.304081 0.233944 -0.311247 -0.288313 -0.173328 0.080681 -0.455425 0.272359 -0.241116 0.480166 0.291626 0.150902 -0.3121 -0.232132 0.243332 -0.102634 0.432038 -0.337228 0.00115954 -0.237147
70 0.116031 -0.424288 0.0432596 -0.00446906 -0.943815 -0.479816 1.70995 -1.23214 -0.216374 1.5385 -0.285729 1.42932 -1.174 0.319353 1.4 -0.153376 -0.114227 -0.515207 0.205125 -0.339739 -0.343946 -0.115087 0.216146 0.141308 -1.48299 0.520199 0.206393 -0.0717396 0.10361 0.319338 -0.51274 -0.322068 0.342712 0.0594294 -0.263564 0.0289069 -0.582956 -0.40869 -0.158962 0.106775 -0.523986 -0.0683938 -0.419336 0.0762101 -0.273745 0.280663 -0.540058 -0.0299154 0.00103147 0.0995914 -0.678149 0.520444 -0.116986 0.10032 0.197743 0.26053 0.0805871 -0.31896 0.503405 -0.329728 0.366922 -0.455386 -0.103666 -0.00627986
767 0.116726 -0.247456 0.0753932 -0.0105511 -0.861813 -0.461732 1.53469 -1.1223 -0.140443 1.36325 -0.156959 1.12378 -0.928812 0.319558 1.28157 0.0047896 -0.0288818 -0.427126 0.242634 -0.2645 -0.417463 -0.132925 0.275955 0.0646946 -1.32597 0.509411 0.256057 0.122017 0.119405 0.272022 -0.540578 -0.152846 0.17491 0.0816655 -0.225513 -0.0633682 -0.571422 -0.254887 -0.174845 0.13116 -0.423999 0.0038831 -0.43222 0.0458474 -0.146479 0.192277 -0.44573 0.108791 -0.125886 0.089246 -0.409887 0.418347 -0.210346 0.0960522 0.0986815 0.0113649 0.062186 -0.193663 0.452747 -0.26977 0.569639 -0.297249 -0.302944 -0.0582235
1237 0.118983 -0.274113 0.0763998 0.0801572 -0.840616 -0.49325 1.55133 -1.23246 -0.15294 1.30153 -0.202932 1.21069 -0.933944 0.299784 1.21562 -0.0438107 -0.0264336 -0.48463 0.217812 -0.294639 -0.356407 -0.156152 0.18623 0.01612 -1.32824 0.507924 0.21475 -0.0193006 0.199089 0.352927 -0.536888 -0.246973 0.203768 0.0364048 -0.289232 0.0767966 -0.510629 -0.371454 -0.186783 0.112306 -0.662425 -0.025791 -0.39836 0.0676082 -0.0454949 0.239464 -0.502728 -0.0119962 -0.0663846 0.058294 -0.468874 0.45864 -0.214781 0.128637 0.202011 0.0985779 0.0381677 -0.251523 0.457648 -0.319295 0.55983 -0.298676 -0.162653 -0.0581153
1618 0.0878646 -0.31095 0.185224 0.0421351 -0.844752 -0.423776 1.63573 -1.13482 -0.166387 1.49472 -0.32784 1.09087 -0.94861 0.242766 1.05369 -0.0128195 -0.148336 -0.552407 0.00952648 -0.24796 -0.468192 0.0590862 0.173196 0.185911 -1.03827 0.233914 0.188032 -0.16825 -0.280073 0.407926 -0.208345 -0.0684927 0.112049 0.283604 -0.134489 -0.0766568 -0.350415 -0.378807 -0.320171 0.0964102 -0.578529 -0.0177256 -0.357412 0.20449 -0.0843882 0.0100927 -0.431166 -0.0877807 0.187396 -0.0194866 -0.334386 0.153482 -0.505853 0.195176 0.322586 0.00176782 0.0401672 -0.245287 0.324568 -0.295114 0.29331 -0.211505 0.110807 0.0198119
1908 -0.147464 -0.196587 0.19609 -0.208522 -1.0475 -0.510278 1.71975 -1.41447 -0.0820043 1.57146 0.0637813 1.28602 -1.28017 0.219854 1.02873 -0.121409 0.069542 -0.735331 0.24027 -0.566392 -0.263259 0.540603 0.531199 0.26986 -1.21978 0.549891 0.275231 0.0390819 -0.375667 0.558461 -0.348376 -0.286399 0.187035 0.301778 0.235802 -0.413813 -0.549487 -0.113032 -0.201646 0.192691 -0.258799 0.228866 -0.337951 0.00386821 0.120467 -0.159445 -0.102001 0.235741 0.0410546 0.20378 -0.147364 0.397904 -0.736877 0.253676 0.0358477 -0.130164 -0.166091 -0.545608 0.185532 -0.16856 0.131577 -0.305698 -0.335604 -0.274393
478 0.248664 -0.355859 0.172078 0.199127 -0.838725 -0.538907 1.25483 -1.09447 -0.176046 1.82299 -0.414631 1.29171 -1.10289 0.186624 1.19411 -0.179564 -0.166926 -0.575637 0.153703 -0.252202 -0.0852388 -0.179435 0.431678 0.195078 -1.09766 0.561989 0.437297 -0.0503465 0.0621873 0.248353 -0.324471 -0.271142 0.0434784 0.150298 -0.0301093 -0.197156 -0.498122 -0.0298498 -0.154218 -0.0725632 -0.11034 0.208115 -0.415895 0.429345 0.115172 0.0917049 0.0287667 0.157852 -0.227703 0.274198 -0.11613 0.245994 -0.44006 -0.0754641 0.124232 0.255186 -0.199355 -0.430875 0.347916 0.00962798 0.255314 -0.0416676 -0.147222 0.0395249
430 0.322277 -0.240106 0.505821 0.16993 -0.759156 -0.783226 1.81235 -1.01275 -0.0452966 1.53482 -0.217685 1.06877 -1.12971 0.33516 1.23026 -0.0366477 -0.00354552 -0.787357 -0.0438296 -0.551075 -0.518581 0.161765 0.127557 -0.115894 -1.32366 0.614744 -0.0862231 0.0955073 0.0366233 0.225772 -0.0430341 -0.242031 0.24241 -0.110013 0.027033 -0.019036 -0.394347 -0.374682 -0.15406 0.374883 -0.541625 0.007525 -0.250856 -0.00512308 -0.0247623 0.0313423 0.12859 -0.0102368 -0.00615034 0.308363 -0.25937 0.421536 -0.155747 0.0784378 -0.0227433 0.4246 -0.137749 -0.53869 0.311975 -0.152731 0.329069 0.0999775 -0.217626 -0.206983
686 0.140158 -0.213251 0.403914 0.24042 -1.11093 -0.330912 1.39031 -1.15681 -0.164465 1.72543 -0.271089 1.22856 -0.974511 0.644902 1.39734 0.144454 -0.0321455 -0.379248 0.215899 -0.283549 -0.0161087 -0.0265532 0.104016 0.089456 -1.33502 0.591585 -0.088379 0.246178 0.266201 0.201454 -0.288388 0.0233575 0.353992 0.385822 -0.254069 0.0909266 -0.469843 -0.354024 -0.0509119 0.167371 -0.428351 -0.0919455 -0.104544 0.22102 0.100839 0.123589 0.236338 0.415924 -0.0871393 0.269654 -0.0833231 0.347005 -0.45652 0.2064 0.0139346 0.116427 0.0924246 -0.48585 0.461617 -0.313436 0.385381 0.13876 -0.426401 -0.0085409
1626 -0.0316198 -0.132541 0.151713 0.290389 -1.2519 -0.307338 1.75043 -1.13909 -0.184757 1.80143 -0.472933 1.21554 -1.39799 0.22729 1.35131 0.144251 -0.0441927 -0.751112 0.122699 -0.240869 -0.0509766 0.150014 -0.240314 0.101586 -1.28719 0.556744 -0.200903 0.294794 0.0977865 0.365563 -0.327727 -0.145514 -0.0107989 0.0145699 -0.116094 -0.155571 -0.62954 -0.213171 -0.103969 0.0837511 -0.241225 0.0347422 -0.239892 0.0414156 -0.220266 -0.161015 -0.0077068 0.254865 -0.093977 0.37205 -0.245501 0.530134 -0.664597 0.30079 0.0140163 0.10755 -0.140689 -0.378742 0.373423 -0.134336 0.53231 0.0145773 0.207161 -0.183298
66 0.191323 -0.202891 0.0475633 0.224167 -0.84638 -0.574588 1.97436 -1.15781 -0.245522 1.75057 -0.430938 1.03551 -1.32813 0.377561 1.15404 -0.243671 0.0207084 -0.755079 0.29213 -0.24252 0.317688 0.347815 0.0873393 0.305198 -1.33642 0.270413 0.3505 0.573631 0.206939 0.220389 -0.15972 -0.339368 -0.232089 -0.0967495 0.204779 -0.057187 -0.696565 -0.29222 -0.194353 0.0050037 -0.235395 0.0927139 -0.199182 0.504596 -0.0554519 -0.116307 -0.129428 0.411161 -0.23653 0.0469302 0.00496011 0.637485 -0.536877 -0.0746128 0.293937 -0.0148487 -0.0185966 -0.384485 0.492116 0.106987 0.592417 0.0888179 0.0462357 -0.377199
2597 0.0614004 -0.125682 0.29215 0.289328 -0.970382 -0.369122 1.4848 -1.0657 -0.221548 1.66341 -0.307429 1.15121 -0.859421 0.255656 0.993975 0.114749 -0.0355406 -0.499733 0.0988 -0.367653 0.0286499 0.00136604 -0.0855164 0.00768515 -1.138 0.39524 -0.00101872 0.315044 0.0583614 0.242898 -0.242172 -0.152757 -0.0949469 0.00711323 -0.0823825 -0.0193889 -0.550191 -0.206486 -0.146489 0.0557994 -0.208718 -0.00203099 -0.275659 0.150925 -0.0885103 -0.0249706 0.0359818 0.265075 -0.0202278 0.299592 -0.0505009 0.418025 -0.54236 0.16736 0.0820781 0.105759 -0.0825951 -0.369217 0.5483 -0.105964 0.409881 0.0346516 -0.105191 -0.120162
1860 -0.117995 -0.290571 0.247487 0.0467815 -0.966069 -0.42485 1.452 -1.07563 -0.0539674 1.5572 -0.542434 0.95997 -1.11356 0.50165 1.32054 0.181677 -0.161483 -0.473378 -0.0648931 -0.482143 0.00975553 -0.00100596 -0.070795 0.145239 -1.48525 0.307194 -0.110181 0.118006 -0.0315973 0.420964 -0.159126 -0.22317 0.447489 0.0444114 -0.0926678 -0.104048 -0.377052 -0.261039 -0.0271116 0.147521 -0.222898 -0.10096 -0.0168067 -0.00545015 -0.078165 0.156157 -0.213068 0.132356 0.140974 0.0475185 -0.237138 0.527805 -0.331913 0.346532 0.220479 0.061923 0.13696 -0.27277 0.505373 -0.0292729 0.160448 0.109027 0.0166816 -0.0995676
1859 -0.041275 -0.347059 0.331197 0.170381 -0.925892 -0.419781 1.58685 -1.01752 -0.0869292 1.48584 -0.328794 1.0479 -0.683512 0.525398 1.10965 0.190526 -0.0775981 -0.408987 -0.0587077 -0.217041 -0.300449 0.161094 0.0684428 0.0944621 -1.51667 0.265514 0.0674878 0.0433578 0.118965 0.278149 -0.256456 -0.172243 0.424896 -0.012075 -0.252503 -0.0144217 -0.36895 -0.316112 -0.26305 0.124293 -0.207712 0.213178 0.00220896 0.24121 -0.0376881 0.17649 -0.330389 0.184588 -0.0248217 0.201625 -0.215825 0.574444 -0.503848 0.203613 0.00850552 -0.0193108 0.247894 -0.353361 0.547209 -0.339156 0.267654 0.209364 -0.0215431 -0.163571
82 0.0250953 -0.224112 0.22507 0.25819 -0.992775 -0.488725 1.73653 -0.879758 -0.159722 1.50931 -0.388669 1.25832 -0.907946 0.38053 1.35198 0.118864 -0.302076 -0.510772 -0.186543 -0.441527 -0.0959723 0.171319 -0.0023891 0.125561 -1.51714 0.338131 0.351196 0.140958 0.110303 0.395429 -0.304851 -0.109521 0.527277 -0.0238934 0.0676245 -0.213311 -0.475097 0.00694383 -0.179374 0.134189 -0.118936 0.129591 -0.218432 0.276553 -0.211482 0.116128 -0.276858 0.254882 0.0869127 0.231586 -0.342511 0.642638 -0.444949 0.226574 0.249019 0.0951878 0.231829 -0.272213 0.321003 -0.0982574 0.400162 0.0475679 -0.0491578 -0.173293
565 0.204884 -0.0891957 0.274037 0.225153 -0.977398 -0.446603 1.91928 -0.702264 -0.255141 1.54057 -0.129628 1.45496 -1.09873 0.242753 0.960599 0.331537 -0.111749 -0.516106 0.217558 -0.388251 -0.172103 0.0784992 0.247675 0.183623 -1.33838 0.495071 0.508711 0.150135 0.165227 0.473464 -0.414319 -0.0540163 0.485618 -0.0232116 0.0107951 -0.223185 -0.0850121 0.0102985 -0.129273 0.0774043 -0.245548 0.207769 -0.10917 0.110178 -0.206401 0.160096 -0.181006 0.118313 0.0354017 0.132149 -0.0694248 0.584133 -0.264342 0.227122 0.151734 -0.118289 -0.0503086 -0.451941 0.0603852 -0.0316973 0.264728 0.00125744 -0.136732 0.0234174
523 -0.067691 -0.054521 0.235983 -0.28059 -0.935211 -0.696946 1.96478 -0.709452 0.110824 1.17312 -0.169091 1.81817 -1.40618 0.429869 0.894009 0.1876 0.0600555 -0.646122 0.0503012 -0.345593 -0.242449 0.239387 0.235685 0.107609 -1.17283 0.318222 0.226199 0.266199 0.0168275 0.276965 -0.569394 -0.135607 0.393177 -0.222095 0.0851971 -0.256792 -0.212443 -0.202579 -0.0680701 0.0303578 -0.364202 0.146993 -0.0786759 0.350231 -0.0490312 0.0185908 -0.236779 -0.0835163 0.100995 0.33357 -0.144455 0.411605 -0.185821 0.256994 0.260641 0.0535468 -0.0997517 0.106332 0.381576 -0.122844 0.537185 0.271583 -0.237362 0.119283
552 0.258623 0.0338781 0.38207 -0.0914095 -0.859309 -0.549438 1.92348 -0.85225 -0.0441376 1.49132 -0.254324 1.52667 -0.903537 0.211669 1.29514 0.516815 -0.0717918 -0.393672 -0.00340925 -0.412704 0.187729 0.154798 0.4018 0.235411 -1.24756 0.4432 0.33311 0.213697 0.373848 0.360827 -0.569874 -0.320987 0.246932 -0.0203054 -0.105091 -0.115922 -0.271296 -0.0607704 -0.291158 0.0932328 -0.465406 0.344374 0.0842729 0.173011 -0.0995491 0.0990436 -0.357121 0.185928 -0.0143117 -0.10548 0.0383827 0.445513 -0.422391 0.276167 0.116311 0.0339037 -0.0559502 -0.352547 0.182841 -0.216117 0.149202 -0.0479876 -0.298482 -0.411149
2687 -0.0992322 -0.224103 0.13072 0.168804 -1.09783 -1.08714 1.74429 -1.14327 -0.138532 1.54832 -0.245924 1.29819 -1.1176 0.0788607 1.05707 0.269149 -0.0762813 -0.422032 0.0272381 -0.581912 -0.180172 -0.0200156 0.280195 0.216138 -1.22563 0.432976 0.104297 0.126796 -0.0313627 0.387297 -0.547304 -0.389238 0.241935 0.24927 -0.104647 0.0488752 -0.501935 0.0881034 -0.341265 -0.239879 -0.169035 0.114669 -0.379444 0.341986 0.157165 0.0595642 -0.106293 0.274533 -0.195163 0.0763973 -0.182058 0.574785 -0.579252 0.0150344 -0.150852 -0.156032 0.13201 -0.369675 0.202037 -0.123304 0.35634 0.138387 0.107854 -0.189852
566 -0.182399 -0.0565642 0.0847177 0.117859 -0.809475 -0.589789 1.9385 -0.767558 -0.22458 1.19513 -0.485577 1.29038 -1.11176 0.30153 1.28472 0.261842 0.0450691 -0.741267 0.370862 -0.242998 0.283945 -0.123173 0.60105 0.113896 -1.12198 0.209645 0.464956 0.0976907 -0.0594411 0.386863 -0.682844 -0.244384 0.279593 0.207147 -0.00766884 0.054537 -0.362995 -0.424725 -0.117638 0.143928 -0.222907 0.202838 -0.268348 0.0693181 -0.364167 0.0419542 -0.0555835 0.320885 0.0627153 0.226593 -0.167638 0.775853 -0.434958 -0.0295142 0.248913 -0.121433 -0.302697 -0.414477 0.389114 -0.0893523 -0.0491749 0.107212 0.0140269 0.201386
1838 -0.0226855 -0.229049 0.102693 -0.00669622 -1.15061 -0.599298 1.56325 -1.3508 -0.165924 1.67736 -0.0120191 1.4063 -1.30775 0.189133 1.01021 -0.0222596 -0.014843 -0.801881 0.238718 -0.346304 -0.189723 0.391147 0.442081 0.21469 -1.2694 0.522978 0.320955 0.0596529 -0.324236 0.494942 -0.326113 -0.161139 0.160885 0.332043 0.239396 -0.452329 -0.639051 -0.0444701 -0.217188 0.0416929 -0.396735 0.209479 -0.396 0.132059 0.00851473 -0.190266 -0.331635 0.324488 -0.0639762 0.208971 -0.0146717 0.235933 -0.775302 0.0970849 0.199756 -0.0939055 -0.189119 -0.55814 0.38389 -0.179802 0.284837 -0.289134 -0.26942 -0.173222
2561 -0.0368767 -0.174137 0.155061 0.035077 -0.857385 -0.514978 1.41418 -1.18475 -0.170468 1.45812 -0.0592789 1.03461 -1.05838 0.145651 0.910172 -0.00648368 -0.0727249 -0.655722 0.179315 -0.279002 -0.11527 0.315056 0.369794 0.268031 -0.986867 0.468399 0.299758 0.0254646 -0.316132 0.455301 -0.293287 -0.196098 0.196073 0.253366 0.146807 -0.381026 -0.527022 -0.114726 -0.269186 -0.0304569 -0.35479 0.170967 -0.371123 0.228907 -0.072257 -0.191033 -0.25167 0.149378 -0.0543061 0.244186 -0.0334211 0.257197 -0.684868 0.134925 0.195369 -0.097983 -0.223522 -0.442798 0.360882 -0.167703 0.301961 -0.188092 -0.10326 -0.152992
485 0.0350077 -0.329444 0.0222813 0.0352642 -1.13984 -0.668996 1.66396 -1.38218 -0.104644 1.643 -0.0180355 1.39615 -1.32998 0.124691 1.12051 -0.0429463 -0.0318788 -0.769956 0.235689 -0.385067 -0.117732 0.384198 0.479171 0.307392 -1.11235 0.460511 0.215085 0.116733 -0.381593 0.529028 -0.269524 -0.125129 0.203141 0.328284 0.271611 -0.48492 -0.598253 -0.116945 -0.352116 0.0304742 -0.356718 0.214251 -0.381466 0.153803 0.0642004 -0.22106 -0.242293 0.400415 -0.105979 0.178188 -0.0508306 0.32733 -0.740172 0.139665 0.213802 -0.0552263 -0.199972 -0.565344 0.354851 -0.194141 0.250924 -0.247451 -0.123205 -0.145627
2380 0.0834796 -0.122423 0.15308 0.140355 -0.877071 -0.689111 1.81171 -1.38757 -0.259731 1.46981 -0.161432 1.22712 -1.24979 -0.0836559 1.06344 -0.0912778 -0.0108682 -0.825431 0.182409 -0.402387 -0.0864379 0.307031 0.375398 0.257193 -1.07673 0.366551 0.259042 0.113377 -0.270392 0.375662 -0.342576 -0.28357 0.140435 0.227933 0.390293 -0.322704 -0.5809 -0.134824 -0.236867 -0.0511003 -0.431786 0.116397 -0.341614 0.113379 -0.0192978 -0.254442 0.00427122 0.230828 -0.151833 0.268928 0.0820408 0.345317 -0.619142 0.140801 0.219795 0.0304084 -0.208254 -0.603494 0.245467 -0.0212179 0.20679 -0.113646 -0.0532864 -0.126266
649 0.196572 -0.0987612 0.276196 0.112509 -0.955134 -0.503694 1.78913 -1.30216 -0.369431 1.76435 -0.436821 1.39411 -1.07224 0.0517293 1.09385 -0.0136014 0.0777039 -0.763199 0.362255 -0.195903 -0.0116293 0.127529 0.348805 0.00362346 -1.19609 0.4474 0.513644 0.25131 0.0928605 0.338439 -0.566985 -0.509334 0.206062 0.058431 0.289095 -0.0661478 -0.713375 0.0471262 -0.225966 -0.138776 -0.302122 0.131229 -0.35215 0.46722 -0.131999 -0.132338 -0.0951564 -0.0193194 -0.428241 0.422041 0.135705 0.0912168 -0.503551 0.245158 0.025591 0.170746 -0.210755 -0.446266 0.0341436 0.156495 0.348643 -0.0418892 -0.1015 0.352123
2061 0.101454 -0.130418 0.170283 0.258047 -0.957225 -0.570692 1.67152 -1.35606 -0.269437 1.81934 -0.376759 1.34461 -1.03339 0.219335 1.24103 -0.00551328 -0.0776205 -0.700487 0.163908 -0.254437 -0.159448 -0.0126447 0.55535 0.250201 -1.13675 0.474785 0.658382 0.183327 -0.0740319 0.281927 -0.507439 -0.29372 -0.114366 0.150384 0.147361 -0.260018 -0.628209 -0.0971912 -0.153789 -0.0591068 -0.260402 0.259584 -0.34027 0.237984 -0.169689 -0.163765 0.00536303 0.340294 -0.235837 0.263194 0.0144627 0.30545 -0.445723 0.226252 0.143845 0.122635 -0.339168 -0.537458 0.302163 0.0432803 0.465945 -0.166374 -0.284456 0.132728
2060 0.118683 -0.0605785 0.14825 0.261209 -0.936632 -0.51914 1.48214 -1.21725 -0.187874 1.69808 -0.262851 1.16753 -1.07019 0.100136 1.14702 0.0524535 -0.0534637 -0.68548 0.143059 -0.261502 0.038218 -0.040496 0.539433 0.130717 -1.0887 0.431914 0.520595 0.191721 -0.0837771 0.167216 -0.290161 -0.339618 -0.124136 0.0933117 0.15782 -0.283617 -0.531969 0.131962 -0.220682 -0.106361 -0.142456 0.189557 -0.432465 0.295451 -0.160931 -0.175066 -0.0366627 0.275775 -0.176108 0.272345 0.0665838 0.336367 -0.492951 0.0726806 0.113621 0.0776375 -0.248137 -0.491009 0.275493 0.145251 0.418557 -0.0559364 -0.26294 0.0668054
2052 0.0167316 -0.0341127 0.111129 0.273064 -0.926066 -0.508479 1.52512 -1.26821 -0.167926 1.69613 -0.23797 1.19972 -1.02288 0.0928631 1.19237 0.0475394 -0.0599824 -0.74199 0.120456 -0.213029 -0.018378 0.00279 0.54271 0.174691 -1.08106 0.436709 0.527508 0.229185 -0.0558953 0.196368 -0.244605 -0.328031 -0.0395283 0.0962136 0.122726 -0.309566 -0.564118 0.065974 -0.317967 -0.0536952 -0.174874 0.259608 -0.401548 0.328976 -0.233116 -0.1677 -0.0581588 0.296013 -0.1274 0.192485 0.0174356 0.342448 -0.512384 0.0540068 0.120183 0.0806566 -0.234748 -0.458442 0.248692 0.047627 0.443459 -0.0350679 -0.269018 0.0142685
2066 0.0939906 0.0547514 0.147946 0.305215 -0.924134 -0.475028 1.45224 -1.26256 -0.228295 1.62525 -0.26874 1.14729 -1.04709 0.121191 1.21412 0.0813392 -0.0334633 -0.695547 0.171933 -0.183171 -0.0194742 -0.097511 0.591053 0.147945 -1.10707 0.461545 0.595025 0.181339 -0.0425034 0.141111 -0.2839 -0.337697 -0.110369 0.0837889 0.102542 -0.279829 -0.522696 0.0830961 -0.272566 -0.0903153 -0.226221 0.222518 -0.428914 0.323892 -0.196781 -0.126055 -0.0212613 0.331023 -0.197214 0.242822 0.0502599 0.309973 -0.491059 0.0490268 0.06061 0.0779836 -0.266327 -0.432261 0.208285 0.137721 0.358196 -0.0434824 -0.348125 0.0934403
438 0.396612 -0.188212 0.377743 0.211964 -0.815351 -0.473989 1.20789 -1.14125 0.154322 1.82804 -0.253531 1.27024 -1.26491 0.20108 1.26414 0.156083 -0.10044 -0.388534 -0.0233857 -0.253839 -0.0501489 -0.0576292 0.711 0.0112751 -1.21419 0.18124 0.336332 0.080841 0.0910458 0.159448 -0.686846 -0.420256 -0.0394341 0.120441 0.150324 -0.211442 -0.585263 -0.180842 0.105621 -0.135549 -0.0925777 0.0853828 -0.111597 0.405949 -0.328105 0.0600475 -0.364123 0.209648 -0.15 0.400831 -0.283956 0.174512 -0.198358 0.314236 -0.033741 0.0293291 0.0721752 -0.13777 0.297007 0.0610347 0.638418 -0.317012 -0.235121 -0.185779
2423 0.186127 0.242647 -0.171169 -0.0300229 -1.13883 -0.441482 1.3226 -1.35428 0.152673 1.8375 -0.633699 1.2503 -1.18952 0.29142 1.2741 -0.11119 -0.119821 -0.715834 0.19828 -0.194931 -0.274943 0.0900552 0.185348 0.0895115 -1.06917 0.0322205 0.186324 -0.213434 0.175472 0.308679 -0.245045 0.0448612 0.260792 0.0292167 -0.0785171 0.0231342 -0.315061 -0.093872 -0.0480147 0.114698 -0.487585 0.0291168 -0.1804 0.00945939 0.13076 -0.0319505 -0.335033 0.275489 -0.0757908 0.178134 -0.149842 0.436158 0.0789244 0.429642 0.184969 0.118155 0.0867322 -0.518612 0.589217 -0.401108 0.497355 0.0878698 0.0467483 -0.360109
378 0.104142 -0.19381 0.146041 0.0753711 -0.983259 -0.860892 1.64447 -0.836896 0.00773596 2.04943 -0.348678 0.864578 -1.11753 0.360936 1.06728 -0.505198 0.066988 -0.537795 0.078398 -0.0867465 -0.239914 -0.273047 0.385395 0.413254 -1.48135 0.199525 0.0678166 0.176367 0.191197 0.183918 -0.426756 -0.0751001 0.209853 0.327403 0.224179 -0.10373 -0.28423 0.0461356 0.0742571 0.177521 -0.572109 0.324834 -0.178613 0.247904 0.0436998 0.0264518 -0.274865 0.114774 -0.266543 -0.092129 0.0234227 0.638234 -0.316007 0.439746 0.225254 0.136784 -0.0322197 -0.440715 0.289788 0.0633007 0.368207 -0.0900412 -0.392731 -0.195535
344 -0.106695 -0.223908 0.123521 0.0216845 -0.870764 -0.659519 1.54558 -1.04062 -0.35804 1.7974 -0.48527 1.2816 -0.928273 0.45544 1.24185 -0.405434 0.168437 -0.913073 0.0410626 -0.054413 -0.540698 -0.113728 0.74936 0.034724 -1.4832 0.291591 0.22846 0.200776 0.211986 0.185546 -0.515107 -0.222616 0.297744 -0.0907226 -0.280051 -0.25844 -0.269519 -0.275637 -0.113219 0.00724057 -0.464332 0.282406 -0.534714 0.224807 0.0858977 0.300122 -0.219067 0.187258 -0.228163 0.309075 -0.171178 0.55561 -0.319978 0.406696 0.00642245 0.233162 -0.267442 -0.364251 0.439094 -0.0402312 0.180986 0.38938 0.062401 -0.283105
2032 -0.00694394 -0.247444 0.161977 0.193018 -0.992028 -0.513767 1.26242 -0.745963 0.00352226 1.403 -0.415416 1.13796 -0.979498 0.301264 0.889248 -0.0271581 0.064405 -0.580342 0.0918872 -0.116435 -0.221717 0.0232733 0.371101 0.229043 -1.04396 0.232533 0.254291 0.259114 0.151473 0.188897 -0.347636 -0.146484 0.164675 0.0770852 -0.0120615 -0.165733 -0.328002 -0.245986 -0.261662 0.231852 -0.147846 0.146171 -0.332624 -0.0579907 -0.0483977 0.198241 -0.0885063 0.242134 -0.126832 0.00087363 -0.263591 0.213922 -0.277234 0.253144 0.177488 0.0625596 -0.216682 -0.193046 0.259115 -0.0800107 0.171817 0.0473204 -0.123073 -0.117015
426 0.112463 -0.179864 -0.0920426 0.0656778 -1.22415 -0.968256 1.39622 -1.30717 -0.0915551 1.65246 -0.366392 1.51144 -1.23511 0.649695 1.29189 -0.430234 0.336736 -0.691562 -0.081637 -0.405349 0.0506027 0.0351522 0.621091 0.346608 -1.33018 0.493844 0.0145858 0.153464 0.195646 0.23082 -0.128525 -0.364705 0.443549 -0.131871 -0.0739916 -0.193531 -0.211006 -0.255512 -0.0815441 0.193492 -0.251179 0.0563896 -0.357441 0.258176 0.180635 -0.0755778 -0.286675 0.43025 -0.114996 0.103394 -0.20048 0.562818 -0.29874 0.235389 0.184181 -0.169479 -0.0093827 -0.30467 0.267057 0.189605 0.456927 -0.00336378 -0.36674 -0.252272
1644 -0.0276766 -0.0395948 -0.0126706 0.304121 -1.04891 -0.454529 1.67281 -0.894225 0.202729 1.89215 -0.0668693 1.34148 -1.4402 -0.061394 1.52413 0.277281 -0.017668 -0.603183 0.335879 -0.218121 -0.103156 0.384352 0.294978 0.102272 -1.32752 0.334059 -0.0159154 0.108653 0.0209135 0.387684 -0.408425 -0.28904 0.268434 0.156855 -0.172237 -0.202769 -0.221956 -0.0895273 -0.326457 0.400253 -0.408611 0.0693394 -0.200555 -0.210615 0.0200423 0.449174 -0.104409 0.233839 -0.393988 0.299422 -0.340151 0.659276 -0.169441 0.209839 0.326214 -0.166829 -0.17404 -0.240378 0.435672 -0.0475926 0.380974 -0.334627 -0.171738 -0.437774
1256 0.138328 -0.219762 0.103119 -0.0893139 -1.05005 -0.434587 1.30095 -1.09039 0.0253549 1.33496 -0.313326 1.10953 -1.10503 0.295177 1.03289 0.0516073 -0.259055 -0.510288 0.287781 -0.0606221 -0.0756077 -0.123017 0.230419 -0.0618168 -0.92925 -0.172756 0.07961 0.122601 0.0274249 0.186873 -0.410658 0.0893287 0.162637 0.0131977 -0.130896 -0.258334 -0.185891 -0.0544197 -0.213892 0.393527 -0.471593 0.136378 -0.306097 -0.10074 0.028686 0.178565 -0.234915 0.00849747 0.0752151 -0.0409409 -0.427429 0.500372 0.0567228 0.386602 0.171476 0.106879 0.0390093 -0.141361 0.379398 -0.307148 0.355531 -0.0934308 0.206474 -0.0184594
1203 0.123477 -0.256072 0.440522 0.0229007 -1.18982 -0.674299 1.41993 -1.09796 -0.0603949 1.51285 -0.317646 1.32402 -1.17741 0.297586 1.09369 0.174986 -0.338886 -0.693438 0.364433 -0.0718644 -0.168224 -0.100486 0.506621 0.226021 -1.06564 -0.0705939 0.303164 0.186836 0.0117907 0.204654 -0.584659 0.0153646 0.104647 0.00456757 -0.19401 -0.245798 -0.405391 -0.24853 -0.461877 0.453699 -0.483087 0.300847 -0.337869 0.0285938 -0.0565663 0.378683 -0.0582363 0.128457 -0.0153793 0.0969913 -0.302329 0.552949 0.023016 0.545839 0.0687003 0.194442 0.154609 -0.170611 0.411875 -0.347082 0.539489 -0.0804803 0.189895 -0.114514
638 -0.20894 -0.363864 0.483204 -0.10892 -0.894421 -0.416286 1.5062 -0.931007 0.238939 1.60666 -0.649021 1.06137 -1.15033 0.231323 1.16555 -0.32199 -0.193067 -1.01434 0.165648 -0.322364 -0.440445 0.0388989 0.431398 0.255008 -1.3116 0.156269 0.0227699 -0.0331804 0.481133 0.0789093 -0.274264 -0.245755 0.229097 -0.122466 -0.0194842 -0.417705 -0.285595 0.0238722 -0.535634 0.272398 -0.564567 0.139985 -0.103734 0.0678096 0.273409 0.00177803 0.0177383 0.185584 0.00903574 0.0110051 -0.0178179 0.600143 -0.399035 0.0240845 0.152751 -0.0295554 -0.262306 -0.438615 0.35021 -0.0939161 0.177162 -0.191405 -0.179974 0.296519
2057 0.0915638 -0.235646 -0.0202844 0.223628 -1.15777 -0.951844 1.44326 -0.755133 -0.302163 1.5396 -0.609082 1.59857 -1.03835 0.213005 1.29746 -0.185827 0.297032 -0.846696 0.106866 -0.388449 -0.106695 -0.350151 0.262979 0.504697 -1.08241 0.589519 0.463802 -0.0439607 0.247593 0.236538 -0.487144 -0.336317 0.136292 -0.0205959 -0.0515573 -0.183107 -0.362496 -0.16992 -0.151738 0.137903 -0.0732266 0.179005 -0.534385 0.0719267 -0.0714446 0.23014 0.0829504 0.092092 0.0829674 0.0174713 -0.68395 0.663362 -0.3252 0.384737 0.372634 0.185863 -0.20303 -0.230522 0.504192 0.00629425 0.337217 -0.0171951 -0.227322 0.159987
1510 0.0528937 -0.15465 0.00121861 0.0422707 -1.02743 -0.671543 1.20432 -0.681076 -0.232865 1.41483 -0.389296 1.23696 -0.942464 0.229432 0.845362 -0.130833 0.261957 -0.5905 0.102323 -0.204604 0.101292 -0.174773 0.279604 0.262649 -0.986215 0.479404 0.262483 0.0204537 0.19895 0.100604 -0.342124 -0.315438 0.253067 -0.0193313 0.0657757 -0.0641663 -0.354622 -0.176518 -0.0679148 0.161058 -0.0881162 0.256214 -0.404903 0.0112501 0.0583202 0.16842 -0.0394677 0.145486 -0.128336 0.0332343 -0.453065 0.573655 -0.1167 0.472698 0.164297 -0.0586003 -0.396378 -0.111595 0.36502 0.0170898 0.260584 -0.00845491 -0.157658 0.0368095
1234 0.300254 -0.110792 -0.0189269 0.0835519 -1.14953 -0.823782 1.49357 -1.00895 -0.415574 1.7981 -0.547427 1.63357 -1.12465 0.269281 1.28251 -0.197189 0.367569 -0.730867 0.138116 -0.282962 -0.0505323 -0.109509 0.500319 0.164898 -1.13068 0.53124 0.320403 -0.0629792 0.185912 0.27299 -0.427667 -0.455113 0.394224 -0.0693765 0.127559 -0.0743903 -0.366258 -0.134143 0.0247983 0.0644676 -0.17257 0.201323 -0.553379 0.141156 0.216155 0.210319 -0.0565623 0.189764 -0.111303 0.145628 -0.338488 0.653887 -0.328995 0.467748 0.295806 -0.0514017 -0.246834 -0.175993 0.462008 0.146914 0.34114 0.0843176 -0.3084 -0.0233218
2426 0.119869 -0.310934 0.222845 0.145137 -1.3742 -0.827359 1.50411 -1.20073 -0.0118107 1.45913 -0.364439 1.44383 -1.37411 0.319266 1.18852 -0.136598 0.0947996 -0.760525 0.0971039 -0.377109 -0.106006 -0.17699 0.467199 0.402115 -1.51752 0.354036 0.198729 0.185715 0.0503531 0.185948 -0.345506 -0.306008 0.245144 0.165531 -0.240703 -0.218304 -0.27277 -0.250082 -0.27831 0.209329 -0.170965 0.318005 -0.346385 0.0531613 -0.0735925 0.324494 -0.175529 0.371825 -0.235069 0.268791 -0.34932 0.323694 -0.453103 0.477842 0.266705 -0.0212031 -0.291953 -0.353616 0.433443 0.0187437 0.372885 -0.12685 -0.200219 -0.24349
1550 0.273584 -0.270269 0.195155 -0.249291 -1.14248 -1.02009 1.49163 -0.950257 -0.150057 1.91005 -0.515371 1.24274 -1.04561 0.283522 1.13916 -0.473058 0.0065346 -0.478068 0.438993 -0.464611 -0.058982 0.0172836 0.179611 0.18796 -0.906322 0.181463 0.357896 -0.0411733 0.0777827 0.100011 -0.71678 0.0879049 0.262461 0.388827 0.299547 -0.172298 -0.702152 0.247626 0.0307719 0.198521 -0.252003 0.123157 -0.489902 -0.0788438 0.114456 0.418662 -0.235758 -0.00764639 -0.214941 0.0447137 -0.211916 0.821002 -0.0960669 0.33379 0.0163416 -0.132488 -0.106123 -0.598694 0.635804 -0.293904 0.455674 0.0250108 -0.295759 -0.449752
161 -0.041599 -0.383773 0.241494 -0.149675 -0.887509 -0.895329 1.71309 -1.42374 -0.193818 1.93522 -0.577419 1.25391 -1.04863 0.188713 1.00184 -0.283658 -0.237621 -0.523826 0.540185 -0.555499 -0.10063 -0.0831052 0.148972 0.407315 -1.10057 0.260735 0.510879 0.00729115 0.254899 0.324734 -0.761104 -0.18198 0.621098 0.092977 -0.0214007 -0.190504 -0.59236 -0.10374 -0.231781 0.178817 -0.557524 0.112712 -0.570937 0.123688 -0.205377 0.456309 -0.382535 0.0276241 -0.0777759 0.136452 -0.441916 0.779512 -0.314525 0.299143 0.0113126 -0.11639 -0.174105 -0.576407 0.848984 -0.417266 0.515872 -0.0254591 -0.194671 -0.649687
779 0.147176 -0.368452 0.251987 -0.198716 -0.887006 -1.01602 1.52177 -1.13448 0.0331162 1.8327 -0.361358 1.14301 -0.907966 0.266153 0.850474 -0.325724 -0.292848 -0.436159 0.401449 -0.392644 0.0164432 -0.129141 0.316842 0.302436 -1.07206 0.0121338 0.487823 -0.00139275 0.156189 0.20181 -0.790107 -0.117746 0.329779 0.264391 -0.0762841 -0.206042 -0.409827 0.115861 -0.293244 0.307895 -0.466747 0.25231 -0.491603 -0.0664526 -0.0167356 0.419464 -0.351008 0.00495358 -0.117705 0.125713 -0.413091 0.699544 0.0543532 0.229156 0.116973 -0.0464804 0.045827 -0.553381 0.662523 -0.381595 0.561095 -0.035321 -0.0202488 -0.28951
122 -0.339833 -0.108135 0.406156 -0.291791 -1.40699 -0.557419 1.54597 -1.0657 0.181082 1.92909 -0.162773 1.04766 -1.56439 0.138106 1.07831 0.0122151 -0.184566 -0.639673 0.129697 -0.169669 -0.403737 0.230639 0.608567 -0.108506 -1.49901 0.14716 0.106582 -0.020218 -0.295845 0.16129 -0.697584 -0.113608 0.478136 0.0317619 0.0463314 -0.201817 -0.454181 -0.106248 -0.413433 0.476711 -0.30006 0.623396 -0.701283 0.445792 -0.157009 0.108717 -0.161001 0.147693 -0.24218 0.321684 -0.48287 0.790283 -0.620007 0.321082 0.323306 0.333197 0.0169714 -0.417846 0.375081 -0.660752 0.424749 0.254892 0.396865 -0.25529
1916 -0.20566 -0.187159 0.269089 -0.150266 -1.16463 -0.556176 1.34751 -0.835885 0.209584 1.65007 -0.137542 0.929439 -1.22294 0.141193 0.922072 0.00474105 -0.279956 -0.796895 -0.00175679 -0.102862 -0.191773 0.0861602 0.48208 0.0781276 -1.37118 0.250273 0.190811 0.0845964 -0.0173214 0.195626 -0.767962 -0.248909 0.385708 0.0446915 -0.0315199 -0.0989092 -0.258308 -0.0107572 -0.219371 0.417378 -0.116089 0.491536 -0.4975 0.245435 -0.202248 0.0608904 -0.0757812 0.229699 -0.253869 0.278383 -0.433737 0.634963 -0.578878 0.109352 0.165859 0.273511 -0.00372529 -0.535413 0.257873 -0.48119 0.429464 0.0548814 0.255417 -0.248955
127 -0.230285 -0.129335 0.314781 -0.261508 -1.26132 -0.569095 1.4942 -0.975876 0.104243 1.77385 -0.176657 1.04347 -1.26999 0.170726 0.937548 -0.00216583 -0.274355 -0.823999 0.0952355 -0.136858 -0.250093 0.186838 0.492661 0.0328361 -1.38673 0.192418 0.210384 0.0578833 -0.134907 0.313926 -0.774814 -0.172124 0.408216 0.0281675 0.00701742 -0.155274 -0.356073 -0.0467406 -0.294194 0.517773 -0.254439 0.53217 -0.596066 0.292026 -0.118043 0.0737057 -0.0960314 0.247602 -0.239319 0.277799 -0.54347 0.764346 -0.572748 0.240859 0.163759 0.337298 -0.0226765 -0.537565 0.2622 -0.531371 0.477376 0.0497889 0.266026 -0.202973
36 -0.0568532 -0.413206 0.162516 -0.173041 -1.24531 -0.778571 1.73206 -1.2593 -0.301516 1.60906 -0.160282 1.44289 -1.32308 0.106492 1.198 -0.0650206 -0.129107 -0.709337 0.220932 -0.240618 -0.276537 0.0817042 0.236289 -0.288059 -1.43661 0.0938043 0.0473783 -0.0879686 0.00673198 0.430828 -0.423664 0.124021 0.35142 0.00400659 0.15225 -0.0363556 -0.413478 -0.551137 -0.0420287 0.503217 -0.34981 0.293339 -0.194244 0.381573 -0.120838 0.0421188 -0.52315 0.261915 -0.106566 0.157233 -0.627199 0.548646 -0.560426 0.583145 -0.271806 0.193513 0.132536 -0.123772 0.337092 -0.261212 0.264297 0.198578 0.115612 -0.0734845
33 -0.00297638 -0.312715 0.1726 -0.271769 -1.12743 -0.677342 1.56375 -0.97941 -0.264301 1.53769 -0.247955 1.34307 -1.23829 0.0553746 0.938923 -0.0535206 -0.162326 -0.677112 0.172489 -0.216315 -0.229349 0.0096844 0.196998 -0.231418 -1.16632 0.222637 0.134738 -0.0126925 0.0600942 0.428054 -0.300146 0.0734907 0.291556 -0.0354885 0.207789 -0.0056079 -0.289506 -0.345634 0.034464 0.597714 -0.216338 0.291752 -0.205083 0.266767 -0.143993 -0.0396823 -0.283462 0.384631 -0.0775937 0.144296 -0.589965 0.524669 -0.474121 0.589181 -0.211979 0.176252 0.0551709 -0.131424 0.216526 -0.184928 0.266026 0.0367206 0.00689633 -0.0465715
1591 0.0283371 -0.365431 0.206037 -0.381556 -1.36743 -0.834342 1.69719 -1.09285 -0.290427 1.71076 -0.316259 1.44245 -1.42383 0.116221 1.03655 0.0296043 -0.174183 -0.781894 0.188394 -0.308885 -0.208553 -0.0683607 0.209259 -0.237098 -1.30129 0.327959 0.111159 0.122745 0.161861 0.560709 -0.406246 -0.0693834 0.28106 -0.0939217 0.200323 0.020981 -0.317411 -0.319488 -0.122502 0.571195 -0.241793 0.250816 -0.213331 0.393116 -0.298021 -0.0858937 -0.4267 0.323006 -0.157774 0.216413 -0.723442 0.654711 -0.502878 0.558466 -0.345132 0.184728 -0.0209219 -0.154801 0.225843 -0.300727 0.341762 0.0448049 0.0452736 -0.133787
250 -0.00117291 -0.223668 0.181573 -0.17855 -1.39502 -0.615946 1.41945 -1.09666 -0.0565824 1.76151 -0.211092 1.25011 -1.4585 -0.0924172 1.40823 0.0310336 -0.101484 -0.763104 0.285852 -0.46627 -0.0525879 -0.123511 0.360413 -0.229852 -1.12141 0.311756 0.140212 0.16131 0.145953 0.562024 -0.389758 -0.1261 0.137655 -0.18238 0.338517 0.00695934 -0.596618 -0.236581 -0.300368 0.163111 -0.275017 0.209685 -0.224916 0.462127 -0.38219 -0.121263 -0.354463 0.100936 -0.0405533 0.177993 -0.411757 0.673118 -0.322717 0.388591 -0.217348 0.322105 -0.212214 -0.148025 0.177941 -0.324702 0.369656 -0.0673379 -0.166997 -0.226053
14 -0.245177 -0.205348 0.533101 0.0610623 -1.55951 -0.331558 1.61383 -1.03539 0.0227987 1.94946 -0.206789 1.27219 -1.49133 0.159954 1.6285 0.0648916 0.038124 -0.399978 0.22766 -0.224336 -0.414511 -0.137265 0.34492 0.0491645 -1.12155 0.738045 0.176352 0.120985 0.283731 0.357039 -0.616545 -0.173039 0.343457 -0.161394 0.305121 0.00962577 -0.642306 0.114047 -0.0663703 0.132944 0.0134721 0.208853 -0.13159 0.121129 -0.374818 -0.196656 -0.378691 0.0205341 0.0288775 0.380824 -0.453761 0.714543 -0.539637 0.359622 -0.339826 0.174333 -0.378173 -0.44858 0.151208 -0.270341 0.578837 0.110474 -0.220073 -0.325337
555 -0.215742 -0.136429 0.317421 0.182946 -1.36427 -0.557114 1.66889 -0.982976 -0.0320295 1.58297 -0.326304 1.42877 -1.30586 0.378903 1.64546 0.0322057 0.297905 -0.782657 0.330141 -0.215415 -0.219477 -0.186413 0.100092 0.2933 -1.13901 0.437035 0.299847 0.178005 0.306295 0.192288 -0.531651 0.00306754 0.20517 -0.126559 0.200047 0.0602231 -0.579263 0.0086446 -0.0784037 0.069285 -0.0205436 -0.0767156 -0.186543 0.17886 -0.31408 -0.134252 -0.150698 0.148173 -0.404765 0.147705 -0.644962 0.748078 -0.574248 0.343083 -0.113987 0.0656533 -0.350931 -0.240797 0.140822 -0.409558 0.537556 -0.062869 -0.23207 -0.255498
2360 -0.345055 -0.126894 0.383024 0.144669 -1.28308 -0.543769 1.67422 -1.03296 0.0375251 1.5619 -0.483616 1.40712 -1.34728 0.270326 1.54229 0.0373851 0.188357 -0.684015 0.251989 -0.0384331 -0.325513 -0.167392 0.0430454 0.268356 -1.09069 0.344104 0.391139 0.165678 0.280342 0.279897 -0.546658 -0.00473582 0.374602 -0.142366 0.141737 -0.00258037 -0.616027 0.0838891 -0.171728 0.0175015 -0.0754938 -0.161439 -0.207366 0.101801 -0.258527 -0.124015 -0.338716 0.102124 -0.411916 0.280535 -0.641065 0.67682 -0.559205 0.255792 -0.0629502 -0.0416633 -0.340532 -0.230791 0.0565309 -0.363695 0.469448 0.0469049 -0.211546 -0.228276
574 -0.11767 -0.113745 0.3337 -0.0148624 -1.38761 -0.567476 1.59961 -0.965484 0.182673 1.76001 -0.517019 1.35587 -1.25838 0.263154 1.53328 0.0581254 0.0856488 -0.553825 0.0717518 -0.027113 -0.565982 -0.0118353 0.313451 0.186303 -1.15819 0.118003 0.275771 0.153808 0.231305 0.11416 -0.46226 -0.03892 0.356346 -0.191526 -0.068919 0.133204 -0.518193 -0.0961237 -0.270794 0.0160213 -0.0378479 -0.0537811 -0.280031 0.486571 -0.312811 -0.0659835 -0.520496 0.0125015 -0.264711 0.340629 -0.529819 0.502596 -0.531498 0.171175 -0.172345 -0.128885 -0.10451 -0.23011 0.0989122 -0.350525 0.379174 0.107899 -0.345419 -0.161744
299 -0.174242 -0.146807 0.435852 0.223942 -1.29322 -0.627043 1.70814 -1.09134 0.105066 1.78155 -0.335174 1.38165 -1.20959 0.0170308 1.30568 0.16474 0.0487752 -0.662694 0.0883431 0.050132 -0.490973 -0.0549545 0.301621 0.0642845 -1.0135 0.15849 0.123219 0.271034 0.279416 0.0333135 -0.57296 -0.00978813 0.167013 -0.301369 0.0528216 0.124412 -0.65691 -0.24758 -0.157847 0.0306337 -0.0479535 0.118084 -0.327055 0.325912 -0.351544 -0.0487598 -0.430109 -0.00509346 -0.310284 0.435269 -0.453432 0.587592 -0.81924 0.367599 -0.33536 0.0751291 -0.0910597 -0.292991 0.0740809 -0.452151 0.249673 0.164657 -0.16946 -0.108474
1827 -0.1289 -0.175917 0.471403 0.159671 -1.34555 -0.62113 1.65633 -1.07718 0.123539 1.9274 -0.360167 1.47767 -1.14543 0.104767 1.34363 0.159345 0.12173 -0.627101 0.0722065 0.045519 -0.543254 -0.0622061 0.362141 0.043082 -1.19667 0.147223 0.132238 0.2419 0.282712 -0.00969349 -0.543266 0.00617398 0.163385 -0.254355 0.00231174 0.147246 -0.675755 -0.315556 -0.22921 0.0613578 -0.0504049 0.202772 -0.325978 0.352461 -0.266403 0.0407637 -0.498821 0.0631689 -0.345248 0.389198 -0.388188 0.59775 -0.814205 0.32198 -0.340508 0.0594913 -0.0939299 -0.338649 0.130003 -0.50568 0.161853 0.209496 -0.232959 -0.0689318
2509 -0.128633 -0.246374 0.275071 0.0657059 -1.34259 -0.566263 1.69671 -1.01877 0.117606 1.90594 -0.245628 1.4997 -0.993643 0.354268 1.24173 0.116966 0.346442 -0.576613 0.103911 0.189504 -0.607713 -0.0294486 0.386873 -0.0342322 -1.289 0.16938 0.109785 0.0246224 0.267974 -0.0838926 -0.526432 -0.00686114 0.20601 -0.109435 -0.182351 0.103117 -0.51408 -0.468421 -0.309404 0.153279 -0.148712 0.32238 -0.327893 0.303757 0.00841975 0.233303 -0.559164 0.205626 -0.385629 0.233873 -0.326325 0.588939 -0.623478 0.304662 -0.319346 -0.0132358 -0.113909 -0.366268 0.331471 -0.459991 0.00561724 0.0883835 -0.154589 -0.0409269
1198 -0.0827068 -0.409302 0.19026 0.164392 -1.1888 -0.513448 1.70856 -1.11118 0.244611 1.855 -0.18899 1.62035 -0.900345 0.443124 1.18554 0.0325669 0.22369 -0.583737 0.0923844 0.120833 -0.624308 0.163251 0.365043 -0.0602151 -1.21524 0.243278 0.263393 -0.0732139 0.316393 0.201609 -0.553803 -0.010808 0.396817 -0.0429555 -0.268527 0.0614008 -0.510573 -0.565574 -0.337823 0.172068 -0.194893 0.384484 -0.11807 0.333464 0.113685 0.191091 -0.408253 0.451679 -0.264152 0.341038 -0.282964 0.674704 -0.691644 0.300944 -0.273578 0.16298 0.0628021 -0.380662 0.446634 -0.446997 -0.00189004 0.128542 -0.32399 -0.0597758
164 -0.200289 -0.311465 0.330774 0.141717 -1.07266 -0.532637 1.46821 -0.889787 0.152948 1.581 -0.156426 1.28529 -0.865619 0.376365 1.05963 0.003772 0.231732 -0.522198 0.115578 0.143036 -0.507157 0.0362442 0.296782 0.058131 -1.07543 0.204538 0.194284 -0.0697812 0.230112 -0.0510626 -0.549434 0.0103636 0.243382 -0.0932046 -0.277402 0.133815 -0.455903 -0.471758 -0.369421 0.13052 -0.129495 0.328443 -0.179618 0.287505 0.0118484 0.207958 -0.431828 0.15563 -0.323835 0.3593 -0.369037 0.624394 -0.652935 0.288051 -0.314822 0.10778 0.05109 -0.354661 0.431722 -0.45114 -0.00158956 0.136973 -0.124599 -0.0215481
1170 -0.142432 -0.29779 0.295546 0.162858 -1.14582 -0.583149 1.48052 -0.926244 0.146756 1.55523 -0.0827165 1.32998 -0.825563 0.364327 1.04163 0.0226179 0.191743 -0.576343 0.0782534 0.162938 -0.382527 0.0381163 0.274822 0.0276165 -1.07073 0.2037 0.16495 0.00321633 0.282887 -0.0249997 -0.588871 -0.0296917 0.31444 -0.113123 -0.225929 0.069591 -0.468051 -0.363382 -0.259864 0.123915 -0.0833094 0.333802 -0.175004 0.271791 0.0206908 0.194539 -0.416729 0.228333 -0.333594 0.285738 -0.341055 0.646943 -0.666899 0.262734 -0.296902 0.0643336 0.0261729 -0.376192 0.360445 -0.390736 0.0598435 0.107677 -0.146834 -0.105913
591 -0.0630018 -0.031348 0.305177 -0.114433 -0.95547 -0.506251 1.50573 -1.18017 -0.151554 1.75832 -0.243473 1.35954 -1.1646 -0.140792 1.9099 -0.124029 -0.188713 -0.538842 0.159523 -0.172539 -0.628001 -0.000132413 0.604387 0.24133 -1.17477 0.198974 0.534764 0.244637 0.427401 0.27413 -0.234925 -0.286896 0.235751 0.0642835 -0.279346 -0.0456612 -0.802812 -0.173203 -0.415463 -0.00935167 -0.316566 0.0806537 -0.356145 0.100173 -0.18875 0.328949 -0.42148 0.345142 -0.149217 0.343316 -0.295909 0.575522 -0.610493 0.0778299 0.0670174 0.0796258 -0.0594198 -0.203904 0.124504 0.0237117 0.162777 0.217611 -0.334933 -0.276373
2246 -0.0151162 0.021357 0.321293 0.0756025 -1.19785 -0.615055 1.52396 -0.830986 -0.00269849 1.47759 -0.491523 1.21324 -1.2029 -0.0165077 1.34749 0.0760508 -0.00638432 -0.500727 0.155652 -0.226779 -0.495097 -0.065944 0.322544 0.125549 -1.00549 0.233882 0.368272 0.222271 0.173699 0.253287 -0.314038 -0.121886 0.182117 -0.00314505 -0.0951771 -0.0105603 -0.548944 0.0567825 -0.305141 0.0462755 -0.161531 0.0519444 -0.302532 0.135981 -0.23624 0.065193 -0.315149 0.266398 -0.248301 0.274137 -0.368272 0.419322 -0.472056 0.0322162 0.0246331 0.0622449 0.0341958 -0.229805 -0.00662034 -0.196142 0.283892 0.0293678 -0.346881 -0.107299
2467 0.252676 -0.424719 0.338753 0.150979 -1.09268 -0.630667 1.61745 -0.654596 -0.26739 1.55095 -0.581737 1.01966 -1.05563 0.0479656 1.04034 0.0308355 -0.245289 -0.292446 -0.0367231 -0.354856 -0.60274 -0.405174 0.237185 0.316076 -1.30087 0.595489 0.483944 0.21721 0.135739 0.0284596 -0.0249573 -0.294635 0.13264 0.144408 -0.19934 -0.205936 -0.673901 -0.153722 -0.299707 0.154782 -0.388957 -0.0520546 -0.364749 0.00576545 -0.388599 0.197366 -0.26411 0.301441 0.0786351 0.289842 -0.62875 0.427193 -0.344732 0.205122 0.321088 0.161489 -0.0230178 -0.200393 0.415106 -0.222412 0.0670096 0.0801136 -0.163195 0.0421354
228 0.0304778 -0.268316 0.276887 0.337726 -0.938867 -0.570237 1.61626 -0.832263 -0.258441 1.72592 -0.494091 1.13733 -1.04326 0.357147 1.09689 -0.120266 -0.111713 -0.61248 -0.281044 -0.147561 -0.393193 -0.336549 0.200571 0.255623 -1.39911 0.714884 0.542875 0.287669 -0.130605 0.0879515 -0.326929 -0.238452 0.159697 0.108822 -0.125908 -0.264191 -0.56272 -0.132946 -0.0929705 0.1501 -0.519512 0.0331066 -0.383346 -0.0237974 -0.191526 0.203434 -0.158838 0.0619844 0.0452297 0.322935 -0.461526 0.63845 -0.355867 0.348304 0.385609 0.423268 0.07078 -0.221217 0.486771 0.0525823 0.0958801 -0.381665 -0.219433 0.0316026
635 0.0677901 -0.222338 0.450067 0.175713 -1.28767 -0.716139 1.6644 -1.02754 0.0545561 1.63369 -0.403511 1.05863 -1.30661 0.340289 1.21911 0.0484758 0.128989 -0.677119 0.199914 -0.430919 -0.198027 0.138022 0.264557 0.160433 -1.30022 0.550796 -0.0497552 0.171562 -0.151826 0.513076 0.029789 -0.251135 0.166539 0.244815 0.0751406 0.0649345 -0.282695 -0.37384 -0.227451 0.186771 -0.204894 -0.035853 -0.0489298 0.0899275 0.0716704 0.126558 -0.0119048 0.108114 -0.0758436 0.0408534 -0.103449 0.299924 -0.621364 0.166297 0.0687908 0.156234 0.115133 -0.273251 0.281034 -0.417445 0.259018 0.0135827 -0.312682 -0.353136
88 0.0289619 -0.339724 0.809408 0.316715 -1.22649 -0.487247 1.42557 -1.15776 -0.199511 1.6773 -0.217767 1.13436 -0.849778 0.529192 1.11622 -0.0389647 -0.0784152 -0.35331 0.218539 -0.287171 -0.0651062 0.00267065 0.125181 0.0983257 -1.19863 0.347165 -0.0675778 0.30759 0.159166 0.405539 -0.391762 -0.00885083 0.411906 -0.108041 -0.0800846 0.0616121 -0.357474 -0.36782 -0.0173818 0.154787 -0.27676 -0.058163 -0.0227431 0.214408 0.064138 0.144305 0.0925691 0.530101 0.0825411 0.21773 -0.0948263 0.606927 -0.50902 0.0697164 -0.0510008 0.131228 0.0597484 -0.473894 0.522226 -0.129536 0.285599 -0.000302508 -0.516245 -0.242441
214 -0.000140737 -0.271359 0.690515 0.236411 -1.25969 -0.786312 1.43247 -1.04244 -0.222221 1.67316 -0.129511 1.23036 -1.04942 0.228675 1.27044 -0.092921 -0.288607 -0.301831 0.32439 -0.184889 0.0124283 0.176165 0.297199 0.165892 -0.987968 0.283113 0.0558995 0.221882 0.132356 0.539588 -0.354181 0.0106809 0.519879 -0.322678 -0.0896861 0.117559 -0.367328 -0.210918 -0.243455 0.0819379 -0.278994 -0.0184204 0.135942 0.0366871 0.0110202 0.230137 -0.0736638 0.569491 -0.0457418 0.231322 -0.0447984 0.639744 -0.473991 0.0405107 0.0853471 0.0421912 0.0599755 -0.379839 0.366606 0.0283493 0.306404 -0.0797975 -0.551361 -0.344006
157 -0.127154 -0.125362 0.495218 0.0961164 -1.29498 -0.759302 1.65133 -1.07121 -0.0600785 1.67384 -0.11464 1.23273 -1.25089 0.333711 1.25012 -0.146917 -0.155159 -0.440087 0.103162 -0.167805 0.0305767 0.105388 0.120998 0.266873 -0.877438 0.418084 0.228576 0.0120478 0.265942 0.569332 -0.697354 -0.0916405 0.333011 -0.108708 -0.0424175 0.190508 -0.458325 -0.355747 -0.306318 0.0372054 -0.524605 0.0923007 0.0949228 0.44967 -0.157328 0.219629 -0.310354 0.259848 0.159814 0.555647 -0.112824 0.683661 -0.27712 0.357519 0.0980136 0.135906 0.0669186 -0.651817 0.496863 -0.0991299 0.128789 -0.140756 -0.356633 -0.0983584
560 -0.0203808 -0.233241 0.578747 0.290939 -1.06368 -0.767578 1.5221 -1.11861 -0.0695973 1.72828 -0.250189 1.31112 -0.970961 0.406348 1.31208 -0.126963 -0.151916 -0.199446 0.195264 -0.20559 -0.166125 0.0144333 0.032075 0.197251 -0.636934 0.416782 0.313019 0.0243467 0.231639 0.566927 -0.497913 -0.140076 0.467564 -0.246304 0.0386292 0.215733 -0.452893 -0.297292 -0.254046 0.0450786 -0.354994 0.0707421 0.131619 0.134162 0.172574 0.26887 -0.176744 0.610243 -0.182447 0.308355 -0.246692 0.637383 -0.526206 0.204328 0.158156 0.223585 0.0437873 -0.60164 0.379516 -0.0391185 0.231786 0.0241213 -0.335717 -0.0298682
1452 -0.0564437 -0.405273 0.539523 0.153202 -1.18669 -0.69725 1.57131 -1.00251 -0.0815873 1.74508 -0.186144 1.41531 -0.953706 0.357521 1.13152 -0.0805532 -0.0540486 -0.384086 0.143902 -0.0977664 -0.267665 0.249556 0.0135906 0.145049 -0.849805 0.380692 0.202524 -0.109789 0.126257 0.447605 -0.452411 -0.0735332 0.446636 -0.0862215 -0.117176 0.233171 -0.604107 -0.522079 -0.267471 0.067057 -0.287911 0.113557 0.172189 0.27573 -0.037347 0.152731 -0.315832 0.314714 -0.0873664 0.436609 -0.296673 0.606599 -0.5669 0.327414 -0.0845092 0.306385 0.0444093 -0.563154 0.50949 -0.251198 0.0863601 0.0862037 -0.284072 -0.0890804
766 0.0412044 -0.323043 0.796845 0.288501 -1.22587 -0.777995 1.64087 -1.07954 -0.384912 1.68977 -0.17423 1.29751 -1.32874 0.285353 1.46136 -0.225989 -0.195895 -0.333169 0.296604 -0.220717 0.0758835 0.121927 0.217135 0.0162748 -1.02051 0.350888 0.0976527 0.0635075 0.109728 0.512817 -0.452909 0.0758055 0.554466 -0.280352 0.0739233 0.000387997 -0.54894 -0.235592 -0.366206 0.213106 -0.416792 0.210255 0.138679 0.270971 0.10482 0.292547 -0.281435 0.398266 -0.0594193 0.285548 -0.265347 0.759072 -0.442214 0.425443 0.107619 0.187719 0.203488 -0.4168 0.475838 -0.0351119 0.334871 0.0349736 -0.344904 -0.120239
1238 0.138929 -0.145501 0.420246 -0.0165867 -1.13296 -0.883975 1.83148 -1.12238 -0.222118 1.68848 -0.32568 1.20557 -0.86504 0.358397 1.46096 -0.204762 0.164016 -0.26587 0.25501 -0.120954 -0.334442 0.120787 0.088639 0.407905 -0.931419 0.541514 0.23549 -0.0716402 0.124133 0.306508 -0.702476 -0.135289 0.166053 0.138714 -0.146262 0.228091 -0.597334 -0.157617 -0.375865 -0.0270656 -0.447744 -0.0365278 -0.322378 0.147999 -0.0817988 0.132674 -0.604485 -0.127937 -0.443038 0.402719 -0.306635 0.574155 -0.282294 0.0261833 -0.0171788 -0.0697653 -0.102184 -0.501694 0.456283 -0.331135 0.582266 -0.11568 -0.216742 -0.210469
1374 0.069954 -0.242212 0.424153 0.04065 -0.777027 -0.430155 1.18432 -0.827104 -0.332749 1.19322 -0.176703 1.01513 -0.882185 0.180256 0.978659 -0.0797503 -0.0259278 -0.201543 0.213906 -0.244609 -0.105388 0.00707203 0.0802962 -0.102586 -0.77759 0.25159 0.133782 -0.0635907 -0.0804063 0.336958 -0.233081 0.120115 0.307071 -0.132951 0.122603 0.050815 -0.358456 -0.222092 -0.106231 0.189551 -0.34626 0.0430695 0.0209781 0.158061 0.0360773 0.0765755 -0.207896 0.067409 -0.0665549 0.134618 -0.271613 0.514539 -0.320173 0.494804 0.0026385 0.108968 0.0173969 -0.0852173 0.309407 -0.109472 0.0594741 0.0538214 -0.163868 -0.0283405
427 -0.261008 -0.548483 0.100468 -0.0291802 -0.690948 -0.690304 1.25753 -1.30663 -0.0336252 1.60014 -0.335581 1.0377 -1.4073 0.110769 1.30576 0.0690415 -0.473528 -0.331004 0.22623 -0.35948 -0.15339 -0.115622 0.500956 -0.181013 -0.969757 0.603405 0.411717 0.414435 0.0552863 0.468394 -0.693117 0.0708261 0.362697 -0.198951 -0.175067 -0.0829063 -0.4382 -0.518215 -0.0729905 0.125504 -0.0266201 0.19004 -0.0531224 0.309745 0.10334 0.0352901 -0.17456 0.182354 -0.206743 0.100356 -0.1252 0.459166 -0.338504 0.195275 0.20911 0.268816 -0.164716 -0.392453 0.427142 -0.0985539 0.306581 0.118043 -0.082198 -0.167698
230 0.085756 -0.435762 0.154689 0.171093 -0.824746 -0.678936 1.35078 -1.11847 -0.0587018 1.76481 -0.261044 1.13086 -1.14679 0.0302469 1.25583 -0.0496913 -0.367463 -0.425131 0.0399248 -0.3409 -0.087013 -0.228132 0.551895 0.0539794 -1.13854 0.316275 0.192638 0.126515 -0.0766545 0.496745 -0.325017 -0.11046 0.244472 0.0933045 0.0383132 -0.0566113 -0.365318 -0.245865 -0.15076 0.0414261 -0.110515 0.256832 -0.167409 0.316054 -0.270143 -0.0451963 -0.175195 0.231889 0.0144995 0.0770801 -0.00230092 0.433592 -0.449031 0.0977959 0.186073 0.198387 -0.152845 -0.340323 0.296453 0.0290901 0.35394 -0.206499 -0.172286 -0.0717945
1283 -0.0452164 -0.614638 0.247523 0.151105 -0.809182 -0.758541 1.26038 -1.10363 -0.0298118 1.82365 -0.359358 1.08774 -1.19523 0.038434 1.39555 0.0427357 -0.417825 -0.554823 0.126091 -0.431374 -0.100037 -0.303818 0.576029 0.0319265 -1.1514 0.364251 0.189197 0.171176 -0.00706105 0.522894 -0.276021 -0.0693971 0.292401 -0.0314423 -0.00229829 -0.0896287 -0.413712 -0.283282 -0.132546 0.0864783 -0.10216 0.313749 -0.160909 0.34916 -0.2991 -0.0523779 -0.100063 0.306277 -0.0842369 -0.0125722 0.0510807 0.40303 -0.472917 0.249338 0.23364 0.316181 -0.0708912 -0.194662 0.337957 -0.0632742 0.457391 1.99993e-05 -0.0687408 -0.205758
227 0.129404 -0.534083 0.301059 0.204211 -0.89474 -0.715742 1.37213 -1.11927 0.00553375 1.71166 -0.232204 1.21466 -1.31056 0.0701697 1.4328 -0.04945 -0.250962 -0.715461 0.233915 -0.316721 -0.134098 -0.232371 0.61011 0.0688585 -1.24476 0.278904 0.295779 0.0525674 -0.0145937 0.407967 -0.432423 -0.0812884 0.279329 0.0643704 0.141478 -0.122798 -0.284057 -0.208675 -0.0372336 0.213342 -0.19472 0.197488 -0.23945 0.235882 -0.289815 -0.0169039 -0.181374 0.23223 -0.115703 0.00272715 -0.129885 0.408531 -0.474826 0.146587 0.210528 0.410869 -0.0661495 -0.290012 0.198442 -0.206472 0.290843 -0.0362295 -0.16433 -0.129679
142 0.0843405 -0.600551 0.139781 0.167428 -0.768794 -0.695103 1.35487 -1.1125 0.0295043 1.77221 -0.212459 1.27614 -1.20348 0.00236502 1.18344 -0.0182831 -0.227176 -0.592721 0.0926988 -0.26106 -0.262719 -0.214645 0.713936 0.125788 -1.13592 0.313702 0.25766 0.0352842 -0.102684 0.390838 -0.399201 -0.0748203 0.277717 0.0358184 0.106728 -0.0939533 -0.430906 -0.365792 -0.148252 0.0391039 -0.0479191 0.23886 -0.154923 0.346304 -0.190793 -0.0374824 -0.110127 0.291513 -0.134613 -0.0229303 -0.0518313 0.374121 -0.499764 0.144571 0.187271 0.261189 -0.157946 -0.304005 0.370125 -0.0136153 0.277035 -0.0686837 -0.270543 0.0209497
2666 0.00300935 -0.30472 0.100382 0.260258 -0.869603 -0.629924 1.10359 -1.08588 0.0713033 1.38892 -0.298477 1.21096 -0.73652 0.0746358 1.22944 0.0162761 -0.264956 -0.494947 0.0752946 -0.159045 -0.0874934 -0.0928581 0.434375 0.152269 -1.39329 0.0105836 0.153365 0.105039 0.173919 0.501927 -0.362411 -0.0929228 0.591556 -0.153299 0.0555546 -0.152909 -0.389306 -0.0402749 -0.14142 0.0363562 -0.0960583 0.00887298 -0.143992 0.229386 -0.268854 0.188065 -0.252773 0.316882 -0.0920938 -0.126068 -0.148848 0.44569 -0.400514 -0.150742 -0.0641173 0.167842 0.0647208 -0.520246 0.0550817 -0.158691 0.304955 -0.075204 -0.155403 -0.304411
2537 0.0128891 -0.343568 0.047629 0.217244 -1.03899 -0.704361 1.38477 -1.36697 0.185608 1.60527 -0.375914 1.51959 -1.00315 0.099633 1.60725 0.0592988 -0.321216 -0.571103 -0.00883947 -0.186276 -0.0517034 -0.0075066 0.264281 0.229969 -1.56829 -0.129465 0.181617 0.157366 0.111506 0.406578 -0.406864 -0.0154541 0.652722 -0.0149079 0.0455167 -0.336884 -0.513604 0.0951907 -0.141823 0.115512 -0.188134 -0.0346784 -0.208009 0.118279 -0.207892 0.245268 -0.5059 0.495465 -0.186799 -0.135996 -0.368714 0.590383 -0.572108 -0.198569 -0.0166643 0.0592823 0.258112 -0.741611 0.104728 -0.257017 0.464475 -0.0237211 -0.0196753 -0.417292
1847 0.0105273 -0.23234 0.0854773 0.211571 -0.877667 -0.708481 1.37123 -1.33091 0.186356 1.65249 -0.301206 1.46845 -0.910377 0.0377853 1.47403 0.0837236 -0.368802 -0.439855 -0.0778459 -0.128077 -0.0813048 -0.0342989 0.340502 0.282155 -1.44253 -0.0563289 0.200029 0.18083 0.179254 0.32353 -0.431727 -0.0834045 0.734777 -0.0495713 0.117943 -0.315128 -0.554098 0.186104 -0.0660423 0.0574807 -0.233356 0.105444 -0.131844 0.184539 -0.244024 0.258334 -0.467679 0.526567 -0.214933 -0.0695956 -0.191268 0.54361 -0.590199 -0.14144 -0.0138352 -0.0130723 0.235218 -0.777483 0.072107 -0.137889 0.461392 -0.0594291 -0.0849182 -0.553562
1846 0.0138864 -0.190689 0.0814681 0.125669 -0.759117 -0.625523 1.19413 -1.08225 0.130231 1.37296 -0.271891 1.28205 -0.87785 0.071433 1.19975 0.0257911 -0.303382 -0.440712 -0.00195142 -0.157315 -0.1013 -0.0682127 0.278608 0.178914 -1.23157 0.00281177 0.240281 0.152262 0.134672 0.276858 -0.449312 -0.0526673 0.594935 0.00812292 0.019444 -0.229652 -0.462597 0.110465 -0.117282 0.0720205 -0.238294 0.0692513 -0.133358 0.116089 -0.143246 0.240737 -0.388964 0.38648 -0.152575 -0.0600901 -0.219968 0.482569 -0.430044 -0.130302 0.0322281 0.0128264 0.211132 -0.661777 0.16416 -0.198383 0.397166 -0.0667671 -0.12875 -0.387382
1927 0.00358893 -0.159718 0.0220564 0.169201 -0.751191 -0.568441 1.21 -1.10512 0.191994 1.35057 -0.237686 1.19384 -0.855482 0.0738818 1.24135 0.0407659 -0.296553 -0.451288 -0.0180216 -0.118043 -0.139121 -0.0540199 0.323374 0.172913 -1.23038 -0.0104377 0.244384 0.189322 0.117495 0.338248 -0.408112 -0.0532245 0.597703 -0.00784727 0.0354949 -0.260432 -0.483144 0.0760603 -0.172581 0.0818015 -0.228698 0.0820555 -0.137612 0.160788 -0.185246 0.214415 -0.414367 0.397085 -0.107393 -0.0100076 -0.235413 0.485428 -0.409472 -0.145934 0.0252798 0.0405481 0.219263 -0.622325 0.206274 -0.209661 0.409187 -0.0278953 -0.14166 -0.362386
1240 0.225487 -0.560107 0.270212 -0.157756 -1.05792 -0.91457 1.67496 -1.36108 -0.337586 1.69587 -0.288212 1.42391 -1.18932 0.335082 1.42035 -0.137595 -0.263224 -0.409736 0.375385 -0.504284 -0.209896 0.107517 0.0497325 0.394933 -1.23826 0.483456 0.287527 0.217456 0.207961 0.601249 -0.418499 -0.322809 0.698197 0.305225 -0.220707 -0.217502 -0.824567 -0.540153 -0.378761 -0.0171873 -0.471684 -0.143186 -0.559936 0.127839 -0.310822 0.196196 -0.754388 0.0276184 0.000111649 0.166289 -0.621848 0.525949 -0.422138 0.290036 0.22913 0.1908 -0.167421 -0.387584 0.451402 -0.186994 0.420722 -0.162728 -0.0813904 -0.201244
1527 -0.11817 -0.342714 0.10468 -0.169066 -1.1529 -0.830782 1.65526 -1.52094 -0.175603 1.76558 0.105627 1.39561 -1.32347 0.274817 1.47811 -0.144081 0.0219214 -0.785855 0.360239 -0.577392 0.0391883 0.21941 0.39786 0.659656 -1.20328 0.726139 0.284481 0.407366 -0.18181 0.675814 -0.36222 -0.237688 0.713641 0.0453359 -0.0600536 -0.217882 -0.949625 -0.312864 -0.566586 0.051026 -0.255331 0.138087 -0.477554 0.375694 -0.0720625 0.143798 -0.670771 0.206994 -0.104149 0.174479 -0.236939 0.326338 -0.480389 0.0314705 0.28742 0.178866 -0.363685 -0.570623 0.516441 -0.262066 0.424885 0.113106 -0.190658 -0.325009
824 0.25091 -0.166798 -0.0076741 0.164984 -1.31218 -0.563127 1.657 -0.874488 -0.39547 1.43883 -0.435174 1.32244 -1.14504 0.260714 1.38533 0.172296 -0.205167 -0.816439 -0.0676969 -0.40497 -0.229645 0.158047 -0.0689964 -0.0109135 -1.63825 0.479956 0.333662 0.149394 0.0959816 0.151405 -0.169676 -0.10517 0.216024 0.15112 -0.169444 -0.064769 -0.778907 -0.309254 -0.186091 0.0758581 -0.4206 0.223277 -0.417587 0.552557 -0.330779 0.159959 -0.307324 0.307913 0.0969908 0.00428681 -0.450271 0.934798 -0.818522 0.360359 0.288493 0.223948 0.0036197 -0.58071 0.460239 -0.206626 0.581183 -0.0738536 -0.0954955 -0.0722576
825 0.261804 -0.163315 -0.00273895 0.171837 -1.28624 -0.500658 1.6081 -0.868004 -0.346903 1.4292 -0.455472 1.30191 -1.17425 0.273061 1.42679 0.105005 -0.194065 -0.84605 -0.0629701 -0.40915 -0.229721 0.193829 -0.0192675 0.0177565 -1.64564 0.455849 0.310494 0.174391 0.122334 0.203051 -0.153327 -0.143504 0.265321 0.149964 -0.126937 -0.0458002 -0.799827 -0.278866 -0.1647 0.114456 -0.392792 0.205224 -0.402919 0.502693 -0.282803 0.147594 -0.315077 0.349228 0.0803521 0.0372974 -0.392806 0.900668 -0.839766 0.382691 0.343096 0.229528 0.0466869 -0.55603 0.459652 -0.202343 0.61405 -0.090492 -0.100149 -0.111099
1215 0.324819 -0.345676 0.000285873 0.240925 -1.56946 -0.58048 1.92456 -1.01207 -0.531834 1.82251 -0.567935 1.66734 -1.2656 0.361014 1.5988 0.122668 -0.197845 -1.08537 -0.115173 -0.361273 -0.198279 0.272625 -0.0364814 -0.0208666 -1.62659 0.517315 0.317068 0.212255 0.136556 -0.0326604 -0.16615 -0.188442 0.275755 0.0659894 -0.0361567 -0.0740624 -0.816857 -0.27273 -0.196174 0.0624835 -0.289913 0.254308 -0.428103 0.726951 -0.410336 0.160524 -0.32928 0.21956 0.110166 -0.0540812 -0.392331 0.923111 -0.881741 0.398221 0.499188 0.228106 0.00541835 -0.579501 0.444725 -0.0923886 0.549585 -0.052414 0.0265912 -0.0146351
582 0.260136 -0.399316 0.239626 0.25144 -1.30375 -0.620318 1.68138 -0.694473 -0.414286 1.56806 -0.4616 1.40805 -1.06575 0.193243 1.1273 -0.0962356 -0.15635 -0.822783 -0.164384 -0.269437 -0.263759 0.00592392 -0.0205649 0.100581 -1.37661 0.598945 0.297544 0.0586872 0.0433171 -0.0728385 -0.241247 -0.114338 0.283272 0.145356 -0.0327883 0.0208451 -0.678229 -0.268611 -0.0890289 0.185468 -0.19486 0.143906 -0.240125 0.282775 -0.318552 0.159609 -0.153606 0.141978 0.151871 0.111553 -0.36877 0.571617 -0.706767 0.341812 0.481589 0.28324 0.0750021 -0.414439 0.446297 -0.0553069 0.292992 -0.0710533 0.00987413 0.0967718
1911 0.200683 -0.304991 0.223065 0.10972 -1.01277 -0.749206 1.8238 -1.3758 -0.0848139 1.85695 0.220515 1.53185 -1.17257 -0.0694062 1.4186 -0.134849 -0.328315 -0.45166 -0.110331 -0.235366 -0.076052 0.00702179 0.194923 0.0825445 -1.35618 0.360983 0.437099 0.352866 0.0851258 0.143101 -0.419654 -0.257318 0.447463 0.0844486 -0.10606 -0.00244419 -0.497955 -0.364172 -0.265715 0.200849 -0.39003 0.252558 -0.119559 0.430614 -0.344375 -0.0534864 -0.174152 0.54471 -0.0924463 0.172981 -0.434752 0.531933 -0.428664 0.355211 0.42158 -0.00335849 -0.317779 0.113823 0.17249 -0.332736 0.247813 -0.11186 -0.139351 -0.101505
2261 0.313088 -0.304846 0.160988 0.091095 -1.02386 -0.711475 1.96284 -1.35882 -0.0272931 2.08132 0.0390119 1.49994 -1.18775 -0.0533431 1.28007 -0.081651 -0.261166 -0.320929 0.0150489 -0.371183 -0.126246 0.0747725 0.0116773 0.0654925 -1.17803 0.295482 0.362833 0.335373 4.849e-05 0.224141 -0.354778 -0.184425 0.47931 0.287954 0.00012263 0.10276 -0.447707 -0.268282 -0.401648 0.23452 -0.544779 0.159548 -0.0841828 0.350298 -0.191935 -0.0594167 -0.100721 0.488886 -0.0960149 0.17736 -0.510917 0.611534 -0.505349 0.336283 0.553634 -0.0854576 -0.357117 0.101362 0.18104 -0.397765 0.252733 -0.080039 -0.137032 -0.0243332
2379 0.191588 -0.31991 0.320658 0.0279799 -0.865627 -0.732911 1.80887 -1.30771 -0.0290347 1.91304 0.048366 1.32491 -1.22505 -0.0377791 1.25465 -0.178855 -0.201408 -0.313016 0.0261539 -0.353349 -0.100006 -0.0411616 0.0851706 0.193254 -1.17323 0.331437 0.400675 0.369174 -0.00817337 0.0559007 -0.392408 -0.177028 0.532792 0.169515 -0.0401034 -0.0993855 -0.449827 -0.314374 -0.392677 0.256788 -0.455704 0.370389 -0.107846 0.361969 -0.191259 -0.0850792 -0.0888986 0.486829 -0.19204 0.247667 -0.541355 0.573964 -0.476452 0.425498 0.432429 -0.119563 -0.487362 0.108144 0.340721 -0.472282 0.26961 -0.0103528 -0.0828658 0.0189645
2206 0.268792 -0.28272 0.328647 0.096866 -0.930481 -0.678017 1.80944 -1.17777 -0.0499957 1.79828 -0.000407557 1.2269 -1.14035 0.00468032 1.23032 -0.272312 -0.142033 -0.37754 0.0349871 -0.23625 -0.1065 -0.0343261 0.0958441 0.229243 -1.22472 0.269074 0.360085 0.476573 -0.0311955 -0.0337562 -0.461351 -0.191278 0.513422 0.0476349 -0.0280869 -0.0349967 -0.442709 -0.321897 -0.338772 0.306043 -0.382689 0.300544 -0.145127 0.304216 -0.208567 -0.102445 -0.155064 0.431861 -0.127168 0.202836 -0.594124 0.568905 -0.5573 0.431928 0.390943 -0.0889341 -0.449254 0.0471355 0.442018 -0.486718 0.264086 0.0333814 -0.0787386 0.0274319
2392 0.252323 -0.272409 0.311464 0.0751928 -0.814308 -0.571365 1.67319 -1.07215 -0.12646 1.6006 0.0161056 1.06797 -1.02681 0.0274878 1.08887 -0.233564 -0.121728 -0.262153 -0.00499507 -0.197437 -0.11088 -0.0630525 0.0827135 0.129843 -1.05559 0.245904 0.29568 0.391379 -0.047611 -0.000740231 -0.392013 -0.150572 0.462887 0.0505545 -0.0128408 0.0105177 -0.386282 -0.302388 -0.322157 0.298139 -0.329457 0.290375 -0.0948936 0.319761 -0.205773 -0.0640753 -0.158059 0.34157 -0.0667663 0.136332 -0.503474 0.479363 -0.51398 0.417207 0.364462 -0.0951869 -0.346411 0.0423418 0.406151 -0.407437 0.212956 0.0510993 -0.0780786 0.0549644
2133 0.286215 -0.279073 0.310069 0.0834742 -0.97206 -0.623658 2.00301 -1.28477 -0.116935 1.96201 0.113106 1.29622 -1.22252 0.00559526 1.2948 -0.30178 -0.196584 -0.354231 -0.0347481 -0.230164 -0.112909 -0.0273861 0.106677 0.166368 -1.3337 0.395288 0.40771 0.426129 -0.0435939 0.07352 -0.499365 -0.181259 0.552197 0.0478899 0.0612895 -0.00778428 -0.494085 -0.370013 -0.371193 0.336179 -0.351045 0.305949 -0.139603 0.320567 -0.267007 -0.137491 -0.167354 0.419663 -0.0917608 0.106332 -0.622907 0.612919 -0.633628 0.477011 0.434867 -0.161111 -0.466165 0.158664 0.363682 -0.466491 0.234435 0.0511006 -0.120945 0.0189895
1784 0.275723 -0.205588 0.235798 0.173101 -1.13749 -0.624232 1.9133 -1.2973 0.0252981 1.80596 0.358681 1.3349 -1.32694 0.0769409 1.34316 -0.409579 -0.0642776 -0.596714 -0.208377 -0.339134 -0.108786 -0.0257178 0.250816 0.391315 -1.51561 0.397395 0.346312 0.384567 -0.178604 -0.169529 -0.58804 -0.412219 0.477736 -0.0263292 -0.00327607 -0.125846 -0.481003 -0.363736 -0.172376 0.24769 -0.342577 0.153268 -0.2827 0.28998 -0.200626 -0.108997 -0.198341 0.434263 -0.071191 0.133885 -0.653375 0.57469 -0.648021 0.50461 0.0195279 -0.13977 -0.291278 0.176954 0.414269 -0.28255 0.233514 0.233518 -0.293322 -0.0462224
974 0.238104 -0.235193 0.226131 0.210165 -1.00833 -0.463972 1.67288 -1.05684 0.0269865 1.73845 0.152383 0.968932 -1.05886 0.254487 1.24598 -0.216874 -0.274533 -0.386489 -0.258051 -0.230761 -0.0751802 -0.159646 0.323798 0.284115 -1.56825 0.503105 0.561665 0.169241 -0.0932572 -0.0425384 -0.550297 -0.336924 0.280092 0.0408592 0.0789436 -0.217455 -0.451063 -0.0878844 -0.0624651 0.107334 -0.235652 0.108887 -0.343912 0.146559 -0.248756 -0.119356 -0.362463 0.335677 0.0501371 0.242586 -0.615573 0.616878 -0.442306 0.38407 0.0424361 -0.157296 -0.246056 0.159324 0.343593 -0.264302 0.178979 0.190062 -0.247675 -0.0832519
934 0.199535 -0.195907 0.368413 0.254904 -1.08133 -0.669821 1.70378 -1.33223 -0.0246062 1.80153 0.0834092 1.25516 -1.03987 0.103948 1.35166 -0.304634 -0.306613 -0.556691 -0.148546 -0.274931 0.118253 -0.0970425 0.116275 0.19765 -1.17342 0.562471 0.440146 0.193534 0.144679 0.222001 -0.529018 -0.375932 0.453479 0.145708 -0.0429471 -0.317543 -0.454146 -0.129247 -0.38974 -0.00242457 -0.330463 0.00959247 -0.299605 0.0660354 -0.0994222 -0.1538 -0.21679 0.31703 0.00484245 0.146953 -0.589207 0.61027 -0.685866 0.326422 0.26636 -0.0803966 -0.23913 -0.0063831 0.349316 -0.335491 0.140132 0.419449 -0.0763028 0.0993336
2604 0.0577352 -0.214011 0.372529 0.471216 -1.22476 -0.736246 1.50294 -1.20715 0.00130934 1.97129 -0.0418213 1.30953 -1.05141 0.0637231 1.45257 -0.164587 -0.167026 -0.784481 -0.0580149 -0.222752 -0.0651419 -0.085797 0.327644 -0.16076 -1.04329 0.580454 0.459929 0.250868 0.136934 0.486774 -0.301323 -0.390228 0.390853 0.31934 -0.131609 -0.378491 -0.566385 -0.113647 -0.490401 0.111249 -0.538564 0.0992385 -0.31694 0.0404504 -0.0667856 -0.113161 -0.363773 0.393814 0.206191 0.196261 -0.342888 0.748126 -0.494195 0.287992 0.279232 -0.0702777 -0.121033 -0.0256075 0.499717 -0.3332 0.309607 0.394751 -0.10224 0.0523569
