1434 64
1121 -0.0836798 -0.959709 -1.07616 -0.839518 -0.206513 -0.711504 1.62673 -1.74227 -0.197481 3.19153 0.488271 -0.124345 0.352419 0.12645 0.177613 0.0555131 0.4456 0.019862 0.250665 -0.426007 -0.0386558 -0.126867 -0.745332 0.581277 0.578279 -0.91283 -0.432958 0.000272149 -0.0609189 -0.100072 0.0695555 -0.284306 0.338669 0.225865 -0.322458 0.603344 1.34542 -0.00523676 -0.104673 -0.403327 -0.144303 0.242702 0.445203 -0.211831 0.510149 0.0460417 -0.420108 0.127893 -0.00300232 0.0775723 0.227266 -0.0139649 0.789495 -0.31288 0.107696 -0.311848 -0.75978 -0.020768 0.368884 0.162317 0.243773 -0.102443 -0.472756 0.581146
1354 -0.111664 -0.996307 -1.23868 -0.512291 -0.218341 -0.532198 1.54287 -1.83313 -0.282267 3.04772 0.723078 -0.204294 0.209355 -0.0598928 0.455276 -0.0326108 0.689313 -0.0615261 0.265787 -0.272701 -0.232777 0.0629902 -0.71592 0.544897 0.882504 -0.911558 -0.0217371 0.0312547 0.120641 -0.149349 -0.00834997 -0.0846918 0.421627 0.177261 -0.422709 0.285638 1.13501 -0.110993 -0.140664 -0.585351 -0.190069 0.063099 0.483356 -0.23062 0.46821 0.353792 -0.407171 0.161883 0.130417 0.0390255 0.388135 -0.079862 0.405359 -0.247603 0.213318 -0.635274 -0.462581 0.0257479 0.0722186 0.125804 0.367602 0.0348767 -0.287731 0.39902
1592 0.0711025 -0.905973 -0.927356 -0.323212 -0.304758 -0.786332 1.1429 -1.68321 -0.233099 2.46631 0.605311 -0.070775 0.211782 -0.268259 0.0695917 -0.0905394 0.441751 -0.114951 0.293357 -0.0502821 -0.143524 -0.149246 -0.662724 0.578705 0.515812 -0.678436 -0.296513 -0.289187 0.033372 -0.138482 -0.0895352 -0.02899 0.38514 -0.00228179 -0.174056 0.0529143 0.764469 -0.105239 -0.181534 -0.5683 -0.0878277 0.0206973 0.410803 -0.218125 0.28257 0.393627 -0.330445 0.222838 -0.0747882 0.0132142 0.248714 0.133983 -0.0247029 0.0694967 0.236611 -0.0520553 -0.379449 -0.217617 -0.0233749 0.270783 0.355014 -0.0345827 -0.315129 0.32379
407 -0.0464621 -0.741154 -1.2689 -0.593311 -0.18573 -0.473683 1.26474 -1.71555 -0.37749 2.72758 0.796927 0.283115 0.403952 0.0914481 0.202292 0.0052513 0.530728 -0.173737 0.130507 0.00791347 -0.252941 -0.241257 -0.591762 0.581979 0.399557 -0.855315 -0.245142 -0.185188 -0.032133 -0.504017 0.238056 -0.193883 0.655549 0.00673795 -0.102521 0.235907 0.502635 0.0389277 -0.203948 -0.704636 -0.292384 -0.0428439 0.381481 -0.445666 0.295913 0.215564 -0.0926783 0.336048 0.191402 0.0493814 0.197406 -0.128068 0.252179 -0.205781 0.176205 -0.376611 -0.488608 0.0734019 0.0852755 0.272741 0.283209 0.0568316 -0.236226 0.346943
1600 -0.0843087 -0.820024 -0.707522 -0.504085 -0.326856 -0.92365 0.930983 -1.60654 -0.451471 2.58977 0.303368 -0.0804567 0.237445 -0.0394887 0.116359 0.0576318 0.505475 -0.0555426 0.199248 0.00591524 -0.286965 0.0499423 -0.866714 0.495982 0.487418 -0.557629 -0.199784 0.0406646 0.104911 0.0762216 -0.171802 -0.24686 0.376721 0.0505984 0.0900331 -0.0241092 0.727765 0.0540639 -0.306395 -0.422574 0.0318171 0.102534 0.186149 -0.328113 0.230967 0.0884376 -0.00358152 0.14938 -0.0289523 0.0759542 0.0340861 -0.00620044 0.0295711 -0.04785 0.0436765 -0.208105 -0.135325 -0.282462 0.147395 0.368148 0.28995 -0.267053 -0.140527 0.325979
672 -0.119557 -1.02798 -0.62696 -0.68657 -0.402123 -1.00719 1.14371 -1.75968 -0.424329 2.7331 0.607437 0.0144302 0.1829 -0.0870524 -0.154387 0.0501461 0.315221 0.14546 0.182007 -0.237556 -0.0070112 -0.184554 -0.891263 0.909454 0.629336 -0.58073 -0.34212 -0.0684942 0.000116592 -0.209012 -0.0530084 -0.401105 0.419052 0.0256566 0.0279309 0.121183 0.868721 0.160775 -0.0850781 -0.420813 -0.215635 0.126859 0.375187 -0.341873 0.314559 0.234221 -0.273853 -0.225291 0.129766 -0.0302673 -0.198837 0.102764 0.124605 -0.0895115 0.0228713 -0.231343 -0.302159 -0.21182 -0.0358317 0.392037 0.361433 -0.013996 -0.245662 0.420393
1460 -0.120761 -0.979658 -0.543906 -0.544063 -0.398454 -0.793051 0.962877 -1.58634 -0.233183 2.37065 0.207827 -0.0898413 0.103155 0.0687912 0.151557 -0.0139004 0.257817 0.023329 0.0538742 -0.147997 -0.245207 -0.125429 -0.824963 0.55805 0.651164 -0.747954 -0.278732 -0.0293343 -0.0530782 -0.174797 -0.129631 -0.117547 0.165579 0.0725154 -0.0334229 0.140772 0.814202 0.370677 -0.101129 -0.270867 -0.133929 0.0928156 0.275058 -0.500653 0.166115 0.161056 -0.228537 -0.100662 -0.18108 -1.19633e-05 -0.0170267 -0.00315598 0.288573 -0.012365 0.129946 -0.481348 -0.256815 -0.0463043 0.0231017 0.447412 0.361629 -0.0815911 -0.0837664 0.275311
1539 -0.162028 -1.0838 -0.590117 -0.694768 -0.57639 -0.659745 1.01983 -1.68413 -0.276264 2.76354 0.151046 0.00330271 0.118496 0.0278962 0.2444 -0.0847967 0.307284 0.0996877 0.137893 -0.211487 -0.211586 -0.241592 -0.782335 0.502273 0.650208 -0.643557 -0.355837 -0.109173 -0.038909 -0.172674 -0.228088 -0.0156581 -0.0493263 0.0533867 -0.0875016 0.123967 0.881948 0.487008 -0.225197 -0.239888 -0.268283 0.191209 0.286173 -0.442775 0.138464 0.176101 -0.118914 -0.159488 -0.158712 -0.0370672 0.125121 -0.1243 0.302659 0.00995083 0.113179 -0.422413 -0.207571 -0.104674 -0.0288501 0.317821 0.325865 0.0236803 0.134764 0.241482
1259 -0.539622 -0.770966 -0.647391 -0.433245 -0.278196 -0.357305 0.968793 -1.92386 -0.0707039 2.80946 0.408246 0.197284 0.135103 -0.171981 0.0537519 -0.0655363 0.382568 0.173791 0.228695 -0.401034 -0.0564247 -0.295206 -0.516305 0.49785 0.879884 -0.833544 -0.423642 -0.34294 0.00854602 -0.00544289 -0.247972 -0.0999405 0.313858 0.20568 -0.0866125 0.323314 0.818614 0.312529 -0.153283 -0.301288 -0.386302 -0.118759 0.0210676 -0.299635 0.360858 0.105166 -0.252803 -0.146446 -0.16681 0.135972 -0.0571743 -0.0477149 0.35376 -0.229663 0.0483347 -0.24283 -0.010037 -0.172985 0.00997066 0.203133 0.0129695 0.164453 -0.17599 0.293402
1082 -0.324387 -0.766885 -0.578847 -0.592803 -0.300335 -0.472482 1.07077 -1.7783 -0.191387 2.70903 0.338439 -0.061613 0.256215 -0.00608262 0.356382 0.0892294 0.457386 0.0548746 0.115476 -0.342002 -0.0810487 -0.228461 -0.44975 0.603256 0.681261 -0.761504 -0.417357 -0.0245926 -0.223096 -0.112459 -0.0765915 -0.0562621 0.388342 0.0918864 -0.0956541 0.191014 0.648116 0.464385 -0.0557345 -0.331464 -0.263442 -0.094414 0.134654 -0.258173 0.191371 0.142701 -0.0198691 -0.0870795 -0.159048 0.231948 -0.122866 -0.131172 0.425155 -0.404819 0.0624303 -0.0793201 -0.0466947 -0.203161 0.0322021 0.498781 0.0329196 0.209545 0.0163347 0.426218
2539 -0.462159 -0.682603 -0.676351 -0.482628 -0.283044 -0.274073 1.11189 -1.70722 -0.226813 2.70788 0.359671 -0.128675 0.293479 -0.112615 0.352469 0.0329832 0.301337 0.110029 0.267311 -0.310869 -0.249856 -0.366982 -0.591681 0.679762 0.723982 -0.881681 -0.381475 -0.106908 0.108625 -0.0543858 -0.265418 -0.19243 0.243673 -0.0309546 0.0286043 0.0814098 1.0033 0.279797 -0.155128 -0.286597 -0.413788 -0.0540374 0.0885286 -0.365258 0.402261 0.316991 -0.0137513 -0.236365 -0.236614 0.213863 -0.109654 -0.0694876 0.473838 -0.355174 0.0630941 -0.288566 -0.0350289 -0.29398 0.0612909 0.364698 -0.0490712 0.224416 -0.0673271 0.418659
2253 -0.492877 -0.661002 -0.661084 -0.528508 -0.276887 -0.316068 1.10266 -1.78537 -0.28719 2.87418 0.369814 -0.176192 0.276681 -0.00135596 0.395599 -0.0176846 0.276577 0.178933 0.367785 -0.257391 -0.302628 -0.352187 -0.646547 0.754445 0.72281 -0.784983 -0.418768 -0.154342 0.00906858 -0.0227788 -0.298584 -0.309481 0.257939 -0.0385009 0.12724 0.11024 1.05666 0.347066 -0.135726 -0.258174 -0.451611 -0.00756321 0.0391369 -0.391741 0.451475 0.318663 -0.0923742 -0.263675 -0.248733 0.178965 -0.161089 -0.197764 0.377376 -0.474319 0.0649382 -0.283026 -0.0834315 -0.305249 0.0369506 0.418982 0.0337793 0.188632 -0.0251216 0.466774
2126 -0.483485 -0.578902 -0.645454 -0.625148 -0.0787335 -0.299905 1.20435 -1.78006 -0.15878 2.89067 0.371641 -0.160916 0.338562 0.0666041 0.41499 0.0713829 0.337148 0.19168 0.306889 -0.363567 -0.368999 -0.274649 -0.656719 0.80752 0.764313 -0.887422 -0.352875 -0.157873 0.0967618 -0.0137468 -0.298343 -0.371742 0.180591 -0.00328613 0.0901966 -0.0132098 1.09205 0.258783 -0.174674 -0.23947 -0.377785 0.0827754 0.115955 -0.368134 0.345303 0.253664 0.0256306 -0.283126 -0.269339 0.243248 -0.242546 -0.131215 0.434242 -0.327056 0.0472783 -0.302808 -0.0618024 -0.369152 0.0897642 0.423868 0.0560665 0.183281 -0.00880961 0.383613
344 -0.381529 -0.609788 -1.21167 -0.866271 -0.209402 -0.503438 1.14002 -1.55703 -0.0465649 2.96553 0.67555 -0.298664 0.382707 -0.155625 0.568601 -0.161144 0.35953 0.29543 0.0371485 -0.498434 -0.121325 -0.216935 -0.445372 0.434421 0.775084 -0.839887 -0.104238 -0.163471 -0.0554221 -0.169398 -0.031185 -0.185815 0.359792 0.282403 -0.280374 0.378891 0.507689 0.261451 -0.0219939 -0.205675 -0.508594 -0.0598441 0.106531 -0.381875 0.262678 0.28006 -0.264426 -0.00193113 0.0860242 0.0511378 -0.393577 -0.098104 0.324579 -0.198193 -0.175878 -0.0389292 -0.415025 -0.168393 0.0977208 0.262372 0.0810453 -0.210779 0.201005 0.568883
426 -0.359625 -0.408859 -1.21888 -0.430743 -0.152181 -0.749146 1.39394 -1.95349 0.0202683 2.98572 0.513791 -0.0105432 0.402314 -0.0656849 0.252671 -0.113299 0.433268 -0.0337966 -0.00659843 -0.582843 0.0453737 -0.109017 -0.435542 0.582442 0.619448 -0.611554 -0.251529 -0.581232 -0.154358 0.101803 0.030739 0.023126 0.360275 0.136115 -0.170301 -0.0419132 0.459504 -0.123793 -0.21866 -0.261062 -0.159872 0.0124475 -0.0265865 -0.310748 0.291231 0.191386 -0.0934619 0.0144717 0.365839 0.0271441 -0.0451211 -0.0689459 0.52821 -0.441929 0.178574 -0.187057 -0.357478 -0.177355 -0.0151168 0.171407 0.330957 0.0286986 -0.241752 0.393698
2607 -0.0772775 -0.531742 -1.25447 -0.623083 -0.199656 -0.760272 1.48014 -1.93935 -0.0599321 2.73875 0.350889 -0.09649 0.328941 0.213105 0.121813 -0.0473351 0.279134 -0.0755324 0.170305 -0.570991 -0.00880392 -0.33625 -0.220475 0.665489 0.76213 -0.637515 -0.53334 -0.28918 -0.22294 -0.14179 0.0925468 -0.207395 0.556262 -0.0764305 -0.275506 0.0181979 0.156219 0.00550903 -0.110746 -0.330009 -0.00303753 0.384209 0.109689 -0.333341 0.220368 0.157545 -0.26269 -0.0621855 -0.182152 0.255898 -0.110301 -0.158101 0.40116 -0.378395 -0.0341766 -0.377223 -0.529837 -0.12053 0.24094 0.30547 0.504764 -0.0295571 -0.247202 0.636202
256 -0.21592 -0.240289 -1.33419 -0.521617 -0.106441 -0.645505 1.39732 -1.81838 0.0897772 2.69793 0.508916 -0.178702 0.444277 0.229729 -0.1189 0.106895 0.350556 -0.177294 0.318028 -0.49255 0.00149294 -0.224071 -0.321678 0.484751 0.70276 -0.701589 -0.489942 -0.305364 -0.293961 -0.0431887 0.149753 -0.175611 0.465049 -0.245426 -0.144798 0.0674477 0.174042 -0.0658748 -0.0190273 -0.218319 -0.00931776 0.0964364 0.0656909 -0.213735 0.147602 0.328228 -0.0846778 -0.0270236 -0.205968 0.102432 0.0138016 -0.282913 0.341386 -0.323682 0.015194 -0.22232 -0.635473 -0.273247 0.0933309 0.240267 0.261123 -0.161342 -0.187225 0.296383
887 0.00641026 -0.18523 -1.29688 -0.519128 -0.272635 -0.480034 1.40979 -1.91495 -0.0898268 2.83264 0.347845 -0.353071 0.397285 0.338745 0.16038 -0.117735 0.376038 -0.171311 0.223341 -0.614255 -0.267635 -0.286899 -0.37636 0.533107 0.61044 -0.526493 -0.350427 -0.134496 -0.221364 -0.0960239 0.0628508 -0.14284 0.780001 -0.178223 -0.0626988 0.292042 0.127794 -0.16145 -0.214186 -0.178087 -0.101407 0.091746 0.141181 -0.215901 0.415287 0.266448 -0.188458 0.0248567 -0.0545692 0.353225 -0.251295 -0.348891 0.449334 -0.326006 -0.030959 -0.24712 -0.687951 -0.173041 0.150831 0.471965 0.337922 -0.191788 -0.174828 0.69435
66 -0.0967229 -0.318114 -1.18104 -0.352552 -0.399712 -0.256382 1.50476 -2.02688 -0.276435 2.73052 0.0935796 -0.112219 0.128948 0.339682 0.0744924 -0.108038 0.304116 -0.162365 0.297221 -0.363547 -0.301855 -0.259523 -0.579962 0.679976 0.823885 -0.0271372 -0.159072 -0.0805244 -0.168254 -0.285853 -0.00678168 -0.0719393 0.554364 0.106597 -0.273085 0.0935156 0.56461 0.0810285 -0.356323 -0.324247 -0.137161 0.0460812 0.0583621 0.0486449 0.555473 0.107499 -0.0335291 -0.1508 0.234227 0.509545 -0.163305 -0.031408 0.397473 -0.331821 0.0291506 -0.472204 -0.366065 -0.103342 -0.0543806 0.0411359 0.142103 -0.0896407 -0.00258403 0.384519
454 0.101486 -0.647721 -1.10981 -0.454933 -0.352131 -0.370691 1.32661 -1.84147 -0.391159 2.60458 0.516122 -0.33113 0.312052 0.292947 0.347621 -0.245463 0.430587 -0.0692336 0.330359 -0.359452 -0.311983 -0.222916 -0.820654 0.736728 0.769609 -0.536721 -0.196819 -0.0511337 -0.0375158 -0.310405 -0.0676829 -0.163959 0.75644 0.0444966 -0.0512712 0.24571 0.578328 -0.119798 -0.305142 -0.426672 -0.162514 0.0643354 0.217875 -0.287158 0.290293 0.176683 -0.263435 0.0891826 0.0788139 0.280012 -0.0152634 -0.302487 0.433394 -0.0832559 0.0258622 -0.253275 -0.751158 -0.0528681 0.0200296 0.285127 0.523406 -0.176221 -0.322351 0.595903
1123 -0.0479977 -0.78154 -1.15651 -0.468996 -0.485355 -0.477274 1.27437 -1.70552 -0.458225 2.82953 0.624157 -0.413152 0.36639 0.0173364 0.333881 -0.243775 0.529036 0.0255303 0.275108 -0.203592 -0.266094 -0.213717 -0.842835 0.747187 0.524138 -0.657112 -0.116851 0.0144034 -0.026689 -0.253904 -0.0494652 -0.145751 0.571547 0.0636982 -0.23647 0.463681 0.647722 -0.204585 -0.283227 -0.59609 -0.18388 0.0797122 0.344786 -0.244672 0.406007 0.250368 -0.212892 0.425058 0.0203554 0.123649 0.0712388 -0.241293 0.315835 0.0584693 -0.0112864 -0.173872 -0.648857 -0.134198 -0.00418936 0.303686 0.388913 -0.235114 -0.506977 0.556352
1680 -0.0758127 -0.85757 -0.964181 -0.471714 -0.303466 -0.640432 1.14197 -1.57881 -0.278859 2.40977 0.488082 -0.0417046 0.159861 -0.114871 0.219788 0.0309234 0.529388 -0.021189 0.213622 -0.205878 -0.211064 -0.0959743 -0.633643 0.455916 0.58645 -0.653563 -0.224274 -0.0673774 0.0400382 -0.125859 -0.190689 -0.207551 0.250509 0.163272 -0.234434 0.241063 0.938091 -0.0498776 -0.177416 -0.443202 -0.2286 0.00520319 0.448877 -0.185667 0.411555 0.214526 -0.213948 0.218015 0.0611531 0.129632 0.306039 -0.0533257 0.272739 -0.201113 0.0585945 -0.369613 -0.637041 -0.10059 0.18832 0.159461 0.374009 -0.00916629 -0.295699 0.625489
1285 0.0473005 -0.665834 -0.97745 -0.312275 -0.226152 -0.474501 1.25045 -1.50732 -0.472268 2.63765 0.616954 -0.202705 0.152506 -0.167061 0.51951 -0.134853 0.59122 0.00205344 0.168676 0.0368077 0.0475316 -0.221704 -0.730613 0.611159 0.52098 -0.879811 -0.191407 -0.0863078 0.118082 -0.432675 0.0229368 -0.180095 0.44076 0.0502945 -0.327554 0.129711 0.579314 -0.284722 -0.252082 -0.566952 -0.264015 -0.0062718 0.510278 -0.361959 0.351251 0.13161 -0.213548 0.228846 0.0428123 0.0846099 0.238575 -0.02384 0.110456 -0.0685234 0.257294 -0.256652 -0.450437 -0.0320495 0.0811771 0.159417 0.273279 0.0108357 -0.518349 0.532944
730 -0.0180928 -0.550535 -0.759374 -0.377774 -0.0460039 -0.514574 1.44421 -1.53136 -0.499174 2.63216 0.59229 -0.251669 0.1318 -0.220941 0.629214 -0.195019 0.523178 0.040655 0.06433 -0.184794 0.368865 -0.383657 -0.573379 0.462475 0.559201 -0.774287 -0.33102 -0.180143 0.0824738 -0.511438 -0.00460474 -0.316489 0.307414 0.0227593 -0.332883 0.116252 0.161769 -0.342583 -0.233647 -0.50211 -0.0844641 -0.0556943 0.459592 -0.321743 0.325407 -0.0164961 -0.201938 0.104214 -0.0150394 0.221125 0.134675 -0.187056 0.135658 -0.0446979 0.276691 -0.237985 -0.337405 -0.188182 0.276636 0.203425 0.147079 0.0381508 -0.460234 0.40778
2648 -0.0530775 -0.606422 -0.880382 -0.594222 -0.0748467 -0.572933 1.43095 -1.53349 -0.431629 2.51655 0.547875 -0.259851 0.184764 -0.184823 0.507599 -0.144474 0.557552 -0.0539654 0.0312799 -0.28423 0.398139 -0.440913 -0.44508 0.511379 0.538192 -0.741651 -0.390132 -0.0925841 -0.0046091 -0.528096 0.0350278 -0.369296 0.39344 0.0886446 -0.312135 0.114945 0.0478382 -0.26119 -0.119025 -0.535615 -0.0727106 0.0253732 0.291499 -0.279193 0.25569 -0.0959432 -0.106295 0.146702 -0.0558715 0.289935 0.0666314 -0.114377 0.233649 -0.0916556 0.112067 -0.263814 -0.286534 -0.0995484 0.226009 0.311556 0.0988005 0.146072 -0.461934 0.610473
562 -0.238809 -0.825427 -0.739751 -0.651367 0.224546 -0.497128 1.33248 -1.37306 -0.279343 2.71297 0.569033 -0.448237 0.251795 -0.0786055 0.516464 -0.327141 0.201712 -0.0319354 0.0218607 -0.313817 0.309114 -0.314642 -0.807634 0.647112 0.382763 -0.567786 -0.390421 0.10273 -0.174875 -0.227787 -0.0998678 -0.466802 0.142213 -0.152986 -0.0365988 0.1376 0.142603 -0.244924 -0.119941 -0.206946 0.0480049 -0.147854 0.211455 -0.340858 0.273713 0.0475845 -0.0303504 0.344539 -0.112248 0.289976 -0.117064 -0.299882 0.379816 -0.129353 -0.120586 -0.313864 -0.408063 -0.21449 0.269343 0.313545 -0.120826 0.149465 -0.301059 0.421842
1114 -0.277339 -0.718821 -0.87739 -0.540339 0.255666 -0.663752 1.3862 -1.75328 -0.120627 2.48297 0.425358 -0.234538 0.143751 0.0656631 0.305969 -0.126105 0.483557 -0.167566 0.0372988 -0.119275 0.204619 -0.278857 -0.64546 0.717887 0.698682 -0.517522 -0.436115 -0.266135 0.00994453 -0.344467 0.132351 -0.332261 0.126489 0.131441 -0.0684851 -0.053673 0.468656 -0.361075 0.080887 -0.0930258 -0.172003 -0.325745 0.0111182 -0.0835736 0.302925 -0.0439876 -0.310037 -0.0800144 -0.086158 0.0793315 -0.0110922 -0.122157 0.370348 -0.0254077 -0.110781 -0.185739 -0.416165 -0.0103572 0.0149918 0.24184 0.20309 0.042677 -0.385894 0.251037
1117 -0.367295 -0.928908 -0.826136 -0.655977 0.255948 -0.667975 1.34602 -1.75764 -0.117269 2.58159 0.60525 -0.197888 0.0892791 0.148385 0.353186 -0.0545059 0.575977 -0.20712 0.0112828 -0.189649 0.00245623 -0.192446 -0.485457 0.926348 0.674616 -0.415332 -0.438059 -0.243021 0.0130832 -0.340851 0.0466962 -0.175433 0.129678 0.242796 -0.236913 0.0210635 0.337251 -0.227297 0.0157868 -0.13757 -0.00620771 -0.172196 0.0433185 -0.0761456 0.198835 0.140123 -0.251452 0.0637673 -0.0336117 0.176888 -0.123994 -0.130201 0.501166 0.0668015 -0.0575059 -0.00643281 -0.363144 0.078596 -0.101207 0.163481 0.282697 -0.00610436 -0.265859 0.440583
2089 -0.29473 -0.822809 -0.937537 -0.865998 0.369262 -0.611757 1.44077 -1.81771 -0.241993 2.66299 0.54545 -0.0504762 0.315473 0.05168 0.31671 0.135733 0.530371 -0.164016 -0.0676859 -0.406952 -0.110473 -0.337111 -0.692737 0.815525 0.747891 -0.460929 -0.333675 -0.121664 0.0346433 -0.453951 0.0343988 -0.382105 0.267839 0.100702 -0.103198 0.0657685 0.430073 -0.23584 0.0746239 -0.0963619 -0.146172 -0.331163 0.131514 -0.127494 0.45547 -0.00595177 -0.136016 0.00285596 -0.136668 0.223758 -0.052453 -0.171178 0.422007 -0.0984511 -0.0959502 -0.130992 -0.372776 -0.0045367 0.0380164 0.23061 0.270508 0.0593863 -0.146632 0.320743
145 -0.0486089 -0.807448 -0.85219 -0.477474 0.140461 -0.684631 1.42761 -1.57092 -0.543292 2.65552 0.518259 -0.042706 0.195757 0.279261 0.211118 0.0286681 0.445924 -0.299868 -0.163757 -0.260698 -0.452015 -0.226925 -0.805515 0.735382 0.921293 -0.371369 -0.235651 -0.150499 -0.0194266 -0.281016 0.124802 -0.146237 0.51689 0.203466 -0.00038968 0.110211 0.472528 -0.0733564 0.116955 0.053044 -0.170829 -0.0549818 0.114342 -0.00398795 0.333922 0.124712 -0.145477 -0.0852414 0.102624 0.292802 -0.138743 -0.0596071 0.498763 -0.0653074 -0.124312 -0.119773 -0.373952 -0.0488761 -0.0752916 0.214234 0.216962 -0.051635 -0.0601941 0.399092
2164 0.19025 -0.838215 -0.73615 -0.387603 -0.0667007 -0.689436 1.41307 -1.52932 -0.467657 2.42215 0.385224 0.0439613 0.110135 0.267733 0.171361 -0.0635009 0.235192 -0.223292 -0.0833487 -0.237989 -0.384899 -0.106902 -0.842658 0.398735 0.738334 -0.472093 -0.305891 -0.193926 -0.100861 -0.299233 0.258624 -0.0806363 0.387538 0.175349 0.27648 0.149528 0.376664 -0.172272 0.0395303 0.0621444 -0.151686 -0.0512046 0.186912 -0.248087 0.409 -0.113746 -0.202169 -0.205538 0.0836625 0.479898 -0.213276 -0.0248753 0.380077 0.022618 0.0749317 -0.165925 -0.407978 -0.100261 0.110144 0.465245 0.28814 0.0860127 0.0253283 0.414691
490 0.071636 -0.778918 -0.528009 -0.571466 -0.123465 -0.561692 1.54416 -1.55962 -0.312358 2.63438 0.567244 0.0802838 0.254282 0.196411 0.0745718 -0.201057 0.200215 -0.116371 -0.0297825 -0.357807 -0.293705 -0.195626 -0.867018 0.346713 0.642587 -0.601473 -0.423856 -0.158921 -0.021869 -0.285965 0.363615 -0.235645 0.359495 0.168006 0.258997 0.357408 0.507279 0.104739 -0.0519967 -0.000992472 -0.202911 0.11771 0.214343 -0.398482 0.403854 -0.147174 -0.193953 -0.229739 0.0224116 0.386157 -0.0683001 0.104441 0.598049 -0.25188 0.0692442 -0.08052 -0.285458 -0.101088 0.224086 0.312955 -0.0669595 -0.0257133 0.0697955 0.375533
295 -0.162665 -0.977148 -0.414526 -0.483808 -0.250146 -0.366284 1.58672 -1.63825 -0.349025 2.85051 0.544188 -0.00499132 0.402633 0.247411 -0.0373317 -0.0446656 0.064082 -0.161705 0.0627946 -0.403591 -0.137155 -0.323168 -0.658486 0.421057 0.528671 -0.650008 -0.348661 -0.0954754 -0.0732259 -0.313984 0.241757 0.0100906 0.296754 -0.00848724 0.148039 0.181507 0.410313 0.0715829 -0.180525 -0.14031 -0.273389 0.0988147 0.0969895 -0.337957 0.457643 0.074839 -0.17371 -0.230948 0.0432981 0.325973 -0.0724006 0.032734 0.505016 -0.332174 0.121618 -0.306587 -0.478093 -0.216314 0.11207 0.3778 0.343141 0.0762543 -0.121583 0.320978
882 -0.43453 -0.986677 -0.451577 -0.627869 -0.181743 -0.455444 1.19832 -1.37804 -0.325522 2.45715 0.396904 -0.033732 0.316608 0.14162 0.0329933 0.0741966 0.12906 -0.105554 0.0144602 -0.384529 -0.098766 -0.209409 -0.53563 0.407576 0.455516 -0.638166 -0.118845 0.1317 -0.0695343 -0.305255 0.227376 0.00771163 0.235194 0.218139 -0.0478945 0.277707 0.479368 0.253297 -0.165044 -0.132959 -0.247877 0.204418 0.0763792 -0.229077 0.437653 0.182402 -0.204263 -0.252971 0.0197548 0.215511 -0.108026 0.0721145 0.445971 -0.201226 0.0805515 -0.236712 -0.264851 -0.143925 0.232372 0.298792 0.0888375 0.0629402 -0.294651 0.156336
523 -0.215124 -1.09238 -0.577582 -1.12753 -0.240304 -0.722519 1.24491 -1.38135 -0.141834 2.5427 0.678252 -0.244661 -0.177581 -0.175946 0.112077 -0.0889668 -0.0604964 -0.0153671 0.158638 -0.552348 0.116756 -0.279819 -0.43035 0.709375 0.587276 -0.81814 -0.412194 0.191549 -0.132024 0.015084 0.256115 0.159593 0.210412 0.00281328 0.00371813 0.365478 0.621561 0.133667 -0.24712 -0.103793 -0.123792 -0.233853 -0.00836489 0.0394333 0.484006 0.266504 -0.309196 0.0557891 -0.0376642 0.135235 0.267672 0.246098 0.265036 -0.0346635 0.145776 -0.312922 -0.501116 0.128203 -0.163665 0.247492 0.1794 -0.293559 -0.155032 -0.0322248
2429 -0.201711 -1.15581 -1.04217 -0.936768 0.0525979 -0.514054 1.06105 -1.51598 -0.276032 2.74096 0.142925 0.109817 0.438803 0.091308 0.102924 0.23372 0.538086 -0.141423 0.292518 -0.443333 -0.0634695 -0.387718 -0.610532 0.729585 0.441782 -0.83595 -0.534313 0.121824 0.0490922 -0.29643 -0.0840093 -0.31297 0.204941 0.00626857 -0.0281178 0.0266819 0.470666 0.0964601 0.0258864 -0.313677 -0.174879 -0.174776 0.199781 -0.405091 0.330153 0.0990426 -0.285097 0.125651 0.331452 0.113554 -0.0726 0.00468711 0.473303 -0.242377 0.0691553 -0.24278 -0.363371 0.399417 -0.0670585 0.260875 0.267319 0.333541 -0.280111 0.301355
2317 -0.397921 -1.03524 -0.827407 -0.751688 0.00784157 -0.518706 0.843847 -1.37825 -0.19379 2.76309 0.120684 0.0910729 0.391212 0.0646398 0.155227 0.157679 0.27042 -0.182459 0.715526 -0.359951 -0.0203122 -0.362199 -0.555643 0.722598 0.224415 -0.611804 -0.652276 0.131635 -0.0407821 -0.012406 -0.0327271 -0.292278 0.0950787 0.0332856 0.0129527 -0.24507 0.412233 0.156279 0.0321965 -0.150153 -0.380097 -0.137272 -0.0042004 -0.231353 0.0673874 0.0369241 -0.182833 0.0405811 0.154136 0.30961 -0.119391 0.0120199 0.459934 -0.303116 0.0720642 -0.134673 -0.411783 0.319263 -0.127019 0.166092 0.273629 0.413763 -0.142296 0.518555
2302 -0.358593 -1.02021 -0.695824 -0.825707 0.0925208 -0.498859 0.946478 -1.50546 -0.129143 2.93277 0.358692 0.249405 0.512205 0.172115 -0.0649857 0.199302 0.371314 -0.172051 0.822921 -0.423785 0.0646231 -0.443936 -0.669892 0.878568 0.287528 -0.655515 -0.699468 0.153518 -0.0492333 -0.195296 -0.00943123 -0.31729 0.0316368 -0.0154267 -0.0662728 -0.272648 0.496794 0.138263 0.00791499 -0.0616659 -0.482456 -0.210593 -0.034378 -0.226166 0.111907 0.077339 -0.319724 0.0372265 0.130898 0.368585 -0.219502 0.0575975 0.564246 -0.386583 0.206246 -0.198944 -0.421902 0.186977 -0.171542 0.182195 0.447638 0.283077 -0.406851 0.399569
403 -0.297346 -0.674863 -0.596712 -0.698565 0.131413 -0.374517 0.823174 -1.10876 -0.0531035 2.14933 0.198456 0.188317 0.324427 0.0546751 -0.00703863 0.0908585 0.275298 -0.0871116 0.437634 -0.306712 0.0880452 -0.295214 -0.439949 0.585414 0.265577 -0.422789 -0.309074 0.129665 0.0328807 -0.168754 0.00760976 -0.168593 0.115084 0.0718877 -0.0933762 -0.169608 0.37511 0.0387417 0.0501017 -0.0167658 -0.265747 -0.169852 -0.0831093 -0.0863309 0.0990289 -0.0374546 -0.225135 -0.0087616 0.050469 0.190347 -0.129784 0.0356199 0.392818 -0.195945 0.0439138 -0.191074 -0.304697 0.119662 -0.0239988 0.114084 0.260561 0.210729 -0.195346 0.237129
934 -0.503678 -1.06135 -1.0007 -0.474339 -0.0590057 -0.638694 1.10839 -1.31784 -0.365079 3.00087 0.257771 0.0505404 0.433267 0.0859297 0.0816166 0.0378694 0.288704 -0.285034 0.618538 -0.207383 -0.0885051 -0.406662 -0.600847 0.758977 0.199034 -0.701651 -0.845051 0.00625857 -0.216278 0.15838 0.195275 -0.232393 0.329883 0.104865 -0.00629821 -0.206902 0.557747 0.214331 0.0345255 -0.101338 -0.379332 -0.00262783 0.03696 -0.133754 0.192156 0.175832 -0.273882 0.0316652 0.133718 0.452991 -0.134512 0.0811339 0.448166 -0.200242 0.139476 -0.172777 -0.324124 0.176627 -0.158232 0.260363 0.342994 0.212138 -0.196462 0.684415
163 -0.115246 -1.08088 -0.862878 -0.553995 0.251477 -0.554939 1.48293 -1.39589 -0.654478 2.6406 0.0844892 -0.0585398 0.300733 0.267618 0.386095 -0.0356091 0.707523 -0.0746259 0.220114 -0.048441 -0.386582 -0.261692 -0.591451 0.605747 0.341973 -0.714667 -0.262107 -0.0673488 -0.369931 -0.118762 0.0175356 0.0843932 0.405615 0.155151 -0.0316829 0.334535 0.402541 0.234533 -0.13319 -0.0514021 -0.113368 -0.102781 0.0652821 -0.0885459 0.0816831 -0.00264587 -0.128902 -0.196251 0.26994 0.0558031 0.00967258 -0.439916 0.145305 -0.310002 -0.0663772 -0.368174 -0.114789 -0.0762163 -0.117082 -0.00908165 -0.0411002 -0.202621 -0.196249 0.195216
42 -0.151919 -1.0321 -0.803853 -0.972398 -0.0237674 -0.629652 1.27526 -1.49181 -0.294082 2.59662 0.21989 0.0308082 0.44248 0.275372 0.209492 0.107079 0.519661 -0.122655 0.10685 -0.358949 -0.168045 -0.341854 -0.650038 0.809271 0.591264 -0.681897 -0.408523 -0.00565369 -0.14891 -0.467156 -0.0795838 -0.0332026 0.403188 0.0758313 0.0287555 0.150606 0.431319 0.212311 -0.0078368 -0.234652 -0.0606771 -0.00533495 0.252872 -0.273247 0.337453 0.294311 -0.30554 0.0740148 0.0747042 -0.0538342 -0.132755 0.0972428 0.465384 -0.131999 0.0567343 -0.0186759 -0.213991 0.0646427 -0.0741642 0.299002 0.162163 -0.00271688 -0.198613 0.115237
144 -0.155731 -1.04127 -0.769382 -0.984281 0.00460997 -0.627101 1.31618 -1.47475 -0.29428 2.52456 0.132363 0.0539501 0.345199 0.335192 0.265845 0.0934598 0.46436 -0.0984933 0.144131 -0.315925 -0.166647 -0.399028 -0.55527 0.745297 0.574717 -0.588617 -0.454926 0.00189245 -0.0772258 -0.463223 -0.0132485 -0.0594781 0.36979 0.151019 0.0627168 0.187486 0.481415 0.181736 0.00363334 -0.282984 -0.0937826 0.0597356 0.264244 -0.230459 0.346027 0.271661 -0.331053 -0.05106 0.0477852 -0.000593863 -0.0817525 0.0714437 0.479282 -0.0426401 0.0417427 -0.0424924 -0.202703 0.0218308 0.0244502 0.289651 0.244562 0.00745994 -0.254841 0.196466
129 -0.190822 -1.09639 -0.780523 -1.0734 0.0781483 -0.75082 1.4277 -1.68926 -0.205421 2.68671 0.107156 -0.12459 0.467173 0.134842 0.573369 0.031068 0.422664 -0.182618 0.099807 -0.50393 -0.177462 -0.459069 -0.425988 0.566016 0.468362 -0.648145 -0.49286 -0.136745 -0.126304 -0.452707 -0.074835 0.0141263 0.483174 0.25007 0.0965601 0.161395 0.420969 -0.0809063 -0.0302423 -0.391327 0.000813739 -0.15299 0.192873 -0.28681 0.262068 0.336489 -0.130919 -0.0986565 0.113548 -0.078704 -0.0428072 -0.0115859 0.438962 -0.0164568 0.0971555 -0.124322 -0.288996 0.102315 -0.083226 0.390341 0.134856 0.128877 -0.340886 0.0501318
538 -0.366576 -1.02397 -0.896036 -0.977408 0.0241084 -0.585007 1.17847 -1.55568 -0.299603 2.53789 0.23695 0.130968 0.516735 0.0529289 0.230408 0.0278738 0.511099 -0.131146 0.192394 -0.533568 -0.0653238 -0.560565 -0.54449 0.740281 0.514585 -0.789231 -0.483553 -0.0434936 -0.130428 -0.588898 -0.0980365 -0.216255 0.730318 -0.0672141 -0.0265589 0.00331159 0.49815 0.0613916 0.205617 -0.358436 -0.0756098 -0.238676 0.175952 -0.206359 0.435221 0.226465 -0.120012 0.0220837 0.0221566 0.207726 -0.200342 0.0354789 0.617813 -0.366698 -0.069391 -0.135148 -0.273507 0.0386428 -0.133823 0.372385 0.282778 -0.0257898 -0.44703 -0.00720802
712 -0.370814 -1.18191 -0.705024 -1.07398 0.183773 -0.331183 1.15802 -1.6891 0.0416906 2.74512 0.291117 0.200122 0.294239 0.294394 -0.0280097 0.255419 0.572414 -0.00638208 0.312766 -0.367875 -0.0386845 -0.366038 -0.592103 0.941738 0.530034 -0.603934 -0.511932 -0.10131 -0.204501 -0.564851 -0.0120291 -0.203453 0.195856 0.0922191 -0.156965 0.0639219 0.474527 0.0549379 0.0761405 -0.218701 -0.143862 -0.192306 0.0650684 -0.190949 0.30144 0.167968 -0.481917 -0.0995579 0.0628496 0.12539 0.0601073 0.00772575 0.499606 -0.290854 -0.0288058 -0.160414 -0.516274 0.0547934 -0.000605577 0.138708 0.421591 -0.192502 -0.238356 0.0768173
745 0.149682 -0.451637 -0.898199 -0.792681 0.0605057 -0.724576 1.31037 -1.71754 -0.456104 2.77756 0.589606 0.127983 0.209803 -0.054263 0.438899 0.000386609 0.44126 -0.205288 0.158573 -0.506751 -0.160113 -0.434176 -0.650463 1.12119 -0.09441 -0.515924 -0.217435 -0.195166 0.454984 -0.476485 -0.114453 -0.0945599 0.703883 0.3386 -0.260339 0.143471 0.303955 0.353494 -0.371067 -0.389498 -0.507552 0.311984 0.31518 -0.296232 0.236373 0.0165354 -0.341053 -0.144861 0.0123203 0.0915235 -0.0900163 0.16304 0.524554 -0.133582 0.0826138 -0.27632 -0.23021 0.0608717 -0.0759322 0.254561 0.17427 0.0956316 -0.268344 0.0800232
771 -0.0778937 -0.68979 -0.865944 -0.788905 -0.0781298 -0.491065 1.02638 -1.43483 -0.294147 2.37699 0.345623 0.0504267 0.355419 -0.0103114 0.254927 -0.0385948 0.287757 -0.088841 0.143726 -0.313905 -0.0485947 -0.267134 -0.415579 0.560774 0.309151 -0.38109 -0.356165 -0.039691 -0.0861668 -0.287614 0.0940087 -0.147412 0.580848 0.128485 -0.156375 0.0019034 0.458148 0.0889334 -0.310613 -0.332471 -0.229634 0.0858791 0.242064 -0.266757 0.0826817 0.0945809 0.0305408 0.0272863 0.0101558 0.0477345 -0.162316 -0.108255 0.530407 -0.0349603 0.122832 -0.12975 -0.363372 -0.135954 -0.174061 0.210109 0.0452137 0.0469795 -0.237884 0.150375
2613 -0.158727 -0.839084 -1.17545 -0.920219 -0.0996299 -0.766365 1.2393 -1.56939 -0.539947 2.67837 0.461665 0.0217966 0.465615 -0.096661 0.273856 0.0550883 0.294225 -0.206572 0.163849 -0.351121 -0.0980119 -0.297929 -0.52233 0.819587 0.228898 -0.52622 -0.501939 -0.14475 -0.0784172 -0.278084 0.0552476 -0.132778 0.816698 0.117243 -0.156922 -0.0524036 0.589759 -0.0467363 -0.18578 -0.461869 -0.0861891 0.195934 0.13628 -0.231046 0.168181 -0.0142991 -0.0243005 0.0536699 -0.0366946 -0.0243752 -0.286742 0.103592 0.758765 -0.0450453 -0.0682713 -0.330798 -0.136628 -0.0680105 -0.177538 0.413648 0.0489926 0.101227 -0.390479 0.461586
1663 -0.221887 -0.934999 -1.11807 -0.778299 -0.178407 -0.845944 1.11673 -1.48732 -0.629532 2.77561 0.453998 -0.031295 0.315331 -0.148173 0.31902 0.163524 0.237883 -0.28115 0.123235 -0.304044 -0.192113 -0.185882 -0.595754 0.757612 0.365248 -0.528427 -0.348088 -0.0790606 0.0519543 -0.116506 0.0303027 0.00616317 0.796866 -0.0435944 -0.147692 -0.149313 0.675591 -0.0788395 -0.310987 -0.451724 0.0463338 0.312763 0.0124353 -0.308011 0.102145 0.0659879 0.0350436 -0.0835708 0.0813374 0.00480167 -0.104258 -0.00196833 0.774402 -0.0278054 -0.0269916 -0.300432 -0.103833 -0.108706 -0.201603 0.300677 0.245868 -0.0531313 -0.343765 0.567197
1562 0.00819112 -0.518003 -0.665194 -0.766121 0.130069 -0.350335 1.13867 -1.47659 -0.367633 2.60823 0.521746 0.235516 0.297181 0.0393373 0.366111 -0.187328 0.19634 -0.0867821 0.486257 -0.325361 0.0221599 -0.377926 -0.424109 0.746689 0.267053 -0.455437 -0.769842 -0.228725 -0.0389671 -0.440141 0.163464 -0.164775 0.640945 0.195926 -0.0851944 0.165265 0.463276 0.0660491 0.0416823 -0.352136 -0.0795354 0.274769 0.0523201 -0.0727034 0.0672841 0.057887 -0.163494 0.0855464 -0.170783 -0.107544 -0.280614 -0.179845 0.500692 -0.0416424 -0.122681 -0.0641313 -0.0579467 -0.118356 -0.226829 -0.095899 0.136432 -0.168114 -0.455294 0.343996
430 -0.0852048 -0.465662 -1.25201 -0.622062 -0.258114 -0.467165 1.05651 -1.4419 -0.179345 2.78315 0.0138863 0.121387 0.254295 -0.0256501 0.0966615 -0.101453 0.153457 0.0517697 -0.0360475 -0.469845 0.0280662 -0.318967 -0.425619 0.461927 0.892203 -0.277522 -0.721693 -0.0607888 0.042134 -0.308811 0.0787277 -0.00738177 0.319764 -0.12604 0.0464968 0.288176 0.467765 0.197118 -0.0453334 -0.0562676 -0.283929 -0.102687 0.0176171 -0.141876 0.391101 0.157932 0.142241 0.330257 -0.458647 -0.114261 0.0449691 -0.181048 0.244938 -0.124784 -0.222509 0.0804118 -0.185866 0.25351 -0.196516 0.289189 0.1771 -0.424825 -0.268983 0.43296
378 -0.217861 -0.84141 -0.831775 -0.49852 -0.199377 -0.63852 1.04733 -1.7408 -0.0279843 2.68757 0.533187 0.0822727 0.125707 -0.492816 -0.125356 -0.0489602 0.275206 0.0784072 0.177227 -0.669846 -0.132272 -0.0933201 -0.55793 0.874258 0.479338 -0.407493 -0.33343 -0.228464 0.0707929 0.0128365 -0.089795 0.0441995 0.442431 -0.0462025 -0.429555 0.0065772 0.524277 0.171209 0.0291459 -0.293062 0.0421468 0.241061 0.200255 0.0114922 0.260399 0.051345 -0.126373 0.145783 0.00557054 -0.0334405 -0.0927025 0.094082 0.536785 -0.0545547 -0.0407039 0.0710568 -0.421232 0.198672 -0.163877 0.354415 0.148526 0.0922905 0.0319924 0.49384
438 -0.258073 -0.959703 -1.35031 -0.444632 0.00842447 -0.6421 0.917174 -1.43477 -0.00533126 2.80844 0.185676 -0.0425073 -0.043839 0.304002 -0.0433847 0.070017 0.242599 0.103969 0.00541043 -0.296927 -0.1074 -0.196184 -0.964366 0.374779 0.326341 -0.788269 -0.240199 0.0603199 0.0577464 -0.0656486 0.492452 -0.357347 0.386313 0.513911 -0.0771618 -0.0910531 0.402912 0.221189 -0.046398 -0.155985 -0.186606 -0.0629463 -0.110731 -0.195134 -0.00197046 -0.0482168 0.110376 -0.0897717 0.261636 0.0400343 0.0745366 -0.186341 0.324833 -0.385064 -0.138058 -0.280954 -0.610459 -0.264788 -0.118219 0.418287 0.0646632 0.121541 -0.104794 0.563497
638 -0.0600942 -0.498572 -0.518595 -0.852871 -0.602195 -0.80505 1.05086 -1.53036 0.19378 2.82204 0.374666 -0.00409593 0.00301633 0.0894503 -0.0739817 -0.0432556 0.280106 0.358381 -0.0270404 -0.267317 -0.372042 -0.35183 -0.630183 0.771943 0.234329 -0.500234 -0.440259 0.110061 -0.206198 -0.174326 -0.363249 -0.0483565 0.212318 0.30575 -0.153758 -0.00298488 0.203727 0.0704219 -0.11644 -0.149206 -0.293248 -0.0916165 0.021533 -0.107163 -0.0413488 0.21927 -0.148805 -0.0945284 0.113143 -0.165344 0.0959231 -0.116681 0.814689 -0.127473 0.173548 -0.0891782 -0.291072 -0.0989394 0.260983 0.486432 0.409776 0.0534149 -0.0469215 0.364748
2032 -0.268444 -0.749338 -0.6512 -0.650202 -0.198479 -0.481555 1.0017 -1.47699 -0.191488 2.25959 0.28316 -0.0725705 0.27428 0.101214 0.233059 0.0920622 0.317209 0.122684 0.120055 -0.334421 -0.0834057 -0.176918 -0.606397 0.565966 0.444328 -0.640607 -0.285023 -0.108437 -0.237412 -0.231813 -0.106258 -0.136943 0.334486 0.0642914 -0.31638 0.141259 0.53094 0.303877 -0.0216367 -0.209325 -0.434654 -0.0971835 0.405605 -0.0237615 0.0840258 0.162112 0.038415 -0.0206726 0.0222728 0.147795 -0.119687 -0.0560772 0.385979 -0.273314 0.115931 -0.0597832 -0.27535 -0.195532 -0.0466528 0.368998 0.170095 0.0544601 -0.0496582 0.395592
87 -0.193362 -0.935857 -0.96984 -0.827684 -0.23293 -0.5765 1.13111 -1.49799 -0.225687 2.63674 0.350788 -0.00715678 0.227756 0.0570689 0.123287 0.06708 0.388989 -0.0595699 0.201461 -0.419359 -0.00117951 -0.291698 -0.596879 0.636355 0.61141 -0.699322 -0.518173 -0.174234 -0.439805 -0.226106 0.0671579 -0.17174 0.477226 0.0903115 -0.324728 0.156677 0.616975 0.415672 -0.0578012 -0.0808993 -0.325642 -0.0371766 0.232001 -0.196303 0.205916 0.251603 -0.206985 -0.121486 0.234629 0.00721344 -0.141196 -0.410484 0.532268 -0.472352 0.0386816 -0.231061 -0.480237 -0.210724 -0.149114 0.359229 0.295614 0.0712943 -0.148874 0.345773
2243 -0.0943163 -0.914843 -1.0574 -0.8247 -0.173965 -0.507673 1.35924 -1.72008 -0.284392 2.73141 0.430456 -0.0503934 0.331393 0.13325 0.158288 -0.0323616 0.396759 -0.00395359 0.167221 -0.544347 -0.0840607 -0.307559 -0.637698 0.66723 0.670239 -0.667184 -0.500293 -0.187539 -0.34568 -0.255675 -0.00453203 -0.120714 0.472529 0.116821 -0.249958 0.174638 0.786708 0.310306 -0.00514209 -0.0164204 -0.280614 0.0122973 0.256568 -0.216207 0.22841 0.187746 -0.14027 -0.12726 0.266582 0.083435 -0.200534 -0.295701 0.64405 -0.373237 0.0381291 -0.264704 -0.624923 -0.12627 -0.0501689 0.318902 0.26288 -0.0551118 -0.158071 0.492566
2466 -0.161392 -0.856633 -0.984905 -0.72845 -0.174159 -0.521723 1.28775 -1.71481 -0.252359 2.51737 0.48833 -0.0927806 0.391946 0.0982513 0.215478 -0.12216 0.43832 0.0444328 0.155564 -0.50407 -0.162041 -0.239647 -0.659083 0.664527 0.619895 -0.681553 -0.417914 -0.191068 -0.17871 -0.215232 -0.0562363 -0.153948 0.473073 0.0757031 -0.196394 0.109704 0.771153 0.179293 0.0116767 -0.0634456 -0.300893 -0.0154773 0.242223 -0.209274 0.236106 0.135895 -0.0103616 -0.103013 0.127012 0.222122 -0.175789 -0.124094 0.642758 -0.380364 -0.017989 -0.259921 -0.563263 -0.16586 0.0336087 0.333939 0.284242 -0.0777085 -0.102441 0.667014
885 -0.192046 -0.763757 -0.865085 -0.72385 -0.14402 -0.532596 1.2367 -1.5709 -0.236638 2.52648 0.382834 -0.0616972 0.31563 0.0985415 0.196829 -0.0326583 0.373728 0.0331086 0.205293 -0.460382 -0.123036 -0.239286 -0.603785 0.620952 0.579551 -0.619403 -0.408195 -0.145979 -0.190647 -0.188155 -0.0545162 -0.185853 0.38309 0.0701831 -0.216145 0.136204 0.666311 0.260026 -0.00504085 -0.114786 -0.279244 -0.00844072 0.258054 -0.157739 0.249416 0.195442 -0.112366 -0.0253229 0.0997379 0.106928 -0.115592 -0.202565 0.519874 -0.2962 0.0198013 -0.197947 -0.472035 -0.143599 -0.0571686 0.292734 0.206013 -0.0362442 -0.0717297 0.474963
2585 -0.219734 -0.66963 -1.06793 -0.651618 -0.127975 -0.424795 1.37318 -1.84442 -0.176403 2.5779 0.67602 -0.154224 0.44899 0.147047 0.0990151 -0.15312 0.378345 0.0379108 0.204055 -0.590577 -0.346083 -0.101097 -0.620443 0.688084 0.736155 -0.584408 -0.27639 -0.288722 -0.134182 -0.173517 -0.149477 -0.0684244 0.408771 0.123184 -0.208528 0.120785 0.717027 0.109782 -0.0333465 -0.0469365 -0.190613 0.0812699 0.186582 -0.125055 0.262358 0.175326 -0.0218776 -0.0305908 0.0569614 0.323921 -0.206062 -0.118716 0.595764 -0.314817 0.0229822 -0.363898 -0.567613 -0.133463 0.048111 0.211885 0.295261 -0.156696 -0.00176361 0.774811
1535 -0.307807 -0.811636 -0.922408 -0.819688 -0.0232141 -0.38455 1.50335 -1.39077 -0.175468 2.81858 0.433395 -0.0395898 0.475531 0.115654 0.182865 -0.0985365 0.364875 0.0619794 0.0728372 -0.38162 -0.13129 -0.0544489 -0.63192 0.56101 0.327943 -0.765799 -0.333334 0.0619033 -0.0499003 -0.0617241 0.135009 -0.160558 0.409502 0.18479 -0.187541 0.481654 1.11956 0.0923443 0.125908 -0.240962 -0.0332843 0.161171 0.297818 -0.0943652 0.460193 -0.0594168 -0.205727 0.119967 0.0427978 0.0289528 0.0739104 -0.0203428 0.633202 -0.251537 -0.0192552 -0.16604 -0.444927 -0.028873 0.218974 0.200802 -0.122662 -0.192054 -0.267733 0.470129
1534 -0.21097 -0.848292 -0.935769 -0.798608 -0.180769 -0.469266 1.71706 -1.4759 -0.245165 3.16212 0.467111 -0.202165 0.484232 0.141382 0.2806 -0.192441 0.379399 0.0225466 0.0922511 -0.382849 -0.180557 -0.153722 -0.778484 0.697214 0.381296 -0.94203 -0.397976 0.0164959 -0.058631 -0.0860388 0.0637481 -0.1897 0.488239 0.184924 -0.24896 0.600683 1.14091 -0.0427924 0.0866078 -0.314465 -0.0847702 0.187834 0.297715 -0.0410909 0.582885 -0.0652315 -0.373482 0.208086 0.131597 0.0343466 -0.01841 0.0741882 0.774785 -0.175945 -0.0760651 -0.172558 -0.392158 0.0165656 0.1638 0.260552 -0.0491161 -0.0436495 -0.388698 0.452718
1148 -0.261904 -0.951083 -0.846615 -0.788067 -0.143581 -0.600794 1.56882 -1.57547 -0.195684 3.14 0.50158 -0.0745605 0.401995 -0.00293831 0.23163 -0.00749037 0.448779 0.0592115 0.140534 -0.399859 -0.125234 -0.0427297 -0.76614 0.584738 0.522577 -1.02296 -0.371991 0.102401 0.025746 -0.0262508 -0.0367773 -0.181048 0.463008 0.0842709 -0.280641 0.54992 1.38156 -0.0265202 0.0130615 -0.348106 -0.148826 0.082692 0.438535 -0.168504 0.581285 0.0410903 -0.253365 0.270624 0.0496953 -0.0321776 0.117616 -0.0762964 0.653945 -0.327882 -0.00759829 -0.35842 -0.503612 -0.0344888 0.196675 0.231237 0.00197556 -0.113956 -0.438084 0.496748
1138 -0.16197 -0.991613 -1.01914 -0.704751 -0.189547 -0.562251 1.50754 -1.61335 -0.281417 3.02133 0.488058 -0.0817098 0.285625 0.0592487 0.196407 -0.019943 0.456394 -0.037704 0.228748 -0.271426 -0.14459 -0.0750815 -0.794201 0.603527 0.605401 -0.859755 -0.229524 0.133781 0.0397112 -0.0561879 0.0196532 -0.163173 0.434021 0.163496 -0.232386 0.548829 1.30581 -0.0169588 -0.0816791 -0.433143 -0.0683743 0.152069 0.411348 -0.21035 0.546464 0.048887 -0.38729 0.237638 0.102583 0.0536184 0.251751 -0.144916 0.611237 -0.201579 0.0833586 -0.379667 -0.630085 0.0378086 0.188622 0.117147 0.175794 -0.102891 -0.472917 0.471394
1047 -0.12897 -1.01052 -0.91822 -0.771555 -0.0777126 -0.721623 1.57915 -1.69319 -0.205684 3.31228 0.525494 0.00536735 0.38997 -0.0569933 0.217717 0.0787718 0.606708 0.017522 0.30276 -0.425753 -0.0756562 -0.0524033 -0.753715 0.572961 0.695394 -1.06013 -0.436813 0.0520586 0.0574312 -0.0716898 -0.0443458 -0.186719 0.438728 0.121702 -0.329336 0.522948 1.44569 -0.101196 -0.11601 -0.383302 -0.165251 0.133799 0.491734 -0.200397 0.572326 0.161811 -0.3349 0.226315 0.100919 -0.0132876 0.230515 -0.137858 0.648826 -0.408136 0.0302965 -0.527423 -0.633524 -0.0377781 0.238636 0.0688956 0.249829 -0.0167122 -0.45678 0.720651
1648 -0.198743 -0.981705 -0.783726 -0.761512 -0.0878596 -0.572421 1.3625 -1.42351 -0.188076 2.94871 0.459452 0.00986505 0.353198 0.00562374 0.166492 0.0958785 0.467765 0.0456085 0.249879 -0.378959 -0.0639731 -0.0765948 -0.683266 0.515809 0.550868 -0.938616 -0.457062 0.038065 -0.0241872 -0.0623503 -0.000514691 -0.189611 0.318407 0.19346 -0.377402 0.512042 1.306 0.0451837 -0.0868374 -0.357802 -0.156882 0.111673 0.433611 -0.169519 0.499448 0.127977 -0.264715 0.251544 0.0879549 -0.0243579 0.238617 0.0108067 0.549421 -0.33878 -0.006872 -0.433159 -0.604377 0.0125283 0.239901 0.146564 0.227741 -0.130138 -0.421541 0.561592
486 -0.197482 -1.024 -0.849406 -0.891115 -0.116466 -0.560164 1.66545 -1.62562 -0.275951 3.15639 0.501916 -0.133076 0.398946 0.216819 0.199552 -0.107391 0.372005 0.010694 0.169144 -0.355471 -0.142807 -0.0600792 -0.839723 0.712999 0.576585 -0.980737 -0.386331 0.124913 -0.0548219 -0.149609 0.117168 -0.238076 0.569683 0.17037 -0.219147 0.623953 1.30036 0.0536089 0.0273261 -0.353859 -0.122604 0.256677 0.373349 -0.106257 0.577038 -0.067035 -0.376296 0.256504 0.0980055 0.00388298 0.136573 -0.0617263 0.704391 -0.218246 0.0207133 -0.245137 -0.538816 0.100726 0.114112 0.179202 -0.0523486 -0.167052 -0.484554 0.357409
284 -0.218663 -0.924816 -0.914247 -0.888895 -0.113143 -0.475065 1.41545 -1.42948 -0.217973 2.66066 0.444961 -0.139078 0.450665 0.103644 0.248784 -0.0235395 0.220784 0.0459494 0.148945 -0.403991 -0.125321 -0.0835214 -0.736973 0.628338 0.44232 -0.753589 -0.36512 0.0918201 -0.153929 -0.129093 0.170744 -0.178654 0.400538 0.278062 -0.224314 0.569668 1.14777 0.139665 0.00166348 -0.339388 -0.0416154 0.208989 0.266286 -0.0837015 0.488022 -0.0811901 -0.277706 0.175053 -0.0282107 0.0250571 0.122264 -0.0382286 0.664196 -0.132331 0.048418 -0.0484786 -0.481632 0.065402 0.150787 0.202063 -0.0479201 -0.225451 -0.414825 0.34074
289 -0.127485 -0.825646 -0.97044 -0.826115 -0.0943731 -0.394444 1.52799 -1.57205 -0.331694 2.95918 0.427015 -0.0319853 0.482296 0.186795 0.312662 -0.0455236 0.349635 0.0132672 0.0545538 -0.462233 -0.123434 -0.0762632 -0.716282 0.662051 0.499726 -0.911323 -0.409885 0.102085 -0.119231 -0.166895 0.127119 -0.152034 0.52513 0.105721 -0.174933 0.493093 1.10045 0.0957782 0.0216643 -0.301174 -0.06331 0.161873 0.269713 -0.0752302 0.520355 -0.159384 -0.31465 0.20245 0.0464631 0.0323187 0.0681369 0.0318601 0.682203 -0.187261 0.0909098 -0.0148052 -0.397089 0.0551079 0.187469 0.19214 -0.152296 -0.107378 -0.311184 0.412954
612 -0.230824 -0.834787 -1.06819 -0.865749 -0.047042 -0.55548 1.64624 -1.66473 -0.279981 3.23758 0.435402 -0.0162897 0.416537 0.102353 0.338992 -0.036209 0.375017 0.04815 0.113436 -0.482072 -0.100059 -0.0539339 -0.700635 0.549318 0.459134 -0.937203 -0.367924 0.0516494 -0.0541657 -0.0337462 0.164004 -0.211459 0.360898 0.285218 -0.249606 0.567205 1.29601 0.110604 0.0237844 -0.337348 -0.118153 0.245101 0.408199 -0.152152 0.465482 -0.133315 -0.333253 0.0424675 0.0240989 0.0886049 0.140607 0.00645601 0.684956 -0.313284 0.0564092 -0.169118 -0.507933 -0.00659851 0.378331 0.145091 -0.0847521 -0.08588 -0.350003 0.57299
583 -0.259168 -0.986805 -1.09857 -0.758428 -0.252207 -0.515461 1.82504 -1.68874 -0.276875 2.98877 0.400895 -0.362808 0.473634 0.159002 0.306649 0.0440738 0.169521 0.0170163 0.0723043 -0.590547 0.0142488 -0.316748 -0.719696 0.640079 0.402252 -0.840643 -0.454417 0.0336548 -0.182492 -0.148964 0.192017 -0.171662 0.455145 0.279743 -0.36927 0.543302 1.17921 0.174863 0.0383185 -0.448277 -0.0327765 0.171986 0.224386 -0.148779 0.484381 0.0117289 -0.192224 0.118559 -0.0690254 0.0381755 0.170943 0.129954 0.797675 -0.124282 -0.0341412 -0.00900419 -0.554992 0.0670977 0.293944 0.313281 0.0997806 -0.205643 -0.551935 0.290084
150 -0.13521 -0.825809 -1.09714 -0.816563 -0.245286 -0.435912 1.59096 -1.51724 -0.216911 2.80038 0.375881 -0.293026 0.398602 0.22422 0.266582 0.0603094 0.165645 -0.00295135 0.215853 -0.503543 0.0041509 -0.320707 -0.65814 0.681345 0.4225 -0.721953 -0.471578 0.0629105 -0.191121 -0.134413 0.12092 -0.233913 0.384441 0.167208 -0.306768 0.624337 1.09836 0.10639 -0.0686415 -0.404038 -0.035573 0.265966 0.224264 -0.241239 0.449446 -0.0385818 -0.328662 0.0964094 -0.111763 0.0752903 0.0601652 -0.0249594 0.844631 -0.197257 0.155644 -0.0947884 -0.656598 0.0556936 0.216475 0.342786 0.200028 -0.217894 -0.610035 0.343099
643 -0.249727 -0.956784 -1.2808 -0.909294 -0.331915 -0.43275 1.72287 -1.58006 -0.30076 3.03014 0.336004 -0.348858 0.490623 0.357649 0.289345 0.122925 0.0548166 -0.00805635 0.177474 -0.593179 -0.00171272 -0.390583 -0.649472 0.767673 0.440398 -0.742274 -0.489304 0.102496 -0.245336 -0.165298 0.0937833 -0.262694 0.397854 -0.0105657 -0.355194 0.535798 1.0299 0.276686 -0.126519 -0.39039 0.0808523 0.441489 0.175892 -0.358245 0.419252 -0.0339832 -0.381203 0.0613159 -0.156994 -0.0752839 0.0786435 -0.169038 0.941869 -0.196504 0.213317 -0.201717 -0.628443 0.14811 0.137182 0.277543 0.217699 -0.273181 -0.626278 0.164
2371 -0.190308 -0.878199 -1.16514 -0.847913 -0.283626 -0.4523 1.68061 -1.56825 -0.255332 2.87182 0.339839 -0.321491 0.476414 0.281293 0.339365 0.0300821 0.0483917 0.017832 0.105644 -0.555023 -0.113284 -0.275808 -0.714975 0.69337 0.41319 -0.717764 -0.451695 0.0626936 -0.305465 -0.122572 0.241753 -0.222988 0.516365 0.191915 -0.252052 0.629306 1.10573 0.290485 -0.0223802 -0.436939 0.0611784 0.294367 0.183282 -0.286536 0.457619 -0.0928061 -0.344665 0.0559201 -0.106429 0.0247596 0.025705 -0.0748266 0.91217 -0.128796 0.167789 -0.00173911 -0.59459 0.063554 0.114993 0.425519 0.119362 -0.283632 -0.612039 0.0955303
1498 -0.368873 -0.77409 -1.19278 -0.602238 -0.421483 -0.392072 1.59584 -1.4636 -0.528856 2.95416 0.413442 -0.378737 0.497597 0.0608775 0.33223 -0.00573338 0.255021 0.190265 0.0817366 -0.490094 -0.147297 -0.385974 -0.850801 0.72286 0.435831 -0.716113 -0.185896 0.0057905 -0.0529783 -0.21132 0.0842912 -0.178271 0.553194 0.13673 -0.330571 0.581126 0.738859 0.048945 0.134403 -0.648073 -0.0333823 0.189858 0.328492 -0.0680198 0.330035 0.100743 -0.0528929 0.355151 0.109828 -0.0867962 0.0379052 0.0509149 0.65313 0.0516289 -0.0537632 -0.0630533 -0.189893 0.0541955 -0.0266711 0.506517 0.0480581 -0.202558 -0.539349 0.323646
1125 -0.177706 -0.561571 -1.18056 -0.409439 -0.46341 -0.239317 1.42622 -1.81905 -0.402877 3.25583 0.585902 -0.481808 0.470387 0.0500244 0.290667 -0.323002 0.489865 -0.0930007 0.288311 -0.344931 -0.329182 -0.239871 -0.833783 0.929518 0.484073 -0.805467 -0.0937808 0.17664 -0.158855 -0.14266 0.024292 0.0645844 0.903621 -0.0654743 -0.111009 0.621505 0.491887 -0.213086 0.0201915 -0.405323 -0.0612069 -0.0423499 0.127101 -0.232806 0.467913 0.194072 -0.304857 0.455404 0.0963053 0.138346 -0.267614 -0.300811 0.534004 0.0667933 -0.0400777 -0.0498863 -0.545173 0.0652574 -0.116234 0.465193 0.128645 -0.120225 -0.471251 0.632906
582 -0.11596 -0.448975 -0.961584 -0.63667 -0.157543 -0.213115 1.24738 -1.55639 -0.210302 2.91879 0.397222 -0.0897656 0.320461 0.0745682 0.270089 -0.314503 0.229217 -0.183527 0.178933 -0.456503 -0.237571 -0.0564528 -0.728678 0.715415 0.50489 -0.769285 -0.224315 -0.000884077 -0.30686 0.0599288 0.216137 0.150357 0.669323 0.194768 -0.17498 0.556692 0.800613 -0.164974 0.194382 -0.195529 0.0881304 0.0237125 0.064043 -0.0098934 0.502751 0.0728586 -0.322858 0.275028 0.20444 0.0445728 -0.226865 -0.185451 0.499758 -0.150425 -0.119605 0.1281 -0.368764 0.198803 0.00361804 0.299738 -0.0840656 0.00700982 -0.323135 0.400827
228 -0.738912 -0.290767 -1.14001 -0.672911 -0.136455 -0.352376 1.15671 -1.31309 -0.0183009 2.78056 0.169166 0.0620222 0.232284 0.016312 0.300779 0.0202563 0.151804 -0.0860145 0.309897 -0.255448 -0.151547 -0.0968753 -0.798353 0.889121 0.604454 -0.567918 -0.0316786 0.0928656 -0.135069 -0.0560249 -0.0736358 0.0763199 0.450061 0.07737 -0.361277 0.245129 0.44971 0.496239 0.0442979 0.208299 0.0288554 -0.132495 0.180748 -0.158868 0.285188 0.237061 -0.106967 0.0934242 0.346995 0.010861 -0.216386 -0.309964 0.447677 -0.0141356 0.072144 0.0772261 -0.633332 0.0969562 -0.0146955 0.357925 -0.236548 -0.0449847 -0.288177 0.272903
1583 -0.562929 -0.731555 -0.925642 -0.8206 -0.126137 -0.568751 1.18059 -1.33071 -0.220636 2.87723 0.128488 0.287937 0.292857 0.0544249 0.370658 -0.0811422 0.144598 -0.134882 0.503892 -0.387037 -0.0836514 -0.17297 -0.736235 0.720537 0.32918 -0.741151 -0.227477 0.0779218 -0.284566 -0.106802 -0.0265871 0.220645 0.599465 0.230665 -0.109708 0.194787 0.441021 0.243875 0.267083 -0.0165335 -0.276076 -0.354899 -0.0388266 -0.135949 0.528068 0.191111 -0.330939 0.121713 0.15083 0.0783076 -0.350387 -0.149279 0.784244 -0.132286 0.211573 -0.138455 -0.352889 0.207655 -0.134393 0.563063 0.139182 0.238946 -0.159222 0.29801
478 -0.301163 -0.62142 -0.974446 -0.584143 -0.0639863 -0.385515 1.09033 -1.65821 -0.0335987 2.66986 0.358768 -0.00992747 0.0464976 -0.00291999 0.360856 -0.472936 0.237265 -0.197297 0.236782 -0.727132 -0.199536 -0.206083 -0.721874 0.40175 0.700031 -0.506688 -0.0845952 -0.0729092 0.041934 0.283402 0.126716 -0.0734906 0.272576 0.439982 0.0915928 -0.0969517 0.56688 0.12663 -0.284855 -0.117209 -0.0545027 0.0214141 0.138225 -0.233225 0.232956 0.0336151 0.0478735 -0.000154751 0.0591318 0.159483 -0.099256 -0.241651 0.315594 -0.329448 0.0973108 0.123681 -0.473216 0.108686 -0.231786 0.169284 0.307818 -0.0718644 -0.144802 0.186563
142 -0.120438 -0.766731 -0.789349 -0.647478 -0.0548201 -0.541067 0.917914 -1.54877 -0.124728 2.83473 0.296839 -0.0107342 0.110693 -0.0535496 0.0986548 0.0171915 0.33326 -0.0598968 0.0462285 -0.36113 -0.144497 -0.148795 -0.695184 0.377562 0.591366 -0.608792 -0.402237 -0.025445 -0.0708416 -0.000472282 0.128333 -0.364263 0.444304 0.282162 -0.0254563 -0.0817177 0.60325 0.307213 -0.229835 -0.206211 -0.203547 -0.0615176 0.000621877 -0.184663 0.0260288 -0.205534 0.0971891 0.243287 0.241194 0.0878405 0.123719 -0.20655 0.203466 -0.372519 -0.079537 0.0310798 -0.377958 0.0895952 -0.199104 0.321955 0.25716 -0.00900367 0.0973199 0.356444
1489 -0.315204 -0.664834 -0.663052 -0.687032 -0.184606 -0.423918 0.940575 -1.38941 -0.0926584 2.14828 0.352296 -0.0457802 0.349404 0.0454764 0.316067 0.0623232 0.306022 0.106872 0.120563 -0.390663 0.00284635 -0.212644 -0.462802 0.647427 0.406219 -0.575303 -0.231289 -0.0842617 -0.14547 -0.201292 -0.117975 -0.0115357 0.318158 0.00460117 -0.291922 -0.0042115 0.599382 0.333725 -0.0770234 -0.113946 -0.330577 -0.0699847 0.23357 -0.0813124 0.0929408 0.123074 0.0106049 -0.111456 0.00894943 0.164159 -0.160171 -0.106721 0.572905 -0.294705 0.148476 0.0130438 -0.213086 -0.166692 -0.0611221 0.277174 0.137234 0.0951158 0.0160393 0.351788
1007 -0.368056 -0.763742 -0.945546 -0.898533 -0.195597 -0.683535 1.3132 -1.78827 -0.0801687 2.7053 0.423278 -0.042412 0.35826 0.109582 0.323959 0.128308 0.404202 0.0251347 0.20974 -0.505658 0.0190122 -0.343279 -0.581484 0.838298 0.494933 -0.746214 -0.394546 -0.122132 -0.273842 -0.30058 -0.106783 -0.165559 0.376878 -0.0993234 -0.315195 0.0261907 0.64593 0.471129 0.0854815 -0.118011 -0.415402 -0.0711327 0.266918 -0.178543 0.0264487 0.170415 0.0298687 -0.168253 0.0884218 0.171932 -0.273558 -0.245929 0.75196 -0.559008 0.252315 -0.0197174 -0.289261 -0.20069 -0.140568 0.391097 0.299103 0.135178 -0.0825737 0.35241
2282 -0.333691 -0.715238 -1.01088 -0.842277 -0.227198 -0.799669 1.24278 -1.93258 -0.00126259 2.78586 0.520492 -0.0115336 0.422645 0.0445034 0.304937 0.0832398 0.451904 -0.0206723 0.104363 -0.470133 0.0881319 -0.349628 -0.446975 0.841877 0.693829 -0.74125 -0.335711 -0.228845 -0.223464 -0.275745 -0.00565802 -0.114256 0.520674 -0.0700192 -0.312554 -0.0476486 0.556402 0.3489 -0.0195408 -0.12376 -0.395332 -0.00525749 0.173955 -0.177495 0.0631584 0.095309 -0.05683 -0.198256 0.0593039 0.20429 -0.175965 -0.24102 0.851349 -0.548509 0.232768 0.00104539 -0.365559 -0.196771 -0.0976357 0.371052 0.34681 0.143158 -0.115224 0.431035
837 -0.260102 -0.751811 -0.938521 -0.807749 -0.177305 -0.720402 1.11054 -1.74172 -0.0119002 2.51016 0.488695 0.0438198 0.377134 0.0671842 0.229311 0.105058 0.403849 -0.0478111 0.0557298 -0.3857 0.0535981 -0.275013 -0.396741 0.692528 0.613148 -0.628946 -0.299779 -0.171844 -0.179538 -0.26878 0.0366177 -0.0789239 0.514636 -0.0547915 -0.240259 -0.09089 0.549554 0.368313 -0.0517302 -0.0698531 -0.387237 -0.0424771 0.180764 -0.219507 0.0513963 0.108822 -0.00781589 -0.17212 0.107138 0.206734 -0.184884 -0.23505 0.737161 -0.447871 0.273537 0.030243 -0.382754 -0.190745 -0.111241 0.378527 0.321825 0.112207 -0.0456581 0.291272
2426 -0.315705 -0.640098 -1.12714 -0.868243 -0.239234 -0.848944 1.26275 -1.83923 -0.0348197 2.8929 0.596226 0.0497333 0.462977 -0.0472269 0.254223 0.0944375 0.377801 -0.00955337 0.0103879 -0.447246 0.0758842 -0.289978 -0.449392 0.747155 0.748231 -0.742457 -0.282425 -0.261241 -0.244686 -0.240141 0.0945454 -0.132924 0.449164 -0.0318223 -0.308085 0.0316344 0.570546 0.242848 -0.0251158 -0.125952 -0.316903 0.0340226 0.125613 -0.226627 0.106806 0.112456 -0.0280581 -0.216887 0.160849 0.0685497 -0.175427 -0.281174 0.775069 -0.444945 0.309285 -0.0536623 -0.370425 -0.189742 -0.0127817 0.363388 0.438862 0.0343593 -0.156056 0.398148
1428 -0.439421 -0.417353 -1.03679 -0.755224 -0.319449 -0.642518 1.0791 -1.60925 -0.211146 2.9746 0.453078 0.0203064 0.507661 -0.081411 0.364857 -0.0688152 0.253513 0.188832 0.0432193 -0.298084 0.107951 -0.149373 -0.58859 0.594981 0.578057 -0.618563 0.0247621 -0.0800874 -0.187716 -0.234426 -0.021793 0.0412201 0.580588 0.219371 -0.39789 0.14423 0.511861 0.337242 0.107308 -0.141264 -0.398318 0.00129575 0.165439 -0.16128 0.115793 0.196999 -0.166487 -0.0344348 0.0853183 0.0749234 -0.226039 -0.176581 0.565909 -0.310899 0.233904 -0.017127 -0.3927 0.0407285 -0.0781265 0.294092 0.179112 -0.0593152 -0.0704068 0.502815
2663 -0.29909 -0.538167 -0.766215 -0.670883 -0.20184 -0.526072 1.02056 -1.53745 -0.110809 2.31984 0.431438 -0.026701 0.430989 -0.025302 0.338333 -0.0148919 0.3126 0.183609 0.0669095 -0.422701 -0.0336061 -0.175044 -0.546338 0.747812 0.449687 -0.593724 -0.196604 -0.154284 -0.204992 -0.245462 -0.0989903 -0.0221934 0.430821 0.0689742 -0.348024 0.0182687 0.562456 0.28085 0.0633595 -0.183843 -0.282016 -0.0567959 0.222571 -0.0928779 0.164536 0.128478 -0.0214184 -0.0137771 0.000616133 0.113096 -0.22671 -0.0890345 0.595877 -0.349613 0.133853 -0.0850064 -0.257451 -0.0757479 -0.0405432 0.38042 0.154032 -0.0064664 -0.0414112 0.585727
1512 -0.304057 -0.497524 -0.882183 -0.688212 -0.0751341 -0.495915 1.37008 -1.58045 -0.421724 2.63625 0.372119 -0.0288752 0.278743 -0.0436455 0.277827 -0.00920721 0.2185 0.232433 0.23133 -0.720856 -0.0523825 -0.261148 -0.548457 0.578413 0.426969 -0.668101 -0.458586 -0.136096 -0.355869 -0.279495 -0.136518 -0.398637 0.103135 0.106586 -0.28882 0.251907 0.44211 0.277106 0.333042 -0.172433 -0.174879 -0.185667 0.293364 -0.128363 0.344795 0.304373 0.176576 0.375629 0.0415468 -0.0037507 -0.326965 0.0795129 0.300687 -0.164109 -0.0596847 -0.446823 -0.209907 -0.140401 0.210111 0.431975 -0.108879 -0.0412774 -0.381188 0.29886
2508 0.0316729 -0.489554 -0.66024 -0.728453 -0.109389 -0.612258 1.20127 -1.81309 -0.232756 2.65324 0.190118 0.283154 0.126024 0.256469 0.435615 -0.0408765 0.188713 0.0381464 0.21815 -0.587818 -0.0800632 -0.42322 -0.273988 0.479881 0.578323 -0.609872 -0.480426 -0.216778 -0.185957 -0.288698 0.139915 -0.299676 0.240259 0.217692 0.0165014 0.508396 0.26941 0.362553 0.100842 -0.16753 -0.118269 0.138891 0.345022 -0.0804459 0.474024 0.199098 -0.30502 0.191806 0.464482 -0.15303 -0.204707 -0.101436 0.305679 -0.293096 0.1682 -0.1797 -0.0882117 0.10825 0.228073 0.305246 -0.00792262 0.12252 -0.227894 0.200804
431 -0.0776983 -0.396473 -0.448284 -0.484428 -0.221799 -0.610005 1.14123 -1.96847 -0.322924 2.85834 0.182289 -0.0183375 0.331484 0.159987 0.501057 -0.104996 0.268398 0.0612494 0.0356332 -0.591482 -0.195046 -0.348408 -0.37164 0.524615 0.653252 -0.718487 -0.51627 -0.211912 -0.326973 -0.162265 -0.00343422 -0.173487 0.60313 0.0114195 -0.00755463 0.295837 0.323882 0.353345 0.0514857 -0.181257 -0.121297 0.058672 0.15384 -0.113859 0.433554 0.24186 -0.2735 0.0850878 -0.110122 0.0135639 -0.247914 -0.160619 0.381012 -0.329297 -0.0919958 -0.15438 0.0345565 -0.0982176 0.125247 0.389709 0.0201075 0.000614606 -0.0779971 0.443174
236 -0.123047 -0.435961 -0.445603 -0.528027 -0.240048 -0.50526 1.06707 -1.97321 -0.238564 2.76654 0.276478 -0.0262555 0.342651 0.146925 0.463817 -0.109537 0.309857 0.110837 0.103871 -0.515919 -0.192724 -0.431168 -0.411273 0.706093 0.679942 -0.747436 -0.531144 -0.177118 -0.171736 -0.205508 -0.0306682 -0.199557 0.694854 0.0306447 -0.0295758 0.163877 0.361056 0.441128 -0.0117785 -0.223925 -0.233312 0.0862364 0.0479152 -0.0728548 0.393086 0.237978 -0.291325 0.0425898 -0.155775 -0.0199486 -0.207886 -0.255772 0.39516 -0.364171 -0.189181 -0.0525133 -0.0270768 -0.0994139 0.0724945 0.312683 0.0263412 -0.139899 -0.0800492 0.56723
521 -0.262932 -0.511705 -0.432026 -0.560007 -0.314873 -0.521982 1.05448 -2.06139 -0.237733 2.91924 0.291164 -0.0317175 0.307089 0.104507 0.442462 -0.0308321 0.334488 0.123151 0.155799 -0.435477 -0.222813 -0.357063 -0.393478 0.671745 0.809381 -0.841774 -0.523564 -0.165873 -0.227079 -0.149697 -0.116629 -0.105232 0.473646 0.0429363 0.0400614 0.187833 0.418508 0.4414 -0.112975 -0.335817 -0.262694 0.0504037 0.101896 -0.22761 0.372899 0.318061 -0.2296 -0.0688463 -0.285316 0.0599204 -0.212008 -0.245724 0.327073 -0.421043 -0.0394318 -0.224446 0.00335137 -0.30402 0.127827 0.454688 0.0395712 -0.0553089 -0.0634434 0.529962
314 -0.165598 -0.373468 -0.797937 -0.565024 -0.296016 -0.765217 1.3618 -2.23154 -0.162769 3.13528 0.326614 -0.0791688 0.544686 0.121723 0.509137 -0.103517 0.417215 0.104647 0.112306 -0.583347 -0.103383 -0.377554 -0.343905 0.631462 0.677075 -0.826479 -0.473194 -0.189362 -0.376401 -0.19519 0.108472 -0.305143 0.740759 -0.128511 -0.16792 0.235267 0.340132 0.211954 -0.0183784 -0.291899 -0.212347 0.0386983 0.161072 -0.144158 0.319745 0.25512 -0.163122 -0.0987124 -0.110137 0.217423 -0.215927 -0.256508 0.51739 -0.594902 -0.139127 -0.434728 -0.217072 -0.348246 0.175088 0.419246 0.115196 -0.0209667 0.0174071 0.681968
986 -0.0580328 -0.865598 -0.648772 -0.606328 -0.474904 -0.731478 1.07139 -1.60142 -0.162982 2.81113 0.32924 -0.0421521 -0.0862363 -0.0807672 0.0430449 0.0949618 0.414458 -0.0341788 0.413595 -0.424196 -0.296395 -0.265097 -0.480276 0.365339 0.735361 -0.83489 -0.50734 -0.0286237 0.0195724 -0.0996021 -0.315565 -0.0989596 0.0250886 0.0466086 -0.229355 0.468823 0.673797 0.130841 -0.121101 -0.279457 -0.401101 0.198696 0.198448 -0.303779 0.184579 0.516844 -0.182135 -0.0719275 -0.131909 -0.016828 0.166072 -0.0912235 0.319184 -0.181084 0.110425 -0.343484 -0.270448 -0.233801 0.176812 0.185571 0.356796 0.208659 -0.0587795 0.453727
1019 -0.229487 -0.707557 -0.777525 -0.443854 -0.29189 -0.740474 1.1974 -1.47494 -0.167704 2.83474 0.33293 -0.135091 0.15995 -0.0936701 -0.139493 0.168292 0.23117 -0.0358291 0.10149 -0.493176 -0.198322 -0.0422994 -0.350952 0.398806 0.56449 -0.768752 -0.455039 -0.191697 -0.317713 -0.184766 -0.0383757 -0.217402 0.240414 -0.143987 -0.212365 0.139972 0.321404 0.055927 -0.121127 -0.38017 -0.157591 0.110157 0.19667 -0.280625 0.344383 0.450134 -0.139368 0.115605 -0.154977 -0.029903 0.0432226 -0.134086 0.401728 -0.150359 -0.0860322 -0.479098 -0.218353 -0.23828 -0.141186 0.133671 0.199895 0.138029 -0.129361 0.389678
2423 -0.26793 -0.642267 -0.851278 -0.488387 -0.328104 -0.822143 1.40044 -1.62643 0.0546912 2.58229 0.313636 -0.119179 0.228431 -0.265874 -0.518132 0.171403 0.257162 0.0135736 0.23426 -0.493241 -0.0911907 0.0933546 -0.601894 0.427399 0.379426 -0.66904 -0.441061 -0.248449 -0.174157 0.0177846 -0.0253597 -0.0114425 0.516695 0.0441742 -0.171862 0.0264441 0.435094 -0.0146431 -0.0558635 -0.570323 -0.339087 -0.109945 0.273574 -0.288389 0.367381 0.421772 -0.0860986 0.00654259 0.0603621 -0.0912667 0.174357 -0.00223638 0.245017 -0.196932 0.0669139 -0.361717 -0.565537 -0.329665 -0.0435103 0.0127488 0.251258 0.110877 -0.098929 0.25073
1606 -0.0679666 -0.78755 -0.8419 -0.529716 -0.381271 -0.858393 0.86026 -1.67441 -0.640956 2.55141 0.484859 -0.122179 0.253378 -0.0984428 0.199017 0.214075 0.28593 -0.197645 0.304297 -0.128564 -0.289467 0.0825856 -0.820189 0.612173 0.441303 -0.456 -0.138987 -0.00181326 -0.117862 -0.0625642 -0.0843929 0.0101374 0.371419 -0.106109 -0.038389 -0.188341 0.645598 0.0195623 -0.322126 -0.429439 0.0936198 0.124724 0.276104 -0.278953 0.335037 0.21463 -0.183863 0.0205246 -0.0829948 -0.0573236 0.0945792 -0.027205 0.117414 -0.200202 -0.0174752 -0.152733 -0.19593 -0.295154 0.112162 0.270155 0.138229 -0.282717 -0.23936 0.330958
611 -0.106072 -0.65057 -0.90912 -0.467182 0.0937728 -0.319105 0.90967 -1.88628 -0.626928 2.88262 0.471323 -0.173773 0.272347 -0.0157043 0.101076 -0.0852988 0.264145 -0.272563 0.206416 -0.103505 -0.302313 -0.122613 -0.585473 0.312901 0.189491 -0.595156 -0.336041 -0.371333 -0.255693 -0.15063 0.0780082 -0.259987 0.321902 0.0564501 0.0142315 0.107083 0.318681 0.144449 -0.369378 -0.565213 0.051179 -0.480913 0.305971 -0.300123 -0.146914 0.326086 -0.392739 -0.0941162 -0.237198 -0.13419 0.00593626 -0.082672 0.644864 -0.385399 -0.0886215 -0.212251 -0.223254 -0.057668 0.0648199 -0.101473 0.336639 -0.179501 -0.0476125 0.116448
331 -0.0533336 -0.232031 -0.95503 -0.533122 -0.212962 -0.802038 1.01418 -1.81774 -0.165238 2.76668 0.443521 -0.162012 0.524393 -0.101219 0.219857 0.175075 0.310838 -0.369606 0.247971 -0.503713 -0.20374 -0.462418 -0.519967 0.581453 0.321009 -0.574447 -0.566164 -0.162905 -0.428211 -0.118668 0.307393 -0.34479 0.528456 0.00350221 -0.181025 0.000955133 0.234945 0.285394 0.00113667 -0.229556 -0.113971 -0.173589 0.0387291 -0.270679 0.378524 0.45387 -0.113039 -0.0996574 -0.275763 0.316774 0.0314829 -0.186434 0.59009 -0.700085 -0.299134 -0.30939 -0.355193 -0.0948477 0.20194 0.270497 0.0268937 0.0728973 0.0136655 0.269387
1493 0.0896326 -0.509385 -0.771575 -0.742395 -0.171253 -0.760276 1.13124 -1.60059 -0.392388 2.79945 0.389556 -0.260824 0.538361 -0.0400203 0.0973203 0.228746 0.39175 -0.472598 0.268416 -0.638603 -0.127823 -0.507779 -0.68269 0.640182 0.334501 -0.57926 -0.659906 -0.088332 -0.31816 -0.34559 0.0976552 -0.340554 0.378006 0.182984 -0.226563 -0.0251165 0.312571 0.374605 -0.0472852 -0.175716 -0.152646 -0.0980529 0.059762 -0.247444 0.516676 0.486584 -0.15883 0.00625961 -0.205912 0.106291 -0.0753541 -0.19138 0.614763 -0.50246 -0.286068 -0.47437 -0.511091 0.0571674 0.176012 0.250965 -0.158178 0.147164 0.0244334 0.403812
74 0.0646863 -0.785425 -0.975817 -0.492162 -0.405885 -0.451431 1.12732 -1.34709 -0.349859 2.70347 0.543648 -0.0799374 0.680431 0.00473469 -0.0552717 0.327585 0.780088 -0.235314 0.352157 -0.448694 -0.0513703 -0.565313 -0.889017 0.322258 0.119247 -0.585895 -0.416496 -0.145105 -0.0218346 -0.095588 0.238306 -0.415286 -0.0340443 0.621217 -0.411232 0.17256 0.175437 0.332025 0.176066 -0.0640549 -0.417777 0.0156889 0.17168 -0.00672553 0.327455 0.185422 -0.333942 -0.0466668 -0.144627 -0.000336509 0.045288 -0.303266 0.471916 0.169887 -0.123435 -0.348129 -0.282353 -0.0607221 0.045717 0.31814 0.00225807 -0.0835166 -0.216838 0.182696
207 0.0183435 -0.99562 -0.637112 -0.548013 -0.40651 -0.539042 1.1273 -1.58262 -0.29587 2.60442 0.264953 -0.376491 0.302164 0.137363 -0.124433 -0.147315 0.25712 -0.0655275 0.136905 -0.222041 -0.160984 -0.287245 -0.36949 0.658091 0.481192 -0.696109 -0.579495 -0.361729 -0.333283 -0.177404 -0.285659 -0.0729075 0.0704377 0.00483998 -0.332498 0.189166 0.417298 0.00482268 -0.209762 0.081482 -0.219101 0.0656113 0.0702014 -0.166051 0.586244 0.183356 -0.139346 0.130403 -0.0936211 -0.0751985 -0.166039 0.0067887 0.196266 -0.284676 -0.0369965 -0.301003 -0.530412 0.0289034 0.111509 0.132699 -0.187514 -0.169937 -0.181704 0.170283
552 0.0646635 -1.16353 -0.686749 -0.369446 -0.268268 -0.0193767 1.44986 -1.72324 -0.0535772 2.49668 0.29061 -0.223035 0.416627 0.0645703 0.0316044 0.0174584 0.0602863 0.0864772 0.357919 -0.0867884 0.191318 -0.244785 -0.780943 0.523579 0.449882 -0.383042 -0.596643 0.141281 -0.117068 -0.100816 0.0956017 0.0195864 0.335479 -0.0739681 0.117648 0.0780016 0.401757 0.102126 0.156655 -0.193386 -0.199615 0.20568 -0.099906 -0.111139 0.418872 0.0823201 0.00806964 -0.141955 0.169612 -0.0312134 -0.0775524 -0.160842 0.246647 -0.0673545 -0.0414181 -0.258146 -0.226614 -0.101519 0.0597138 0.347563 0.0711471 -0.0731908 0.00802215 0.140902
1459 -0.0646403 -1.07818 -0.543492 -0.529459 -0.557759 -0.34486 1.32887 -1.85999 -0.248618 2.49651 0.52336 0.0877523 0.206741 -0.132483 -0.0188515 0.116008 -0.0379881 -0.14329 0.311707 -0.426548 0.244486 -0.483618 -0.711524 0.426988 0.328029 -0.513008 -0.312207 -0.0134616 0.00691852 -0.248873 0.279816 -0.113378 0.440075 0.136117 -0.073282 0.100621 0.407937 -0.0289888 0.0294723 -0.0457351 0.193244 0.148451 0.0625429 -0.16539 0.424664 -0.0702266 -0.278739 -0.098269 0.113046 0.209803 -0.160097 0.0130436 0.299958 -0.00181992 0.26602 0.0487431 -0.258274 -0.0484615 0.0537609 0.387367 0.274547 0.0366482 -0.0591914 0.394713
1527 -0.0733594 -0.803454 -0.871553 -1.12884 0.185352 -0.271406 1.41497 -1.68598 -0.643412 3.02075 0.664723 -0.223251 -0.158816 -0.0198651 0.228466 -0.0453686 0.262638 -0.200888 0.440991 -0.730196 -0.370022 -0.211044 -0.467888 0.287257 0.715565 -0.404439 -0.422985 -0.0493594 -0.194478 -0.202452 0.000408357 -0.335031 0.292876 0.346324 0.0269389 0.113476 0.524138 0.525336 0.0681386 -0.354335 0.0514051 -0.164714 0.175804 -0.283655 0.239023 0.0297664 -0.0995163 -0.175077 0.11848 0.286484 -0.150704 -0.180706 0.508545 -0.281899 0.368798 -0.376824 -0.516351 0.0716656 0.319774 0.351454 0.209086 -0.179749 -0.277602 0.41526
2166 -0.0251493 -0.859211 -0.752969 -1.01104 0.0690949 -0.577697 1.49165 -1.75499 -0.702452 3.16485 0.604288 0.0335629 0.243107 -0.0567355 0.240413 0.0126587 0.212678 -0.184688 0.212134 -0.574475 -0.191002 -0.169137 -0.626538 0.339152 0.684283 -0.565594 -0.512087 -0.0183266 -0.0506281 -0.160816 -0.14743 -0.382276 0.519667 0.330978 -0.0879354 0.149434 0.767137 0.307578 0.214646 -0.0965418 -0.113783 -0.119452 0.0496349 -0.481578 0.26314 0.0618013 -0.223167 0.0267546 0.182976 0.283903 -0.349755 -0.144828 0.435689 -0.0823937 0.435748 -0.443906 -0.639779 -0.0182444 0.191779 0.319271 0.295884 -0.436112 -0.180849 0.489756
1894 -0.0870218 -0.83564 -0.783 -0.897323 -0.0155377 -0.570349 1.58754 -1.88064 -0.615137 3.14732 0.605941 -0.0401277 0.173846 0.0330097 0.220216 -0.00996961 0.146506 -0.163541 0.401855 -0.665966 -0.0722598 -0.217866 -0.51598 0.342387 0.628294 -0.537153 -0.608104 -0.082738 -0.047317 -0.277576 -0.270243 -0.325718 0.515113 0.247666 -0.108592 0.219773 0.723582 0.2694 0.286162 -0.0287268 -0.0500937 -0.117371 -0.00684647 -0.363231 0.216448 -0.0747847 -0.184657 0.00554396 0.17639 0.321941 -0.472009 -0.175395 0.397708 -0.0715556 0.470988 -0.297771 -0.607736 -0.0997391 0.203686 0.361552 0.145465 -0.261727 -0.192138 0.461767
913 -0.0519891 -0.726139 -0.691251 -0.792859 0.00773501 -0.572945 1.40099 -1.66186 -0.549258 2.78237 0.526689 -0.00117228 0.0842725 0.00278515 0.122746 -0.0384342 0.133736 -0.192483 0.297007 -0.590103 -0.140464 -0.0966396 -0.603495 0.303851 0.604964 -0.412311 -0.457543 -0.0285986 -0.0296752 -0.187888 -0.205384 -0.262757 0.427963 0.311215 -0.136588 0.133172 0.548072 0.186547 0.143415 -0.0356281 -0.0193356 -0.104462 -0.0211617 -0.369451 0.183004 -0.119331 -0.141068 0.0421613 0.158619 0.332572 -0.399857 -0.0486083 0.33752 -0.00961446 0.435242 -0.224231 -0.570487 -0.0304205 0.207664 0.309102 0.114743 -0.212614 -0.143648 0.313359
909 -0.117212 -0.73277 -0.790124 -0.842603 -0.0184967 -0.515204 1.35722 -1.59737 -0.595613 2.85442 0.5246 0.014425 0.0732328 -0.0481229 0.136038 0.00317764 0.0627154 -0.150306 0.404889 -0.548491 -0.120542 -0.102785 -0.518163 0.291071 0.501658 -0.360252 -0.423437 -0.0143258 -0.0551134 -0.181566 -0.206738 -0.270971 0.426249 0.315987 -0.178714 0.195803 0.569378 0.195476 0.202658 -0.0768106 -0.0216899 -0.136984 -0.0218147 -0.316867 0.170394 -0.0489555 -0.112088 0.0859682 0.193343 0.292261 -0.388074 -0.136887 0.312355 -0.02651 0.437146 -0.192903 -0.51534 -0.0572512 0.201061 0.299175 0.130829 -0.231538 -0.186099 0.277836
772 -0.0667311 -0.741809 -0.611171 -0.798636 0.051926 -0.449747 1.45225 -1.77921 -0.480354 2.82196 0.511901 0.00683345 0.262407 0.0210363 0.0691348 -0.0412754 0.301119 -0.156701 0.477421 -0.619092 -0.190249 -0.202467 -0.604983 0.381605 0.468134 -0.513757 -0.593951 -0.304446 -0.0850354 -0.267203 -0.0116921 -0.397166 0.472534 0.235805 -0.0119958 0.124954 0.671528 0.441127 0.0468118 -0.0717768 -0.107897 -0.233896 0.190923 -0.320287 0.32777 0.0772747 -0.00646548 0.13094 0.127006 0.161953 -0.301642 -0.193199 0.320103 0.00485779 0.294873 -0.406668 -0.393803 -0.0201862 -0.02637 0.33868 0.187553 -0.451331 -0.0513898 0.485748
1058 0.0337367 -0.898272 -0.554017 -0.850632 -0.0128386 -0.747952 1.11553 -1.51341 -0.267967 2.73483 0.275218 -0.115133 0.117125 0.0915372 0.245358 0.0708085 0.205869 -0.0229037 0.250038 -0.462708 -0.346784 -0.178602 -0.581713 0.575266 0.271923 -0.594495 -0.582335 -0.0876524 0.0345915 -0.100694 0.117926 0.0170822 0.669656 0.0677211 -0.127964 -0.171041 0.882793 0.173674 -0.0306562 -0.122363 -0.306236 -0.0416115 0.147306 0.125898 0.40801 0.218168 -0.0463975 -0.18044 -0.0566098 0.216826 -0.411404 -0.324196 0.526431 0.130333 -0.19311 -0.142525 -0.139908 -0.494646 -0.0431818 0.377776 0.300537 -0.268992 -0.466526 0.275027
1520 0.131412 -0.93659 -0.651604 -0.828741 -0.0961858 -0.674676 1.49256 -2.00906 -0.395208 3.52851 0.502914 -0.0209851 0.309475 0.0972042 0.393583 -0.00795391 0.361838 0.0503883 0.311842 -0.603402 -0.141843 -0.347981 -0.724336 0.769834 0.461025 -1.03221 -0.739743 -0.0645214 0.0496659 -0.350046 0.228716 0.0331456 0.89219 -0.00200954 -0.0567482 -0.138592 1.12036 0.294036 0.0543076 -0.134737 -0.49531 0.0033861 0.189503 -0.00205417 0.399645 0.380145 -0.106568 -0.217666 -0.0410519 0.00766706 -0.386917 -0.316106 0.890899 -0.000667183 -0.0711191 -0.371608 -0.302039 -0.335571 -0.137935 0.337792 0.375092 -0.346439 -0.702076 0.342268
2129 -0.0360896 -0.837562 -0.509629 -0.806714 0.0355793 -0.673253 0.99123 -1.42971 -0.283959 2.55612 0.26427 -0.0425547 0.122544 0.0328247 0.255811 0.107577 0.163731 0.0575069 0.199901 -0.408543 -0.239814 -0.130906 -0.485885 0.537864 0.306293 -0.534098 -0.482899 -0.0531155 -0.0167269 -0.0796416 0.0867434 0.0137876 0.588558 0.0734959 -0.132451 -0.0845895 0.794722 0.082848 -0.0798294 -0.151347 -0.221693 -0.0500859 0.135641 0.0866215 0.359682 0.266562 -0.0403074 -0.177766 0.0330938 0.142117 -0.333535 -0.287551 0.481354 0.102314 -0.115607 -0.058693 -0.150306 -0.440214 -0.0551555 0.312526 0.242226 -0.211451 -0.435488 0.126795
881 -0.0652923 -1.05078 -0.707387 -0.966445 -0.162256 -1.12236 1.18076 -1.68178 -0.238991 2.83254 0.304106 -0.121179 0.221666 -0.104398 -0.0904899 0.0959021 0.112722 -0.134849 0.208368 -0.61365 -0.38554 -0.227688 -0.657158 0.602319 0.107689 -0.512368 -0.306224 -0.0889112 0.19054 -0.0640812 0.0815709 -0.0353043 0.680086 0.0137754 -0.177218 -0.0621106 0.79359 0.161825 -0.235681 -0.10621 -0.330417 -0.105351 0.187418 0.131425 0.542655 0.26088 -0.0431351 -0.0999944 0.0533338 0.15246 -0.209337 -0.187515 0.564433 0.0482744 -0.0565823 0.0304554 -0.0957471 -0.487353 0.0994272 0.472478 0.327919 -0.0519638 -0.266446 0.228192
2667 -0.169628 -0.81106 -0.736049 -0.668356 -0.104299 -0.957196 1.00681 -1.57701 -0.514867 2.65254 0.299465 -0.0115377 0.148495 -0.020903 0.180409 0.190218 0.273319 -0.222963 0.221905 -0.236303 -0.310538 -0.0588567 -0.715224 0.625658 0.245338 -0.420116 -0.328092 -0.0789837 0.15888 0.047928 0.0538992 -0.108393 0.633469 -0.0739296 0.00344373 -0.29461 0.506937 -0.0828762 -0.250886 -0.40743 0.0886848 0.171288 0.111013 -0.166761 0.252647 0.0327735 0.0335592 -0.0728283 0.0166895 0.0369874 -0.0849353 -0.078318 0.426673 -0.0999697 -0.219987 -0.201043 0.0257666 -0.282034 -0.025238 0.381678 0.203404 -0.196383 -0.292518 0.390542
2603 -0.0352938 -0.7759 -1.16704 -0.858797 -0.0800443 -0.826441 1.21136 -1.54186 -0.563237 2.70545 0.461861 0.0633175 0.44491 -0.0935304 0.255016 0.13099 0.230493 -0.238003 0.130019 -0.345886 -0.090593 -0.293985 -0.59363 0.872415 0.327158 -0.567361 -0.436388 -0.149321 -0.0823324 -0.307274 0.0424492 -0.112054 0.830426 0.00151367 -0.163949 -0.0918879 0.581237 -0.11502 -0.189578 -0.422966 -0.0453189 0.227329 0.117558 -0.30768 0.150063 0.000205783 -0.0619265 -0.00916595 0.00385803 0.0029207 -0.253806 0.0765467 0.726083 -0.113852 -0.00998312 -0.353312 -0.207648 -0.122562 -0.137159 0.377046 0.155154 0.134738 -0.359588 0.436898
109 -0.0913147 -0.623869 -0.857057 -0.667309 0.00493123 -0.883416 1.2518 -1.84483 -0.185712 3.04989 0.626589 -0.0698396 0.535509 -0.284025 0.0954115 -0.128379 0.532667 0.11784 0.411316 0.0394195 0.142637 -0.395866 -1.15405 0.841607 0.643259 -0.504945 -0.41867 -0.29895 0.108206 -0.129718 0.0740587 -0.491493 0.443001 0.156773 0.183273 0.156181 0.910966 0.0948953 0.13466 -0.306842 0.035363 0.0562426 -0.0745162 -0.547084 0.345734 0.352943 -0.0518563 -0.299117 -0.0414403 0.0569654 -0.142048 -0.255801 0.351283 -0.213096 -0.0144305 -0.108645 -0.237153 -0.0381421 0.103804 0.0538132 0.312563 -0.0932686 -0.233021 0.465087
791 -0.116304 -0.458105 -0.681382 -0.664495 0.0506621 -0.671148 1.10363 -1.61321 -0.256407 2.69789 0.537625 -0.0508232 0.55245 0.00754327 0.209993 -0.0225675 0.273929 0.23559 0.263891 -0.190583 0.0251831 -0.337264 -0.586087 0.660411 0.427295 -0.44073 -0.302355 -0.323863 -0.101225 -0.2031 0.00568318 -0.217786 0.112607 0.15366 -0.0141323 0.119787 0.781465 0.11259 0.0104454 -0.217047 -0.0561017 0.180467 0.103086 -0.410089 0.500238 0.297811 -0.168501 -0.261654 0.128247 0.0937456 -0.230482 -0.0854658 0.23747 -0.438771 0.249847 0.0229064 -0.124101 -0.0111024 -0.152337 0.386258 0.247755 -0.141716 -0.152885 0.499057
453 -0.0891213 -0.553561 -0.886393 -0.892936 -0.206582 -0.72763 1.33267 -1.75527 -0.0202999 2.81794 0.571814 0.0571145 0.519223 0.0794711 0.140369 0.138909 0.27647 0.745004 0.176143 -0.162778 0.0571186 -0.236275 -0.854069 0.922028 0.510508 -0.443146 -0.186762 -0.144885 -0.0808368 -0.31455 -0.00319303 -0.195155 0.221772 0.264466 -0.035464 0.0834438 0.59556 0.255277 -0.0617076 -0.280672 -0.0509499 -0.15328 0.257776 -0.295598 0.490592 0.302521 -0.152708 -0.156779 0.334624 0.0745193 -0.288896 -0.208108 0.263195 -0.206996 0.130569 -0.278559 -0.437974 0.203626 0.0208644 0.301748 0.136022 -0.29751 -0.12284 0.416675
2509 -0.31434 -0.804983 -0.862159 -0.989931 -0.273985 -1.03909 0.94142 -1.61559 -0.28983 3.04726 0.650535 -0.224148 0.577329 -0.184461 0.139858 -0.18364 0.185568 0.311826 0.301314 -0.076871 0.198901 -0.346434 -0.68483 0.953194 0.325731 -0.64246 0.00254164 -0.0550313 -0.0980788 -0.392371 0.100828 -0.101697 0.436388 0.0730373 -0.0883973 0.217208 0.540049 0.396925 0.219597 -0.167134 -0.222221 0.182788 0.176161 -0.13212 0.319927 0.263823 0.0362247 -0.0815672 0.0483846 0.0252651 -0.251305 -0.153479 0.51682 -0.390483 0.139519 -0.12475 -0.301189 -0.00191238 -0.269164 0.20555 0.106075 -0.365337 -0.13177 0.784511
1170 -0.392839 -0.828133 -0.876868 -1.0347 -0.294711 -0.942601 1.02959 -1.40944 -0.309258 2.84859 0.609784 -0.372385 0.55896 -0.201709 0.0921159 -0.125818 0.200036 0.289104 0.497259 -0.00409894 0.239704 -0.529381 -0.568499 0.921589 0.244746 -0.564791 -0.116378 -0.0457879 -0.0919965 -0.341734 0.0628267 -0.178587 0.226902 0.131406 -0.124985 0.306875 0.574484 0.373169 0.136652 -0.343583 -0.150405 0.280654 0.124153 -0.191546 0.319582 0.46287 0.0620191 -0.162171 0.0149404 0.0413454 -0.0783759 -0.18085 0.473631 -0.476039 -0.00561411 -0.168971 -0.281769 0.00377769 -0.174709 0.100995 0.10221 -0.344123 -0.211331 0.695127
164 -0.405763 -0.874188 -0.851668 -0.996099 -0.240241 -0.867566 0.967912 -1.48604 -0.252874 2.73366 0.641128 -0.296635 0.562934 -0.187662 0.0689656 -0.121855 0.136469 0.300048 0.453352 -0.0210626 0.291479 -0.5037 -0.551326 0.871081 0.265945 -0.488735 -0.04891 -0.0848455 -0.00316898 -0.357683 0.0593338 -0.187257 0.227352 0.0712655 -0.0392972 0.129862 0.596089 0.363397 0.136776 -0.301843 -0.144687 0.187138 0.0638634 -0.207882 0.257639 0.371421 0.0451802 -0.195718 -0.0531964 -0.018976 -0.0417308 -0.197777 0.431276 -0.416557 -0.00886403 -0.225548 -0.307186 -0.00644618 -0.192754 0.07488 0.151236 -0.327135 -0.163669 0.601215
1198 -0.300636 -0.924155 -0.840684 -1.04607 -0.234097 -1.06716 1.04803 -1.50177 -0.449912 2.9214 0.484687 -0.348159 0.483336 -0.29398 0.137974 -0.140548 0.149684 0.182592 0.614942 0.0132712 0.138904 -0.501072 -0.698254 0.823496 0.37545 -0.523151 -0.18584 0.041311 -0.121667 -0.326847 -0.00173001 -0.173141 0.144629 0.207276 -0.0402024 0.27102 0.551835 0.371572 -0.0715014 -0.386381 -0.1787 0.421167 -0.0148919 -0.282268 0.222807 0.314603 0.0177464 -0.221077 -0.0268286 0.0957657 0.0382965 -0.277098 0.429088 -0.414778 0.0352172 -0.0850459 -0.374948 0.0150834 -0.156477 0.0352858 0.205648 -0.398505 -0.155418 0.627093
1559 -0.269472 -0.90582 -0.777151 -1.00261 -0.193615 -0.833052 1.04156 -1.34972 -0.292365 2.78942 0.299063 -0.399382 0.490666 -0.268436 0.188807 -0.0861621 0.0781387 0.139994 0.640144 -0.231285 0.204551 -0.630752 -0.721498 0.740726 0.334332 -0.504031 -0.26075 0.064129 0.0181991 -0.199856 0.167109 -0.273101 0.377389 0.0761884 0.0196693 0.150063 0.392456 0.27679 -0.133298 -0.371605 -0.159369 0.387378 -0.0353775 -0.143467 0.353903 0.183965 0.0365037 -0.210143 -0.0770128 0.178191 0.0307184 -0.380261 0.28892 -0.250942 -0.0439019 -0.077569 -0.280323 -0.00210679 -0.118432 0.0279457 0.0806271 -0.216321 -0.206831 0.650716
71 -0.125109 -0.927805 -0.480659 -0.863021 -0.0303788 -0.925811 1.29274 -1.42526 -0.281553 2.88183 0.329631 -0.270436 0.344155 -0.343155 -0.0307021 -0.0435867 0.0485576 0.0503048 0.360403 -0.254292 0.181757 -0.528065 -0.637638 0.744467 0.521159 -0.322972 -0.355387 -0.0577326 -0.212107 -0.439393 0.236703 -0.0429834 0.370585 0.447222 -0.0908765 0.134469 0.459362 0.513579 -0.133532 -0.374451 -0.0187376 0.36606 0.0531883 -0.203141 0.618209 0.329489 -0.0638525 -0.19472 -0.151321 0.268278 0.239115 -0.154546 0.383243 -0.1154 -0.166899 -0.185614 -0.357092 0.0750428 -0.0522797 0.127459 -0.0205981 -0.212899 -0.134841 0.523554
1697 -0.164144 -1.00799 -0.793056 -1.0346 -0.136557 -0.806982 1.12576 -1.42871 -0.319935 2.89166 0.47237 -0.378579 0.438201 -0.0982368 0.243592 -0.155464 0.0778553 0.0813081 0.483462 -0.243071 0.110262 -0.620864 -0.541398 0.743062 0.407238 -0.484463 -0.427481 -0.121216 -0.132618 -0.271306 0.189406 -0.127894 0.231466 0.0244606 0.034402 0.248309 0.37868 0.352438 -0.071331 -0.237066 -0.0180876 0.322393 -6.91754e-05 -0.382708 0.219759 0.0371513 0.104756 -0.221309 -0.072185 0.23067 0.00124437 -0.309048 0.489442 -0.439373 0.0553141 -0.055387 -0.543113 0.115134 0.012081 0.0120063 0.0607137 -0.331833 -0.0157205 0.538063
671 -0.219704 -0.670304 -0.612214 -0.644633 -0.0679324 -0.462512 0.901493 -1.16414 -0.160829 2.14602 0.358164 -0.20293 0.374385 -0.0499394 0.0686496 -0.0590387 0.111818 0.0326233 0.377523 -0.110163 0.135587 -0.440586 -0.399885 0.518221 0.249167 -0.355898 -0.300077 -0.163185 -0.0415297 -0.150586 0.139195 -0.139686 0.0670854 0.0281674 0.00466317 0.19807 0.322436 0.176514 -0.0443128 -0.188595 0.00115082 0.142583 -9.82323e-06 -0.224845 0.279139 0.130962 -0.0576678 -0.159731 -0.0401532 0.116179 0.00818878 -0.161217 0.361952 -0.336227 -0.0396357 -0.0372549 -0.143586 0.021118 -0.0250836 -0.00311347 -0.00939713 -0.116702 -0.013827 0.297099
682 -0.284954 -0.761736 -0.672952 -0.678046 -0.0401307 -0.629319 0.869568 -1.25037 -0.345204 2.55661 0.1824 -0.286218 0.417449 -0.005137 0.0849277 -0.0965225 0.123217 0.0635214 0.661277 -0.19613 0.196375 -0.539248 -0.65206 0.603591 0.234968 -0.487595 -0.283624 0.0267245 0.22684 -0.0221647 -0.0359049 -0.313293 0.261392 -0.100071 0.0453719 -0.103824 0.251877 0.0166149 -0.33556 -0.216722 -0.267484 0.422697 0.00406572 -0.169554 0.193145 0.0463001 -0.0467413 -0.126786 -0.0124838 0.076877 -0.0624709 -0.260587 0.301777 -0.292818 0.000147462 -0.133831 -0.235984 -0.0184252 -0.19574 0.00482469 0.091716 -0.0980319 -0.227822 0.566994
2647 -0.22778 -0.97904 -0.696271 -0.605607 -0.0865646 -0.448967 1.00016 -1.34144 -0.50315 2.67694 0.211801 -0.271732 0.251853 0.223011 0.128693 -0.105385 0.162797 -0.0111286 0.479473 -0.453438 0.115717 -0.432977 -0.667043 0.441231 0.375467 -0.605144 -0.23606 -0.0144566 0.29169 0.0199064 -0.184211 -0.216309 0.186556 -0.121205 -0.0612027 -0.0107527 0.329448 0.0718807 -0.369995 -0.0700237 -0.187284 0.327497 0.177058 -0.288142 0.0968258 0.244747 0.155127 -0.0134596 0.222883 0.0846685 -0.149003 -0.0683796 0.337987 -0.241044 0.198242 -0.0819404 -0.186489 0.0841364 -0.0292502 0.0517211 0.210583 -0.13889 -0.259318 0.301615
477 -0.171007 -1.23212 -0.658917 -0.214956 -0.000923802 -0.465252 1.05863 -1.49828 -0.690538 2.7551 0.338918 -0.203181 0.141645 0.103373 0.380097 -0.188616 0.314702 -0.00353647 0.189679 -0.42838 0.235179 -0.330217 -0.705769 0.326263 0.489718 -0.915077 -0.211625 -0.090883 0.151513 -0.17651 0.15519 -0.185424 0.100527 0.0992886 -0.19682 0.0426512 0.504425 -0.0222648 -0.322716 -0.238199 -0.21304 0.403659 0.225798 -0.195214 0.192178 0.648362 -0.0360229 -0.125361 0.272256 -0.0531473 -0.0668678 -0.277131 0.609344 -0.0422742 0.157396 -0.242682 -0.148182 -0.121901 -0.0369116 0.0896313 0.153669 -0.136212 -0.360413 0.259898
1810 -0.130507 -0.66017 -0.351734 -0.371814 0.0873389 -0.38261 0.908161 -1.18278 -0.621225 2.50987 0.164857 -0.0344868 0.134184 0.215613 0.187853 -0.132354 0.382952 -0.00743143 0.103732 -0.392362 0.149992 -0.294369 -0.493735 0.336994 0.494706 -0.839917 -0.452196 -0.0141859 0.183315 -0.00667089 0.0130833 -0.0854268 0.238238 0.129534 -0.0665713 -0.00227248 0.367574 0.205837 -0.362199 -0.0947206 -0.281862 0.251207 0.0946084 -0.26863 0.06852 0.243168 0.182618 0.0339134 0.412586 -0.065609 -0.19731 0.178239 0.258636 -0.184837 0.128357 -0.0247576 -0.0165345 0.0557499 -0.0154532 0.275394 0.116514 -0.218949 -0.420089 0.255359
565 -0.146447 -1.02904 -0.590005 -0.654979 -0.433009 -0.308274 1.30737 -1.52743 -0.270197 2.51052 0.434691 -0.151872 0.173083 0.0594849 0.227182 -0.218793 0.324952 0.0538289 0.347469 -0.358561 0.190436 -0.213085 -0.683558 0.657876 0.511023 -0.452873 -0.289413 0.136114 -0.0417427 -0.287511 0.441188 0.0215752 0.56579 -0.0642507 0.179668 0.44071 0.408173 -0.161592 -0.177691 0.0816644 -0.0993742 0.0334701 -0.0172631 -0.135834 0.373343 0.355548 0.0953555 -0.0203757 -0.120225 -0.211695 0.0631933 0.0994606 0.313525 -0.0618783 -0.182532 -0.210205 -0.208434 0.0424377 0.0307635 0.305123 0.284127 0.0799041 0.0319831 0.361733
1016 -0.122907 -1.03926 -0.593795 -0.498294 -0.093002 -0.90341 1.39013 -1.80948 -0.357078 2.85192 0.386154 0.0223612 0.462896 0.225472 -0.101851 -0.24314 0.632836 -0.0953401 -0.0904172 -0.194725 -0.389778 -0.318405 -0.417179 0.73951 0.509094 -0.962896 -0.669736 -0.257683 -0.128701 -0.204438 -0.160943 -0.120963 0.454592 -0.0977775 0.0195827 0.0515049 0.538144 -0.00100399 0.0857421 0.0327425 -0.221171 0.046277 -0.0402712 -0.141546 0.409397 0.248279 -0.094985 0.0912963 0.0941873 0.0712738 -0.220439 0.0492309 0.381279 -0.319838 0.0135624 -0.147176 -0.526183 -0.180241 0.0013576 0.221938 0.0253036 -0.311049 -0.0823374 0.3646
1136 -0.229713 -0.84059 -0.561372 -0.770221 0.108154 -0.882413 1.55039 -1.60798 -0.4714 2.87768 0.405826 -0.0393818 0.518324 0.368874 0.0668922 -0.337101 0.547326 -0.0216976 -0.0714573 -0.398542 -0.0655933 -0.363553 -0.585665 0.581222 0.510538 -0.748677 -0.495357 -0.281296 -0.0826481 -0.111607 0.109832 -0.0523192 0.43119 -0.0488159 0.0218221 0.199175 0.668522 0.171095 0.0575636 0.0984166 -0.293999 0.148654 0.145184 0.143286 0.164461 0.112748 -0.194701 0.114843 -0.0403133 0.00321188 0.0455845 0.109515 0.450108 -0.107741 -0.128812 -0.078244 -0.474516 -0.278559 0.0236185 0.158244 0.150134 -0.370687 0.0193899 0.281782
1467 -0.143664 -0.775772 -0.765276 -0.669412 0.00294007 -0.629407 1.48733 -1.47579 -0.298345 2.64638 0.481742 0.0385098 0.475081 0.133534 0.103032 -0.35548 0.467676 0.00444692 -0.0346667 -0.297961 -0.197306 -0.23827 -0.505356 0.550898 0.424023 -0.759524 -0.743925 -0.406411 -0.234456 -0.109615 0.0750496 -0.0561006 0.297622 0.160317 -0.0979077 -0.0624414 0.81031 0.159287 0.139632 0.0616952 -0.184084 0.113727 0.138693 -0.0643568 0.309893 0.0853898 -0.179601 0.0221716 0.0850174 0.116209 -0.0096582 0.203124 0.387311 -0.22658 -0.105229 -0.0188497 -0.405032 -0.233182 0.151069 0.155423 0.0250164 -0.215422 0.0503258 0.418372
578 -0.119268 -0.798184 -0.98393 -0.732726 -0.118809 -0.437166 1.57693 -1.56115 -0.175411 2.71052 0.564404 -0.0742667 0.453368 0.153176 0.209288 -0.280377 0.433671 0.067301 -0.241287 -0.445772 -0.247248 -0.24719 -0.57366 0.541952 0.394394 -0.979237 -0.550169 -0.296056 -0.0982544 -0.0705865 0.106524 -0.04134 0.277018 0.0433694 -0.122311 0.037485 0.848377 0.0845865 0.0997612 -0.00942246 -0.150608 0.0770056 0.343199 -0.207842 0.241495 0.04002 0.0409096 0.00336031 0.120164 0.229979 -0.0256 0.271676 0.602571 -0.246455 -0.100579 -0.00729335 -0.388817 -0.141875 0.292936 0.226383 -0.0135361 -0.144964 -0.0731709 0.460777
13 -0.092427 -0.772615 -0.913131 -0.654916 -0.149457 -0.27484 1.64477 -1.56204 -0.0927562 2.48647 0.622609 -0.0376176 0.386918 0.157273 0.147264 -0.374902 0.454557 0.0759522 -0.0997053 -0.506215 -0.302833 -0.121698 -0.70219 0.548669 0.507475 -0.834386 -0.625242 -0.339789 -0.095211 -0.113763 0.048559 -0.21643 0.332023 0.16869 -0.157057 0.0122453 0.930356 0.212039 -0.0281287 -0.104356 -0.173352 0.090952 0.274471 -0.324494 0.254215 -0.135629 0.0923282 0.0414762 0.084775 0.309339 -0.0641101 0.137369 0.536613 -0.228051 -0.0091246 -0.104329 -0.455284 -0.192038 0.254085 0.278769 -0.150427 -0.212154 0.119396 0.622842
965 -0.409185 -0.609912 -0.58344 -0.747617 0.260771 -0.825731 1.26067 -1.80429 -0.346135 2.69602 0.274147 0.0757624 0.399821 0.273927 0.198762 -0.243709 0.241545 0.13933 0.30763 -0.416019 0.237713 -0.219815 -0.614548 0.346776 0.603501 -0.667835 -0.54846 -0.341838 -0.238454 -0.232767 -0.0205834 -0.12108 0.345337 0.0594619 0.0867582 -0.00247667 0.514751 0.105858 0.0154074 -0.0956241 -0.168279 0.15688 -0.0488571 0.0930553 0.297089 -0.227101 -0.615726 0.0748689 0.0161015 -0.137226 0.064016 -0.274564 0.421767 -0.198971 -0.13583 -0.104523 -0.364856 -0.178103 0.0594729 0.106555 -0.0603093 -0.148525 -0.035012 0.116814
2192 -0.136511 -0.438433 -0.575454 -0.628787 0.0967643 -0.708688 1.23428 -1.63765 -0.170256 2.61469 0.108979 0.155293 0.258245 0.327724 0.113208 -0.147142 0.225638 0.109004 0.280192 -0.49976 0.131173 -0.229347 -0.600015 0.445235 0.577766 -0.619628 -0.611834 -0.281314 -0.128866 -0.250947 0.0707874 -0.177815 0.337468 0.00132956 0.055326 -0.0678905 0.418138 0.155903 0.119897 -0.0831256 -0.155296 0.177202 0.0706925 0.111822 0.244533 -0.138404 -0.421022 0.163783 -0.0398681 -0.27941 0.118501 -0.252785 0.362508 -0.102098 -0.24756 -0.178464 -0.334661 -0.0454499 -0.113724 0.0282697 -0.0845103 -0.118893 0.0226986 0.224733
635 -0.0424143 -0.411685 -0.875303 -0.732878 -0.195132 -0.68133 1.33502 -1.56404 -0.306001 2.79568 0.166546 0.173058 0.281774 0.265936 0.100006 0.0249141 0.204429 0.0465504 0.242366 -0.619334 0.280095 -0.271817 -0.346563 0.366238 0.880568 -0.487861 -0.622752 -0.220644 -0.145054 -0.292976 0.107973 -0.109958 0.433817 -0.0603566 -0.0313724 0.195904 0.311055 0.237299 -0.0927638 -0.278367 -0.00152506 0.236945 0.0351415 -0.0969731 0.417031 -0.0972747 -0.326392 0.219064 -0.0481198 -0.0211138 0.0457193 -0.225502 0.12932 -0.213398 0.00160361 -0.134426 -0.341248 0.00786445 0.045135 0.243173 0.196135 -0.0781087 0.0215594 0.403215
318 -0.076716 -0.803465 -0.992253 -0.649962 -0.277892 -0.662069 1.43254 -1.7763 -0.398697 2.84279 0.269487 0.0691687 0.235402 0.597398 0.142629 -0.0896635 -0.017845 0.0796289 0.318151 -0.637847 -0.0639589 -0.00192699 -0.275507 0.724232 0.56351 -0.748374 -0.495619 -0.0463475 -0.364743 -0.291588 -0.0344656 -0.0567183 0.427019 -0.11564 -0.320082 0.0619647 0.294046 0.307089 -0.0404351 -0.235234 0.128218 0.589721 0.128299 -0.277439 0.0894064 0.272985 -0.47941 0.104745 -0.0462001 0.117201 0.124821 -0.159756 0.646809 -0.209587 -0.0406008 -0.44601 -0.542184 -0.0901697 0.161699 -0.0586203 0.34379 -0.188768 -0.0629142 0.392163
1328 -0.418865 -0.384838 -0.987388 -0.66213 -0.288385 -0.775301 1.40846 -1.50022 -0.108173 2.84431 0.354178 -0.128261 0.0498871 0.418218 -0.00264656 -0.0845268 0.19982 0.343966 0.400107 -0.734987 -0.196967 -0.120253 -0.532421 0.563182 0.534208 -0.857626 -0.300563 0.123924 0.238021 -0.0208577 -0.0783555 -0.382945 0.204041 0.0182977 -0.374779 0.145537 0.31429 0.0173027 0.0930436 -0.387455 -0.341149 0.295266 0.288124 -0.126001 0.35256 0.60567 -0.241684 -0.00406815 -0.0210991 0.230313 -0.221082 0.185296 0.541243 0.00454199 -0.06979 -0.462638 -0.367147 0.0603735 -0.169544 0.215165 0.198355 -0.213652 -0.188495 0.168044
1322 -0.509996 -0.674899 -0.809911 -0.718057 -0.332347 -0.546681 1.17561 -1.37204 -0.117915 2.9704 0.214922 0.0920261 0.265797 0.0051351 0.253083 -0.0353035 0.162965 0.241142 0.175359 -0.551666 -0.0430982 -0.135448 -0.739283 0.717168 0.489081 -0.607425 -0.112673 0.0126964 -0.15294 -0.336368 0.0103481 -0.195577 0.471006 0.0820765 -0.511864 0.260481 0.47985 0.372034 0.221433 -0.320413 -0.290525 0.0143354 0.196437 -0.0903464 0.279529 0.174465 -0.22505 0.274955 -0.0361015 -0.0591215 -0.174867 -0.140555 0.523305 -0.0126623 -0.0459638 -0.111792 -0.366381 0.153173 -0.308476 0.291513 0.164511 -0.090847 -0.0459434 0.351514
1312 -0.360701 -0.478007 -0.916635 -0.85408 -0.191789 -0.524667 1.1962 -1.56324 -0.275368 2.90894 0.491059 0.0168604 0.676263 0.100166 0.352912 0.119252 0.290705 0.358328 0.242717 -0.312446 0.115919 -0.188343 -0.796312 0.795865 0.530642 -0.672468 -0.0443922 -0.169203 -0.0695319 -0.376313 -0.0649589 -0.127603 0.47622 0.128776 -0.386976 0.164362 0.572778 0.205986 0.194015 -0.263383 -0.314514 -0.0294053 0.385253 -0.112368 0.148669 0.278047 -0.0300694 -0.0627953 0.193141 0.0917706 -0.258372 -0.0347087 0.539006 -0.344047 0.223748 -0.097662 -0.226876 -0.124466 -0.14411 0.424074 0.321453 -0.177019 -0.0110298 0.596093
418 -0.336479 -0.676648 -1.06956 -0.890885 -0.246288 -0.488844 1.16479 -1.58229 -0.374459 2.75167 0.5448 -0.00818974 0.619677 0.105003 0.251622 0.160767 0.315067 0.308103 0.191763 -0.27286 0.123984 -0.201938 -0.724838 0.76409 0.503367 -0.633482 -0.101633 -0.169388 -0.151374 -0.383684 -0.130879 -0.084945 0.366613 0.140876 -0.383113 0.251241 0.509531 0.207384 0.121091 -0.236301 -0.315797 0.0192808 0.360249 -0.193552 0.138952 0.276022 0.0397183 -0.087411 0.317809 0.0671656 -0.278347 -0.0620696 0.546708 -0.405006 0.269542 -0.196638 -0.271351 -0.0508207 -0.116982 0.450562 0.272607 -0.0727485 -0.0938117 0.55371
569 -0.184089 -0.442924 -0.972335 -0.434641 -0.427137 -0.84442 1.40769 -1.4421 -0.201797 2.86961 0.4058 -0.07486 0.0370891 -0.173691 -0.322457 0.154779 0.0105446 0.540079 0.193754 -0.134027 0.133768 -0.503399 -0.78016 0.886216 0.590097 -0.378667 -0.425291 -0.570568 -0.0679056 -0.177592 -0.184572 -0.303681 0.54404 0.0408441 -0.312522 -0.0375033 0.438761 0.0907944 0.131349 -0.333803 -0.262616 -0.325826 -0.0870206 -0.19707 0.462247 -0.0723344 0.0621341 0.0263636 0.276164 -0.248179 -0.111865 0.0422339 0.276232 -0.106945 0.268244 0.0567322 -0.360904 0.223787 0.249238 0.567686 0.28923 -0.149316 -0.552961 0.424395
1185 -0.281973 -0.584082 -1.00791 -0.782796 -0.161708 -0.46173 1.30627 -1.09705 -0.584012 2.81911 0.445377 -0.0525034 0.375449 -0.133697 -0.00244344 -0.0374953 0.103936 0.111711 0.431365 -0.365539 0.080383 -0.315819 -0.724957 0.701731 0.46378 -0.670423 -0.409004 -0.17567 -0.291751 -0.223288 -0.0325066 -0.188241 0.315425 0.22179 -0.298779 0.39191 0.43689 0.0454372 0.257397 -0.225662 -0.297989 -0.0818432 0.138818 -0.151701 0.277845 0.314141 -0.0989488 -0.00949508 0.392238 -0.202314 -0.312831 -0.0729896 0.447188 -0.322624 0.221746 -0.234269 -0.310446 -0.0776047 -0.0418243 0.425577 0.147811 -0.0371655 -0.429859 0.351031
1237 -0.185283 -0.66886 -0.989174 -0.710891 -0.107069 -0.384434 1.28478 -1.01713 -0.578658 2.65115 0.442454 -0.0851163 0.303897 -0.0697761 0.00837782 0.00995946 0.116797 0.00482492 0.400545 -0.421363 -0.0852513 -0.284693 -0.688782 0.596057 0.429899 -0.620336 -0.493658 -0.198847 -0.289409 -0.203403 0.00322212 -0.231926 0.26514 0.224437 -0.270062 0.441243 0.507752 0.0458186 0.216838 -0.201976 -0.198826 -0.0574749 0.154424 -0.184617 0.316617 0.331718 -0.0731879 0.108055 0.370229 -0.220064 -0.268088 -0.0891573 0.369465 -0.204391 0.178364 -0.253738 -0.36498 -0.0494529 -0.0500238 0.454834 0.186401 -0.115786 -0.469191 0.318692
1484 -0.317424 -0.511332 -1.06386 -0.673011 -0.275611 -0.344114 1.3619 -1.39441 -0.415871 2.81765 0.299109 0.0557807 0.130095 -0.103831 0.0605468 -0.135453 0.177282 0.0213708 0.217433 -0.652206 0.0166039 -0.23226 -0.794917 0.759523 0.4346 -0.465894 -0.424252 -0.417811 -0.365865 -0.0916386 -0.00322964 -0.128319 0.274387 0.180339 -0.150881 0.168363 0.462486 0.0899354 0.0734237 -0.2281 -0.180027 -0.391606 0.0940109 -0.261957 0.725976 0.336054 -0.111094 0.149651 0.426538 -0.197863 -0.213494 -0.132402 0.255746 -0.486756 0.143214 -0.321308 -0.389421 0.0181004 0.0385278 0.251968 0.372348 0.0209254 -0.393119 0.167295
1053 -0.255112 -0.612504 -0.850765 -0.435689 -0.119221 -0.587455 1.24894 -1.65641 -0.283423 2.88898 0.370563 -0.152281 0.328794 -0.166373 -0.209602 0.0139741 0.0211775 -0.113922 0.217954 -0.674163 -0.334078 -0.282642 -0.682942 0.484671 0.384815 -0.569281 -0.421579 -0.189673 -0.235687 -0.0163827 0.117759 -0.459791 0.253485 0.138834 -0.468137 0.20406 0.387432 -0.0399269 0.184616 -0.252229 -0.285271 -0.0465864 0.323612 -0.0579489 0.381065 0.508708 -0.264412 0.00109001 -0.0444311 -0.111099 -0.28015 0.0718852 0.424024 -0.0808775 -0.212726 -0.316149 -0.2574 -0.117857 0.0883622 0.4825 0.248413 0.101995 -0.258882 0.383946
1267 -0.24224 -0.610165 -0.928525 -0.657774 -0.115235 -0.310118 1.20837 -1.4027 -0.453214 2.75803 0.393426 0.108458 0.14794 0.0203391 0.171287 -0.0952873 -0.0157037 0.217394 0.394664 -0.524752 0.0402641 -0.396621 -0.504657 0.597373 0.527649 -0.51894 -0.597879 -0.136714 -0.210612 -0.329705 0.0292129 -0.309021 0.0261708 0.26485 -0.188398 0.39503 0.567071 0.266737 0.357037 -0.196024 -0.216435 -0.125534 0.24746 -0.0919966 0.355127 0.43339 0.021481 0.215191 0.295978 -0.110073 -0.147027 0.0288337 0.340427 -0.322689 -0.0288689 -0.205745 -0.265854 -0.0381028 0.0740683 0.227261 -0.00333562 -0.212958 -0.4435 0.0897802
2180 -0.0794276 -0.707569 -0.879247 -0.796691 -0.0668618 -0.517098 1.20696 -1.73105 -0.279287 2.83428 0.313144 0.193468 0.201528 0.108029 0.305548 -0.101534 -0.0256305 0.185263 0.581503 -0.654748 -0.0682662 -0.471597 -0.480717 0.59834 0.605042 -0.435852 -0.662389 -0.267157 -0.235581 -0.187244 0.0671164 -0.328512 -0.0237203 0.318849 0.0917825 0.581438 0.632198 0.237248 0.246554 -0.131142 -0.0828121 -0.0635235 0.216826 -0.0422567 0.5054 0.430097 -0.131412 0.120629 0.38104 -0.0891684 -0.056932 -0.224284 0.262543 -0.415201 0.00743071 -0.135018 -0.351655 0.0224869 0.138576 0.185537 0.0960376 -0.170373 -0.362789 0.190327
2342 -0.00697725 -0.605474 -1.09608 -0.681081 -0.230592 -0.553639 1.26166 -1.88894 0.0217157 2.88218 -0.000664162 0.173224 0.0362653 0.178486 0.443967 -0.0608525 0.0542095 -0.00213023 0.360455 -0.771715 -0.145929 -0.536352 -0.452755 0.624214 0.691449 -0.297261 -0.435027 -0.106584 -0.270711 -0.145566 0.226787 -0.303324 0.147296 0.220053 -0.0537842 0.349277 0.568406 0.112635 -0.0864553 -0.00174124 -0.110231 -0.00651864 0.211882 -0.00596939 0.454812 0.112478 -0.174405 -0.00754482 0.407747 -0.146424 -0.0499539 -0.217379 0.360526 -0.389626 -0.154434 -0.27415 -0.520554 0.110847 0.0192182 0.311052 0.233255 -0.081523 -0.354798 0.270309
2367 -0.0646584 -0.67655 -0.782585 -0.616448 -0.125712 -0.59013 1.21783 -1.75141 -0.172885 2.7923 0.184751 0.267929 0.109905 0.11335 0.26034 -0.0837365 -0.00292282 0.0379431 0.293189 -0.685776 -0.194024 -0.400933 -0.418582 0.432659 0.520994 -0.438085 -0.662307 -0.142767 -0.319526 -0.165248 0.203822 -0.312202 0.200585 0.209918 0.0572351 0.492664 0.52686 0.278403 0.268273 -0.017362 -0.0838534 -0.0273749 0.174411 -0.0343022 0.483327 0.330979 -0.279642 0.0717722 0.395918 -0.202315 -0.0985409 -0.22411 0.422059 -0.387582 -0.0369384 -0.0768848 -0.33019 0.0595527 0.10678 0.267305 0.102333 0.00514827 -0.266138 0.149826
1020 0.00251922 -0.577528 -0.7442 -0.643815 -0.0709453 -0.58353 1.16413 -1.66131 -0.212615 2.71112 0.192983 0.224784 0.0330722 0.122763 0.281034 -0.133133 0.0545733 0.0434944 0.379229 -0.566211 -0.0937961 -0.483341 -0.407292 0.44987 0.619456 -0.332486 -0.649272 -0.139929 -0.26743 -0.180223 0.160985 -0.302984 0.127847 0.345191 0.113614 0.482705 0.516693 0.222675 0.268569 -0.0947267 -0.0033305 -0.0228499 0.164289 -0.042867 0.408053 0.350345 -0.248799 0.0314277 0.436812 -0.13204 -0.0391216 -0.189128 0.358524 -0.322398 -0.0889301 -0.0602029 -0.368358 0.117824 0.0984072 0.22194 0.154523 0.00242198 -0.315332 0.211562
160 0.00431051 -0.667273 -0.799521 -0.654749 -0.0962117 -0.662167 1.01973 -1.75445 -0.197542 2.97503 0.360693 0.368793 0.285207 0.133632 0.335011 0.250838 0.104586 -0.0701558 0.224783 -0.469913 -0.170859 -0.388152 -0.323936 0.404181 0.196578 -0.556224 -0.597496 -0.221107 -0.143867 -0.18626 0.247493 -0.246554 0.414132 -0.113104 -0.0392918 0.494282 0.409105 0.294243 -0.130109 -0.0990779 0.0668948 0.337629 0.19611 -0.342406 0.53923 0.252537 -0.0874869 0.0527508 0.338775 -0.0868332 -0.168037 -0.0399612 0.410947 -0.397776 0.112748 0.063488 0.015669 0.194631 0.170461 0.344604 0.182136 0.0598815 -0.178779 0.230601
214 -0.136437 -0.515603 -0.716638 -0.792011 -0.0521621 -0.487819 0.997564 -1.69724 -0.13327 2.97718 0.495551 0.0718997 0.28802 0.0978714 0.165482 0.0956891 0.419318 0.0198469 0.5014 -0.411107 0.0460272 -0.40866 -0.433613 0.450525 0.152584 -0.492187 -0.724148 -0.344302 -0.0510722 0.0192739 0.06929 -0.516307 0.40834 -0.114672 -0.0984165 0.159381 0.510238 0.165118 -0.392667 -0.142296 0.0759859 0.240892 0.00307736 -0.238694 0.445325 0.223106 0.0163834 0.0839094 0.238001 -0.0380133 -0.00609728 -0.229022 0.128317 -0.600846 -0.0773903 0.105473 -0.141453 0.054533 0.0810142 0.313777 0.279337 -0.0989249 -0.0532754 0.356424
2239 -0.346684 -0.676051 -0.651996 -0.666408 -0.223234 -0.471991 1.03209 -1.57175 -0.476522 3.08566 0.507419 -0.0804383 0.262322 -0.094824 0.171135 -0.115232 0.557644 -0.131439 0.359238 -0.229995 0.109934 -0.289553 -0.683244 0.385474 0.262565 -0.612871 -0.582896 -0.186052 -0.149038 -0.106182 0.160337 -0.469187 0.339237 -0.0846977 -0.405863 -0.0579928 0.425798 0.250065 -0.508221 -0.117352 -0.218694 0.0448994 0.275694 -0.216614 0.546982 0.178165 -0.149989 0.262563 0.121882 -0.152038 0.229075 -0.284082 0.213409 -0.554341 -0.175002 -0.225305 -0.371511 -0.122615 0.0313461 0.393316 0.273641 -0.264492 -0.0811596 0.507402
