1458 64
1699 0.637783 0.929792 1.05436 -0.55026 -1.7107 0.3625 -0.378124 1.35181 -1.03306 0.327022 0.894624 -0.0375402 -1.28535 0.612939 0.312233 -0.289772 -1.29904 0.453628 -0.593748 0.550348 0.910976 -0.865108 1.55413 -1.27296 0.0382906 -1.34295 -0.966209 -0.42586 -0.77727 0.564674 -0.0830804 0.042196 -0.196087 -0.0847977 0.18591 0.0948817 0.200793 1.20935 0.803448 -0.499969 0.301063 0.222051 0.531797 -0.571428 -0.410167 -0.411884 -0.51098 0.0101108 0.845964 -0.0523398 0.274461 0.213645 -0.202969 0.479653 -0.35011 0.409857 -0.0876448 0.2753 -0.398774 -0.599128 -1.04756 -0.0349169 -0.0650102 0.807555
1804 0.672285 0.983745 1.01292 -0.582661 -1.72724 0.361241 -0.375015 1.43213 -1.03683 0.349212 0.879795 -0.0158771 -1.28337 0.606507 0.272184 -0.274054 -1.30989 0.47969 -0.559516 0.508916 0.919632 -0.904609 1.52959 -1.24096 0.0403733 -1.30785 -0.957234 -0.424996 -0.78537 0.553962 -0.134491 0.0757638 -0.184376 -0.0880604 0.209179 0.0914834 0.170593 1.22534 0.826543 -0.49032 0.323656 0.213688 0.508575 -0.599647 -0.440419 -0.393544 -0.560862 0.0423028 0.88489 -0.0427692 0.338835 0.216163 -0.205523 0.472919 -0.341761 0.38687 -0.106624 0.27943 -0.354374 -0.655392 -1.06746 -0.0134547 -0.0734512 0.804114
2416 -0.283454 0.540549 0.541398 -0.365946 -1.31313 0.296014 -0.387873 1.6845 -1.31315 -0.239343 0.560833 -0.219991 -1.56945 0.49174 0.194919 0.0386308 -0.15485 0.545009 -0.950296 -0.329171 0.480335 -1.15311 1.15433 -0.541967 0.749367 -0.159698 -0.81287 0.326666 -0.956409 0.369074 0.320437 -0.252414 1.19711 -0.0508911 -0.203371 0.544842 0.524871 1.11904 0.138872 -1.05031 -0.0925577 0.148897 -0.0896413 -0.505199 0.0358796 -0.871254 -0.634403 -0.512596 0.670942 0.00461211 0.18787 0.261397 0.292454 0.437083 -0.409055 -0.0216278 -0.483521 0.316843 -0.00158507 0.0448668 0.445619 -0.279551 -0.828289 -0.431188
3262 -0.3213 0.599879 0.617292 -0.413735 -1.50197 0.360993 -0.466221 1.88109 -1.47284 -0.257064 0.610485 -0.244813 -1.77093 0.528352 0.224729 0.0594596 -0.180578 0.59313 -1.04111 -0.335587 0.561547 -1.3013 1.29607 -0.598839 0.844384 -0.185358 -0.93536 0.363847 -1.05011 0.402754 0.40768 -0.267174 1.35471 -0.0440479 -0.223631 0.615098 0.583485 1.23319 0.153993 -1.15481 -0.105719 0.148061 -0.090419 -0.561377 0.0577026 -0.981523 -0.692673 -0.582683 0.775111 -0.00447829 0.175738 0.28597 0.301159 0.507953 -0.424955 -0.00892773 -0.543893 0.33655 0.00413474 0.044752 0.497793 -0.325379 -0.954507 -0.435771
1823 -0.266574 0.539016 0.542466 -0.362616 -1.33914 0.307437 -0.418306 1.69824 -1.33345 -0.235663 0.533627 -0.217612 -1.57888 0.483194 0.204818 0.0377743 -0.141221 0.534636 -0.951014 -0.286608 0.501085 -1.16454 1.13539 -0.526567 0.776865 -0.148712 -0.818065 0.323388 -0.956648 0.367235 0.340749 -0.245489 1.20652 -0.028826 -0.196878 0.553499 0.542208 1.12077 0.126171 -1.05437 -0.104469 0.144719 -0.0930674 -0.502476 0.00626483 -0.88677 -0.614441 -0.505089 0.693752 -0.0103764 0.194405 0.251113 0.264808 0.442237 -0.396038 -0.0137426 -0.490824 0.293095 0.0287898 0.0220129 0.43948 -0.265053 -0.857901 -0.430684
1079 -0.29864 0.583019 0.568548 -0.378572 -1.42648 0.322074 -0.421871 1.8195 -1.40718 -0.248584 0.587944 -0.234265 -1.70987 0.520939 0.194269 0.0648586 -0.154659 0.588131 -1.01861 -0.342712 0.557125 -1.25635 1.24617 -0.586826 0.816428 -0.172157 -0.859115 0.344206 -1.02755 0.402993 0.377827 -0.263962 1.28518 0.001742 -0.227149 0.615055 0.584407 1.19365 0.14257 -1.10628 -0.130145 0.158592 -0.118175 -0.543607 0.0492905 -0.951981 -0.665539 -0.551351 0.737847 -0.01551 0.18206 0.278064 0.291305 0.467344 -0.408995 -0.029536 -0.528469 0.33625 0.0282793 0.0410817 0.488221 -0.289258 -0.914338 -0.431257
2076 -0.290061 0.446962 0.437876 -0.276944 -1.17963 0.229356 -0.316603 1.50833 -1.09181 -0.249555 0.480226 -0.19258 -1.3546 0.429422 0.14176 0.0442106 -0.0172868 0.460761 -0.862009 -0.337109 0.436179 -0.998705 1.01981 -0.501365 0.713269 -0.0996971 -0.696134 0.350674 -0.879815 0.330735 0.268772 -0.197395 1.09997 -0.0253545 -0.14243 0.510627 0.478656 0.989876 0.150906 -0.979536 -0.0996305 0.198428 -0.0971294 -0.463202 0.032814 -0.819252 -0.599695 -0.439064 0.593282 0.00463705 0.167803 0.232494 0.268748 0.343177 -0.370862 -0.0276252 -0.415368 0.284639 0.0129935 0.0707639 0.488207 -0.250538 -0.768818 -0.463143
2721 -0.266439 0.531896 0.56081 -0.364656 -1.31424 0.28295 -0.398669 1.66982 -1.31303 -0.221339 0.550841 -0.196953 -1.57632 0.502107 0.202441 -0.0135194 -0.170028 0.532938 -0.944736 -0.311652 0.469505 -1.12111 1.1603 -0.529061 0.798737 -0.147954 -0.824853 0.352649 -0.940546 0.390443 0.323942 -0.228716 1.17664 -0.0279577 -0.206585 0.551044 0.531001 1.09753 0.124325 -1.03822 -0.1039 0.151221 -0.101272 -0.511049 0.0449143 -0.869839 -0.595016 -0.491412 0.674445 0.00625439 0.191475 0.25466 0.295885 0.405031 -0.393846 -0.00485791 -0.492367 0.307589 0.00818984 0.0368299 0.408927 -0.298505 -0.8331 -0.412816
2574 0.0813005 0.738148 0.499563 -0.313398 -0.808115 0.265478 -0.197719 1.16981 -0.908999 0.201835 0.233737 0.0553549 -1.36299 0.176355 0.378049 0.00207431 -0.471892 0.200891 -0.426849 0.157596 0.337236 -0.678135 0.660669 -0.242081 0.37536 -0.471834 -0.295138 0.0991044 -0.685878 0.30231 0.266824 -0.00704926 0.398598 0.271817 -0.0670394 0.17103 0.398574 0.570129 -0.319033 -0.42123 0.154989 -0.308938 -0.0796128 -0.336694 -0.193049 -0.130811 -0.294679 -0.478608 0.581235 0.0419586 0.347794 -0.0583214 0.0131801 0.15366 -0.217977 0.0778865 -0.184055 -0.227435 -0.0285593 -0.364355 -0.193899 0.0869702 -0.123897 0.112184
615 0.190424 0.97313 0.814012 -0.462832 -1.34753 0.375497 -0.296477 1.61437 -1.18925 0.305318 0.323194 0.0896618 -1.78747 0.325588 0.565644 0.03419 -0.68786 0.371083 -0.605311 0.196432 0.442685 -0.888748 0.976264 -0.325542 0.594062 -0.549728 -0.49737 0.143119 -0.864427 0.33291 0.337066 0.0586058 0.531504 0.434852 -0.138368 0.108158 0.500529 0.809645 -0.358071 -0.614815 0.140119 -0.495002 -0.0972511 -0.327405 -0.31733 -0.152005 -0.391449 -0.681703 0.70293 0.0513869 0.47046 -0.0187013 0.0258718 0.241169 -0.287859 0.125809 -0.341281 -0.167981 0.00694976 -0.5956 -0.36572 0.0667706 -0.179922 0.0805003
629 0.0782006 1.10807 0.683129 -0.805114 -1.18169 0.474173 -0.270945 1.58586 -1.36228 0.312668 0.417201 -0.0206355 -1.75044 0.342081 0.743334 0.0816076 -0.908901 0.454861 -0.646834 0.355747 0.420091 -1.10493 0.813196 -0.32251 0.607948 -0.583056 -0.606912 0.180563 -0.977635 0.553609 0.373467 -0.232244 0.660243 0.350695 -0.0822422 0.236621 0.518774 0.849745 -0.269016 -0.426651 0.28339 -0.273301 -0.129292 -0.432194 -0.256902 -0.258924 -0.399227 -0.714715 0.682582 -0.079523 0.267829 0.0428625 -0.0384601 0.205418 -0.173803 0.134229 -0.318432 -0.212903 -0.0587333 -0.538979 -0.421249 -0.0119473 -0.28789 0.063764
848 -0.0219959 0.999639 0.69938 -0.77598 -1.26719 0.354802 -0.216933 1.77218 -1.26005 0.0949191 0.293993 -0.120157 -1.48474 0.454967 0.806097 0.0216717 -0.937052 0.461909 -0.611799 0.286658 0.461036 -1.13034 0.926636 -0.353494 0.420166 -0.451697 -0.670833 0.140253 -0.835607 0.495507 0.272488 -0.263292 0.699483 0.178213 -0.0513843 0.203628 0.523852 0.857807 -0.285927 -0.540268 0.217689 -0.042183 -0.101472 -0.413888 0.0704331 -0.288386 -0.212735 -0.6142 0.609824 0.00279004 0.0873141 -0.0478879 0.0432475 0.121045 0.00536338 -0.0536598 -0.242535 -0.212015 -0.0134273 -0.695052 -0.363412 -0.157843 -0.362753 0.154391
985 0.0578105 1.176 0.809775 -0.805269 -1.26023 0.55834 -0.328371 1.59471 -1.45117 0.350847 0.440244 0.00474316 -1.84065 0.414726 0.723781 -0.0739043 -0.872631 0.402236 -0.669908 0.370182 0.403192 -1.12905 0.840384 -0.203083 0.548431 -0.474466 -0.672375 0.190873 -1.00077 0.532841 0.357189 -0.178468 0.658887 0.351739 -0.105254 0.13785 0.638298 0.909661 -0.228169 -0.440959 0.306842 -0.24989 -0.057338 -0.490771 -0.195758 -0.231397 -0.395501 -0.716642 0.638616 -0.15922 0.335219 -0.112029 -0.0524259 0.208427 -0.201313 0.0797783 -0.289404 -0.216557 -0.107572 -0.598908 -0.419003 -0.03494 -0.290508 -0.00927076
288 0.181807 1.03498 0.778782 -0.694905 -1.17686 0.508002 -0.388533 1.49566 -1.40243 0.392465 0.495177 0.0368284 -1.76441 0.363842 0.671868 -0.023045 -0.844511 0.287031 -0.495314 0.243458 0.338199 -1.01532 0.724224 -0.237219 0.658498 -0.483952 -0.645778 0.127601 -1.00376 0.534174 0.423957 -0.10522 0.677356 0.361513 -0.100156 0.19392 0.65828 0.865747 -0.25465 -0.389314 0.295392 -0.24854 -0.00761284 -0.491491 -0.202258 -0.297204 -0.430438 -0.715563 0.621214 -0.107763 0.364556 -0.129708 -0.0721281 0.195601 -0.274483 0.11609 -0.356788 -0.196096 -0.153034 -0.574485 -0.397143 -0.00824639 -0.288014 -0.0470701
326 0.253983 1.21302 0.88935 -0.744503 -1.26945 0.544692 -0.472943 1.54662 -1.4772 0.319072 0.549836 -0.0218021 -1.95663 0.397425 0.788194 -0.0455284 -0.938805 0.337351 -0.571552 0.321024 0.43418 -1.07699 0.825108 -0.197451 0.618787 -0.487288 -0.660435 0.115592 -0.98626 0.571608 0.435127 -0.191162 0.714954 0.35342 -0.106302 0.211559 0.682511 0.944403 -0.257563 -0.477442 0.125508 -0.364394 -0.0811203 -0.47936 -0.230605 -0.292339 -0.439199 -0.815969 0.614255 -0.157694 0.381641 0.0282918 -0.158891 0.259715 -0.363128 0.170646 -0.404896 -0.185882 -0.141582 -0.538526 -0.480806 0.118391 -0.384579 0.0482902
1509 0.423623 1.26093 0.894485 -0.651255 -1.27408 0.451555 -0.386925 1.72933 -1.50981 0.226294 0.630709 0.145042 -2.00934 0.507294 0.958774 0.0141534 -1.01449 0.307404 -0.595511 0.410685 0.495255 -0.998672 0.804864 -0.212009 0.698728 -0.318922 -0.808668 0.00844349 -0.932606 0.414256 0.468347 -0.117864 0.630131 0.166256 -0.182445 0.0150257 0.708383 1.0415 -0.257656 -0.479237 -0.118116 -0.428797 -0.0826989 -0.552781 0.00270912 -0.382395 -0.564045 -0.762346 0.439381 -0.0659115 0.200308 0.0184214 -0.261372 0.379457 -0.324107 0.0946979 -0.457061 -0.0311064 -0.316193 -0.305552 -0.341395 0.205002 -0.331051 0.208851
325 0.364037 1.18945 0.841338 -0.68081 -1.31274 0.562594 -0.513126 1.50441 -1.31988 0.225888 0.575957 0.0753816 -1.86928 0.405116 0.9416 0.125526 -0.933231 0.26183 -0.445384 0.193247 0.389132 -0.856721 0.724914 -0.129755 0.525231 -0.405251 -0.68914 0.113504 -0.960232 0.495229 0.466944 -0.0948952 0.586866 0.235162 -0.104773 0.0214482 0.719951 0.999896 -0.158435 -0.465616 -0.0241458 -0.370936 -0.102542 -0.545721 -0.0155903 -0.433531 -0.54574 -0.691773 0.361589 -0.108017 0.0353382 -0.0218506 -0.265043 0.208538 -0.329721 0.148193 -0.462427 -0.074586 -0.257247 -0.32821 -0.325068 0.179326 -0.369893 0.189425
149 0.392632 1.24245 0.86528 -0.709902 -1.36278 0.530581 -0.556745 1.55595 -1.36802 0.227565 0.58738 0.0847286 -1.91791 0.419488 0.922518 0.147821 -0.91907 0.291684 -0.427077 0.230639 0.376479 -0.854982 0.702684 -0.132054 0.512389 -0.433133 -0.726514 0.139491 -0.974239 0.493431 0.503441 -0.117432 0.592134 0.254362 -0.103826 0.0259486 0.752792 1.03497 -0.156125 -0.509781 0.00985788 -0.361881 -0.100601 -0.54564 -0.019399 -0.503878 -0.502807 -0.6936 0.371217 -0.0428018 0.00397287 -0.0351045 -0.219974 0.22708 -0.330631 0.182418 -0.494874 -0.113726 -0.217304 -0.389793 -0.361387 0.163081 -0.353118 0.144269
280 0.190176 1.19508 0.802289 -0.760929 -1.21355 0.571232 -0.394221 1.53704 -1.41505 0.305892 0.480016 -0.0201223 -1.88115 0.378597 0.84632 -0.0158551 -0.970494 0.372946 -0.576197 0.329781 0.431451 -1.11942 0.784452 -0.183873 0.628616 -0.492984 -0.630313 0.15007 -0.973274 0.490731 0.385542 -0.145872 0.664913 0.297268 -0.144492 0.116923 0.65937 0.941802 -0.224666 -0.433807 0.142035 -0.362752 -0.0581058 -0.51404 -0.133595 -0.331538 -0.45739 -0.74537 0.630727 -0.171826 0.256061 -0.0120672 -0.184921 0.202827 -0.298048 0.143125 -0.429357 -0.148983 -0.219171 -0.426694 -0.412346 0.0908669 -0.386943 0.114222
637 0.336946 1.21532 0.850111 -0.693752 -1.35166 0.592889 -0.567249 1.53176 -1.36652 0.236691 0.560356 0.00437243 -2.00079 0.393084 0.977136 0.145107 -0.934533 0.321053 -0.475025 0.228426 0.411542 -0.90525 0.74272 -0.154289 0.572825 -0.537558 -0.644128 0.215231 -1.02977 0.595893 0.428472 -0.133188 0.615069 0.301817 -0.0977511 0.0733689 0.765777 1.11972 -0.162658 -0.57619 0.0437104 -0.379384 -0.127275 -0.54296 -0.0963332 -0.493187 -0.462562 -0.769007 0.448767 -0.0475383 0.118705 -0.0238081 -0.2813 0.243258 -0.322348 0.176361 -0.415674 -0.213103 -0.192282 -0.400267 -0.42294 0.152039 -0.386683 0.13367
917 0.381753 1.23865 0.848957 -0.713042 -1.36271 0.580132 -0.551795 1.48879 -1.36253 0.262741 0.615862 0.0490415 -1.86132 0.415876 1.01916 0.191583 -0.966667 0.27688 -0.423651 0.15562 0.367129 -0.815182 0.754705 -0.103721 0.524958 -0.40043 -0.718593 0.136278 -0.998099 0.561325 0.47191 -0.152947 0.611048 0.245119 -0.0965669 0.02522 0.8184 1.07221 -0.122529 -0.490994 -0.0451166 -0.384286 -0.128995 -0.515239 -0.0624858 -0.509238 -0.539288 -0.717012 0.349105 -0.062716 -0.0390911 -0.0326206 -0.240268 0.177 -0.327513 0.175454 -0.469019 -0.0902043 -0.216326 -0.343464 -0.347504 0.159357 -0.36899 0.195205
150 0.325337 1.24571 0.804259 -0.707804 -1.28297 0.556901 -0.511294 1.54102 -1.36273 0.259076 0.550786 0.0483629 -1.93442 0.346972 0.888032 0.174373 -0.937726 0.265239 -0.457786 0.207382 0.421634 -0.88562 0.781327 -0.13181 0.508641 -0.462104 -0.663539 0.13296 -0.999198 0.519265 0.472401 -0.132352 0.616238 0.255224 -0.079068 0.0279379 0.685649 1.01975 -0.180266 -0.467532 0.021856 -0.397032 -0.114684 -0.562332 -0.0649293 -0.439903 -0.509173 -0.731064 0.415382 -0.0558979 0.0198294 -0.043262 -0.248754 0.190369 -0.287486 0.164667 -0.465543 -0.134354 -0.213607 -0.355421 -0.324468 0.149819 -0.320655 0.167184
1701 0.31281 1.24068 0.816994 -0.661145 -1.2811 0.532652 -0.53428 1.58967 -1.34694 0.226082 0.555737 0.0383914 -1.92734 0.362357 0.868872 0.132087 -0.90136 0.307507 -0.540883 0.27205 0.404555 -0.91385 0.796131 -0.159392 0.505064 -0.490917 -0.65053 0.159767 -0.995634 0.525911 0.436374 -0.168671 0.602197 0.288251 -0.135838 0.0494007 0.664927 1.02612 -0.222127 -0.456527 0.0634579 -0.418223 -0.0938579 -0.549914 -0.0944466 -0.37955 -0.503745 -0.708662 0.423415 -0.0399291 0.108145 -0.0341061 -0.254266 0.289136 -0.295177 0.15001 -0.394055 -0.186642 -0.227456 -0.287719 -0.366391 0.12036 -0.323117 0.160362
978 0.213431 1.0981 0.876037 -0.821295 -1.19458 0.613098 -0.366765 1.5329 -1.58186 0.416463 0.56905 -0.0745034 -1.95806 0.443428 0.722914 -0.0647169 -0.969939 0.359899 -0.467016 0.277605 0.353832 -1.12035 0.823251 -0.243339 0.680267 -0.470566 -0.700137 0.0789471 -1.00474 0.619475 0.48916 -0.106693 0.819584 0.388186 -0.120072 0.209216 0.610666 0.977902 -0.267062 -0.43539 0.271358 -0.346763 0.0172881 -0.480199 -0.224836 -0.304131 -0.447456 -0.861345 0.73359 -0.192571 0.376193 -0.115436 -0.110672 0.231528 -0.337239 0.155235 -0.447006 -0.171015 -0.196046 -0.550738 -0.432594 -0.0678727 -0.382154 0.00430131
1254 -0.16419 0.68657 1.10291 -0.2264 -1.09208 0.449034 -0.701093 1.69502 -1.34861 0.214377 0.714772 -0.130301 -1.20914 0.384642 0.728372 0.0891298 -0.785651 0.262263 -0.110999 0.0241938 0.445689 -0.535325 1.22264 -0.624515 0.250965 -0.222648 -0.734767 -0.0204841 -0.954444 0.656879 0.03375 -0.216806 0.483595 0.232847 -0.228197 0.565106 0.381409 0.751206 -0.0153194 -0.450026 -0.294943 -0.204024 0.0990039 0.0657674 0.363635 -0.641501 -0.173617 -0.386018 0.770618 0.132214 0.220354 -0.379991 0.188577 0.142866 -0.142659 0.179687 -0.426485 0.0692823 -0.100388 -0.287249 -0.182131 0.0277457 -0.424833 0.208047
1580 -0.0805596 0.674048 1.03196 -0.316704 -1.09516 0.333147 -0.626858 1.69166 -1.2742 0.161837 0.657005 -0.106328 -1.20453 0.374303 0.773903 0.0603133 -0.870263 0.311176 -0.214589 0.015091 0.325674 -0.504282 1.11898 -0.64963 0.234409 -0.216021 -0.856237 -0.0730864 -0.977777 0.652485 0.0734123 -0.203501 0.358238 0.300147 -0.140264 0.565342 0.422539 0.804266 -0.0732674 -0.49354 -0.201978 -0.0207071 0.0992691 -0.00677043 0.453156 -0.614685 -0.262587 -0.434101 0.786898 0.137284 0.211708 -0.261058 0.199691 0.170033 -0.136143 0.25897 -0.434319 0.0824702 -0.0219023 -0.264427 -0.224924 -0.0634346 -0.305132 0.191839
2827 -0.0711655 0.510468 0.80395 -0.254079 -0.843463 0.261199 -0.490039 1.28532 -1.01719 0.144431 0.532758 -0.0950955 -0.936166 0.335336 0.591338 0.0429398 -0.670325 0.324496 -0.183898 0.0354736 0.248699 -0.463453 0.914812 -0.566329 0.093439 -0.211517 -0.631854 -0.0649294 -0.783046 0.455046 0.0697769 -0.146763 0.366122 0.174067 -0.115394 0.445102 0.294525 0.687702 -0.0708742 -0.386994 -0.180159 -0.0250076 0.0322389 0.00877146 0.300521 -0.540891 -0.197971 -0.342952 0.624145 0.102361 0.115413 -0.220929 0.197276 0.132268 -0.119643 0.154454 -0.303111 0.0770926 0.00327067 -0.250096 -0.172286 -0.0460051 -0.278582 0.124832
429 0.056861 0.682597 1.29337 -0.580765 -1.16115 0.28495 -0.612448 1.5014 -1.30561 0.0691503 0.70828 -0.0805764 -1.21744 0.487614 0.454376 -0.10084 -0.74511 0.448293 -0.234369 0.0786781 0.222671 -0.736998 1.03386 -0.786716 0.220499 -0.430929 -0.606292 0.276005 -0.877439 0.471502 0.178131 -0.066817 0.390533 0.175637 -0.273093 0.473514 0.317481 0.580803 -0.161916 -0.421026 -0.226465 -0.428991 -0.0485386 -0.00391067 0.193891 -0.578474 -0.17191 -0.355869 0.398906 0.17161 0.0435372 -0.352658 0.26967 0.140243 -0.113887 -0.0297865 -0.394071 0.0972452 -0.169074 -0.183096 -0.174865 -0.0721493 -0.513394 0.122871
505 0.12901 0.462366 1.2321 -0.601269 -1.34458 0.331323 -0.812877 1.54428 -1.292 0.231841 0.577763 -0.00341627 -1.1519 0.464054 0.189701 -0.196475 -1.02413 0.501793 -0.530863 0.387862 0.207679 -1.09514 0.674932 -0.524586 0.14622 -0.416027 -1.00603 0.215159 -0.741704 0.249062 0.210682 -0.0783278 0.384523 0.407212 -0.134946 0.181381 0.56188 0.624246 -0.218571 -0.461653 -0.044633 -0.484714 0.0285325 -0.143791 0.145532 -0.429672 -0.173049 -0.450682 0.312137 0.135575 0.0433483 -0.26393 0.279205 0.245128 -0.127526 0.0559443 -0.456379 0.0155539 -0.149896 -0.409493 -0.313902 -0.100998 -0.404316 0.485736
1492 0.101534 0.318439 0.94598 -0.55162 -1.14784 0.188244 -0.613981 1.23748 -1.20937 0.144083 0.559135 -0.0266515 -0.980785 0.392164 0.424468 0.0332083 -0.654671 0.314688 -0.535539 0.208249 0.147734 -0.778597 0.456171 -0.283305 0.175117 -0.33237 -0.927569 0.104324 -0.600141 0.263316 0.198842 -0.205556 0.407397 0.213374 -0.185075 0.120272 0.537608 0.66233 -0.223072 -0.558562 0.00968449 -0.311075 0.0246667 -0.144195 -0.194771 -0.511873 -0.216828 -0.275998 0.190878 0.0561642 -0.222991 -0.249336 0.174726 0.273288 -0.191786 0.115521 -0.516206 0.129215 -0.0315471 -0.446189 -0.172461 -0.172409 -0.339177 0.299422
218 0.0546155 0.514574 1.15557 -0.731319 -1.44476 0.178563 -0.536916 1.57753 -1.03396 0.09386 0.439943 -0.303998 -1.29724 0.413261 0.3596 -0.252792 -0.678186 0.512968 -0.334777 0.179714 0.147668 -1.03886 1.04329 -0.586301 0.40827 -0.204179 -0.999954 0.215755 -0.66754 0.437575 0.162544 -0.111017 0.396572 0.0381714 -0.244432 0.0580381 0.37652 0.694595 -0.30337 -0.416258 0.000508001 -0.0944396 -0.146888 -0.256814 -0.0709561 -0.472412 -0.0606201 -0.509792 0.370584 0.0771999 -0.00877377 -0.149258 0.326978 0.291269 -0.246822 -0.00433059 -0.25597 0.101111 -0.0665675 -0.289274 -0.136514 -0.200165 -0.476867 0.294888
37 0.241543 0.437883 0.966771 -0.740429 -1.4677 0.0566236 -0.460678 1.30582 -1.18552 0.234514 0.337151 0.0160072 -1.30837 0.747723 0.065107 -0.22697 -0.512374 0.531087 -0.542209 0.186232 0.105834 -0.880201 0.984327 -0.659715 0.500535 -0.12339 -1.0503 0.214253 -0.608997 0.243371 0.0756326 -0.201006 0.453409 0.0796481 0.074295 0.149021 0.355746 0.739835 -0.431624 -0.364823 0.0349875 0.137297 -0.166081 -0.301555 0.0228504 -0.284519 -0.0642041 -0.407624 0.40647 0.211825 -0.0703418 -0.00710359 0.265966 0.298156 -0.225762 0.164754 -0.278628 -0.0290411 0.101461 -0.0782168 -0.16023 -0.336767 -0.152399 0.256997
439 0.186133 0.709034 0.843249 -0.670725 -1.53809 0.222521 -0.715337 1.72541 -1.07803 0.246451 0.414036 -0.0931844 -1.4233 0.431255 0.19559 -0.153711 -0.936989 0.297187 -0.488762 0.170295 0.356026 -0.807201 0.95053 -0.368546 0.442091 -0.262552 -0.57348 -0.0650906 -0.575989 0.358312 0.101407 -0.16812 0.387202 0.260896 0.00348107 0.170899 0.450138 0.690577 -0.194703 -0.755909 0.122138 -0.0350196 -0.0179471 -0.471745 -0.0796745 -0.318519 -0.216086 -0.295442 0.282305 -0.0167476 0.10497 -0.036734 0.256778 0.333986 -0.102444 0.144895 -0.268964 0.114424 -0.0376398 -0.350168 -0.173312 -0.348197 -0.152623 0.324419
766 0.138501 0.538831 0.711635 -0.697569 -1.44875 0.282446 -0.26384 1.29048 -1.28088 0.0959207 0.370253 -0.0399686 -1.22964 0.567964 0.142991 -0.295573 -0.513407 0.281613 -0.373891 0.262833 0.300404 -0.879467 0.912291 -0.366114 0.433612 -0.0759758 -0.719799 0.227527 -0.640533 0.477418 0.0818089 -0.161319 0.410804 0.213631 -0.0504064 0.10937 0.414335 0.7863 -0.257925 -0.652133 0.190614 -0.194816 0.0909076 -0.34772 -0.000176493 -0.417894 -0.0763237 -0.377488 0.321232 0.256691 0.0968257 -0.131572 0.11912 0.319414 -0.21938 0.154198 -0.395847 0.0648368 -0.0981123 -0.357823 -0.162885 -0.310172 -0.353423 0.354873
699 0.249048 0.654776 0.824108 -0.80483 -1.51419 0.283469 -0.743316 1.80908 -1.23225 0.0685536 0.301799 -0.189121 -1.24055 0.551985 0.240253 -0.223012 -0.832902 0.375514 -0.523611 0.257739 0.174549 -1.073 1.07333 -0.272643 0.333907 -0.219021 -0.546229 0.00856899 -0.560709 0.393472 -0.0460189 -0.140003 0.344926 0.13882 -0.00419379 0.155684 0.461382 0.574869 -0.22421 -0.786369 0.211025 -0.0945233 -0.0368727 -0.384754 -0.102889 -0.371494 -0.116037 -0.213799 0.343945 -0.0660965 0.12644 0.0350149 0.135858 0.240142 -0.289688 0.276427 -0.440545 0.0615649 -0.217795 -0.268593 -0.181381 -0.150887 -0.20049 0.20238
373 -0.038949 0.524742 0.892112 -0.765979 -1.30963 0.137317 -0.73808 1.60506 -1.34388 0.187571 0.264263 -0.148329 -1.16194 0.528487 0.0905107 -0.0363717 -0.583177 0.408486 -0.439334 0.307703 0.253861 -0.925176 1.00132 -0.485036 0.482793 -0.152073 -0.839973 0.230054 -0.588375 0.267642 0.215879 -0.303336 0.44443 -0.00863706 -0.129769 0.372025 0.609706 0.499603 -0.199775 -0.500675 0.231487 -0.11872 -0.0499606 -0.205454 0.160052 -0.0957189 -0.241839 -0.523798 0.398184 0.351085 -0.0460752 0.0489879 0.215301 0.189927 -0.344321 0.335373 -0.0836519 -0.0111674 0.185689 -0.245711 -0.120932 -0.299389 -0.341783 0.105675
438 0.1898 0.453653 0.738854 -0.655996 -1.15676 0.0823897 -0.751485 1.19999 -1.3216 0.238326 0.370261 -0.24047 -1.20549 0.521192 0.362614 0.00650915 -0.493748 0.341937 -0.496434 0.162223 0.280347 -0.720444 1.16059 -0.290634 0.49819 -0.125939 -0.810271 -0.00815767 -0.539879 0.472112 -0.110544 -0.423054 0.385744 -0.00660016 -0.208901 0.45993 0.689753 0.471804 -0.150176 -0.500237 0.110185 -0.02482 -0.0974743 -0.243335 0.0578727 -0.380741 -0.22082 -0.471901 0.389616 0.0894359 0.172383 0.141436 0.214886 0.36177 -0.382736 0.458373 -0.324298 -0.00882513 0.199521 0.0244529 -0.222397 -0.207468 -0.236782 0.181762
745 0.0626982 0.577021 0.871185 -0.713156 -1.37069 0.302141 -0.709209 1.47658 -1.28232 0.265821 0.412116 -0.126411 -1.25419 0.484236 0.273668 0.108315 -0.683703 0.403237 -0.500124 0.127212 0.41845 -0.859588 1.15637 -0.343027 0.59418 -0.152254 -0.797568 0.0161609 -0.4536 0.410482 0.126787 -0.264088 0.500728 0.183339 -0.300305 0.341523 0.566351 0.435698 -0.0096383 -0.669229 0.200334 -0.00855404 0.0190822 -0.273832 0.118206 -0.210805 -0.0943645 -0.407642 0.295576 -0.0310444 0.181368 0.0482576 0.148987 0.415269 -0.293534 0.279741 -0.386981 0.0569918 0.066889 -0.0404684 -0.18475 -0.311447 -0.391707 0.196271
408 0.194375 0.707586 0.894445 -0.5722 -1.46 0.293556 -0.710158 1.27474 -1.16235 0.263291 0.55445 -0.0304244 -1.16998 0.548404 0.278834 0.107629 -0.761568 0.284392 -0.556257 0.164208 0.443925 -0.710048 0.902761 -0.340439 0.553288 -0.116254 -0.811041 0.0877705 -0.464315 0.476319 0.194294 -0.154076 0.570996 0.236403 -0.244813 0.357183 0.50915 0.595573 -0.0919542 -0.582873 0.163774 -0.0860566 -0.00418805 -0.300124 0.0658848 -0.235485 -0.124646 -0.405008 0.198789 -0.0605259 0.155799 0.0892746 0.108511 0.415478 -0.282565 0.301984 -0.406287 0.0332724 0.0988466 -0.227575 -0.265161 -0.224698 -0.424218 0.294977
291 0.48087 0.486805 0.790825 -0.775153 -1.43819 0.2829 -0.983882 1.76209 -1.13548 0.00141086 0.472881 -0.112447 -1.24358 0.656885 0.107441 0.0369029 -0.974651 0.445831 -0.550372 0.421235 0.294707 -1.06255 1.09692 -0.321268 0.351984 -0.420949 -0.741849 -0.016594 -0.424213 0.212708 0.0852019 0.00199657 0.433552 0.170636 -0.160551 0.305626 0.151807 0.450564 -0.127126 -0.64396 0.0975064 -0.232054 0.0627372 -0.29654 0.167354 -0.650701 -0.0852888 -0.115578 0.202032 -0.105605 0.0570337 0.0338368 0.0713603 0.357943 0.0324601 0.294052 -0.238246 -0.0594834 -0.100914 -0.246831 -0.191455 -0.190817 -0.127421 0.181999
977 0.182527 0.673602 0.934298 -0.607096 -1.34939 0.349217 -0.7004 1.2761 -1.21988 0.244072 0.536236 -0.0623241 -1.20291 0.53846 0.339403 0.109857 -0.783389 0.240071 -0.590804 0.198429 0.452406 -0.775481 0.948699 -0.30018 0.493068 -0.106618 -0.759853 -0.0181825 -0.387433 0.471063 0.129511 -0.181149 0.519295 0.321463 -0.25821 0.315397 0.548957 0.580848 -0.0106027 -0.531551 0.138609 -0.0635308 0.0522693 -0.28381 0.0896502 -0.225911 -0.0411431 -0.414193 0.159496 -0.0993915 0.138091 0.0524085 0.0461528 0.402966 -0.122954 0.175904 -0.472609 0.0621546 0.0141512 -0.175148 -0.24867 -0.202797 -0.351925 0.329152
364 0.188987 0.687991 0.831333 -0.667501 -1.4792 0.17659 -0.74846 1.67647 -1.17275 0.325004 0.519582 0.0304498 -1.25244 0.59544 0.233893 -0.0106846 -0.906773 0.466498 -0.550982 0.0985845 0.366878 -0.7333 0.999492 -0.587523 0.536342 -0.156175 -0.567042 0.100665 -0.629437 0.450993 0.117312 -0.0925469 0.441244 0.132578 -0.0725653 0.311473 0.366977 0.638141 -0.232402 -0.517652 0.0643488 -0.0709746 -0.0956825 -0.355022 -0.00609962 -0.333941 -0.0971902 -0.255825 0.290413 -0.334616 0.179227 0.0610666 0.255004 0.327199 -0.0991982 0.216654 -0.337524 -0.0805719 0.122188 -0.0965622 -0.230663 -0.159001 -0.265004 0.199375
668 0.0975063 0.600037 0.894377 -0.445821 -1.14213 0.293618 -0.761403 1.5031 -1.45716 0.216357 0.421421 -0.151874 -1.29299 0.560908 0.488498 0.0892773 -0.760655 0.365659 -0.441126 0.10522 0.344306 -0.6643 1.27857 -0.374599 0.379389 -0.0972462 -0.830971 -0.205178 -0.619985 0.363132 -0.0971069 -0.439772 0.356519 0.0820504 -0.123497 0.514935 0.543048 0.452099 -0.101921 -0.392597 -0.0325757 -0.093585 0.078894 -0.0716746 -0.0350371 -0.284175 -0.198003 -0.440728 0.460737 0.139085 0.122651 -0.0664525 0.0736237 0.331789 -0.289735 0.499122 -0.266532 -0.0198474 0.124747 -0.220705 -0.169144 -0.052994 -0.234067 0.0572831
566 0.132301 0.714656 1.11783 -0.226838 -1.2281 0.358235 -0.749981 1.36281 -1.24168 0.0302611 0.518065 -0.0393575 -1.51655 0.498374 0.47836 0.026971 -0.692109 0.510897 -0.354999 0.0873858 0.292916 -0.727082 1.08127 -0.44606 0.376174 -0.0183982 -1.03341 -0.305427 -0.551484 0.29663 0.000848691 -0.237013 0.489416 -0.010762 -0.0850666 0.513377 0.121859 0.63817 -0.102152 -0.656181 -0.0611856 0.0306209 0.170911 0.0340712 -0.118691 -0.262198 -0.145804 -0.204448 0.245906 0.168606 0.104573 -0.0626561 -0.0119748 0.349755 -0.128008 0.408422 -0.266563 0.146682 0.0963511 -0.389108 -0.058992 -0.0154669 -0.347788 0.126335
266 0.116893 0.661355 1.21858 -0.461818 -1.2867 0.43559 -0.754959 1.61785 -1.28497 -0.0350742 0.4944 -0.287665 -1.325 0.424615 0.317747 -0.131832 -0.711903 0.577238 -0.512281 0.230342 0.277756 -1.04297 0.875245 -0.619619 0.428141 -0.286867 -0.901339 0.12227 -0.401992 0.296286 0.187741 -0.170701 0.564338 0.182979 -0.373911 0.139346 0.104384 0.778674 -0.210298 -0.504072 0.10443 -0.0512167 0.099147 -0.0915613 0.150507 -0.385647 0.00907025 -0.358841 0.420418 0.014754 0.044992 -0.252125 0.131307 0.364795 -0.0764906 0.0506662 -0.191035 0.077615 0.056907 -0.41155 -0.174735 -0.129369 -0.317381 0.128496
284 0.0308942 0.556662 1.2182 -0.516936 -1.18542 0.269958 -0.51358 1.44173 -1.28805 0.111173 0.608524 -0.146781 -1.2101 0.423771 0.434215 -0.111945 -0.614816 0.485397 -0.40556 0.256415 0.210135 -0.875377 0.882 -0.545125 0.276581 -0.382089 -0.817473 0.234861 -0.70324 0.474108 0.0659778 -0.175934 0.412606 0.113127 -0.297195 0.254479 0.322401 0.647964 -0.232205 -0.493065 -0.0883325 -0.320075 -0.089131 -0.14603 0.0506447 -0.567595 -0.158284 -0.421602 0.435463 0.0602579 0.0643354 -0.234322 0.263956 0.209525 -0.174878 -0.0102947 -0.376609 0.0176243 -0.093431 -0.318052 -0.256506 -0.0700605 -0.443292 0.208385
78 0.135674 0.658663 1.11323 -0.535394 -1.34012 0.215056 -0.746418 1.55184 -1.22232 0.0867951 0.548674 -0.206598 -1.27492 0.407318 0.409345 -0.176819 -0.665437 0.469084 -0.378725 0.210053 0.174206 -0.971524 0.879595 -0.595018 0.26756 -0.372125 -0.955875 0.169171 -0.718944 0.437723 0.100761 -0.0926507 0.338469 0.124294 -0.291664 0.157806 0.342604 0.743543 -0.226566 -0.458746 -0.162034 -0.289939 -0.0903795 -0.14832 -0.00245428 -0.605971 -0.0972687 -0.413536 0.469339 0.00737192 -0.00290747 -0.155922 0.259633 0.329992 -0.261024 0.0221944 -0.465882 0.12263 -0.114974 -0.281153 -0.262346 -0.0360221 -0.497775 0.172489
905 0.0451407 0.482266 1.08353 -0.283084 -1.21932 0.443669 -0.712427 1.97666 -1.31123 -0.193408 0.445452 -0.0834295 -1.4495 0.576293 0.246491 -0.0309892 -0.370284 0.432092 -0.351906 0.25224 0.238412 -0.858986 0.959166 -0.427598 0.359778 -0.182891 -0.853489 0.111523 -0.508422 0.383448 0.1657 -0.249497 0.568486 0.0879823 -0.375925 0.254504 0.139481 0.643484 -0.309381 -0.291528 0.0935279 -0.180241 0.0904277 -0.154188 0.158562 -0.320662 -0.181128 -0.403288 0.480843 0.0712272 0.11294 -0.105878 0.260056 0.180031 -0.224926 0.072614 0.0412802 -0.0314325 0.21822 -0.393101 -0.199261 -0.412498 -0.112528 0.1661
2081 0.043153 0.501671 0.730986 -0.360934 -1.06042 0.274859 -0.488245 1.25073 -1.14592 0.0994347 0.308169 0.0335761 -1.39695 0.283034 0.341719 0.0594653 -0.629007 0.323848 -0.565312 0.186513 0.462405 -0.796831 0.94007 -0.383832 0.564592 -0.331722 -0.571536 0.14292 -0.684279 0.382685 -0.0315905 -0.0739258 0.384526 0.178927 -0.287873 0.466583 0.17271 0.516939 -0.36071 -0.434076 -0.0695564 -0.306991 -0.00427251 -0.462903 0.0570809 -0.311197 -0.326969 -0.328951 0.490978 -0.093475 0.243512 -0.0668116 0.107143 0.217317 -0.070665 -0.0194758 -0.176339 -0.0514732 0.118479 -0.349982 -0.327491 -0.120282 -0.365193 0.0410486
32 0.0973949 0.881664 0.854649 -0.574423 -1.23676 0.551189 -0.460801 1.70835 -1.13445 -0.0555727 0.170876 -0.02991 -1.664 0.371979 0.0716027 -0.149721 -0.439899 0.367624 -0.527853 0.333389 0.2854 -0.80106 0.753642 -0.498727 0.66154 -0.410632 -0.517526 0.269855 -0.730249 0.417738 0.308802 0.0743925 0.576267 0.250639 -0.222213 0.445839 0.463531 0.599203 -0.324637 -0.383169 0.274639 -0.0279454 0.02043 -0.2073 -0.0111237 -0.286557 -0.214216 -0.456417 0.568774 0.16288 -0.00651295 -0.0379536 0.0690818 0.0256517 -0.199703 0.082768 -0.158736 -0.0493092 0.0822115 -0.167301 -0.00823082 -0.0832683 -0.153753 0.244016
616 0.257553 0.69682 0.813127 -0.593801 -1.59748 0.355964 -0.637394 1.60089 -1.1206 -0.109603 0.331101 -0.0884234 -1.54175 0.582472 0.234373 -0.139105 -0.396899 0.258056 -0.350374 0.263152 0.427463 -0.946816 0.836616 -0.389599 0.289987 -0.0605512 -0.6956 0.106597 -0.416871 0.504126 -0.0238926 -0.153547 0.315998 0.0342255 -0.183712 0.146869 0.284875 0.562283 -0.215147 -0.552166 0.322166 -0.0510029 0.165825 -0.362199 0.0604236 -0.393928 0.026071 -0.227655 0.248269 0.0832731 0.133411 -0.0650392 0.0882861 0.354825 -0.359527 0.231632 -0.32346 0.143151 -0.145645 -0.330983 -0.189617 -0.251998 -0.350607 0.25576
698 0.149511 0.656266 0.842415 -0.453674 -1.6898 0.298208 -0.582482 1.68732 -1.12005 0.192996 0.358403 -0.0966147 -1.29139 0.493844 0.348084 0.0792808 -0.702532 0.28018 -0.417059 0.290376 0.399272 -0.993046 0.889769 -0.606175 0.517029 -0.110046 -0.633557 0.25106 -0.659779 0.513308 -0.00608272 -0.0289097 0.197284 0.184277 -0.15007 0.260783 0.295321 0.769127 -0.0292525 -0.612707 0.213939 -0.0395748 -0.0218369 -0.32487 -0.120142 -0.221633 -0.18286 -0.390949 0.338823 -0.00215269 0.250762 -0.0962758 0.143978 0.209713 -0.181375 0.110541 -0.319743 -0.09066 -0.0173484 -0.259578 -0.0347272 -0.188034 -0.270543 0.221092
390 0.180303 0.785895 0.806467 -0.786797 -1.59422 0.257667 -0.665866 1.71309 -1.29458 0.130994 0.437518 -0.222044 -1.21774 0.732946 0.447726 -0.0466854 -0.769672 0.488958 -0.565683 0.169878 0.260278 -0.857463 1.24096 -0.350912 0.43352 -0.148293 -0.678673 0.0271661 -0.671843 0.297234 0.0696821 -0.0210738 0.325094 0.0329264 -0.147353 0.0638872 0.134738 0.495255 0.0518496 -0.673911 0.0107401 -0.179775 0.0105087 -0.246903 -0.0184703 -0.193885 -0.297453 -0.268915 0.279316 -0.118393 0.137538 -0.100864 0.151245 0.143852 -0.132874 0.216137 -0.0744971 0.0904456 -0.0968373 -0.167493 -0.0411082 -0.200327 -0.253218 -0.160767
679 0.200964 0.667505 0.648485 -0.63373 -1.33041 0.304113 -0.244101 1.25787 -1.15646 0.233919 0.556075 0.218504 -1.38562 0.564846 0.37762 -0.155977 -0.535321 0.207904 -0.412735 0.321282 0.48881 -0.799465 0.997875 -0.470063 0.556113 0.13891 -0.844825 0.125261 -0.712963 0.494219 0.317401 0.0153852 0.555884 0.290684 -0.0211991 0.213015 0.248108 0.885021 -0.0954029 -0.441694 0.0619321 -0.0738856 0.102301 -0.207802 -0.0482469 -0.256438 -0.0865614 -0.445826 0.302191 0.0926319 0.169738 0.018122 0.14196 0.224246 -0.165542 0.0915135 -0.286095 0.281299 -0.106591 -0.35176 -0.130003 -0.367882 -0.124111 0.0533641
934 0.165559 0.670304 0.704385 -0.55672 -1.32153 0.332743 -0.23875 1.29544 -1.15682 0.162898 0.600868 0.220655 -1.33372 0.552879 0.395691 -0.247734 -0.553684 0.197586 -0.384412 0.243647 0.462589 -0.799672 1.08646 -0.459374 0.387927 0.129169 -0.808109 0.0956157 -0.729563 0.547455 0.263834 0.0643197 0.522839 0.210341 -0.0736173 0.238089 0.214047 0.888573 -0.0359607 -0.457935 -0.000976132 -0.127415 0.0934428 -0.20424 -0.104822 -0.304221 -0.0762954 -0.401296 0.305619 0.0536308 0.206401 0.00505425 0.142198 0.200529 -0.144115 0.0962463 -0.300106 0.305186 -0.121921 -0.41081 -0.125933 -0.397608 -0.154542 0.052907
1005 0.166529 0.661279 0.735303 -0.492143 -1.59724 0.444716 -0.432551 1.48135 -1.22655 0.17124 0.600604 0.126639 -1.47458 0.431214 0.313779 -0.291604 -0.606471 0.0937938 -0.436269 0.153446 0.615236 -0.911199 0.94581 -0.543109 0.394401 0.0248164 -0.847274 0.0452329 -0.585194 0.66309 0.305238 0.0292423 0.485783 0.237552 -0.228274 0.160565 0.364326 0.943946 -0.15366 -0.335088 0.194638 0.0775975 0.144273 -0.24153 -0.0747433 -0.277847 -0.078196 -0.400646 0.217123 0.0110596 0.217155 -0.0241894 0.220988 0.32968 -0.211738 0.151163 -0.349335 0.272973 -0.102103 -0.350756 -0.152452 -0.270488 -0.125733 0.256002
268 0.157276 0.470809 0.645624 -0.732287 -1.39711 0.213156 -0.29575 1.23529 -1.23192 0.0862198 0.381169 -0.0331619 -1.19861 0.597878 0.217542 -0.207825 -0.474875 0.295907 -0.435737 0.268188 0.304918 -0.918606 1.05247 -0.423965 0.46782 -0.0118578 -0.741587 0.260261 -0.675521 0.510492 0.0819663 -0.135049 0.379088 0.170482 -0.0438045 0.140633 0.433141 0.800568 -0.212711 -0.672943 0.135847 -0.115586 0.0471882 -0.294996 0.0487146 -0.425116 -0.0383943 -0.36706 0.261614 0.277325 0.0353064 -0.112418 0.162543 0.288546 -0.197197 0.146575 -0.388716 0.146023 -0.0982074 -0.187188 -0.0781859 -0.369063 -0.362991 0.383279
522 0.280047 0.684612 0.853019 -0.59053 -1.43995 0.355247 -0.726439 1.70097 -1.26587 -0.232233 0.372394 -0.068181 -1.2074 0.627658 0.19962 -0.16088 -0.70231 0.275679 -0.551127 0.252458 0.228211 -0.984409 0.940039 -0.323266 0.317036 -0.388231 -0.535522 0.172688 -0.692206 0.398746 -0.0749528 0.0947677 0.26319 0.266195 -0.178407 0.27316 0.399483 0.730921 -0.263173 -0.512129 0.065355 -0.18275 -0.00088139 -0.353638 -0.0475187 -0.434401 -0.30125 -0.192388 0.422379 0.0300795 0.239838 0.03835 0.115691 0.254331 -0.188222 0.163525 -0.286954 0.0867398 -0.0802373 -0.287465 -0.0937034 -0.290353 -0.314251 0.251323
673 0.0165076 0.675339 1.0251 -0.315936 -1.29582 0.377842 -0.649273 1.5149 -1.27737 0.0734274 0.440828 0.0926829 -1.33717 0.436267 0.464125 0.06362 -0.856769 0.344789 -0.300647 0.0833982 0.469804 -0.690849 1.27035 -0.418727 0.290511 0.0464187 -0.825654 -0.310928 -0.771829 0.469987 -0.0354983 -0.291345 0.489358 0.170559 -0.0108277 0.545399 0.371161 0.68133 -0.0353246 -0.654875 -0.163857 -0.0779136 0.223684 0.000664714 -0.0234696 -0.240601 -0.0898917 -0.168903 0.36853 0.255903 0.120275 -0.155959 -0.113193 0.346706 -0.17226 0.341816 -0.326209 0.137658 0.0319374 -0.330136 -0.0721276 -0.00978699 -0.404588 0.272485
1001 0.151003 0.621346 0.874164 -0.324352 -1.23277 0.323381 -0.530047 1.4072 -1.22689 0.0291271 0.527815 0.119912 -1.36859 0.577768 0.413443 -0.0127075 -0.515401 0.309847 -0.21607 0.117254 0.353518 -0.695352 1.08461 -0.380528 0.330084 0.232866 -0.714827 -0.225222 -0.625536 0.375332 0.139286 -0.135848 0.416885 0.130597 -0.0435519 0.354346 0.337062 0.785553 0.0625344 -0.772757 -0.123125 -0.146693 0.275907 0.0258308 0.0209046 -0.344826 -0.0744521 -0.211033 0.409071 0.350626 0.160395 -0.218037 -0.170516 0.306829 -0.192694 0.360375 -0.388799 0.237247 -0.0678713 -0.295223 0.0457597 -0.139636 -0.313936 0.187516
1004 0.146799 0.583224 0.844819 -0.461288 -1.43554 0.477406 -0.636909 1.64798 -1.40791 0.226357 0.656324 0.147094 -1.21071 0.520441 0.359772 -0.0727359 -1.07425 0.215725 -0.438055 0.139708 0.394968 -0.70387 1.0278 -0.33104 0.296197 -0.333264 -0.772075 -0.13359 -0.686271 0.463648 0.167488 -0.310762 0.377117 0.46591 -0.0783622 -0.068623 0.534708 0.52703 -0.146131 -0.472816 -0.0191484 -0.177176 0.292872 -0.188562 0.154782 -0.248722 0.000842328 -0.265918 0.287654 -0.234515 -0.0514798 -0.0314161 0.0325032 0.373422 -0.189275 0.257779 -0.268027 0.13111 -0.169454 -0.420037 -0.200066 -0.166063 0.0607653 0.316267
272 0.105707 0.739161 0.88581 -0.758808 -1.54756 0.23239 -0.648484 1.51327 -1.02139 0.267743 0.444926 -0.0493395 -1.01727 0.556746 0.0858679 -0.0772184 -0.981684 0.384805 -0.559036 0.304801 0.304628 -0.820683 0.990951 -0.294511 0.343558 -0.182817 -0.740236 0.0994602 -0.62664 0.391151 0.212202 -0.211609 0.339747 0.250653 -0.111205 0.177259 0.6553 0.571008 -0.152078 -0.401385 0.214846 -0.202324 -0.0807973 -0.297592 0.213343 -0.271066 -0.173276 -0.46851 0.303974 0.0151538 -0.0650134 0.139588 0.287305 0.369067 -0.242442 0.27651 -0.390655 0.0042829 0.13316 -0.371982 -0.285273 -0.272678 -0.338694 0.314163
58 0.200272 0.737105 0.847503 -0.577883 -1.60086 0.274601 -0.500586 1.41049 -1.16553 0.0408835 0.330955 -0.157592 -1.29126 0.499865 0.276855 -0.262062 -0.579606 0.316686 -0.463559 0.187143 0.254588 -0.902596 0.940559 -0.459034 0.390346 -0.256981 -0.461467 0.152543 -0.839644 0.597493 0.0758301 -0.0180981 0.266744 0.195353 -0.206647 0.222127 0.344087 0.903638 -0.0813332 -0.579618 -0.0881641 -0.0491419 -0.100419 -0.232119 0.215535 -0.291378 -0.227597 -0.425785 0.566844 -0.0520117 0.131588 0.0527389 0.0972161 0.174733 -0.156595 0.035843 -0.169298 0.0592342 0.0665146 -0.151091 -0.0626915 -0.161815 -0.262918 0.150144
717 0.207983 0.631183 0.939213 -0.524881 -1.49741 0.303088 -0.349418 1.12496 -0.979467 -0.076369 0.279867 -0.052485 -1.23638 0.402105 0.49256 -0.125384 -0.459633 0.419487 -0.330149 0.116624 0.292734 -0.908673 1.20113 -0.447763 0.467527 0.0783369 -0.508859 0.0259582 -0.756475 0.607841 -0.0904829 0.00341934 0.238422 0.188285 -0.209383 0.356841 0.275351 0.979466 0.0126005 -0.596498 -0.0153771 0.119927 0.0335924 -0.204174 0.272785 -0.295328 -0.214221 -0.386435 0.48828 0.0468744 0.430541 0.174923 0.13185 0.0409098 0.0806758 -0.103299 -0.111244 0.0678033 0.0449609 -0.0107734 -0.00936834 -0.328252 -0.288033 0.176668
842 0.375185 0.651225 1.10693 -0.522004 -1.60818 0.277381 -0.545135 1.11851 -1.01634 -0.00191736 0.290447 -0.101874 -1.17646 0.436266 0.541668 0.0295913 -0.48553 0.436421 -0.449151 0.106931 0.252818 -0.892964 1.10845 -0.409017 0.537473 -0.000882075 -0.534932 0.0985799 -0.718008 0.469826 0.0269035 0.0234734 0.208954 0.259756 -0.220955 0.366115 0.387357 0.957299 0.0953084 -0.718008 0.0829068 0.0884685 0.0360379 -0.138559 0.24418 -0.302813 -0.257926 -0.430626 0.504819 -0.0338101 0.519689 0.177665 0.154587 0.0901686 -0.0291757 0.00370262 -0.165316 -0.0125509 0.10209 -0.0108276 -0.0579835 -0.333125 -0.319219 0.183557
608 0.329794 0.632047 0.984529 -0.470223 -1.62418 0.206407 -0.60998 1.1921 -0.980825 0.173684 0.564832 -0.0969191 -1.22345 0.588948 0.460217 0.0185835 -0.75613 0.257064 -0.552559 0.146574 0.413093 -0.743324 1.12467 -0.535677 0.610801 -0.121279 -0.594744 0.188184 -0.574358 0.415166 0.338228 0.0322916 0.432268 0.199307 -0.228796 0.24023 0.231763 0.827079 -0.1127 -0.496862 0.0897493 0.106145 0.0371974 -0.119532 0.182675 -0.345283 -0.21564 -0.360091 0.30685 -0.114701 0.343525 -0.00544648 0.234824 0.308782 -0.0633841 0.232761 -0.14096 0.0682275 0.106506 -0.216796 -0.0801632 -0.36937 -0.190187 0.186191
946 0.245727 0.642524 0.865252 -0.421217 -1.25809 0.233287 -0.56447 1.14763 -1.05503 0.192825 0.604791 -0.135375 -1.18587 0.507197 0.537744 0.201441 -0.634056 0.258114 -0.400097 0.154897 0.449304 -0.639714 1.18029 -0.330516 0.664087 -0.0297178 -0.660172 0.0502172 -0.52552 0.453635 0.171209 -0.154258 0.497185 0.187574 -0.284623 0.355063 0.430961 0.646229 0.00778217 -0.588889 0.0573654 -0.0565055 0.074098 -0.143408 0.225546 -0.379651 -0.195138 -0.447778 0.316914 0.0240924 0.387923 0.0137415 0.179025 0.309459 -0.217418 0.324456 -0.290215 0.0942757 0.024153 -0.225307 -0.149576 -0.264516 -0.270803 0.238769
67 0.279852 0.544944 0.961289 -0.553653 -1.37654 0.272756 -0.522259 1.40964 -1.2799 -0.239367 0.377404 -0.155153 -1.12397 0.788773 0.390768 -0.264148 -0.434471 0.389885 -0.484124 0.199754 -0.0101709 -1.00355 0.85856 -0.239482 0.283348 0.0255042 -0.462249 0.0880005 -0.598324 0.502813 -0.243836 -0.0601202 0.300856 -0.0506661 -0.184718 0.358057 0.250988 0.830284 -0.173974 -0.789854 -0.0556787 -0.269346 -0.0410283 -0.432244 0.139561 -0.51739 -0.146199 -0.33065 0.527975 0.0655921 0.218187 0.108244 -0.0602219 0.200556 -0.109372 0.0350955 -0.364227 0.0148044 -0.138545 -0.0413413 -0.0369012 -0.321659 -0.352206 0.317672
956 0.25151 0.633302 0.901654 -0.515985 -1.26237 0.317636 -0.608687 1.35735 -1.38398 -0.144728 0.441126 -0.0498566 -1.2687 0.800913 0.300944 -0.265684 -0.376912 0.32614 -0.622413 0.304581 0.0730978 -1.00026 0.640833 -0.206143 0.220597 -0.123853 -0.355904 0.0574382 -0.626502 0.395781 -0.122931 -0.0184798 0.412392 -0.0299583 -0.0473012 0.288594 0.361833 0.745099 -0.242431 -0.796934 -0.0246256 -0.347226 -0.0256872 -0.414505 -0.0424919 -0.461528 -0.0625047 -0.372236 0.47535 0.161652 0.219985 0.0946828 -0.095697 0.218808 -0.231803 0.128721 -0.409134 -0.0139654 -0.172836 -0.0356659 -0.113409 -0.178644 -0.241015 0.274542
714 0.296692 0.615089 0.95104 -0.552201 -1.42397 0.359053 -0.669736 1.4356 -1.32083 -0.196817 0.447577 -0.131858 -1.15149 0.829181 0.26319 -0.244845 -0.476286 0.325057 -0.544433 0.297733 0.151 -0.975741 0.7226 -0.290058 0.254919 -0.102701 -0.42897 0.136968 -0.520067 0.413991 -0.108805 0.00698455 0.3939 -0.0377417 -0.217974 0.354436 0.283067 0.753213 -0.259736 -0.819109 -0.0508358 -0.411455 0.0525259 -0.47241 0.0789951 -0.57243 -0.0104589 -0.300214 0.465798 0.0420684 0.245511 0.0587549 -0.0147326 0.371117 -0.230913 0.0732578 -0.454885 0.0707845 -0.184251 -0.0657985 -0.174088 -0.258215 -0.392075 0.211302
442 0.281436 0.690764 0.955252 -0.552745 -1.36028 0.289716 -0.649436 1.36784 -1.42468 -0.282629 0.485232 -0.106319 -1.2164 0.911084 0.202049 -0.310259 -0.493645 0.367135 -0.629352 0.262673 0.0609739 -0.968695 0.75082 -0.279824 0.247963 -0.14891 -0.520149 0.13844 -0.521191 0.365419 -0.0589494 -0.103274 0.425478 -0.104773 -0.13661 0.299595 0.300659 0.711012 -0.275296 -0.823347 -0.0264501 -0.381696 0.0340436 -0.450031 0.0225116 -0.519393 -0.0211541 -0.327558 0.469747 0.0765894 0.0830893 0.062609 -0.0456105 0.454181 -0.174146 0.220256 -0.531261 0.0454582 -0.150526 -0.141354 -0.190149 -0.198488 -0.414761 0.248617
184 0.329608 0.644419 0.82657 -0.486019 -1.43173 0.391991 -0.650962 1.62385 -1.38329 -0.29792 0.419679 -0.0597419 -1.26321 0.768688 0.202351 -0.179361 -0.684751 0.252141 -0.540032 0.202262 0.197396 -1.09005 0.865404 -0.324842 0.318758 -0.336286 -0.50834 0.142922 -0.635628 0.379673 0.0384904 0.0496883 0.263987 0.17639 -0.22259 0.29229 0.478179 0.723672 -0.240469 -0.488135 -0.0204525 -0.172927 -0.00747607 -0.348264 -0.0163593 -0.408253 -0.271101 -0.247963 0.491897 -0.0944262 0.145138 0.0258121 0.0335876 0.212292 -0.187959 0.125253 -0.286819 0.113081 -0.00312678 -0.264026 -0.0834341 -0.295262 -0.21778 0.158174
471 -0.0266297 0.532747 1.04324 -0.417218 -1.45275 0.412679 -0.577853 1.8188 -1.44238 0.162398 0.565414 -0.132647 -1.0117 0.421385 0.496225 -0.00750484 -0.454596 0.214636 -0.391967 0.23609 0.191395 -1.11347 1.09275 -0.286623 0.321206 -0.181604 -0.658082 0.0151863 -0.550543 0.521199 0.19729 -0.379421 0.580226 -0.0308191 -0.174338 0.10185 0.412472 0.717892 -0.174345 -0.344564 -0.221468 -0.167106 0.0711206 -0.135679 -0.0917709 -0.149872 -0.0703711 -0.448268 0.615202 -0.118611 0.120491 0.109632 0.0710068 0.184985 -0.277505 0.072564 -0.207847 0.146632 0.065954 -0.289761 -0.237454 -0.115815 -0.0351191 -0.023337
2720 -0.0533942 0.568177 0.8746 -0.427911 -1.05527 0.0650155 -0.60709 1.32058 -1.24661 0.0245148 0.467903 0.00669115 -1.18078 0.274242 0.306633 -0.128156 -0.688074 0.349984 -0.48986 0.129228 0.200042 -0.842115 0.851092 -0.365602 0.312495 -0.0833058 -0.648315 -0.159304 -0.674919 0.364271 0.0550538 -0.386857 0.145922 0.0301846 -0.109293 0.424033 0.629616 0.563586 -0.163267 -0.479332 -0.0965976 -0.121522 0.00121091 -0.051925 -0.0636653 -0.137998 -0.301789 -0.268545 0.540328 0.141737 -0.0834804 0.027757 -0.0241888 0.38701 -0.139894 0.342261 -0.17375 0.109072 0.23274 -0.135403 -0.0658734 0.00734649 -0.318085 0.126399
297 -0.077881 0.878124 1.09461 -0.481787 -1.24214 0.221944 -0.552242 1.56758 -1.43486 0.0415149 0.477641 0.0751281 -1.19895 0.486175 0.40207 0.0429116 -0.865685 0.385225 -0.424981 0.281822 0.268562 -0.872606 1.20281 -0.36754 0.273913 0.117176 -0.808361 -0.258966 -0.74727 0.262406 0.122205 -0.455258 0.340495 0.0523209 0.0294798 0.374708 0.551611 0.558747 -0.152299 -0.354252 -0.151385 -0.155171 0.141986 0.0307013 -0.0749053 -0.0632038 -0.104044 -0.348609 0.673211 0.253815 -0.155169 -0.0297415 -0.0738553 0.416116 -0.100029 0.418022 -0.223467 0.148868 0.139633 -0.298084 -0.0553695 -0.0599065 -0.280192 0.0932239
903 -0.0310434 0.52061 0.916612 -0.227296 -0.958943 0.348169 -0.44399 1.62144 -1.29996 -0.2655 0.421662 -0.197983 -1.24765 0.467377 0.0696605 -0.239365 -0.756639 0.328432 -0.699379 0.193835 0.439794 -0.936417 0.920637 -0.613293 0.408731 -0.35335 -0.86688 0.122728 -0.538918 0.38308 0.110735 -0.250668 0.417278 0.0244509 -0.357318 0.386633 0.0323471 0.591234 -0.389655 -0.323741 0.0636585 -0.0708188 0.0736899 -0.328112 0.0931122 -0.243994 -0.144706 -0.381994 0.331641 0.0567123 0.030614 -0.137655 0.0590339 0.549235 0.114054 0.213358 -0.0115313 0.00946365 0.117246 -0.497396 -0.212891 -0.187368 -0.407831 0.274537
263 -0.00876833 0.837466 0.991496 -0.365724 -1.06835 0.27231 -0.387775 1.77671 -1.34583 -0.185551 0.531568 -0.0451278 -1.22032 0.517106 0.144581 -0.142808 -1.08467 0.235904 -0.623465 0.158855 0.369928 -0.85047 0.986344 -0.611228 0.50648 -0.135131 -0.898808 -0.0102419 -0.456528 0.278178 0.302599 -0.288306 0.414801 0.13119 -0.169667 0.449871 0.389871 0.648806 -0.344006 -0.244656 -0.0361057 -0.069038 0.0833297 -0.177633 0.00558735 -0.117854 0.0296258 -0.462673 0.463379 0.0408413 -0.173852 0.00948062 0.0415549 0.626912 0.297213 0.246899 -0.344642 0.141061 0.1027 -0.417638 -0.106372 -0.163419 -0.315248 0.392758
1634 0.112809 0.871319 1.03657 -0.528555 -1.1387 0.0849912 -0.248265 1.90987 -1.64703 -0.273775 0.661724 -0.0614908 -1.35459 0.845212 0.0503625 -0.294269 -1.19299 0.365229 -0.644655 0.121443 0.143494 -0.959948 1.05315 -0.51806 0.470509 -0.086581 -0.95893 0.0268842 -0.631663 0.486068 0.0972244 -0.308659 0.388804 0.0562726 -0.3247 0.432525 0.420503 0.948685 -0.525048 -0.175916 -0.0598908 -0.0467502 -0.0644836 -0.554662 0.341312 -0.322497 -0.44988 -0.507778 0.746676 -0.0895549 -0.350384 0.255969 0.165674 0.850322 0.0464332 0.246289 -0.539494 0.247962 0.317593 -0.534878 -0.213747 -0.580069 -0.429838 0.396494
2745 -0.0255019 0.967544 0.984101 -0.494758 -1.2268 0.0536329 -0.566818 1.77479 -1.22285 0.162604 0.581017 0.150774 -1.50338 0.239448 0.230823 0.0109867 -0.792461 0.287119 -0.598147 0.182453 0.36167 -0.809816 0.869558 -0.498242 0.433046 -0.13779 -0.920044 -0.236188 -0.630742 0.231196 0.304313 -0.19786 0.32657 0.46013 -0.257881 0.182177 0.448668 0.554349 -0.276016 -0.288771 -0.0462113 -0.330538 0.162177 -0.0333854 -0.318524 0.0874078 -0.203323 -0.389012 0.647219 0.044096 -0.0140863 0.0033578 0.088249 0.532701 -0.0291332 0.140691 -0.437068 0.214728 0.0462839 -0.198654 -0.035319 0.0356548 -0.11239 -0.0717823
88 0.128448 0.58409 1.18044 -0.378536 -1.26298 0.335431 -0.953769 1.16266 -1.0386 -0.0251024 0.541984 0.0325375 -1.63697 0.542343 0.0831779 -0.174631 -0.621292 0.599057 -0.721744 0.261119 0.471857 -0.831751 1.06562 -0.554047 0.344166 -0.241363 -0.892543 -0.0559125 -0.416278 0.0139583 0.255484 0.136607 0.677609 0.0704033 -0.186954 0.400271 -0.108466 0.702198 -0.385628 -0.666848 0.0118205 0.103168 -0.0166507 -0.267316 0.129405 -0.114514 -0.160384 -0.373973 0.0784249 -0.0935535 0.168554 0.14091 0.0853723 0.395786 0.0785505 0.0478741 -0.146504 0.109205 0.0381136 -0.260487 -0.237985 -0.0511071 -0.2388 -0.033242
3028 0.312598 0.63859 1.23212 -0.626201 -1.55123 0.0736878 -0.739014 1.21151 -1.03554 0.00718414 0.275531 -0.0657131 -1.404 0.592367 0.158493 -0.158555 -0.565324 0.583227 -0.636656 0.280573 0.282977 -0.860186 1.25603 -0.636414 0.278372 -0.26794 -0.904434 0.0594481 -0.677841 0.132206 0.0272046 0.00882586 0.455382 0.161117 0.0380818 0.31853 0.106842 0.814207 -0.311475 -0.587952 -0.111025 0.209834 -0.0522286 -0.30311 0.158857 -0.284248 -0.0594611 -0.373024 0.284893 0.0911775 0.0425518 0.27327 0.337666 0.347274 -0.117792 0.0446838 -0.40263 0.164694 0.0856069 -0.0598727 -0.322129 -0.140885 -0.159314 -0.150817
1006 0.213744 0.568773 1.12769 -0.525021 -1.37771 0.152895 -0.803081 1.11239 -1.09373 0.0707059 0.406486 0.108718 -1.52484 0.44973 0.221884 -0.0820029 -0.440768 0.608647 -0.779656 0.334311 0.435122 -0.868071 1.08191 -0.528559 0.334281 -0.291538 -0.956839 -0.0351553 -0.572763 0.122702 0.0889771 0.0719902 0.600383 0.147205 -0.219382 0.418087 0.138456 0.791942 -0.308899 -0.595471 -0.143999 0.0869496 -0.0762004 -0.370935 0.214644 -0.182738 -0.173147 -0.391267 0.250868 -0.0937892 0.134795 0.364515 0.258772 0.330724 -0.0815746 -0.152216 -0.445472 0.216085 0.182402 -0.0232001 -0.437702 -0.118097 -0.204551 -0.268966
609 0.396903 0.633264 1.14285 -0.549393 -1.41153 -0.00733323 -0.624806 1.1682 -0.862304 -0.0926762 0.320147 -0.0998995 -1.24097 0.666728 0.234961 -0.0857905 -0.52615 0.479934 -0.653156 0.321512 0.186169 -0.844363 1.13868 -0.505711 0.614113 -0.134776 -0.939329 0.227421 -0.67682 0.141221 0.0716293 -0.048371 0.363907 0.119837 -0.0175226 0.210385 0.384083 0.808238 -0.441895 -0.512025 0.00703238 0.160171 -0.0993141 -0.301444 0.156668 -0.447861 -0.109502 -0.520143 0.427505 0.155498 -0.0057109 0.197275 0.30969 0.410841 -0.14002 0.234381 -0.443575 0.122871 0.0902015 -0.0254648 -0.229147 -0.0918387 -0.094548 -0.00930656
685 0.11702 0.765665 0.737148 -0.466915 -1.23962 0.508894 -0.479303 1.74372 -1.28422 0.0349432 0.288756 0.0179722 -1.62464 0.359488 0.0634097 -0.299414 -0.486398 0.296927 -0.587065 0.348934 0.399698 -0.750134 0.765595 -0.428554 0.547287 -0.546386 -0.616011 0.184374 -0.743144 0.441534 0.283136 0.015754 0.600231 0.259376 -0.270664 0.325935 0.354422 0.512709 -0.281867 -0.515104 0.272217 -0.0257814 -0.0166029 -0.342984 0.0313809 -0.206237 -0.276656 -0.447892 0.378794 0.219567 0.0832395 -0.055916 0.140633 0.0672263 -0.164059 0.070104 -0.111684 -0.0518847 0.102845 -0.209562 -0.09369 -0.0171871 -0.0580152 0.255688
3253 0.140638 0.409508 0.621722 -0.294623 -0.792272 0.208058 -0.26945 0.909142 -0.777087 -0.233862 0.134682 -0.0376797 -0.771803 0.441305 0.139566 -0.15379 -0.277419 0.190392 -0.364072 0.171449 0.0936235 -0.606474 0.424839 -0.221045 0.255275 -0.184789 -0.259695 0.173943 -0.492851 0.318456 -0.0653311 -0.0127664 0.228357 0.0647223 -0.139982 0.224387 0.281295 0.526474 -0.234635 -0.49067 0.0447227 -0.206705 0.0314326 -0.345436 0.07572 -0.230607 -0.0685643 -0.283271 0.304217 0.0410244 0.176757 0.0819122 0.0119892 0.176812 -0.0731349 0.0262374 -0.258181 -0.0155818 -0.0452725 -0.0671818 -0.117018 -0.19908 -0.195968 0.218907
108 -0.0719791 1.0977 0.778161 -0.632972 -1.46949 0.325614 -0.395368 1.27959 -1.40415 -0.0639236 0.718723 0.00393979 -1.50698 0.40419 0.751739 0.275764 -1.0136 0.762861 -0.853509 0.126155 0.480778 -1.42621 1.4113 -0.330964 0.538887 -0.111911 -0.462306 -0.23163 -0.973543 0.475493 0.172366 -0.351311 0.62073 -0.367576 -0.28642 0.413855 0.302324 0.882435 -0.219546 -0.49787 0.134909 -0.247906 -0.125856 -0.386009 -0.0638636 -0.686633 -0.679156 -0.474651 0.395883 0.337614 0.0200542 0.243356 0.399812 0.200475 -0.0545187 0.279665 -0.570618 -0.353267 0.113084 -0.367931 -0.332861 -0.328141 -0.294718 0.469123
514 0.0636594 1.06543 0.995531 -0.71783 -1.67935 0.298276 -0.335451 1.24524 -1.55994 0.0781785 0.647993 0.0476497 -1.6177 0.578021 0.662008 0.22558 -1.05104 0.714186 -0.806882 0.186195 0.696887 -1.64954 1.37889 -0.346386 0.530308 -0.248101 -0.527918 -0.27226 -1.19618 0.388804 0.235211 -0.171676 0.886131 -0.520924 -0.34689 0.222622 0.377837 0.974518 -0.289974 -0.44968 0.0647373 -0.299937 -0.0513059 -0.288519 0.119409 -0.795784 -0.523972 -0.451917 0.442377 0.433941 0.0772511 0.503585 0.345009 0.24212 -0.000832046 0.246028 -0.540113 -0.283982 0.217644 -0.497538 -0.432643 -0.318698 -0.467445 0.491554
308 0.0778886 0.890557 0.994252 -0.657176 -1.6306 0.290125 -0.36942 1.19495 -1.56524 0.105757 0.617271 0.0973281 -1.63611 0.617072 0.559507 0.159481 -0.97709 0.621756 -0.698249 0.143154 0.661732 -1.50499 1.29619 -0.34566 0.599088 -0.254057 -0.592965 -0.25563 -1.20933 0.307497 0.229104 -0.0579257 0.908132 -0.524272 -0.351317 0.0591567 0.432414 0.925167 -0.282705 -0.469058 0.0174693 -0.295078 0.0230058 -0.268699 0.197791 -0.777242 -0.473173 -0.472813 0.465145 0.522899 0.147943 0.552553 0.341927 0.17779 0.00324112 0.216732 -0.564051 -0.241319 0.196271 -0.480853 -0.38415 -0.29918 -0.493667 0.542042
270 0.0908986 0.915117 1.04387 -0.670181 -1.63167 0.304522 -0.364291 1.20523 -1.55415 0.112363 0.624821 0.0848321 -1.6443 0.625132 0.521015 0.175566 -0.958897 0.607798 -0.686636 0.172647 0.67969 -1.48604 1.28042 -0.357604 0.594768 -0.282889 -0.605785 -0.218254 -1.19407 0.303526 0.26223 -0.0420209 0.905545 -0.493413 -0.365166 0.0898579 0.432872 0.933137 -0.30226 -0.463326 0.00226081 -0.34157 0.0270021 -0.242774 0.203122 -0.802479 -0.463724 -0.470032 0.476166 0.522629 0.134615 0.566535 0.347285 0.199869 0.0111252 0.211185 -0.536793 -0.255836 0.199926 -0.469631 -0.373086 -0.296727 -0.507732 0.559872
478 0.116961 0.87685 1.05396 -0.63664 -1.61859 0.309508 -0.363233 1.17436 -1.56485 0.0817607 0.626518 0.091787 -1.6343 0.638669 0.520523 0.146769 -0.922399 0.610907 -0.677552 0.176889 0.683507 -1.48511 1.24545 -0.344298 0.564323 -0.255293 -0.593991 -0.266527 -1.20454 0.277121 0.257371 0.00733311 0.943517 -0.504269 -0.356601 0.0614754 0.400752 0.921478 -0.305616 -0.466238 0.00119028 -0.292672 0.0358109 -0.268886 0.229824 -0.775088 -0.449372 -0.434722 0.492114 0.489594 0.17146 0.566144 0.338328 0.182782 0.00702011 0.204746 -0.54116 -0.224508 0.183486 -0.49271 -0.380333 -0.269073 -0.50675 0.543801
341 0.0874512 0.908694 1.04555 -0.660794 -1.63899 0.307782 -0.392992 1.21094 -1.54765 0.104045 0.629301 0.0882258 -1.65344 0.620487 0.543749 0.122927 -0.962429 0.603188 -0.671257 0.165379 0.689837 -1.50971 1.26821 -0.349305 0.594786 -0.271299 -0.597174 -0.232029 -1.23688 0.300456 0.217445 -0.0439598 0.910703 -0.512767 -0.351705 0.0636454 0.444185 0.918739 -0.307098 -0.449666 0.00331944 -0.332947 0.0349828 -0.24752 0.202214 -0.765823 -0.438334 -0.437773 0.462144 0.516838 0.151707 0.553378 0.318772 0.197131 0.000862189 0.219095 -0.539109 -0.245089 0.180056 -0.519133 -0.400039 -0.289267 -0.513624 0.537783
44 0.0554868 0.923728 1.05123 -0.658546 -1.65611 0.308533 -0.392038 1.19464 -1.57426 0.0583581 0.630742 0.106951 -1.69991 0.578321 0.538029 0.167092 -0.946257 0.630258 -0.71126 0.160348 0.676222 -1.52494 1.27099 -0.336271 0.618933 -0.237027 -0.612381 -0.267604 -1.19786 0.291117 0.265901 -0.0239279 0.914866 -0.49713 -0.394009 0.0724432 0.440092 0.917404 -0.284913 -0.44532 0.0134367 -0.310168 0.0528372 -0.270836 0.16226 -0.780286 -0.456967 -0.433208 0.46543 0.543036 0.191675 0.589758 0.326093 0.194009 0.00362287 0.225428 -0.590504 -0.280482 0.199343 -0.490734 -0.373785 -0.302524 -0.52593 0.563798
8 0.0843312 0.882868 1.03865 -0.636721 -1.62848 0.315343 -0.382054 1.17333 -1.55018 0.101925 0.625911 0.0809246 -1.6267 0.61123 0.548967 0.148417 -0.959114 0.664921 -0.671824 0.158421 0.718695 -1.54793 1.26713 -0.332573 0.656238 -0.246159 -0.592998 -0.247298 -1.22162 0.31567 0.230516 -0.0456582 0.927839 -0.513979 -0.359243 0.0513711 0.426321 0.914553 -0.298843 -0.467165 -0.0180478 -0.273008 0.0537132 -0.252865 0.175847 -0.762249 -0.463129 -0.469167 0.448038 0.483978 0.150583 0.531713 0.307886 0.190983 -0.0256776 0.197713 -0.535033 -0.245777 0.156276 -0.463764 -0.349648 -0.300299 -0.480813 0.535769
14 0.0919203 0.904931 1.06267 -0.646758 -1.64481 0.313388 -0.388282 1.19797 -1.58876 0.067154 0.634745 0.100438 -1.65084 0.609224 0.545987 0.155913 -0.955489 0.608438 -0.667878 0.172357 0.668505 -1.49258 1.28191 -0.345019 0.601718 -0.250304 -0.604496 -0.253156 -1.228 0.286518 0.237649 -0.0204208 0.923955 -0.509719 -0.368356 0.0622215 0.446214 0.902475 -0.278724 -0.467556 -0.029582 -0.331699 0.0640976 -0.272027 0.199228 -0.780485 -0.447264 -0.470384 0.479354 0.555296 0.166308 0.59705 0.343513 0.178292 0.00890753 0.209205 -0.585803 -0.264192 0.17768 -0.510089 -0.36927 -0.268926 -0.494818 0.57442
925 0.08736 0.886054 1.05597 -0.630888 -1.63539 0.283795 -0.400562 1.1895 -1.56227 0.107421 0.620509 0.108503 -1.62415 0.613687 0.550568 0.142495 -0.937892 0.633685 -0.663884 0.182913 0.699172 -1.49564 1.28736 -0.367359 0.615927 -0.24269 -0.594713 -0.250291 -1.2087 0.288669 0.242159 -0.0319878 0.936221 -0.502045 -0.352244 0.0545944 0.426206 0.904362 -0.296547 -0.460956 -0.00799497 -0.317354 0.0719177 -0.248982 0.200297 -0.767217 -0.441132 -0.453361 0.474334 0.496651 0.179104 0.572497 0.340381 0.192576 -0.0203962 0.175722 -0.566331 -0.252118 0.181842 -0.48723 -0.373951 -0.28643 -0.502047 0.530464
867 0.180999 0.867567 1.09987 -0.695429 -1.67263 0.239876 -0.333537 1.28305 -1.74849 0.266529 0.585969 0.0566524 -1.68614 0.713318 0.493632 0.198768 -1.04397 0.555527 -0.652033 0.18888 0.822145 -1.61721 1.36997 -0.378827 0.632935 -0.36208 -0.647699 -0.234901 -1.32403 0.322201 0.218756 0.00544302 1.02229 -0.580136 -0.38733 0.0313133 0.378927 1.00785 -0.370069 -0.506828 -0.0468545 -0.304546 -0.0156651 -0.289646 0.284079 -0.772353 -0.394404 -0.472993 0.433737 0.489544 0.130304 0.499049 0.255415 0.233228 -0.0399668 0.240447 -0.498606 -0.165 0.222717 -0.454448 -0.342522 -0.251808 -0.566279 0.590415
1986 0.309451 0.727378 0.949311 -0.651283 -1.49579 0.197727 -0.256624 1.13136 -1.67157 0.356132 0.493786 0.0288056 -1.51487 0.709871 0.386417 0.193766 -0.939253 0.422713 -0.554593 0.19128 0.806289 -1.49621 1.23842 -0.339978 0.662809 -0.384903 -0.590685 -0.179439 -1.2276 0.268128 0.14373 0.0515994 0.899409 -0.544667 -0.316661 -0.00186598 0.256414 0.940835 -0.382695 -0.478682 -0.099819 -0.289721 -0.00667493 -0.269418 0.241737 -0.674633 -0.236134 -0.424913 0.269146 0.334051 0.0791572 0.312707 0.152525 0.190291 -0.062061 0.201568 -0.36963 -0.0449161 0.195863 -0.396293 -0.277338 -0.204032 -0.514033 0.517809
2136 0.316111 0.760529 0.982528 -0.644041 -1.55751 0.208642 -0.222713 1.16663 -1.72544 0.371777 0.482932 0.0160998 -1.56073 0.730743 0.411152 0.187571 -0.949854 0.419972 -0.573963 0.206854 0.82448 -1.55899 1.2823 -0.339807 0.65003 -0.424514 -0.612062 -0.173283 -1.27763 0.273119 0.147127 0.0947262 0.936486 -0.564428 -0.317774 -0.0294994 0.256494 0.982261 -0.407182 -0.495003 -0.122473 -0.316669 -0.0294487 -0.273156 0.255727 -0.678501 -0.235275 -0.43701 0.282258 0.350159 0.0885129 0.339531 0.146752 0.200875 -0.0543421 0.215704 -0.366123 -0.0678268 0.185773 -0.428324 -0.298704 -0.199402 -0.519601 0.537182
1720 0.301772 0.727746 0.992252 -0.639192 -1.54775 0.20399 -0.252057 1.13698 -1.67593 0.359771 0.496402 0.0405392 -1.52905 0.710727 0.385887 0.182335 -0.934297 0.401256 -0.562601 0.218549 0.823594 -1.51591 1.22278 -0.349797 0.64594 -0.380945 -0.575017 -0.201552 -1.21016 0.249681 0.184006 0.0850831 0.931506 -0.540527 -0.334153 -0.0412897 0.261163 0.962674 -0.410681 -0.487949 -0.0995418 -0.27425 -0.0221963 -0.257771 0.242721 -0.673182 -0.229003 -0.430627 0.291419 0.344639 0.0934938 0.340059 0.134856 0.218016 -0.067163 0.215721 -0.343853 -0.06915 0.196069 -0.38714 -0.271336 -0.197789 -0.512489 0.532246
1135 0.29173 0.75876 0.973275 -0.641185 -1.52798 0.21163 -0.231453 1.10947 -1.68529 0.337387 0.506897 0.0458997 -1.52559 0.722526 0.395218 0.193237 -0.913213 0.417042 -0.555023 0.199761 0.799923 -1.51686 1.20955 -0.322545 0.658007 -0.379672 -0.588885 -0.20612 -1.22553 0.249902 0.153002 0.086669 0.903708 -0.542021 -0.333684 -0.0533035 0.262262 0.953557 -0.389061 -0.482247 -0.113756 -0.268906 -0.00265537 -0.254707 0.233446 -0.680484 -0.230706 -0.421131 0.265676 0.346097 0.0757171 0.341239 0.146832 0.184732 -0.0531937 0.207503 -0.354852 -0.068555 0.187573 -0.40706 -0.284136 -0.205757 -0.502474 0.533286
431 0.0583469 0.907945 1.0685 -0.641745 -1.64859 0.297627 -0.418328 1.18902 -1.52916 0.0617714 0.607689 0.0810571 -1.63795 0.583451 0.542953 0.158941 -0.937342 0.633291 -0.68625 0.161398 0.667296 -1.49147 1.27232 -0.355402 0.603864 -0.227351 -0.589127 -0.252407 -1.1901 0.316368 0.246687 -0.0519643 0.911306 -0.510589 -0.373885 0.06324 0.446417 0.905861 -0.271377 -0.464745 0.0035139 -0.309207 0.0373828 -0.244413 0.178417 -0.781132 -0.457843 -0.463161 0.471382 0.546957 0.189158 0.601735 0.325779 0.17461 -0.00448087 0.205316 -0.573161 -0.274833 0.164156 -0.473489 -0.372152 -0.278078 -0.506924 0.527801
677 0.21247 0.860133 1.10374 -0.690535 -1.72907 0.278013 -0.327947 1.27639 -1.81874 0.269106 0.595326 0.0746488 -1.74229 0.72626 0.477284 0.156061 -1.02175 0.591765 -0.665236 0.197226 0.837156 -1.65651 1.35843 -0.375557 0.651873 -0.373592 -0.664626 -0.198171 -1.34807 0.31559 0.197491 0.0623251 1.05031 -0.600328 -0.399427 0.00716077 0.395258 1.04791 -0.395956 -0.492164 -0.0629473 -0.324338 0.0384165 -0.300764 0.283562 -0.768504 -0.374281 -0.47383 0.452246 0.452801 0.130221 0.475688 0.251227 0.224903 -0.0433626 0.232826 -0.478536 -0.131417 0.199999 -0.430146 -0.303865 -0.272635 -0.555244 0.630182
1630 0.316317 0.748827 0.942057 -0.651504 -1.53979 0.212302 -0.24932 1.1697 -1.72753 0.385123 0.508371 0.0301725 -1.56164 0.728303 0.40501 0.2169 -0.962954 0.411232 -0.576606 0.197087 0.81237 -1.56549 1.28604 -0.374234 0.677041 -0.430757 -0.582512 -0.200262 -1.28705 0.280739 0.147769 0.0752725 0.9091 -0.56065 -0.331898 0.00273614 0.256619 0.975003 -0.427609 -0.491725 -0.124931 -0.293127 -0.0381021 -0.27621 0.235469 -0.67709 -0.216696 -0.421044 0.262351 0.354797 0.0741781 0.305922 0.149265 0.206888 -0.0652308 0.227397 -0.377769 -0.0697414 0.190133 -0.391789 -0.290081 -0.203903 -0.513301 0.593017
678 0.29892 0.729957 0.948667 -0.639811 -1.5037 0.19726 -0.239384 1.13939 -1.71467 0.381445 0.520463 0.065678 -1.5581 0.715255 0.403607 0.23398 -0.961251 0.419222 -0.582595 0.187332 0.825063 -1.54696 1.31164 -0.361436 0.679839 -0.406359 -0.58929 -0.199424 -1.27802 0.255901 0.179363 0.10595 0.939372 -0.545983 -0.32577 -0.0156842 0.268172 0.984307 -0.413282 -0.494045 -0.094653 -0.292834 -0.00898139 -0.271032 0.249596 -0.697742 -0.262185 -0.424161 0.297639 0.350361 0.0804109 0.304588 0.151916 0.21926 -0.074313 0.206135 -0.360789 -0.0401683 0.188724 -0.385596 -0.256785 -0.20389 -0.511867 0.533367
544 0.225684 0.613753 0.78932 -0.546649 -1.25021 0.183553 -0.210013 0.967805 -1.34176 0.269379 0.427708 0.0401629 -1.31007 0.55553 0.348403 0.186158 -0.802367 0.369437 -0.506995 0.137545 0.630282 -1.23068 1.06986 -0.307271 0.565556 -0.305107 -0.458688 -0.127504 -0.993391 0.219758 0.140174 0.0537844 0.744855 -0.412908 -0.268839 0.0357102 0.26669 0.808829 -0.337238 -0.39891 -0.0543222 -0.286326 -0.0227454 -0.23187 0.165195 -0.574281 -0.246493 -0.361145 0.25896 0.286847 0.0292959 0.234758 0.166462 0.158684 -0.000377316 0.146488 -0.290272 -0.0682213 0.162935 -0.36798 -0.231835 -0.160568 -0.390258 0.37624
2499 0.334931 0.674431 0.652544 -0.472248 -1.82912 0.698419 -1.12058 1.93102 -1.06746 -0.708972 0.272892 0.0826899 -1.11317 1.02379 0.803637 -0.0821502 -0.953963 0.475504 -0.105862 0.122827 0.444384 -0.922567 1.11418 -0.695226 0.609676 -0.970573 -1.29274 -0.359145 -0.639554 1.01192 -0.117709 -0.517078 0.4921 -0.297322 -0.0113714 0.215423 0.106443 0.916907 -1.01561 -0.186746 -0.44028 -0.14705 0.255038 -0.349226 0.237018 -0.757105 0.11622 -0.537268 0.054446 -0.835724 0.232572 0.191277 -0.0352859 0.0846665 -0.72417 0.962199 -0.76453 -0.358417 0.198356 -0.347184 -0.828809 -0.809059 -0.0830785 0.413207
2546 0.309729 0.668715 0.628786 -0.481188 -1.86667 0.733075 -1.11885 1.88294 -1.05618 -0.719688 0.271288 0.037755 -1.14157 1.01983 0.820356 -0.093021 -0.916007 0.49962 -0.0971726 0.113942 0.420335 -0.943417 1.15073 -0.713583 0.637914 -0.953707 -1.29352 -0.346406 -0.5746 1.02607 -0.108272 -0.493952 0.504082 -0.328093 0.0160568 0.195093 0.115869 0.928584 -1.05516 -0.155811 -0.45824 -0.1429 0.220458 -0.372235 0.220413 -0.745763 0.0758774 -0.564907 0.0275763 -0.858106 0.236794 0.207168 -0.0669493 0.0731146 -0.741184 1.00375 -0.789842 -0.368303 0.201357 -0.406117 -0.866208 -0.859062 -0.0857164 0.437219
1702 0.111575 0.452502 0.737611 -0.726992 -0.983242 0.301801 -0.295007 0.91237 -0.885228 0.103517 0.367025 -0.185061 -1.15619 0.435822 0.219062 -0.0889291 -0.573164 0.327779 -0.207498 0.0817272 0.26375 -0.954743 0.753592 -0.366959 0.39849 -0.108987 -0.759628 0.0541878 -0.485507 0.501939 0.22456 0.0147108 0.631676 0.215545 -0.32508 0.227986 0.388271 0.608068 -0.0973212 -0.464942 -0.036892 -0.303582 0.0357708 -0.191545 0.04674 -0.318313 -0.121509 -0.506232 0.575044 -0.196449 0.300346 -0.00123184 0.0976962 0.306945 -0.372621 0.0669643 -0.363713 0.215416 0.0367613 -0.357814 -0.316449 -0.220058 -0.634263 0.178056
2049 0.228168 0.685326 1.32389 -1.25443 -1.68731 0.604819 -0.382651 1.34336 -1.35227 0.191898 0.441992 -0.438482 -1.84252 0.49555 0.344148 -0.172738 -0.956027 0.563391 -0.174935 0.0777871 0.500934 -1.43416 1.0689 -0.59743 0.472543 -0.411207 -1.13689 -0.0132977 -0.793792 0.620849 0.376615 0.0812729 0.928434 0.361878 -0.485965 0.338783 0.544521 1.03373 -0.166489 -0.668443 -0.0587776 -0.340723 -0.104554 -0.239976 -0.0673458 -0.544676 -0.265246 -0.758554 0.85001 -0.187283 0.229094 -0.0145675 0.086756 0.391 -0.458006 0.232071 -0.39557 0.0404528 0.0540901 -0.424228 -0.336129 -0.184136 -0.714872 0.460168
2077 0.13243 0.610226 0.983789 -0.949064 -1.51442 0.483562 -0.369062 1.14998 -1.10209 0.0350241 0.239086 -0.110535 -1.47605 0.519301 0.314768 0.075215 -0.760845 0.357527 -0.297779 0.0557252 0.422211 -1.22782 0.947588 -0.540758 0.489133 -0.189347 -0.801258 0.116814 -0.652011 0.521044 0.282705 0.0403129 0.761838 0.327192 -0.377809 0.324824 0.503497 0.737005 -0.182169 -0.525788 0.024662 -0.449182 0.156316 -0.395241 0.0308566 -0.246261 0.0127221 -0.612834 0.706815 -0.227318 0.252833 0.0557842 0.140079 0.393438 -0.463239 -0.0499038 -0.499391 0.212395 -0.0446857 -0.304604 -0.369544 -0.350424 -0.760644 0.304569
1918 0.123755 0.628842 1.30382 -1.1704 -1.91472 0.670345 -0.468565 1.3773 -1.28174 -0.0411984 0.229658 -0.140753 -1.59274 0.513586 0.418358 0.234374 -1.00085 0.467299 -0.283619 0.0373362 0.581532 -1.45215 1.01045 -0.750437 0.472584 -0.20771 -0.975621 0.104234 -0.764178 0.41377 0.273721 0.0654118 0.865081 0.305457 -0.456845 0.404134 0.591418 0.842599 -0.230943 -0.573625 -0.0274714 -0.420605 0.176822 -0.477601 0.0711848 -0.270475 0.0845547 -0.572156 0.733702 -0.202346 0.189363 0.061939 0.153801 0.510907 -0.408335 -0.00883235 -0.522337 0.240442 -0.0232195 -0.438891 -0.359965 -0.408075 -0.826058 0.38051
1203 0.0479874 0.665379 1.22408 -1.20476 -1.48677 0.541152 -0.514845 1.24262 -1.09142 0.110917 0.432156 -0.30446 -1.54369 0.661518 0.205004 -0.142858 -0.8091 0.498253 -0.262397 -0.0814819 0.330303 -1.44602 1.16195 -0.539237 0.361419 -0.233029 -1.06784 -0.00170478 -0.68799 0.691958 0.407501 -0.0808343 0.88493 0.22685 -0.494299 0.24942 0.560794 0.766442 -0.0481073 -0.71935 -0.0176441 -0.355432 -0.0646725 -0.285716 0.235982 -0.585713 -0.126222 -0.686046 0.853511 -0.17253 0.317206 -0.0542725 0.0378959 0.595159 -0.361289 0.128795 -0.385447 0.333581 0.0339496 -0.467333 -0.3834 -0.324728 -0.990188 0.343168
1137 0.0685806 0.585827 1.1079 -1.06155 -1.33173 0.534498 -0.568298 1.21903 -1.12385 0.190772 0.526567 -0.30273 -1.4998 0.650563 0.19997 -0.230532 -0.768828 0.460367 -0.26993 0.0233201 0.263635 -1.37904 1.05916 -0.434383 0.3353 -0.260854 -1.09824 0.0534221 -0.714454 0.687849 0.397836 -0.095207 0.88282 0.218483 -0.455171 0.19244 0.56096 0.7426 -0.0351578 -0.64886 0.00422178 -0.35792 -0.0891709 -0.236769 0.15381 -0.629963 -0.251607 -0.661141 0.826107 -0.209758 0.331706 -0.140058 0.0480234 0.534996 -0.405729 0.226214 -0.426147 0.281543 0.0131793 -0.53362 -0.388079 -0.257812 -0.910989 0.370994
1223 0.108934 0.659413 1.21745 -1.077 -1.37463 0.487651 -0.536981 1.19177 -1.05402 0.156972 0.507562 -0.33868 -1.59839 0.606409 0.15691 -0.304286 -0.737145 0.51557 -0.252403 -0.0491624 0.266719 -1.38208 1.14473 -0.492206 0.3459 -0.209162 -1.01017 -0.0482276 -0.652171 0.677881 0.389469 -0.0278504 0.841853 0.146171 -0.458995 0.18428 0.479758 0.746819 -0.0397836 -0.590673 -0.0410911 -0.249808 -0.157256 -0.26669 0.2259 -0.577592 -0.173222 -0.718445 0.830144 -0.160231 0.349634 -0.0389884 0.0347602 0.546083 -0.395202 0.119645 -0.306141 0.26533 0.0798264 -0.39007 -0.364086 -0.273275 -0.897775 0.283192
1972 0.0585166 0.608497 1.27074 -0.982153 -1.27313 0.441692 -0.573769 1.25674 -1.12678 0.144888 0.638247 -0.380333 -1.5373 0.548105 0.131466 -0.346328 -0.728559 0.540388 -0.376888 -0.00800358 0.260237 -1.34595 1.12018 -0.472151 0.340438 -0.265843 -1.10989 -0.021479 -0.676633 0.672358 0.400061 -0.0473625 0.873877 0.193389 -0.531549 0.187712 0.481457 0.7139 -0.111779 -0.647768 -0.0462521 -0.323144 -0.15459 -0.278534 0.215335 -0.635964 -0.27548 -0.766219 0.810972 -0.194785 0.329234 -0.159282 0.0933865 0.534114 -0.330343 0.127309 -0.339202 0.272909 0.103572 -0.497801 -0.418204 -0.201066 -0.858836 0.247447
2000 0.148676 0.470074 0.833402 -0.850644 -1.06597 0.296228 -0.390613 1.02284 -1.13605 0.112883 0.426182 -0.196976 -1.45523 0.564966 0.205229 -0.0933979 -0.730656 0.333897 -0.282762 0.170759 0.363088 -1.12592 0.888029 -0.407269 0.486755 -0.149543 -0.884154 0.0566065 -0.635351 0.487457 0.232639 -0.00231433 0.701047 0.209429 -0.323565 0.320103 0.396955 0.83802 -0.103561 -0.580923 -0.0696971 -0.275774 -0.0165327 -0.187665 -0.0443011 -0.39825 -0.285163 -0.50624 0.679331 -0.222772 0.403761 0.155131 0.132967 0.309898 -0.426723 0.20004 -0.448099 0.257462 0.032762 -0.344463 -0.299416 -0.274441 -0.617889 0.268486
853 0.104685 0.66976 0.890091 -0.952271 -1.30314 0.443391 -0.464132 1.24649 -1.22366 0.131543 0.550612 -0.223602 -1.63435 0.663518 0.208451 -0.164207 -0.732806 0.427205 -0.336532 0.0777208 0.317723 -1.29605 1.1931 -0.465791 0.479954 -0.165775 -1.02015 0.056307 -0.758231 0.67877 0.431616 -0.0266178 0.89626 0.270945 -0.381511 0.252913 0.529899 0.777889 -0.104512 -0.692164 0.0689836 -0.378175 -0.0129165 -0.334425 0.148031 -0.488861 -0.313572 -0.724196 0.877723 -0.250045 0.435005 -0.0234514 0.103179 0.507522 -0.473493 0.209739 -0.488654 0.326439 0.0509268 -0.52474 -0.398729 -0.330442 -0.850699 0.304197
1903 0.23302 0.837803 0.961879 -0.858732 -1.34956 0.43485 -0.26744 1.41934 -1.44483 0.31409 0.53456 -0.223698 -1.92667 0.484372 0.397777 -0.161179 -0.882422 0.432045 -0.329115 0.235507 0.430891 -1.21985 1.02841 -0.457298 0.580822 -0.339753 -0.865926 0.0355693 -0.800648 0.587476 0.407521 0.0729613 0.923978 0.371782 -0.326055 0.311788 0.536321 0.949418 -0.260936 -0.547268 0.0797162 -0.491881 0.0107478 -0.307022 -0.154831 -0.281172 -0.327009 -0.799679 0.92098 -0.21903 0.560475 -0.0475535 0.164147 0.312082 -0.619229 0.140413 -0.512345 0.0123991 -0.0532002 -0.511447 -0.41489 -0.201903 -0.585033 0.255575
1423 0.247886 0.647317 1.08864 -0.959776 -1.40993 0.294985 -0.433117 1.31191 -1.54646 0.206014 0.581927 -0.233914 -1.83786 0.701115 0.337717 -0.117735 -0.982399 0.398406 -0.371457 0.302115 0.514582 -1.2924 0.995771 -0.57506 0.488379 -0.230489 -1.06821 0.00456632 -0.862856 0.484336 0.203803 -0.0733439 0.805858 0.262253 -0.3981 0.495095 0.50874 1.12845 -0.179575 -0.724502 -0.180973 -0.254854 -0.0096874 -0.224366 -0.161505 -0.524292 -0.406728 -0.570703 0.834992 -0.178805 0.506041 0.338933 0.209137 0.310766 -0.558716 0.305077 -0.700435 0.279772 -0.0484345 -0.350463 -0.286957 -0.299141 -0.627729 0.385345
1925 0.120004 0.487061 0.760089 -0.690608 -0.995954 0.337773 -0.28715 0.948889 -0.931337 0.0895226 0.353781 -0.16526 -1.25932 0.404674 0.233324 -0.10703 -0.56948 0.353385 -0.258661 0.0608971 0.253455 -0.985427 0.801249 -0.35186 0.390025 -0.178701 -0.744775 0.0637055 -0.532204 0.520777 0.248479 0.0398945 0.629577 0.202588 -0.3016 0.19081 0.358636 0.634537 -0.116963 -0.501515 0.0085779 -0.345548 0.0179107 -0.237984 0.0412891 -0.371648 -0.149875 -0.548606 0.578088 -0.167574 0.296074 -0.0656347 0.0962429 0.298606 -0.409596 0.084008 -0.337127 0.178784 0.0259044 -0.348662 -0.275916 -0.208074 -0.605617 0.213212
2121 0.126492 0.639116 1.16203 -1.12429 -1.42085 0.490639 -0.493249 1.16853 -1.06091 0.184321 0.455103 -0.313675 -1.57654 0.616718 0.192913 -0.197233 -0.755684 0.528174 -0.251154 -0.0455474 0.294219 -1.37877 1.17074 -0.470901 0.396049 -0.216521 -1.03019 0.00983173 -0.630481 0.668964 0.361086 -0.0185906 0.853093 0.204248 -0.48326 0.206643 0.515341 0.730766 -0.044877 -0.610933 -0.0283162 -0.317243 -0.103961 -0.262077 0.215132 -0.559313 -0.162642 -0.684883 0.826218 -0.170873 0.352037 -0.0547932 0.0724482 0.552926 -0.42568 0.114099 -0.371108 0.294048 0.0690024 -0.427665 -0.39742 -0.310296 -0.913586 0.273235
2159 0.125667 0.553229 0.993469 -0.978253 -1.4674 0.516985 -0.425259 1.0772 -1.03145 0.0233789 0.287344 -0.14408 -1.4421 0.518672 0.206196 0.0760984 -0.724975 0.381578 -0.250173 0.00453067 0.388717 -1.24323 1.00638 -0.53938 0.469405 -0.154124 -0.851095 0.115167 -0.658031 0.50126 0.288454 0.0716363 0.788622 0.295193 -0.391454 0.267185 0.508034 0.701307 -0.149884 -0.536266 0.00222002 -0.398748 0.0819658 -0.383105 0.0543646 -0.291713 -0.0493961 -0.575194 0.694727 -0.230335 0.221436 0.0181474 0.13492 0.42646 -0.404591 -0.0487101 -0.43427 0.248336 -0.0476038 -0.378734 -0.33757 -0.356508 -0.786326 0.299691
1619 0.0901652 0.428653 0.857698 -0.789849 -1.26447 0.39785 -0.305648 0.868423 -0.793699 -0.0129265 0.130735 -0.104039 -1.06855 0.425332 0.230514 0.099258 -0.567898 0.2886 -0.212367 -0.0211479 0.330485 -0.9854 0.702797 -0.470781 0.330929 -0.127116 -0.663915 0.097535 -0.468368 0.398633 0.183528 0.0396615 0.556306 0.218575 -0.340326 0.236198 0.405172 0.549685 -0.113977 -0.461316 -0.0166651 -0.343454 0.117379 -0.310731 0.0773308 -0.222357 0.0970296 -0.431332 0.529338 -0.15052 0.142746 0.0159461 0.102873 0.354297 -0.332327 -0.0878096 -0.384377 0.202583 -0.0386724 -0.210992 -0.266171 -0.317243 -0.685093 0.308287
2206 -0.0796509 0.818144 0.628736 -0.554869 -1.65391 0.984338 -0.540374 1.76519 -1.9333 -0.160781 0.0915113 -0.188416 -1.55793 0.203853 0.700321 -0.193498 -0.954839 0.543154 -1.13549 0.399088 0.20858 -1.28644 0.686732 -0.218103 0.714186 0.206876 -0.4684 -0.31065 -1.06613 -0.218264 0.00971901 0.0549242 0.649711 0.684685 0.115036 0.596677 0.280614 0.728498 -1.0389 -1.00622 0.365084 0.20293 -0.469258 -0.174028 0.438524 -0.00460803 -0.0661347 -0.973065 -0.0948232 0.109551 -0.634124 0.147813 0.330134 -0.29609 -0.462947 1.05505 -1.13187 -0.298577 0.108798 -0.247168 -0.290434 -0.509747 -0.557531 0.137953
3099 -0.102951 0.817308 0.617111 -0.591795 -1.67625 0.980753 -0.525704 1.75314 -1.93562 -0.145287 0.0581996 -0.200979 -1.54332 0.176726 0.672823 -0.188785 -0.994055 0.543866 -1.131 0.421436 0.235737 -1.25963 0.686273 -0.188545 0.715588 0.258997 -0.428613 -0.325269 -1.11238 -0.277031 0.00100948 0.0460182 0.662544 0.737987 0.144564 0.60876 0.265745 0.770775 -1.07088 -1.02381 0.398189 0.208753 -0.515241 -0.197261 0.436673 0.0352049 -0.06719 -0.939593 -0.0952974 0.0658399 -0.684182 0.187085 0.318204 -0.314408 -0.449103 1.14842 -1.1551 -0.336496 0.165127 -0.272586 -0.280772 -0.515966 -0.499041 0.108084
1424 0.967217 0.653336 1.19831 -0.831897 -1.125 0.460822 -0.421521 1.48969 -2.02142 -0.0594882 0.398725 -0.131862 -1.5239 0.401314 0.918492 -0.41308 -0.594566 0.4595 -0.91979 0.766375 0.31726 -0.660273 1.06791 -0.975725 0.388091 -1.09288 -0.187851 0.171289 -0.823398 0.0844635 -0.209105 -0.629687 0.743555 0.645668 0.0018698 0.226316 0.704594 1.42898 0.144085 -0.478969 0.0609382 -0.594052 0.491594 0.108577 0.648609 0.236896 -0.614158 0.207092 0.894861 0.145712 0.0589147 -0.31285 0.764306 0.767923 -0.191019 -0.0425522 -0.910438 0.226101 -0.108792 -0.271644 -0.406527 0.417869 -0.159361 0.946765
1753 0.964524 0.684639 1.21333 -0.861423 -1.12057 0.485818 -0.435605 1.50418 -2.03115 -0.0670313 0.392786 -0.153403 -1.56366 0.407992 0.913959 -0.445288 -0.581527 0.481557 -0.934748 0.791319 0.352827 -0.678983 1.04502 -0.948705 0.364739 -1.09806 -0.266083 0.176762 -0.844329 0.0775722 -0.203442 -0.633736 0.702379 0.669271 0.0122166 0.249669 0.713282 1.43663 0.106518 -0.457151 0.0585338 -0.558334 0.431255 0.0782437 0.615705 0.24038 -0.595668 0.149228 0.868738 0.0842346 0.0653753 -0.280069 0.759685 0.770135 -0.190062 -0.057147 -0.892493 0.209592 -0.11763 -0.318947 -0.423131 0.448212 -0.174483 0.950944
1949 0.963764 0.664775 1.19212 -0.831337 -1.1105 0.469681 -0.436459 1.53471 -2.03868 -0.0549688 0.399956 -0.149006 -1.54813 0.434383 0.912362 -0.448691 -0.583107 0.461271 -0.923222 0.762966 0.342487 -0.652074 1.04467 -0.976433 0.350944 -1.0947 -0.240657 0.169102 -0.823771 0.0659194 -0.188092 -0.607028 0.720004 0.66703 -0.00460165 0.258609 0.70361 1.42967 0.101322 -0.469935 0.042954 -0.573983 0.444771 0.11962 0.650797 0.229455 -0.587027 0.171323 0.90621 0.116241 0.0885353 -0.281006 0.783805 0.778259 -0.218608 -0.046252 -0.927178 0.194113 -0.119079 -0.305396 -0.427275 0.42962 -0.19968 0.972
1752 0.980378 0.656665 1.219 -0.852313 -1.13868 0.478369 -0.446296 1.51616 -2.05954 -0.0490144 0.381626 -0.147325 -1.55822 0.409235 0.918592 -0.436027 -0.574777 0.463898 -0.945038 0.752644 0.351733 -0.667524 1.07976 -0.985423 0.367288 -1.09448 -0.242312 0.166129 -0.827975 0.0592791 -0.200872 -0.63723 0.74945 0.666831 0.0068713 0.252046 0.717258 1.45939 0.116933 -0.471037 0.0572699 -0.565693 0.468424 0.124215 0.662907 0.256812 -0.609764 0.17215 0.877412 0.113785 0.0891342 -0.292398 0.802262 0.766123 -0.193328 -0.0601574 -0.931204 0.218258 -0.107838 -0.315695 -0.41211 0.437185 -0.196959 0.959608
575 0.0837442 0.402685 0.779986 -0.597731 -1.55083 0.289675 -0.314551 1.23411 -1.09253 0.10909 0.155667 -0.0807461 -1.20744 0.276595 0.3482 -0.177709 -0.415904 0.381795 -0.268728 0.193243 0.305379 -0.9578 0.760551 -0.437958 0.305104 -0.0779815 -0.57209 0.163826 -0.512468 0.512858 -0.192272 -0.134381 0.164649 0.184118 -0.24469 0.118501 0.363167 0.729487 -0.156876 -0.475377 0.0799244 -0.0296545 0.0468196 -0.335496 0.102992 -0.324831 0.0335873 -0.251767 0.313786 0.0338106 0.151796 -0.00439243 0.226924 0.121515 -0.303214 -0.217128 -0.297355 0.040987 -0.0121214 -0.133038 -0.172118 -0.303675 -0.39118 0.291092
754 -0.0179441 0.683976 1.00091 -0.259262 -1.11168 0.295892 -0.677627 1.52482 -1.36446 0.0515555 0.593222 0.0783495 -1.27533 0.481878 0.551037 0.0556314 -0.772525 0.365078 -0.337537 0.092781 0.321559 -0.592038 1.08937 -0.392969 0.335201 0.0928262 -0.819073 -0.261338 -0.772704 0.459265 -0.0292307 -0.349546 0.424078 0.119524 -0.0558404 0.501469 0.378965 0.646976 -0.0273799 -0.600496 -0.191694 -0.102759 0.155921 0.0630275 0.0425076 -0.303246 -0.233576 -0.209517 0.509378 0.226893 0.0456574 -0.184303 -0.102089 0.361233 -0.158182 0.40691 -0.275513 0.0935929 0.0778345 -0.310855 -0.0177192 -0.0659205 -0.371668 0.217825
538 0.0923676 0.535848 0.779103 -0.571392 -1.08709 0.0830671 -0.618703 1.20988 -1.15528 0.104466 0.467851 -0.0586985 -1.2532 0.472427 0.433892 0.120224 -0.712318 0.491839 -0.684052 0.319779 0.328957 -0.74888 1.05933 -0.231428 0.673307 -0.0456488 -0.68008 0.0666131 -0.481044 0.395099 -0.062205 -0.270732 0.396833 0.0357818 -0.357193 0.455535 0.183465 0.414846 -0.273366 -0.419019 -0.0200439 -0.195369 -0.0629465 -0.283826 0.199719 -0.442111 -0.364332 -0.26483 0.436772 -0.0498587 0.124227 0.00151307 0.158203 0.415469 -0.0752707 0.287608 -0.158822 -0.0167289 0.281453 -0.185983 -0.296313 -0.286596 -0.347731 0.0663828
1129 0.0872899 0.41203 0.899447 -0.449511 -1.01227 0.319092 -0.648281 1.15875 -1.06258 -0.053428 0.475175 -0.172524 -1.29717 0.431261 0.130674 -0.454568 -0.481884 0.489177 -0.523608 0.250887 0.194903 -0.932569 0.611907 -0.310944 0.235241 -0.245757 -0.746988 -0.0183032 -0.528082 0.41164 -0.0100711 -0.0259835 0.446938 -0.00516782 -0.343101 0.245142 0.180572 0.554301 -0.321699 -0.525204 0.0145459 -0.190783 -0.116548 -0.308359 -0.0371082 -0.428779 -0.331483 -0.33389 0.320157 -0.116389 0.222597 -0.0709643 0.00996824 0.315954 -0.263131 0.0964004 -0.166209 0.00130847 0.0252225 -0.303097 -0.269772 -0.0333595 -0.514437 0.22732
862 0.0173532 0.519737 1.2387 -0.779909 -1.14078 0.25057 -0.771448 1.36362 -1.11245 0.101522 0.579277 -0.293087 -1.37407 0.463938 0.213683 -0.326883 -0.701321 0.633368 -0.351376 0.129204 0.156949 -1.12443 0.945591 -0.499781 0.147648 -0.272751 -0.881206 0.0652914 -0.607076 0.416304 0.21298 -0.00850727 0.580025 0.175469 -0.394991 0.256059 0.296906 0.567716 -0.227794 -0.520416 -0.104453 -0.361863 -0.0608245 -0.12541 0.0567163 -0.57436 -0.228057 -0.487198 0.3823 -0.141214 0.233709 -0.190604 0.150561 0.295997 -0.151458 -0.0290424 -0.319946 0.138013 0.0621152 -0.321282 -0.271126 -0.10879 -0.628892 0.209139
31 0.1189 0.691263 1.07199 -0.706237 -1.5231 0.186191 -0.773652 1.63506 -0.917205 0.22959 0.343772 0.00131514 -1.30539 0.352234 0.271721 -0.16922 -0.806087 0.550002 -0.536076 0.395064 0.383781 -1.00867 1.10234 -0.637225 0.305472 -0.339621 -0.96006 0.0282702 -0.683547 0.379257 0.0255197 -0.0500464 0.585098 0.227907 -0.232046 0.136326 0.104429 0.656748 -0.369505 -0.386266 -0.178272 -0.246035 -0.0797602 -0.30294 0.041292 -0.233813 -0.312603 -0.311352 0.267725 -0.101161 0.114155 0.117291 0.221877 0.239527 -0.115319 -0.0331038 -0.537256 0.258989 -0.11704 -0.147307 -0.112055 0.0758322 -0.3089 -0.100219
430 0.0255441 0.4999 1.04703 -0.543357 -1.25572 0.214548 -0.658206 1.50897 -1.23805 0.132506 0.515636 -0.158955 -1.27114 0.345494 0.457252 -0.113041 -0.704561 0.444195 -0.386477 0.266626 0.244452 -0.977225 0.896098 -0.532916 0.339007 -0.271311 -0.878777 0.15263 -0.653296 0.41861 0.00407309 -0.186795 0.360314 0.0992824 -0.334397 0.172812 0.355161 0.681779 -0.327049 -0.355999 -0.106377 -0.287143 -0.0344471 -0.236229 0.00845229 -0.527992 -0.189857 -0.361115 0.42853 -0.0142692 0.00718278 -0.160147 0.217498 0.237971 -0.234896 0.00366874 -0.436974 0.100176 -0.130021 -0.240705 -0.131577 -0.0453229 -0.448227 0.226656
1 0.164703 0.626416 1.17631 -0.509372 -1.23396 0.380192 -0.73483 1.39737 -1.19498 0.012248 0.702849 -0.167727 -1.29259 0.672591 0.347776 -0.155091 -0.401274 0.5163 -0.358166 0.181351 0.0502995 -0.919483 0.841472 -0.462109 0.223811 -0.157658 -0.695551 0.139835 -0.467693 0.325187 0.0185388 0.00776648 0.501075 -0.0514272 -0.370514 0.335866 0.131152 0.642169 -0.202461 -0.61449 -0.0263358 -0.376866 -0.120969 -0.2476 0.194783 -0.603213 -0.0102828 -0.43386 0.328561 0.0499484 0.0640118 -0.0519457 0.160689 0.228525 -0.207626 -0.00812704 -0.423461 -0.0314676 -0.17944 -0.174534 -0.205548 -0.0679999 -0.467161 0.161976
289 0.045921 0.470459 1.1548 -0.577381 -1.27913 0.261366 -0.717282 1.50249 -1.18004 0.074019 0.486334 -0.15841 -1.19634 0.387054 0.414657 -0.139545 -0.752486 0.44739 -0.43378 0.259018 0.155113 -0.947152 0.762781 -0.528874 0.347722 -0.258208 -0.949384 0.147045 -0.690304 0.409187 0.0690035 -0.150894 0.378976 0.126358 -0.203012 0.203382 0.335633 0.656299 -0.274875 -0.386329 -0.1311 -0.191757 -0.039822 -0.196789 0.00871287 -0.535667 -0.13309 -0.378333 0.470453 0.0696103 -0.0594523 -0.181762 0.218728 0.31911 -0.161515 0.0237497 -0.364247 0.133647 -0.104053 -0.263153 -0.184772 -0.106399 -0.482283 0.312919
534 0.0215871 0.583785 1.14959 -0.490956 -1.24503 0.282389 -0.711791 1.51995 -1.17102 0.0581457 0.536023 -0.169025 -1.23711 0.377461 0.379627 -0.0610644 -0.664399 0.460663 -0.422383 0.211453 0.2148 -0.922258 0.817069 -0.454882 0.369043 -0.327844 -0.91682 0.175093 -0.685452 0.395549 0.0572134 -0.134224 0.395158 0.191062 -0.319148 0.240492 0.264676 0.659273 -0.213232 -0.496864 -0.0729565 -0.325884 -0.0493737 -0.123358 0.084748 -0.501665 -0.22437 -0.424383 0.488825 0.0578484 -0.0105248 -0.188474 0.275643 0.267066 -0.159873 -0.00739151 -0.412324 0.112889 -0.063323 -0.351466 -0.249603 -0.154593 -0.526557 0.202998
688 0.260147 0.652271 0.895902 -0.603973 -1.56743 0.24442 -0.309762 1.20419 -1.03883 -0.0929676 0.169112 -0.0820355 -1.21149 0.440767 0.538653 -0.0873206 -0.447772 0.478016 -0.358576 0.147595 0.170965 -1.00782 1.1867 -0.413437 0.485066 0.050911 -0.494036 0.108972 -0.768397 0.586738 -0.179457 0.00114464 0.0837156 0.184705 -0.20754 0.283275 0.334711 0.982356 0.0158551 -0.638972 -0.0113006 0.100502 0.00950122 -0.252989 0.234071 -0.31807 -0.178487 -0.359572 0.577387 -0.00868624 0.373662 0.214725 0.138726 0.0528172 0.00304619 -0.131045 -0.199279 0.063295 0.0378879 0.0710363 -0.00611876 -0.346263 -0.273955 0.157622
547 0.15637 0.70579 0.916769 -0.505078 -1.46403 0.259604 -0.57927 1.32602 -1.26814 -0.0632391 0.42314 0.0199303 -1.423 0.507389 0.229474 -0.123672 -0.594937 0.371759 -0.538552 0.214802 0.302018 -0.911224 0.941307 -0.439633 0.450294 -0.28798 -0.56035 0.215163 -0.795251 0.36962 0.0947968 -0.08348 0.375809 0.242761 -0.174265 0.2886 0.492684 0.780764 -0.231059 -0.664957 -0.019116 -0.188029 0.0248418 -0.352118 0.0614557 -0.246145 -0.219589 -0.380099 0.406971 0.0193985 0.0985471 0.0773129 0.107748 0.266133 -0.140078 0.113928 -0.282183 0.0817124 0.0507245 -0.118625 -0.162402 -0.174624 -0.19305 0.186941
1387 -0.0021787 0.637394 0.794227 -0.497929 -1.10081 0.119962 -0.639034 1.28841 -1.14198 0.0596651 0.547831 0.0213718 -1.36939 0.226888 0.355927 -0.132103 -0.680604 0.394708 -0.403143 0.148117 0.266122 -0.908215 0.771285 -0.464254 0.27203 -0.183095 -0.639865 -0.119828 -0.659358 0.371287 0.146926 -0.13341 0.182745 0.188514 -0.195136 0.316599 0.705293 0.705132 -0.0589785 -0.544692 -0.187395 -0.119664 -0.0429994 -0.0646251 -0.0804534 -0.227883 -0.137623 -0.352903 0.503427 0.0869665 -0.0464016 0.12643 -0.0147162 0.316403 -0.0914503 0.0513403 -0.255964 0.126121 0.145311 -0.0840767 -0.0977886 -0.0480303 -0.33674 0.138711
1220 0.0189987 0.556866 0.795044 -0.588582 -1.19236 0.0952373 -0.70562 1.22808 -1.32215 0.0743634 0.601889 0.0938788 -1.53486 0.24701 0.401542 -0.0722015 -0.655894 0.46166 -0.528867 0.140473 0.329648 -1.00846 0.794392 -0.47437 0.201213 -0.214079 -0.648847 -0.162942 -0.657009 0.33894 0.093978 -0.103407 0.200339 0.22488 -0.308508 0.421044 0.778119 0.768666 0.0425814 -0.671853 -0.281817 -0.162516 -0.0174131 -0.131257 -0.0405528 -0.248848 -0.132851 -0.329693 0.412532 0.00665944 -0.0543906 0.268471 -0.0211474 0.303709 -0.0632749 -0.0801562 -0.344785 0.222615 0.280907 0.0243516 -0.203991 -0.139585 -0.37719 0.0492204
1073 0.0511738 0.413456 0.725156 -0.441805 -1.07599 0.15974 -0.608208 1.02478 -1.02121 0.0344227 0.386562 0.0386414 -1.16404 0.20651 0.31476 -0.00743994 -0.543733 0.374909 -0.476374 0.149148 0.345949 -0.758666 0.702859 -0.406451 0.236104 -0.258471 -0.575816 -0.0277192 -0.551671 0.283262 0.0445526 -0.0598553 0.253005 0.206316 -0.276681 0.348124 0.46602 0.619094 -0.0753099 -0.500945 -0.16699 -0.107601 -0.0102931 -0.209621 0.0270281 -0.225358 -0.122228 -0.280667 0.305646 -0.0449632 0.0444284 0.157288 0.0948402 0.261603 -0.0783169 -0.0924488 -0.28453 0.133794 0.182106 -0.0954853 -0.256067 -0.123926 -0.330497 -0.000438303
1075 9.84658e-05 0.496687 0.71852 -0.486278 -1.01344 0.0482766 -0.594489 1.14658 -1.18664 0.0113514 0.533815 0.00115976 -1.35436 0.245942 0.336416 -0.14006 -0.644698 0.408026 -0.449799 0.106017 0.270678 -0.911325 0.818518 -0.485314 0.208135 -0.216083 -0.621215 -0.130127 -0.724066 0.382775 0.0832615 -0.146731 0.137153 0.115685 -0.206962 0.363605 0.682601 0.689559 -0.0583246 -0.571018 -0.21683 -0.0947534 -0.0600886 -0.0939239 -0.0599852 -0.290931 -0.18609 -0.300613 0.432431 0.060688 -0.0374653 0.11529 -0.0143144 0.304326 -0.0808037 0.0659757 -0.200288 0.143303 0.211454 -0.0158947 -0.0722867 -0.0410941 -0.363875 0.144017
3014 -0.0794429 0.535496 0.830721 -0.482937 -1.04915 0.036273 -0.564197 1.23407 -1.26676 0.132935 0.510043 0.0116979 -1.25919 0.283552 0.319746 -0.138114 -0.673143 0.401297 -0.572594 0.177911 0.228165 -0.905431 0.878683 -0.366154 0.348796 -0.0724569 -0.660217 -0.121803 -0.659154 0.350425 0.0961564 -0.421091 0.0758922 0.0606392 -0.022306 0.389709 0.713114 0.609825 -0.122589 -0.534704 -0.0359005 -0.0101933 -0.0708192 -0.0175107 -0.0270885 -0.151199 -0.30021 -0.303134 0.556861 0.189336 -0.0936322 0.0355591 -0.0093038 0.37467 -0.219358 0.384165 -0.122959 0.0558036 0.274793 -0.122876 -0.053031 -0.0490335 -0.315428 0.238634
887 0.0559946 0.636854 0.954722 -0.499913 -1.37921 0.271094 -0.562739 1.66471 -1.07811 -0.0438285 0.253404 0.154924 -1.46874 0.412905 0.130399 -0.263831 -0.265581 0.466679 -0.653199 0.0822737 0.464961 -0.802507 1.03627 -0.455279 0.533262 -0.204579 -0.851546 0.109824 -0.636928 0.295847 0.200655 -0.0817026 0.58507 -0.0493116 -0.278011 0.602243 0.230961 0.528532 -0.53275 -0.475357 0.0955933 -0.199066 -0.139955 -0.301004 0.0797454 -0.14625 -0.378739 -0.419033 0.160045 -0.0124492 0.107042 0.0958028 0.15295 0.109972 -0.0225172 -0.127276 -0.193057 0.00493045 0.121231 0.076662 -0.21861 -0.035224 -0.275355 0.246763
482 0.165108 0.808998 0.940876 -0.440598 -1.54144 0.322455 -0.569943 1.57755 -1.10258 0.0344717 0.50058 0.0117411 -1.45403 0.388412 0.209924 -0.236936 -0.617363 0.195209 -0.450906 0.207821 0.541269 -0.911679 0.90361 -0.492807 0.282236 -0.298384 -0.674476 0.0617823 -0.656134 0.55295 0.182715 -0.0548552 0.347655 0.185732 -0.294133 0.292465 0.395347 0.701782 -0.222301 -0.47754 0.10931 -0.214426 0.0130443 -0.404131 -0.0946345 -0.208429 -0.156383 -0.380615 0.237641 0.0405037 0.292665 0.105557 0.20827 0.271712 -0.133222 0.0772912 -0.261091 0.0470538 -0.0162052 -0.228849 -0.176452 -0.166367 -0.209911 0.270348
2202 0.29091 0.709101 1.17704 -0.609291 -1.53081 0.0711466 -0.641164 1.2913 -0.994732 0.0690031 0.351161 -0.0146133 -1.44355 0.524122 0.144492 -0.159769 -0.57317 0.518907 -0.699342 0.313092 0.367743 -0.79781 1.18291 -0.650532 0.368372 -0.310126 -0.862641 0.115152 -0.693818 0.157288 0.18793 0.096498 0.559908 0.205652 -0.066194 0.297668 0.170484 0.9026 -0.377569 -0.497058 -0.0641601 0.103737 -0.097849 -0.333352 0.147506 -0.261326 -0.182984 -0.463194 0.259255 0.00286394 0.0832296 0.272302 0.357463 0.306744 -0.0367081 -0.0377239 -0.453261 0.177753 0.093737 -0.138554 -0.372393 -0.10948 -0.168059 -0.153465
34 0.306466 0.785046 0.938619 -0.559654 -1.6338 0.140267 -0.459735 1.47933 -1.08837 -0.0269072 0.325915 -0.16437 -1.22812 0.602632 0.266919 -0.307692 -0.637805 0.433944 -0.483018 0.101866 0.248344 -0.925695 1.4015 -0.463475 0.245126 -0.32586 -0.573843 0.2024 -0.740312 0.2944 0.218095 0.0162766 0.317977 0.12732 -0.184869 0.247332 0.393203 0.783899 -0.162538 -0.45456 -0.143361 -0.190827 -0.128316 -0.363215 -0.000604607 -0.198542 -0.150295 -0.464804 0.435366 -0.192171 0.0929602 0.187148 0.101139 0.209722 0.0313432 -0.148172 -0.299035 0.00893479 0.0324 0.0676253 -0.00617976 -0.153454 -0.168125 0.0125111
469 0.242131 0.691594 0.875411 -0.550095 -1.30264 0.311629 -0.63145 1.61695 -1.19179 -0.0841171 0.393313 -0.102562 -1.34608 0.546119 0.232245 -0.335397 -0.627899 0.300168 -0.601653 0.288441 0.271866 -1.00605 0.908021 -0.282233 0.245732 -0.416279 -0.492519 0.0847975 -0.744755 0.502862 0.109933 -0.0571965 0.275984 0.190654 -0.224051 0.238689 0.586601 0.700226 -0.192119 -0.558731 -0.0083514 -0.12076 -0.0450552 -0.29637 -0.0498211 -0.414261 -0.191431 -0.380147 0.414298 0.0182914 0.159788 0.130452 0.0409865 0.176333 -0.175147 0.0860676 -0.338873 0.0561141 -0.00542704 -0.154865 -0.183142 -0.103926 -0.17412 0.189801
12 0.335234 0.390235 0.855014 -0.55644 -1.44098 0.255039 -0.787408 1.10704 -1.13612 0.208337 0.482485 0.117439 -1.08866 0.42999 0.402754 0.167495 -0.661043 0.15912 -0.674645 0.284757 0.380465 -0.704238 0.559706 -0.205498 0.354306 -0.378118 -0.837869 0.12782 -0.531351 0.136903 0.258662 -0.0588775 0.520686 0.369513 -0.211616 0.137847 0.565761 0.55028 -0.186676 -0.553731 0.111997 -0.294532 0.138329 -0.294154 -0.0943282 -0.389753 -0.134045 -0.314022 -0.00561966 -0.0228046 0.0513315 -0.0517994 0.292185 0.30746 -0.208904 0.115096 -0.567056 0.0992293 -0.00768127 -0.24993 -0.305853 -0.30025 -0.121392 0.210642
1740 0.0988222 0.484258 0.968873 -0.64074 -1.54333 0.237019 -0.713192 1.27657 -1.19219 0.239233 0.417268 0.156419 -1.22686 0.217975 0.441004 0.226843 -0.676048 0.361366 -0.607414 0.257223 0.486777 -0.953784 0.733947 -0.369001 0.374173 -0.250062 -0.811492 0.141127 -0.541642 0.189234 0.0780537 -0.075448 0.392338 0.278467 -0.320044 0.219128 0.47292 0.616354 -0.173849 -0.487736 -0.0380199 -0.27622 0.0603064 -0.359453 0.0270838 -0.31818 -0.124445 -0.263865 0.171399 -0.0706246 -0.031118 0.0143395 0.277841 0.299263 -0.222436 -0.227263 -0.545058 0.158309 0.0642991 -0.191316 -0.328742 -0.225074 -0.361173 0.0980827
655 0.325766 0.384043 0.979273 -0.578679 -1.30172 0.236754 -0.729554 1.19516 -1.37668 0.227739 0.594138 0.108304 -1.01298 0.612975 0.31928 0.0209579 -0.748178 0.14829 -0.737573 0.332001 0.263818 -0.7243 0.484711 -0.206319 0.201014 -0.489417 -0.860847 0.20129 -0.667386 0.148568 0.402556 -0.126905 0.545725 0.384936 -0.072482 0.136543 0.64498 0.678495 -0.237723 -0.692455 0.160187 -0.449659 0.151921 -0.284945 -0.239352 -0.481065 -0.215303 -0.36094 0.0410062 0.0737578 0.00361288 -0.252147 0.270333 0.310941 -0.172016 0.231309 -0.713869 0.0878154 -0.142359 -0.476008 -0.296199 -0.233858 -0.160546 0.319156
372 0.250771 0.466052 1.21084 -0.541519 -1.31779 0.325976 -0.751349 1.51124 -1.49999 0.0939637 0.599529 0.0357268 -0.943831 0.781245 0.259777 -0.0374812 -0.784639 0.199097 -0.759754 0.360758 0.199832 -0.858272 0.63335 -0.181901 0.180699 -0.394117 -0.810777 0.231292 -0.696348 0.18126 0.383134 -0.225364 0.601683 0.322771 0.00784313 0.188441 0.570567 0.698701 -0.29344 -0.754314 0.0912218 -0.517259 0.155512 -0.226224 -0.153332 -0.470688 -0.261543 -0.446583 0.269712 0.131461 -0.00534184 -0.305484 0.204136 0.30673 -0.0942522 0.314541 -0.623083 0.0488243 -0.157332 -0.513809 -0.202308 -0.228672 -0.176592 0.386537
461 0.254005 0.476506 1.06991 -0.615249 -1.28204 0.205662 -0.696096 1.32629 -1.34317 0.184265 0.688102 0.0146732 -0.934111 0.645309 0.299162 -0.0798815 -0.80992 0.239523 -0.654977 0.332244 0.108924 -0.777813 0.450227 -0.188818 0.137448 -0.41537 -0.89487 0.175803 -0.677773 0.259286 0.421267 -0.199109 0.511863 0.349195 -0.0845277 0.0831685 0.718548 0.729282 -0.224788 -0.701038 0.118694 -0.464928 0.0672846 -0.177423 -0.189833 -0.557724 -0.247687 -0.413905 0.187783 0.0957046 -0.0778559 -0.277005 0.270028 0.360069 -0.132526 0.275326 -0.666191 0.0801044 -0.143359 -0.538871 -0.222266 -0.258391 -0.228898 0.387333
338 0.246222 0.519073 1.17164 -0.619355 -1.33536 0.153215 -0.735724 1.50508 -1.52134 0.243601 0.656339 0.0819033 -1.01182 0.628196 0.243431 -0.0717391 -0.82648 0.240306 -0.78288 0.35799 0.202676 -0.843245 0.665342 -0.18872 0.0402261 -0.507096 -0.894727 0.174339 -0.742053 0.186581 0.499998 -0.239434 0.553567 0.40371 -0.0440125 0.159693 0.789389 0.758158 -0.28252 -0.653722 0.095195 -0.483897 0.0143658 -0.186603 -0.248663 -0.440434 -0.323795 -0.394075 0.154309 0.107987 -0.101283 -0.214394 0.286628 0.323441 -0.0957591 0.269597 -0.747065 0.0396224 -0.0772909 -0.466415 -0.288185 -0.153287 -0.179472 0.373679
25 0.326621 0.453233 1.12229 -0.565219 -1.32312 0.249514 -0.831777 1.31588 -1.36508 0.142878 0.662392 -0.02827 -0.938518 0.708281 0.309531 0.0289419 -0.809585 0.26883 -0.740559 0.32666 0.212157 -0.76138 0.533533 -0.222788 0.280709 -0.506975 -0.934569 0.296681 -0.637725 0.172049 0.456485 -0.164127 0.647282 0.344589 -0.171117 0.0725258 0.587937 0.659439 -0.282358 -0.779249 0.147171 -0.461167 0.099264 -0.226744 -0.075944 -0.592342 -0.277342 -0.400104 0.124049 0.0453689 -0.0124821 -0.330836 0.267352 0.428299 -0.159204 0.346994 -0.67829 0.02921 -0.131246 -0.51038 -0.308361 -0.246355 -0.227056 0.369323
902 0.254006 0.368337 0.86683 -0.535592 -1.11636 0.16855 -0.624713 1.13113 -1.24985 0.237804 0.637947 0.0930902 -0.769942 0.620639 0.301921 0.0166482 -0.723095 0.158708 -0.582021 0.250658 0.101798 -0.58968 0.435666 -0.159057 0.0585994 -0.359446 -0.850113 0.129951 -0.621422 0.138413 0.434768 -0.158414 0.51273 0.324112 0.0168557 0.0874552 0.675319 0.658099 -0.157926 -0.645382 0.125727 -0.419413 0.089963 -0.0776383 -0.221725 -0.518366 -0.186289 -0.352506 0.0598081 0.169531 -0.139723 -0.300893 0.24196 0.290181 -0.155208 0.342819 -0.684321 0.118792 -0.146456 -0.487266 -0.162886 -0.204126 -0.134116 0.376954
561 0.233726 0.414756 0.989107 -0.649806 -1.3062 0.215894 -0.630206 1.33227 -1.39431 0.30551 0.577516 0.0614795 -0.990429 0.713085 0.275918 -0.0465319 -0.691454 0.228733 -0.638007 0.377544 0.171329 -0.726545 0.644507 -0.287624 0.23748 -0.350192 -0.846474 0.280774 -0.803286 0.208339 0.346228 -0.122725 0.578227 0.380891 0.121775 0.151931 0.581729 0.797125 -0.256881 -0.680888 0.152501 -0.422708 0.0196018 -0.229452 -0.131165 -0.529858 -0.254343 -0.481558 0.155896 0.307552 0.0562601 -0.246035 0.283885 0.140309 -0.0782945 0.203009 -0.578777 -0.00466964 -0.220474 -0.437562 -0.155598 -0.27943 -0.127815 0.41807
772 0.279504 0.652873 0.922674 -0.577604 -1.54091 0.233204 -0.807648 1.20238 -1.14016 0.25201 0.549485 -0.137182 -1.16419 0.509274 0.369982 0.218157 -0.784587 0.284391 -0.559951 0.179401 0.480975 -0.798975 1.16573 -0.416557 0.582401 -0.184507 -0.677193 0.0457421 -0.515266 0.387758 0.277117 -0.131663 0.47435 0.25247 -0.294304 0.393721 0.579081 0.698455 0.0474525 -0.610933 0.175252 0.0233218 0.0250175 -0.137851 0.259132 -0.301562 -0.177434 -0.390913 0.214247 -0.0246965 0.255988 0.0452491 0.12499 0.375654 -0.164789 0.283134 -0.326456 0.0582601 0.142457 -0.204839 -0.13793 -0.219876 -0.409751 0.273612
976 0.186349 0.668918 0.835167 -0.565574 -1.47707 0.26842 -0.744438 1.32714 -1.14764 0.220348 0.54262 -0.0563774 -1.25882 0.569055 0.182514 2.05721e-05 -0.782444 0.246302 -0.524179 0.127068 0.525464 -0.710342 1.00975 -0.416178 0.500345 -0.150148 -0.717536 0.0142697 -0.386805 0.482771 0.260979 -0.179521 0.565547 0.190132 -0.301842 0.359875 0.528114 0.630451 -0.134904 -0.481147 0.19228 0.00852145 0.0743418 -0.268738 0.148563 -0.249453 -0.0488895 -0.355456 0.215552 -0.0845699 0.114826 0.112612 0.139004 0.47123 -0.274558 0.366385 -0.432916 0.0863236 0.181775 -0.237868 -0.314989 -0.212691 -0.363927 0.250909
437 0.191714 0.640218 0.884866 -0.508304 -1.2741 0.372157 -0.781012 1.35723 -1.24248 0.176002 0.498891 -0.0328489 -1.32495 0.532823 0.353343 0.162448 -0.738826 0.260441 -0.528758 0.0620403 0.477486 -0.662448 1.09313 -0.245996 0.485819 -0.127718 -0.795344 -0.108755 -0.432769 0.43982 0.0686562 -0.222998 0.532946 0.293516 -0.244375 0.391668 0.533171 0.530596 0.00451447 -0.524531 0.09795 -0.0144527 0.12392 -0.202509 0.054147 -0.200512 -0.0513296 -0.404144 0.220798 0.00104787 0.111825 0.0228956 -0.0157696 0.435742 -0.226606 0.286035 -0.449932 0.085847 0.0170632 -0.24548 -0.198474 -0.113901 -0.375876 0.297939
