3840 64
10018 -0.189596 -0.297451 0.0280142 0.590599 -1.03224 -0.319217 0.619434 0.420158 -0.107535 0.172019 0.370639 -0.57291 0.265303 1.44603 -0.169741 -0.209074 -0.0687188 0.313985 -0.363817 0.144794 0.114747 -0.0424418 0.286993 -0.0485644 0.0102748 -0.0557663 0.23587 0.0565165 -0.151132 0.163075 0.108031 0.0229296 0.043163 -0.00738993 0.025805 0.0810903 -0.101346 -0.0559381 0.0297687 0.0332633 -0.153888 -0.130364 0.0261244 0.08965 0.00544936 0.112313 -0.16314 0.135279 0.00822151 -0.0702212 0.124444 0.0351163 0.0503623 -0.240801 -0.0585428 0.126985 -0.0474048 -0.187538 -0.114451 -0.11363 0.0960698 -0.205583 -0.124162 0.149898
17664 -0.604267 -0.701077 0.119311 1.34032 -2.26125 -0.576132 1.33157 0.779338 -0.143189 0.14489 0.781324 -1.06521 0.599358 3.23886 -0.279434 -0.526461 -0.106961 0.510662 -0.763551 0.198301 0.0791317 -0.0963902 0.400202 -0.0357201 0.217675 0.0212403 0.485281 0.0247469 -0.0907533 0.321792 0.175578 -0.00888413 0.170907 -0.0552073 -0.0345103 0.0337761 -0.189848 -0.0763026 0.109768 0.217839 -0.181787 -0.293494 0.17548 0.359841 -0.158225 0.363139 -0.39565 0.0236034 0.0302497 -0.257169 0.211315 -0.201383 0.0150627 -0.34736 -0.186718 0.127646 -0.0187737 -0.373009 -0.0492566 -0.132929 0.243364 -0.332916 -0.197728 0.366635
4008 -0.477137 -0.606858 0.0217399 1.31491 -2.35834 -0.620825 1.43143 0.901802 -0.179463 0.269664 0.962853 -1.12765 0.811471 3.30306 -0.278787 -0.463436 -0.109096 0.541742 -0.55026 0.31887 0.196812 -0.200272 0.454053 0.0679942 0.150243 -0.0502415 0.412848 0.0175353 -0.118478 0.248817 0.18941 -7.25286e-05 0.0821308 -0.013842 -0.0170985 0.14748 -0.0320881 -0.110606 -0.0176787 0.240592 -0.359548 -0.277981 0.13001 0.136816 -0.160398 0.239777 -0.248111 0.141174 0.102036 -0.0223429 0.0909245 0.0482228 0.143635 -0.343086 -0.0044956 0.0784754 0.0840771 -0.311205 -0.191269 -0.0840439 0.0361874 -0.349399 -0.053518 0.162776
2737 -0.597521 -0.87564 0.0196505 1.09986 -2.47236 -0.637315 1.26964 0.710638 0.0457883 0.328769 0.733849 -1.05788 0.767965 3.34507 -0.517153 -0.516502 -0.0437322 0.464396 -0.473408 0.639606 0.188857 -0.302536 0.334567 -0.0620674 -0.215811 0.0528786 0.52229 -0.144586 -0.174625 0.275441 0.0840514 0.0727811 0.100932 -0.0422355 0.0854557 0.0842144 0.0414182 -0.125212 -0.0220862 0.26087 -0.225011 -0.268697 0.0490465 0.0483287 -0.0542075 0.303977 -0.154241 0.0423352 0.00307926 -0.178857 0.0510715 0.0248631 0.204306 -0.335971 -0.0777745 0.132963 -0.142669 -0.183095 -0.387645 -0.00396184 0.120974 -0.378653 0.0636461 0.274289
15243 -0.554313 -0.528823 0.17214 1.12346 -2.26356 -0.581035 1.29936 0.913237 -0.156155 0.42938 0.995014 -0.882674 0.386673 2.91464 -0.17781 -0.247468 -0.0723849 0.413539 -0.519591 0.390251 0.418918 -0.0538814 0.549362 -0.0506921 0.097413 -0.0521206 0.149288 0.0248765 -0.192757 0.231195 0.283276 0.0463806 0.0879518 0.0340782 0.133855 0.1404 -0.144658 0.0809456 -0.0833205 -0.0786961 -0.495334 -0.389391 0.0869258 0.0786498 -0.0972984 0.239909 -0.2347 0.206325 0.0290689 -0.0694409 0.251926 0.106393 0.229929 -0.404518 0.0613008 -0.0173668 0.0403362 -0.304584 -0.187337 -0.0210345 0.11874 -0.200145 -0.126741 0.314347
9338 -0.64703 -0.629652 -0.0363475 1.27016 -2.16761 -0.703898 1.25288 0.798578 -0.308841 0.134705 0.916203 -0.929205 0.710325 3.15953 -0.186966 -0.429609 -0.102127 0.466753 -0.456203 0.155526 0.29561 -0.0651257 0.446953 -0.082877 0.0430327 -0.0198033 0.442848 -0.0834315 -0.179773 0.227112 0.0997438 -0.0341849 0.0544373 -0.0432473 -0.103482 0.147956 -0.157976 -0.107531 -0.0735524 -0.010291 -0.533779 -0.224659 0.0996966 0.246764 -0.134494 0.176927 -0.243176 0.162779 0.000497962 -0.0677274 0.0879035 0.0795045 0.133188 -0.314787 0.050427 0.0775786 -0.0139458 -0.363272 -0.191994 -0.226518 0.138358 -0.323387 -0.119529 0.25326
13134 -0.632337 -0.735256 0.140801 1.31474 -2.22204 -0.691914 1.38607 0.949097 -0.261188 0.311399 0.879441 -1.10021 0.686723 3.30294 -0.214274 -0.193259 -0.172213 0.669483 -0.609385 0.256494 0.108969 -0.176751 0.451084 0.0573468 0.101348 -0.0285619 0.438504 -0.00995349 -0.180607 0.230213 0.12522 -0.0882457 0.149056 -0.0519683 -0.00131248 0.0843668 -0.000967414 -0.255127 0.110567 0.30757 -0.354624 -0.127012 0.0853582 0.168034 -0.0737027 0.105631 -0.24038 0.0890411 -0.013283 -0.157377 0.172781 0.0465194 0.126451 -0.214845 -0.109736 -0.0149513 -0.142543 -0.150375 -0.0842481 -0.239432 0.217542 -0.357267 -0.0993453 0.24657
4120 -0.483107 -0.673395 -0.0591385 1.1994 -2.44953 -0.71335 1.27288 0.797752 -0.113959 0.368306 0.664377 -1.13172 0.750576 3.41817 -0.1681 -0.405895 -0.187049 0.484658 -0.474527 0.249281 0.309954 -0.223979 0.491542 -0.0445954 -0.03418 0.00915258 0.345169 -0.0281477 -0.163915 0.270091 0.136973 -0.25595 0.0358823 0.0794117 -0.102756 -0.00768267 0.0513443 -0.130794 0.00394268 0.182519 -0.245421 -0.360613 0.0463125 0.019443 -0.0854695 0.282878 -0.240731 0.203356 0.144615 0.0220864 0.203121 0.0927907 0.0945548 -0.268993 -0.0239551 0.0858728 0.114304 -0.254016 -0.160866 -0.118254 0.0435773 -0.191866 -0.136727 0.175025
11282 -0.357982 -0.732984 0.0289954 1.28372 -2.44503 -0.619892 1.25476 0.750623 -0.0274737 0.485073 0.859701 -1.22965 0.763662 3.22296 -0.349961 -0.235763 -0.231589 0.38526 -0.655412 0.346701 0.110395 -0.229235 0.413328 0.0620551 -0.173869 0.186069 0.355621 -0.025394 -0.361013 0.392264 0.141946 -0.120659 0.163618 -0.0266178 -0.0618462 0.0343011 0.0248313 -0.155405 0.0834546 0.131363 -0.364529 -0.284521 0.161186 0.180419 -0.0662515 0.166787 0.0236575 -0.0412282 -0.0332868 -0.20277 0.0321165 0.218828 0.37567 -0.377981 -0.218054 0.0402532 -0.161833 -0.10421 -0.249614 -0.223607 0.0919515 -0.397406 0.0896739 0.0509885
16751 -0.600525 -0.754589 0.0794232 1.05552 -2.30806 -0.79216 1.16075 0.730734 -0.178804 0.320293 0.841348 -1.19946 0.700966 3.23075 -0.299613 -0.388464 -0.321132 0.417379 -0.635127 0.225606 0.067653 -0.125812 0.345608 -0.0281241 -0.196312 0.166838 0.348973 -0.0434036 -0.279344 0.433946 0.17693 -0.225703 0.138567 0.00625542 -0.1377 0.0175173 -0.0269705 -0.23153 0.105527 0.211754 -0.364272 -0.269924 0.141458 0.196566 0.0148456 0.190873 -0.155475 -0.0388916 -0.0648156 -0.185546 0.133579 0.187425 0.206721 -0.312499 -0.143011 0.0953464 -0.0806787 -0.125285 -0.129416 -0.225506 0.177022 -0.323386 0.0145682 0.101384
17330 -0.664056 -0.66031 0.035442 1.42522 -2.29396 -0.592412 1.2193 0.784439 -0.220335 0.287641 0.881027 -1.10601 0.709403 3.4528 -0.247805 -0.41823 -0.0874613 0.47289 -0.496255 0.282941 0.0768425 -0.309842 0.523938 0.0306006 0.156811 -0.0588659 0.505953 0.0322605 -0.113286 0.189551 0.208966 -0.00810798 0.0867504 0.0220653 0.089426 0.122772 -0.0239358 -0.0839865 -0.0427458 0.206268 -0.442636 -0.367487 0.120286 0.0746041 -0.125061 0.171741 -0.214283 0.287475 0.017358 0.0154764 0.126898 0.0252345 0.104573 -0.257139 -0.0268575 0.160162 -0.0105641 -0.2189 -0.130912 -0.0578746 0.0249472 -0.352189 -0.132603 0.211038
6475 -0.563508 -0.665089 0.131592 1.24174 -2.32607 -0.582836 1.28516 0.892081 -0.232662 0.198696 0.912968 -1.07589 0.707559 3.26001 -0.225472 -0.353853 -0.0575223 0.588923 -0.550636 0.214983 0.207206 -0.106469 0.37992 0.0203714 0.257679 -0.0230911 0.390437 0.0512715 -0.245419 0.261381 0.0564442 -0.0181997 0.0926192 -0.0296148 -0.0371664 0.076093 -0.0871695 -0.0864886 0.0143761 0.206143 -0.425156 -0.28148 0.100542 0.240145 -0.144654 0.146821 -0.207674 0.106595 -0.0190831 -0.106167 0.108036 -0.00532495 0.12258 -0.169478 -0.0253619 -0.0349824 -0.0635839 -0.267447 -0.0962504 -0.191538 0.185193 -0.33085 -0.138426 0.185019
12257 -0.484836 -0.692039 0.0959315 1.25568 -2.44697 -0.549181 1.20211 0.732856 -0.172316 0.32966 0.866024 -1.08826 0.709314 3.3274 -0.30554 -0.423002 -0.115378 0.383181 -0.471771 0.271223 0.228618 -0.0983935 0.491706 -0.125304 0.0323849 0.15782 0.375858 -0.120905 -0.124706 0.138605 0.166528 -0.0392827 0.0780563 0.0270308 0.0606542 0.0328279 -0.0538381 -0.107489 -0.123962 -0.0965651 -0.354413 -0.375284 0.157531 0.202966 -0.206511 0.301654 -0.151249 0.175269 -0.0820283 -0.0859597 0.116103 -0.0111578 0.231552 -0.404281 -0.0597047 0.117074 -0.121198 -0.226971 -0.0334533 -0.082117 0.213936 -0.282587 0.149362 0.0449629
2605 -0.612406 -0.590118 -0.0205196 1.27999 -2.18298 -0.696949 1.2017 0.694778 0.0231934 0.281243 0.865953 -1.38822 0.78042 3.28499 -0.249933 -0.264541 -0.190829 0.567319 -0.482384 0.200924 0.0511913 -0.117219 0.623781 0.0135411 0.145861 -0.0624887 0.411128 -0.00360446 -0.0915196 0.107734 0.285349 0.0258902 -0.044729 0.0492258 -0.0563715 0.208046 -0.100761 -0.0450461 0.0860517 0.154522 -0.319824 -0.265328 0.00401719 0.127185 -0.0463438 0.189301 -0.222901 0.108706 0.153535 -0.0524501 0.288783 0.128534 -0.0245629 -0.413765 0.179027 0.00578325 0.18034 -0.321138 -0.222481 -0.346662 0.0344889 -0.220798 -0.212959 0.359326
15176 -0.589881 -0.654992 0.00332397 1.24714 -2.42264 -0.619114 1.3678 0.842463 -0.148163 0.279573 0.930552 -1.09675 0.676257 3.36402 -0.329667 -0.39936 -0.1298 0.433428 -0.539421 0.322681 0.186575 -0.266115 0.571467 -0.00118575 0.169757 0.00126452 0.457873 0.00742885 -0.0774766 0.187684 0.0922971 0.0617241 0.059187 -0.0221231 0.00247211 0.154348 -0.0171535 -0.0491541 -0.0277674 0.116819 -0.325294 -0.262686 0.0505371 0.14588 -0.138338 0.230295 -0.164157 0.130472 0.0309082 -0.0420768 0.152737 0.0631792 0.081245 -0.303441 0.0548318 -0.0168111 -0.108443 -0.296368 -0.169435 -0.146841 0.109668 -0.412707 -0.174684 0.152361
3092 -0.525603 -0.601325 0.0111352 1.31342 -2.33811 -0.653147 1.31573 0.787543 -0.175804 0.315289 0.958307 -1.0905 0.694221 3.33922 -0.26154 -0.365136 -0.0713426 0.489845 -0.440025 0.364016 0.163089 -0.206022 0.598998 0.020817 0.212785 -0.0513554 0.489246 -0.0105895 -0.122694 0.206286 0.195513 0.00800303 0.0473543 0.00836691 0.0162527 0.115653 -0.0855941 -0.0621284 -0.00375348 0.128115 -0.301628 -0.284328 0.127571 0.0932912 -0.0604293 0.267196 -0.224065 0.21401 0.0220809 -0.0312626 0.0952569 0.0399401 0.0847932 -0.306598 0.00863523 0.0467008 0.0266402 -0.329586 -0.224278 -0.165293 0.0813438 -0.376899 -0.147262 0.25133
12924 -0.59134 -0.653778 0.0920904 1.24276 -2.38847 -0.572243 1.35091 0.873139 -0.141818 0.273143 0.973516 -1.1476 0.666148 3.31577 -0.261237 -0.447312 -0.0755303 0.535921 -0.581763 0.357337 0.192419 -0.2947 0.49349 0.0442387 0.158045 0.018373 0.464239 -0.0266845 -0.127884 0.217384 0.12247 -0.0722257 0.0983187 -0.0492613 0.0426569 0.117817 -0.0331904 -0.104366 -0.0397973 0.160043 -0.367757 -0.292757 0.113288 0.0980902 -0.0196906 0.205355 -0.236161 0.215384 0.0813169 -0.0624315 0.190647 0.0622923 0.10029 -0.252125 -0.0148753 -0.00503823 -0.0758104 -0.348581 -0.247809 -0.219061 0.0903826 -0.289681 -0.0963448 0.134225
8864 -0.462042 -0.61424 0.0568354 1.24741 -2.35915 -0.72668 1.2857 0.873061 -0.277118 0.42223 0.882375 -1.03088 0.619556 3.15139 -0.29348 -0.270017 -0.163405 0.452082 -0.560126 0.376575 0.307828 -0.177127 0.68278 0.000870726 0.0836779 -0.10238 0.469957 -0.00907958 -0.289369 0.194602 0.223858 0.13221 -0.0197584 0.0412081 0.071924 0.17588 -0.181666 -0.005952 -0.0180575 0.0481098 -0.41507 -0.368971 0.12355 0.087225 -0.13183 0.271624 -0.246753 0.308786 0.0308037 0.0612236 0.167781 0.30646 0.161061 -0.447681 0.0577535 0.17117 -0.0720873 -0.296751 -0.171285 -0.0329064 -0.0349274 -0.424741 -0.0583081 0.299405
511 -0.530019 -0.613685 0.0216381 1.23793 -2.43476 -0.656741 1.25225 0.932552 -0.133839 0.442726 0.869284 -0.994441 0.691095 3.29628 -0.316464 -0.305376 -0.20042 0.517788 -0.56033 0.438163 0.280617 -0.269853 0.557395 0.0890135 0.0317082 -0.0333593 0.364517 0.093898 -0.1933 0.201582 0.231808 0.031875 -0.00696666 0.119131 0.134301 0.179675 0.0254775 -0.0482687 -0.0830145 -0.104334 -0.448862 -0.337653 0.11038 0.167739 -0.0670495 0.297822 -0.252754 0.459723 0.0877796 0.0813526 0.0603881 0.0927356 0.191359 -0.354524 0.0368814 0.176955 -0.00945685 -0.351573 -0.221977 0.0360741 0.0432098 -0.317871 -0.0975407 0.341772
1717 -0.479118 -0.606539 0.0368649 1.25526 -2.36389 -0.566877 1.28318 0.953891 -0.200596 0.372489 0.984101 -1.02781 0.638837 3.20944 -0.292302 -0.310671 -0.0338378 0.512224 -0.524197 0.31742 0.3754 -0.183502 0.498033 -0.016261 0.0689031 -0.0658537 0.347753 0.0820433 -0.223903 0.217907 0.181614 -0.0853264 0.0282189 -0.0167268 0.0231722 0.106271 0.0577316 -0.073319 -0.00075806 -0.0620453 -0.352586 -0.273012 0.107821 0.18939 -0.228866 0.258683 -0.238504 0.292537 0.0257621 0.0200415 0.10096 0.100995 0.112355 -0.425162 0.0582937 0.0487539 -0.0625149 -0.329276 -0.184269 -0.0669703 0.0626649 -0.335309 -0.116827 0.152475
3073 -0.529837 -0.714621 0.0358549 1.22354 -2.37125 -0.574368 1.35189 0.936586 -0.138429 0.340931 0.85774 -0.999459 0.611072 3.36527 -0.356493 -0.268374 -0.110224 0.499869 -0.43574 0.42331 0.125014 -0.220013 0.592838 0.0217191 0.0863517 0.0297429 0.378434 -0.0183258 -0.164064 0.151844 0.207918 -0.0782409 -0.0679745 0.0929045 0.053755 0.0902445 0.103364 -0.197859 -0.0239295 -0.0119375 -0.346519 -0.211986 0.110922 0.0360027 -0.140978 0.299486 -0.178178 0.363026 -0.0024179 0.090301 0.0966225 0.0578554 0.156969 -0.407506 0.0673687 0.158071 -0.0661647 -0.243136 -0.143636 -0.103761 0.0614268 -0.403734 -0.0583889 0.167308
4922 -0.553009 -0.718751 0.0707455 1.23058 -2.33028 -0.634763 1.35641 0.963715 -0.281278 0.396028 0.964921 -1.03111 0.637625 3.29394 -0.25336 -0.307483 -0.13642 0.504301 -0.51807 0.299142 0.326737 -0.173508 0.579792 -0.0139357 0.0762261 0.0180133 0.395146 -0.00825846 -0.231696 0.233586 0.174232 0.00199403 -0.0378003 0.0112002 -0.0978422 0.164372 -0.0321379 -0.0997444 -0.0404586 -0.0575748 -0.274951 -0.238025 0.115707 0.0739406 -0.121612 0.295875 -0.233643 0.264794 0.0227451 0.0143238 0.140391 0.208508 0.190781 -0.479734 0.121981 0.0400505 -0.0963376 -0.384067 -0.132633 -0.0566378 0.0396227 -0.456821 -0.103611 0.192897
8139 -0.622507 -0.64992 -0.11705 1.31834 -2.31983 -0.645456 1.3301 0.717984 -0.201201 0.239357 0.971523 -1.08353 0.736765 3.35347 -0.287036 -0.356571 -0.121525 0.510299 -0.542643 0.250067 0.241979 -0.181238 0.521933 0.0264947 0.0439233 0.0537029 0.426003 0.00132903 -0.172898 0.180268 0.108989 -0.0455918 0.0435843 0.063776 -0.0345642 0.0831467 -0.0508513 -0.0879866 -0.0639505 0.131172 -0.480606 -0.25471 0.136025 0.193484 -0.109986 0.212 -0.20573 0.206788 0.035165 -0.0195495 0.113508 0.0938627 0.114329 -0.259096 0.078573 -0.0200159 0.0303802 -0.360988 -0.166271 -0.0744301 0.0275909 -0.308336 -0.0530173 0.12711
5413 -0.396627 -0.550301 0.168733 1.36302 -2.34323 -0.607893 1.33254 0.899115 -0.268232 0.325383 0.90903 -1.02087 0.589436 3.18339 -0.334186 -0.339729 -0.154754 0.515745 -0.529235 0.275442 0.173862 -0.193863 0.591847 -0.00939963 0.210477 -0.0339198 0.344666 0.00432179 -0.193853 0.250102 0.136627 -0.038922 0.170916 -0.0867054 0.117789 0.0192834 0.0380733 -0.0130891 -0.0476065 0.0932446 -0.384519 -0.301909 0.00274888 0.159668 -0.0207008 0.16303 -0.154291 0.155949 0.00967009 -0.100165 0.313589 0.00582914 0.221535 -0.306417 -0.022791 -0.0755364 -0.140452 -0.206051 -0.222882 -0.255091 0.232922 -0.295617 -0.0893824 0.11873
15146 -0.576796 -0.645078 -0.00321673 1.18037 -2.38714 -0.652015 1.31871 0.886075 -0.241999 0.351318 0.919076 -0.98678 0.75141 3.34598 -0.346617 -0.402297 -0.177173 0.440888 -0.53627 0.345585 0.38169 -0.248353 0.544457 0.0534117 0.0657077 0.00111057 0.43313 -0.0415608 -0.138633 0.146295 0.175481 -0.0345257 -0.0182102 -0.0211124 -0.0425924 0.208776 -0.0287284 -0.0309239 -0.133328 0.00939349 -0.489206 -0.386488 0.128738 0.161379 -0.232015 0.197816 -0.229574 0.359865 -0.00798649 0.0500256 0.142857 0.193548 0.324828 -0.453787 0.0243795 0.0505429 -0.143118 -0.336669 -0.118885 0.0478408 0.045077 -0.420197 -0.117229 0.33835
11105 -0.556661 -0.786064 0.0247752 1.28662 -2.32367 -0.781298 1.36001 0.872318 -0.214444 0.334423 0.811603 -1.22039 0.752656 3.36293 -0.292969 -0.367114 -0.163069 0.504924 -0.458421 0.310839 0.201258 -0.239816 0.595971 -0.0277541 0.157295 -0.0989247 0.431293 -0.0624345 -0.23103 0.212077 0.17846 -0.0798751 0.0029184 -0.00594779 -0.0858297 0.0889284 -0.0278965 -0.230102 -0.0182759 0.234843 -0.490119 -0.27643 0.129712 -0.00464893 -0.0122165 0.297133 -0.229398 0.210497 -0.0177612 0.0585642 0.121947 0.201488 0.14249 -0.310648 0.0549009 0.0956459 -0.0654446 -0.217454 -0.16633 -0.194489 0.0579357 -0.296866 -0.0956629 0.251403
3777 -0.620326 -0.722856 0.0228421 1.20831 -2.45181 -0.640102 1.28077 0.767976 -0.0621074 0.160739 0.772817 -1.12246 0.72635 3.25016 -0.357033 -0.497404 -0.0709989 0.448748 -0.502102 0.255662 0.206404 -0.184075 0.510429 -0.0777721 0.0706298 0.097167 0.398038 -0.0936336 -0.107001 0.216081 0.152169 -0.0721847 0.112289 -0.0201357 -0.0889909 0.0312903 0.0506078 -0.102141 -0.10478 -0.125261 -0.395923 -0.309692 0.113694 0.194008 -0.104233 0.284262 -0.184908 0.227602 -0.0748664 -0.0610202 0.155116 0.022166 0.238339 -0.391407 -0.00976451 -0.0483707 -0.049333 -0.180981 -0.150366 -0.203767 0.150308 -0.229517 0.00612172 0.192903
15011 -0.459899 -0.565967 0.0884605 1.29857 -2.09476 -0.71172 1.25017 0.737287 -0.320953 0.363946 0.852841 -0.951336 0.558706 3.06991 -0.338129 -0.285239 -0.219318 0.330316 -0.42678 0.279904 0.280681 -0.142485 0.588063 -0.0463522 -0.000378707 -0.0606428 0.410857 -0.0110166 -0.26171 0.222979 0.108135 0.169219 0.0438575 0.0470107 -0.0276199 0.105529 -0.114213 0.0693088 -0.0897704 -0.030213 -0.421089 -0.2853 0.0594165 0.126002 -0.059966 0.235766 -0.201124 0.396317 0.143027 -0.0184963 0.289797 0.346091 0.17711 -0.387056 0.0437699 0.0528728 -0.120809 -0.334955 -0.251536 -0.167119 -0.0474508 -0.318683 -0.162617 0.375604
6509 -0.651393 -0.691353 0.0633084 1.29199 -2.39474 -0.608153 1.24758 0.930155 -0.112866 0.338391 0.927908 -1.07006 0.620589 3.33056 -0.404774 -0.378986 -0.104903 0.371015 -0.390545 0.386211 0.292524 -0.253863 0.591574 -0.0237454 0.0426874 -0.0162552 0.324688 0.0841371 -0.0793475 0.161398 0.205706 -0.0826541 -0.0276616 0.0417419 0.0152193 0.154132 0.126779 -0.0893286 -0.0757951 0.0139977 -0.454291 -0.336921 0.0765705 0.084308 -0.168796 0.430097 -0.175286 0.442879 0.0796624 0.00103194 0.203684 0.270879 0.0504324 -0.331725 0.0842719 0.100689 -0.0748707 -0.275352 -0.255978 -0.0930551 0.0259295 -0.392313 -0.138494 0.204066
5386 -0.632058 -0.631267 -0.0745213 1.16765 -2.38932 -0.702895 1.30201 0.947532 -0.231217 0.337093 0.874549 -1.02655 0.705645 3.32459 -0.187458 -0.338001 -0.139272 0.512332 -0.553691 0.288265 0.392447 -0.175287 0.479521 0.0695804 0.0556895 -0.0086308 0.383045 -0.0305628 -0.141157 0.148301 0.188133 0.00802004 -0.0310808 0.0492447 -0.0437637 0.147877 -0.0481461 -0.106658 -0.0752997 -0.0356824 -0.357264 -0.346403 0.138795 0.0385938 0.0373374 0.221315 -0.201833 0.298323 0.0211408 0.0313231 0.130393 0.249509 0.218745 -0.362903 0.0653516 0.0841375 -0.0385653 -0.407904 -0.159532 -0.0963502 0.0228371 -0.50302 -0.0525948 0.282371
19079 -0.470085 -0.619113 0.051608 1.06338 -2.04364 -0.557343 1.07553 0.9357 -0.174273 0.343095 0.698959 -0.987024 0.576479 2.7566 -0.315324 -0.330981 -0.0835311 0.528612 -0.580272 0.292348 0.314832 -0.191484 0.613067 -0.0368332 -0.0139162 -0.0950498 0.307656 0.130503 -0.257317 0.202816 0.148819 0.0453572 0.0379183 -0.0551186 0.112752 0.0799529 -0.0696951 -0.0684994 -0.0259857 -0.167463 -0.3215 -0.315844 0.0922973 0.0872584 -0.0333142 0.198894 -0.210059 0.353917 -0.0334765 0.0147874 0.149094 0.107133 0.138036 -0.398409 -0.0769581 0.261808 -0.187412 -0.315537 -0.286189 -0.159948 0.069995 -0.32012 -0.0469805 0.239832
15488 -0.532094 -0.59163 0.179144 1.34966 -2.23379 -0.623783 1.16798 0.816584 -0.299456 0.312834 0.879858 -1.07611 0.64726 3.04108 -0.255041 -0.247248 -0.14165 0.515233 -0.691154 0.195436 0.1224 -0.162574 0.520872 0.0908439 0.275627 -0.0926994 0.432912 0.0362255 -0.269406 0.236751 0.131514 0.0505611 0.120398 -0.129303 -4.573e-05 0.0935872 -0.30294 -0.0681443 0.139726 0.158154 -0.272197 -0.294702 0.0703347 0.228914 -0.052619 0.134733 -0.238364 0.0905086 0.0822362 -0.0860609 0.210085 -0.0802628 0.0146724 -0.145625 -0.0550245 -0.0108426 -0.059889 -0.226863 -0.126668 -0.267142 0.123617 -0.260346 -0.0519894 0.317834
15010 -0.408918 -0.582401 0.126158 1.10142 -1.89998 -0.572612 0.832758 0.736604 -0.0764894 0.396045 0.571957 -1.16632 0.576931 2.61819 -0.213063 -0.2364 -0.193508 0.576431 -0.773448 0.246134 0.0761859 -0.129517 0.56469 -0.0451312 -0.122309 -0.0865562 0.352305 0.106154 -0.405592 0.355413 0.203628 0.203446 0.0902819 0.0397343 0.0537608 0.0696638 -0.357151 -0.0393086 0.156003 -0.110457 -0.0776252 -0.273153 0.0986914 0.0903015 0.0727652 0.125368 -0.185917 0.126766 0.0838477 -0.128557 0.148496 -0.050931 0.0185101 -0.394523 -0.184346 0.219413 -0.0445216 -0.231948 -0.264496 -0.378926 0.153476 -0.34004 0.0460529 0.265074
5044 -0.389851 -0.632942 0.0829012 1.22912 -2.10857 -0.726717 0.973636 0.822461 -0.139527 0.524438 0.75378 -1.47771 0.657461 3.06049 -0.340235 -0.286506 -0.256214 0.788995 -0.899496 0.314908 0.146741 -0.081523 0.683801 -0.0703112 -0.0721954 -0.210334 0.405937 0.170984 -0.358527 0.33516 0.29596 0.291065 0.078869 0.072489 0.102593 0.120581 -0.418565 -0.0545385 0.216187 0.00719942 -0.245431 -0.31529 0.0242068 0.112325 0.0889701 0.137731 -0.231789 0.220941 0.122637 -0.17602 0.260384 0.019596 -0.0238246 -0.433972 -0.118943 0.229202 0.0166134 -0.207825 -0.327214 -0.389699 0.17333 -0.284492 -0.0698829 0.265633
16655 -0.459889 -0.532128 0.0400295 1.05731 -1.87568 -0.591756 1.10722 0.743545 -0.104141 0.266008 0.556535 -0.984646 0.575085 2.6132 -0.205247 -0.391593 -0.16511 0.607255 -0.656306 0.260131 0.226515 -0.111441 0.551516 -0.0242582 0.0525614 -0.0436602 0.447722 0.0983631 -0.252962 0.322831 0.211752 0.0506325 0.0737311 0.0209084 -0.024418 0.0885846 -0.16094 -0.0414511 0.0390588 0.102995 -0.24 -0.35117 0.1261 0.14047 -0.0308154 0.182714 -0.281531 0.219756 0.0769255 -0.120607 0.15287 -0.0207259 0.13819 -0.415572 -0.1726 0.204352 -0.0315099 -0.415847 -0.281639 -0.265177 0.125375 -0.441038 -0.11489 0.300095
8467 -0.574556 -0.6119 0.0712527 1.26614 -2.36183 -0.603139 1.1761 0.842629 -0.143992 0.232618 0.77294 -1.22821 0.717267 3.14376 -0.36665 -0.403888 -0.0984994 0.455438 -0.654996 0.147338 0.0864546 -0.183595 0.52271 0.00313881 0.230826 -0.104856 0.398134 0.0380544 -0.316397 0.367863 0.00534363 0.0809151 0.125763 -0.0768806 0.00946617 0.104705 -0.177983 -0.0489118 0.0234541 0.101613 -0.354838 -0.296202 0.118889 0.280324 -0.081472 0.209296 -0.188244 0.0640996 -0.0407011 -0.192018 0.173572 0.0619779 0.123659 -0.227358 -0.0980769 0.0564939 -0.0798441 -0.325115 -0.225034 -0.322236 0.185539 -0.380287 -0.106541 0.129292
13173 -0.530573 -0.686507 0.120254 1.2949 -2.46672 -0.563574 1.40045 0.792309 -0.136262 0.295949 1.07011 -1.10268 0.585558 3.27688 -0.521424 -0.472729 -0.116772 0.472431 -0.349628 0.32976 0.174778 -0.283105 0.646032 -0.0751421 0.126152 0.121461 0.324497 0.0399805 -0.0538725 0.226989 0.0955133 -0.128746 0.0653808 0.0409006 -0.0364323 0.121451 -0.0895894 -0.0176454 -0.165402 -0.0604243 -0.556434 -0.31012 0.00367057 0.108732 -0.202428 0.331526 -0.158807 0.323051 0.112274 -0.166624 0.211784 0.181543 -0.011147 -0.169248 0.0451238 -0.0340277 -0.171102 -0.277443 -0.295662 -0.269268 0.148327 -0.349636 -0.0968846 0.123407
9633 -0.397721 -0.689518 0.0190903 1.30414 -2.80609 -0.814233 1.38285 0.802039 -0.0159444 0.223637 0.94429 -1.19693 0.564409 3.80949 -0.0730314 -0.153044 -0.043149 0.604729 -0.823105 0.44992 0.296662 -0.484428 0.374218 -0.0643156 -0.181993 0.124846 0.514489 0.251426 -0.0615212 -0.00145366 0.0294142 -0.153501 0.0749415 0.136023 0.149061 -0.0620434 0.174874 -0.0486999 0.0450852 0.276066 -0.532477 -0.451742 0.0175832 0.468081 -0.357457 0.179192 -0.194427 0.240437 0.0792795 0.0611408 0.205834 -0.0620979 0.162878 -0.186331 0.105903 -0.218803 -0.144077 -0.514094 -0.432239 -0.462319 0.155354 -0.594734 -0.0142493 0.179101
813 -0.683485 -0.571246 0.198311 1.44315 -2.61416 -0.565088 1.29082 1.00702 -0.122946 0.383572 0.904025 -1.22372 0.440082 3.42548 -0.117823 -0.442575 0.0623877 0.454931 -0.448307 0.33711 0.235209 -0.269561 0.402529 -0.0431072 -0.151407 -0.155283 0.332488 0.00786387 -0.235632 0.356619 0.112791 -0.135119 0.184056 0.169035 0.211255 0.0431147 0.148272 -0.00138252 -0.062312 0.29603 -0.413477 -0.122589 0.0439289 0.213868 -0.169519 0.138233 -0.167799 0.391866 0.272026 -0.100784 0.156472 -0.0619349 0.216639 -0.397665 5.81172e-05 -0.0704549 0.0417836 -0.395142 -0.29017 -0.218038 0.115065 -0.365243 -0.144223 0.513985
4879 -0.514795 -0.660204 0.183917 1.1544 -2.71434 -0.530985 1.41996 0.984614 -0.023526 0.426899 0.889149 -1.34685 0.440014 3.55074 -0.211169 -0.33856 0.0128578 0.515175 -0.452196 0.390236 0.15739 -0.480699 0.486805 -0.137642 -0.354086 0.0720856 0.620296 -0.0851964 -0.299142 0.232986 0.113011 -0.263699 0.105435 0.0870666 -0.0946614 -0.156006 -0.0132884 -0.1009 -0.0134027 -0.106974 -0.461513 -0.351343 0.0336941 0.19605 -0.250942 0.0358093 -0.0952314 0.22251 -0.0580252 0.0144229 0.168198 -0.0636414 0.0313776 -0.300047 0.247032 -0.0991029 -0.234719 -0.436015 -0.328488 -0.573811 0.255772 -0.470587 -0.256393 0.269143
4905 -0.578685 -0.702265 0.206914 1.31333 -2.57085 -0.695335 1.39986 0.917375 -0.300732 0.362759 0.867664 -1.2809 0.47027 3.65993 -0.204513 -0.341429 -0.109031 0.342377 -0.562704 0.283527 0.248552 -0.173995 0.495243 -0.140573 -0.229231 -0.061709 0.519039 -0.00390011 -0.133999 0.251156 0.132019 -0.0999533 0.125103 0.0869641 0.0835338 -0.0707055 -0.103216 0.0094909 -0.0441263 0.220628 -0.426817 -0.231385 0.0945041 0.271832 -0.164669 0.222273 -0.190954 0.307873 0.0399797 -0.0498428 0.134791 0.0412746 0.285485 -0.342562 -0.00514811 -0.0648307 -0.0590937 -0.48815 -0.298034 -0.363485 0.0506365 -0.599925 -0.023923 0.328952
4862 -0.556792 -0.603891 0.0847895 1.21601 -2.52318 -0.669664 1.45465 0.87275 -0.281676 0.343313 1.00513 -1.22065 0.412811 3.51334 -0.14945 -0.0727375 -0.0571556 0.382195 -0.625913 0.335048 0.179271 -0.299935 0.508131 -0.0364592 -0.149701 0.0365714 0.540511 0.254344 -0.10934 0.184589 0.0662767 -0.0277019 0.203871 -0.0514316 0.138563 -0.0515878 -0.0428973 -0.00170759 0.0418705 0.189196 -0.385975 -0.191809 0.107352 0.299603 -0.281427 0.116686 -0.158217 0.254926 0.0150405 -0.110371 0.235859 0.00127788 0.195382 -0.271858 0.0668808 -0.094144 -0.187958 -0.572284 -0.38722 -0.4316 0.142074 -0.737009 -0.152846 -0.00108162
16850 -0.449749 -0.748222 0.217245 1.27045 -2.28818 -0.672525 1.54286 0.830508 -0.464096 0.265616 0.937202 -1.12516 0.396963 3.49718 -0.238606 -0.0604122 -0.229025 0.239323 -0.5871 0.271067 0.207947 -0.25978 0.502657 -0.113229 -0.0941603 0.141846 0.532071 0.161013 -0.253598 0.242684 0.0328947 -0.0266364 0.0821263 -0.00862963 0.0568088 -0.0678102 -0.216823 -0.0114717 -0.0495217 0.189093 -0.497592 -0.304678 0.111922 0.27772 -0.321737 0.210053 -0.212523 0.200382 -0.0455112 -0.0116945 0.188292 0.0551544 0.21131 -0.171339 0.0842338 -0.0931923 -0.151305 -0.57703 -0.362207 -0.366045 0.0349825 -0.66813 0.0192608 -0.00816768
3116 -0.463006 -0.670222 0.121988 1.15259 -2.73734 -0.765302 1.4692 0.918925 -0.102338 0.348328 0.90078 -1.38392 0.674187 3.69244 -0.141489 -0.389023 -0.0322932 0.634165 -0.476356 0.308162 0.186306 -0.243924 0.423908 -0.0833945 -0.101218 0.0245874 0.577313 -0.000418365 -0.0357133 0.0965371 0.183435 -0.110377 0.0815678 0.114243 0.102388 -0.0633249 -0.0906532 0.0560265 0.0302622 0.275993 -0.513197 -0.375637 0.210079 0.168153 -0.274358 0.242937 -0.0959664 0.297816 -0.0119591 -0.0650049 0.166181 -0.117489 0.20512 -0.407728 0.110982 -0.186983 0.0532052 -0.319991 -0.233564 -0.46491 0.272058 -0.614093 -0.108767 0.0879969
17335 -0.645722 -0.596174 0.111741 1.30546 -2.71191 -0.742251 1.38517 0.918874 -0.272479 0.358208 0.956077 -1.24037 0.453436 3.54987 -0.105581 -0.212725 -0.0677568 0.368291 -0.490741 0.328132 0.276634 -0.22968 0.531892 -0.0666079 -0.183799 -0.014062 0.458972 0.243267 -0.081604 0.215085 0.118946 -0.141137 0.23259 -0.0495272 0.109872 -0.0763459 0.0150161 0.00183337 0.000226979 0.276008 -0.532349 -0.243464 0.129356 0.30109 -0.410819 0.123975 -0.15821 0.305332 0.0293523 -0.158131 0.191444 -0.02671 0.198773 -0.240655 -0.0032961 -0.0564319 -0.129862 -0.518243 -0.41715 -0.372121 0.158693 -0.661183 -0.143293 0.091541
7711 -0.620291 -0.558616 0.0852542 1.21131 -2.6784 -0.693169 1.28087 0.83375 -0.0713545 0.374615 1.0133 -1.14331 0.399082 3.43306 -0.0835443 -0.0343756 0.0110647 0.478479 -0.69924 0.445498 0.23895 -0.393853 0.570947 -0.00720868 -0.0840742 0.0265979 0.518581 0.351795 -0.190714 0.247363 0.0560688 -0.19526 0.26735 -0.0359101 0.152606 -0.0474602 0.218592 -0.0665172 0.00161578 0.189547 -0.374844 -0.218412 0.0971253 0.259633 -0.282871 0.00187096 -0.159348 0.27679 0.0635828 -0.175561 0.264819 -0.00863558 0.16342 -0.160329 0.067475 -0.142387 -0.219618 -0.713271 -0.461447 -0.38831 0.193762 -0.671674 -0.178886 0.0855629
279 -0.660951 -0.654981 0.18998 1.0157 -2.64353 -0.674267 1.51108 0.944221 -0.366799 0.460552 1.00769 -1.39142 0.529786 3.54864 -0.0824796 -0.167477 -0.100562 0.370812 -0.427556 0.212661 0.105574 -0.221758 0.589613 -0.0553343 -0.114406 0.0844597 0.574218 0.030317 -0.133446 0.288623 0.133324 -0.0920913 0.164838 -0.0578035 -0.0331891 -0.0422993 -0.0585621 -0.0645701 0.0143903 0.299146 -0.354148 -0.267997 0.226502 0.082402 -0.296751 0.095311 -0.0762212 0.206003 -0.00842455 -0.131753 0.127144 -0.00320259 0.186397 -0.257555 0.0870728 -0.127611 -0.141226 -0.556154 -0.225831 -0.381021 0.06496 -0.754773 -0.0489372 0.100499
12771 -0.475926 -0.673188 0.409859 1.19207 -2.51196 -0.58076 1.55269 0.991119 -0.323921 0.543879 0.946303 -1.2617 0.482146 3.27647 -0.0288167 -0.312278 -0.0340721 0.692087 -0.527306 0.257302 0.113282 -0.109527 0.473463 -0.108939 0.0550048 0.109922 0.436865 -0.208946 -0.0998996 0.16788 0.173407 -0.0808298 0.034778 0.0346988 -0.120639 0.0326981 -0.215113 -0.0118349 -0.0560452 0.143976 -0.145828 -0.430903 0.168783 -0.192607 -0.0392528 0.151058 -0.015071 0.261724 0.0362075 -0.0645376 0.20331 -0.0572542 0.247951 -0.389083 0.0274325 -0.210051 -0.152789 -0.303521 -0.12317 -0.45643 0.149674 -0.801892 -0.0449385 0.235358
9427 -0.499548 -0.493402 0.240674 1.15148 -2.37492 -0.602216 1.40242 0.809367 -0.253586 0.423294 0.974241 -1.11007 0.475047 3.14809 -0.0354352 -0.124491 0.0124923 0.65173 -0.622192 0.289747 0.227735 -0.247484 0.474441 0.00231903 0.0537313 0.0941546 0.586511 0.0266506 -0.097509 0.206102 0.0432295 -0.107741 0.208575 -0.0417791 0.0119139 0.00920069 -0.0206148 0.0137386 -0.108168 0.163416 -0.218577 -0.250963 0.119541 0.0453443 -0.184874 0.0386603 -0.0224774 0.27704 0.07233 -0.210355 0.238713 -0.0158041 0.291547 -0.136599 -0.050831 -0.234739 -0.288408 -0.543264 -0.246484 -0.381653 0.164732 -0.893878 -0.0892588 0.157383
11377 -0.384929 -0.588308 0.334869 1.14578 -2.80908 -0.737526 1.52093 1.02754 -0.135267 0.497528 0.922781 -1.49689 0.743342 3.59516 -0.123395 -0.480967 0.0750303 0.3654 -0.552174 0.417474 0.135322 -0.0750592 0.601542 -0.143748 -0.081675 -0.0229071 0.493231 -0.196457 -0.0926837 0.221155 0.129667 -0.064718 0.0536327 0.117704 -0.00394265 0.0636752 0.0141759 -0.102597 0.013818 0.369697 -0.411159 -0.377839 0.281921 0.0224034 -0.460374 0.318745 -0.0995891 0.205865 0.0816844 -0.0341051 0.013771 -0.0513027 0.266242 -0.443443 -0.0194507 -0.123001 0.0895564 -0.190967 -0.13408 -0.361206 0.115778 -0.68938 -0.118619 0.066545
14881 -0.628627 -0.630112 0.306823 1.21824 -2.5193 -0.504683 1.43618 1.09655 -0.18935 0.22559 0.799818 -1.31645 0.553574 3.29487 -0.0648311 -0.417158 0.0772529 0.48546 -0.694848 0.310953 0.4733 -0.204752 0.618053 -0.133288 -0.192274 -0.0593956 0.349665 -0.252336 -0.143822 0.198583 0.457985 -0.303901 0.140886 -0.121703 0.21006 -0.141699 -0.193992 0.12766 -0.00746142 0.192004 -0.648516 -0.544439 0.0802212 0.147476 -0.128171 0.252496 -0.0900115 0.387222 0.033579 0.0302184 0.266674 0.0648094 0.151543 -0.332123 -0.0125211 0.0279405 -0.175569 -0.166412 -0.121596 -0.0326241 0.0498008 -0.302709 0.11645 0.245466
12646 -0.64868 -0.747229 0.173798 1.16959 -2.55541 -0.815109 1.48881 1.0196 -0.207727 0.342365 0.912412 -1.44714 0.72539 3.5742 -0.0758037 -0.46671 0.0103756 0.449062 -0.50736 0.309366 0.168409 -0.138257 0.516237 -0.139312 -0.215155 -0.022018 0.534633 -0.02441 -0.08415 0.204241 0.17288 -0.0955536 0.142983 0.0820857 0.0708707 0.00305774 -0.0170195 -0.126672 0.0521221 0.476235 -0.434718 -0.1592 0.160863 0.176929 -0.313707 0.265398 -0.167832 0.30729 0.0300234 -0.0201237 0.0289315 -0.0930731 0.16421 -0.410423 0.00492958 -0.0913737 0.00279117 -0.35052 -0.233046 -0.359276 0.0777365 -0.523322 0.0149293 0.13822
4379 -0.543018 -0.60517 0.0990355 1.43455 -2.58501 -0.580299 1.36471 1.11202 -0.404618 0.336489 0.734657 -1.13164 0.699121 3.36603 -0.117784 -0.362762 -0.0252914 0.383971 -0.529099 0.209249 0.145321 -0.113421 0.310435 -0.0766168 -0.124793 -0.094738 0.330173 -0.0186687 -0.38968 0.355068 0.202942 -0.0472735 0.125865 0.147095 0.225632 -0.0427031 -0.0685233 0.0140649 0.0496109 0.238609 -0.522844 -0.335618 0.171129 0.277262 -0.18487 0.260959 -0.189454 0.419553 0.218519 0.0441854 0.197715 -0.155665 0.23191 -0.402885 -0.187329 0.00830682 0.160693 -0.210596 -0.277419 -0.251657 0.121131 -0.302348 -0.0433363 0.559513
8102 -0.554027 -0.725212 0.110655 1.36598 -2.65301 -0.657256 1.4888 1.00877 -0.236443 0.320144 0.899058 -1.33286 0.631485 3.76473 -0.165642 -0.439593 -0.0282461 0.357132 -0.425211 0.220834 0.249901 -0.258727 0.540711 -0.24081 -0.270443 -0.0364057 0.557243 -0.0467905 -0.173395 0.18799 0.169912 -0.208405 0.0539611 0.0816088 0.0112579 -0.0914986 0.093061 -0.0754919 0.0612429 0.311176 -0.523365 -0.282026 0.115035 0.374296 -0.324016 0.247165 -0.194828 0.257408 -0.0259652 0.0374916 0.0431315 -0.0676167 0.192198 -0.475403 0.0820199 -0.00770503 0.0994044 -0.392679 -0.242447 -0.372031 0.0841733 -0.42366 -0.0223343 0.298759
11524 -0.498515 -0.469042 0.0248486 1.39612 -2.57675 -0.533621 1.36778 1.09503 -0.319615 0.375929 0.778357 -1.18027 0.617239 3.3597 -0.146487 -0.444749 0.0323341 0.429077 -0.454577 0.226454 0.192787 -0.0714347 0.341121 -0.124377 -0.132601 -0.172948 0.33736 -0.00739721 -0.309201 0.344285 0.249349 -0.056495 0.179974 0.152968 0.333568 -0.0315798 0.0733905 0.0269517 -0.0167272 0.287129 -0.46637 -0.196725 0.133782 0.232885 -0.113413 0.300483 -0.129872 0.502245 0.195274 -0.0607624 0.24321 -0.12464 0.241245 -0.439891 -0.17828 0.0665654 0.162093 -0.244673 -0.297972 -0.255996 0.171283 -0.285396 -0.102711 0.418507
2118 -0.422356 -0.486285 0.191458 1.36806 -2.61203 -0.535345 1.48497 1.17059 -0.330239 0.470991 0.847263 -1.17779 0.535278 3.3515 -0.166208 -0.353757 -0.0410739 0.32978 -0.477107 0.296723 0.145743 -0.0650297 0.310727 -0.0521667 -0.0604914 -0.134572 0.230568 -0.0572943 -0.298089 0.304662 0.302529 -0.15544 0.15254 0.11141 0.241766 -0.0311984 0.00343421 0.0610571 0.0581321 0.28611 -0.585743 -0.47977 0.102619 0.23457 -0.157661 0.231229 -0.159101 0.355451 0.232405 -0.0443761 0.331831 -0.114196 0.278148 -0.409862 -0.155113 -0.0616129 0.0801027 -0.127533 -0.238466 -0.153823 0.169232 -0.28766 -0.131959 0.43761
4152 -0.538689 -0.582807 0.145713 1.24222 -2.77688 -0.84244 1.41872 0.927807 0.0209878 0.330381 0.956702 -1.29369 0.591461 3.64788 -0.0515108 -0.364298 0.0608081 0.474749 -0.477534 0.392693 0.263588 -0.189659 0.48216 -0.0956515 -0.0875243 -0.0127913 0.401313 0.0260347 -0.0881121 0.189906 0.241686 -0.0935165 0.220381 0.0732266 0.258603 -0.00620882 0.0611375 0.00965431 -0.0556214 0.307294 -0.525818 -0.260928 0.0917671 0.161361 -0.338751 0.254088 -0.141807 0.328759 0.0703677 -0.0849825 0.181481 -0.0689117 0.207219 -0.301317 0.0798989 -0.102452 -0.0344366 -0.454437 -0.378845 -0.387127 0.200636 -0.52625 -0.0166926 0.129177
15518 -0.522941 -0.668663 0.152431 1.10825 -2.53695 -0.759801 1.51534 1.11 -0.14147 0.36743 0.807467 -1.23149 0.418593 3.20961 -0.0864341 -0.38565 -0.0124404 0.518468 -0.636383 0.389682 0.352612 -0.0310314 0.543363 -0.158063 -0.0643277 -0.108209 0.337898 0.0389003 -0.128596 0.18104 0.372307 -0.033195 0.125886 0.00475784 0.196653 -0.0864574 -0.240904 0.082784 0.193579 0.237804 -0.612755 -0.61681 0.159478 0.224156 -0.215789 0.234394 -0.29044 0.224148 0.0212337 -0.102806 0.243634 -0.154254 0.11866 -0.476217 -0.0773679 0.110826 0.00461331 -0.154274 -0.239389 -0.27822 0.257214 -0.252282 -0.141323 0.15534
4730 -0.544779 -0.700543 0.413643 1.16701 -2.54865 -0.706669 1.47453 1.07054 -0.095607 0.538971 1.00758 -1.26037 0.338844 3.3654 -0.0628086 -0.276308 -0.0951667 0.273878 -0.504851 0.405108 0.244888 -0.0138389 0.5852 -0.151352 -0.0011211 -0.0468825 0.208003 -0.0210738 -0.245791 0.292536 0.470996 -0.184028 0.150028 -0.00974441 0.0949184 -0.0346588 -0.31111 0.091901 0.175046 0.229923 -0.681214 -0.761922 0.173223 0.220269 -0.247532 0.275185 -0.383004 -0.0193674 -0.0522972 -0.0988588 0.240029 -0.133889 0.0800377 -0.45287 0.0104672 0.0570102 0.0635498 -0.153019 -0.165824 -0.174974 0.254387 -0.151222 -0.165117 0.263551
13308 -0.466897 -0.687068 0.279124 1.077 -2.3775 -0.67473 1.3872 0.99193 -0.208151 0.424519 0.834347 -1.11967 0.387486 3.12728 -0.0893824 -0.267589 -0.0751589 0.313151 -0.545264 0.368679 0.259746 -0.110298 0.587754 -0.138353 -0.152477 -0.052298 0.308666 0.0993832 -0.33438 0.301293 0.256396 -0.015104 0.137964 -0.0274341 0.120087 -0.02159 -0.222157 0.0288187 0.131375 0.133665 -0.515173 -0.563039 0.170529 0.286253 -0.225577 0.241777 -0.402941 0.0241537 -0.00307769 -0.0707333 0.163568 -0.0685264 0.1241 -0.460118 -0.0873165 0.160345 0.0629448 -0.284774 -0.299369 -0.205661 0.175714 -0.224944 -0.120543 0.233192
5844 -0.488061 -0.673502 0.233719 1.15164 -2.46391 -0.658258 1.45514 1.12772 -0.288165 0.420868 0.763912 -1.18791 0.457467 3.13208 -0.132622 -0.389789 -0.127002 0.317692 -0.551733 0.307927 0.285437 -0.00820418 0.478652 -0.137607 -0.0716546 -0.05986 0.254097 -0.0575832 -0.209923 0.22656 0.417646 -0.135078 0.0753587 -0.0227021 0.0875804 -0.0945936 -0.294567 0.036737 0.153384 0.238231 -0.664373 -0.693574 0.167634 0.216715 -0.199129 0.307466 -0.265351 0.20543 -0.00218312 -0.0193901 0.294896 -0.0940829 0.164844 -0.441505 -0.126936 0.127424 -0.0308177 -0.106684 -0.21122 -0.204885 0.179634 -0.241857 -0.0836028 0.299424
18130 -0.461805 -0.613963 0.354189 1.08034 -2.69729 -0.745442 1.57042 1.14709 -0.107849 0.426337 1.0317 -1.21619 0.376826 3.3116 -0.062968 -0.275754 -0.122475 0.310302 -0.559661 0.394594 0.34248 -0.0330762 0.600435 -0.162995 0.0172358 0.000735022 0.154449 -0.0357133 -0.314666 0.321689 0.429002 -0.2088 0.0863581 -0.0122394 0.129702 -0.0567094 -0.235086 0.110529 0.103655 0.243446 -0.674617 -0.755152 0.130699 0.128573 -0.214193 0.269238 -0.276295 0.114859 0.0255161 -0.0232435 0.309678 -0.144816 0.16347 -0.403084 0.0157643 -0.0603335 -0.0167451 -0.159856 -0.220143 -0.215894 0.195837 -0.29562 -0.0929998 0.177525
14405 -0.418068 -0.611467 0.353644 1.16292 -2.04842 -0.628175 1.17021 0.901655 -0.383747 0.464889 0.881 -0.965198 0.44834 2.81073 -0.160121 -0.219078 0.00238955 0.476233 -0.501252 0.388829 0.280092 -0.102273 0.646996 -0.0596261 0.0599068 -0.145024 0.294333 0.0323603 -0.505434 0.431285 0.166432 0.227868 0.249931 -0.0840784 0.209208 0.000674382 -0.37913 0.090195 0.0235883 -0.0768384 -0.527298 -0.39115 0.128987 0.138972 -0.0857842 0.146705 -0.339682 0.219016 0.0227429 -0.130772 0.205474 0.118532 0.047614 -0.273654 -0.0910177 0.124205 -0.0482227 -0.263249 -0.227864 -0.17064 0.135109 -0.137978 -0.0724901 0.429666
17088 -0.422951 -0.509764 0.115835 1.53915 -2.64407 -0.489047 1.34277 1.09095 -0.372237 0.412728 0.804119 -1.3209 0.69553 3.58077 -0.218394 -0.415162 -0.000162826 0.384876 -0.466599 0.247097 0.235737 -0.32051 0.378453 -0.0832629 -0.295471 -0.117992 0.410498 -0.0543079 -0.35194 0.380089 0.112745 -0.112948 0.233321 0.158472 0.315362 -0.0704779 0.122637 0.0225533 -0.070413 0.219445 -0.53858 -0.184984 0.0687027 0.314654 -0.217751 0.184427 -0.0747147 0.481234 0.247908 -0.0238561 0.190674 -0.0305305 0.324602 -0.281806 -0.15285 -0.00313091 0.0631946 -0.270802 -0.274074 -0.20464 0.115143 -0.370296 -0.0374979 0.627341
11386 -0.510036 -0.522 0.149256 1.30437 -2.6916 -0.655498 1.37466 0.821188 -0.136589 0.522016 0.97014 -1.3791 0.507119 3.47709 -0.105871 -0.360582 0.055146 0.658512 -0.404298 0.315124 0.111738 -0.31544 0.449834 -0.084979 -0.122973 -0.0183593 0.650195 -0.0955278 -0.000338014 0.162436 0.105176 -0.143156 0.237197 0.161094 0.153132 -0.111618 0.128481 0.0712537 -0.0685468 0.257875 -0.36573 -0.303862 0.11803 0.1324 -0.22724 0.0873738 0.00957733 0.263382 0.0638583 -0.221824 0.157295 -0.041345 0.26464 -0.256875 -0.0205456 -0.199658 -0.115181 -0.292903 -0.211318 -0.395382 0.248646 -0.672262 -0.0851118 0.316733
4657 -0.476881 -0.651416 0.377574 1.41668 -2.61632 -0.531342 1.36058 0.987654 -0.13095 0.471455 0.951704 -1.46227 0.683037 3.4708 -0.113975 -0.525695 0.0911636 0.598899 -0.553099 0.327658 0.0796891 -0.307487 0.444286 -0.0777281 -0.071182 -0.0104139 0.488246 -0.216808 -0.246316 0.283481 0.16571 -0.206089 0.0863939 0.131269 0.0374666 -0.00912002 0.0565319 -0.0765427 -0.0635622 0.2744 -0.345727 -0.333791 0.129768 -0.00921858 -0.247242 0.18353 -0.0423514 0.398693 0.228268 0.0236566 0.142616 -0.108332 0.18737 -0.356849 0.0668223 -0.176603 -0.0406543 -0.334265 -0.186336 -0.311022 0.074137 -0.485269 0.00248027 0.383381
11495 -0.630175 -0.603307 0.201209 1.36187 -2.41522 -0.414115 1.37291 1.03235 -0.0754517 0.395046 0.852101 -1.38244 0.42504 3.48037 -0.139195 -0.471752 0.0737225 0.436627 -0.453608 0.314155 0.0976734 -0.405565 0.604453 -0.184524 -0.167257 -0.117735 0.48625 -0.0197598 -0.314667 0.363523 0.162476 -0.21589 0.226106 0.095055 0.203589 -0.0536147 0.129878 -0.030728 -0.0907776 0.218355 -0.352466 -0.126251 0.00440331 0.125678 -0.116711 0.0228641 -0.115929 0.45571 0.18053 -0.0677478 0.190706 -0.0245974 0.0490429 -0.302288 0.0713216 0.0221666 -0.129777 -0.453682 -0.357049 -0.326649 0.141344 -0.4517 -0.168073 0.396303
3177 -0.553256 -0.675641 0.366638 1.35558 -2.49214 -0.410696 1.4469 1.07089 -0.227097 0.3356 0.787588 -1.28965 0.527669 3.25249 -0.0656571 -0.471862 0.0741596 0.667758 -0.729952 0.280141 0.198796 -0.329595 0.560163 -0.136354 -0.10089 0.0406987 0.412809 -0.236241 -0.18396 0.18077 0.298871 -0.216168 0.114607 -0.0718332 0.0690033 -0.0388752 -0.155025 -0.0400644 -0.0433545 0.160833 -0.401418 -0.44077 0.0480538 0.0308364 -0.167659 0.15653 -0.0529487 0.402811 0.0391125 0.04742 0.314302 0.00250186 0.196189 -0.333277 0.0496337 -0.107031 -0.33276 -0.20144 -0.128888 -0.171073 0.0889476 -0.498809 0.0231163 0.272114
13113 -0.414637 -0.724994 0.439299 1.36243 -2.67303 -0.5112 1.51954 1.02902 -0.127434 0.605743 0.99243 -1.50481 0.645281 3.52704 -0.0517905 -0.518223 0.00198738 0.629412 -0.644776 0.265982 -0.0687668 -0.32521 0.497243 -0.109644 -0.0268554 0.132582 0.42876 -0.16348 -0.278911 0.196297 0.196164 -0.199316 -0.00172766 0.0705544 -0.128924 0.0380316 -0.0228038 -0.0762348 -0.00337572 0.122832 -0.153198 -0.52837 0.0934312 -0.163001 -0.214379 0.0797903 -0.0680782 0.260263 0.14441 0.0899909 0.230812 -0.0835893 0.153518 -0.515299 0.128532 -0.225381 -0.145943 -0.341071 -0.226576 -0.422285 0.111801 -0.719247 -0.0455754 0.371559
4115 -0.291229 -0.778849 0.438569 1.30562 -2.37116 -0.637761 1.64193 0.850791 -0.363512 0.525929 0.934087 -1.29194 0.52563 3.28078 -0.164083 -0.347238 -0.18061 0.579182 -0.564127 0.225865 -0.0131115 -0.211624 0.488735 -0.138904 0.077963 0.165919 0.529877 -0.151552 -0.116729 0.139021 0.0718258 0.00954297 0.0201982 0.014529 -0.0928835 0.0220063 -0.298803 0.0550663 -0.0544067 0.159858 -0.241748 -0.594955 0.154862 -0.0721845 -0.13932 0.16321 -0.0860081 0.191855 0.0119197 0.0031879 0.202201 -0.013957 0.212355 -0.312421 0.0796398 -0.180198 -0.226548 -0.343958 -0.157435 -0.403012 0.105592 -0.820806 -0.0279083 0.241752
18799 -0.466597 -0.696291 0.211208 1.22176 -2.41121 -0.597983 1.57873 0.961997 -0.380707 0.353945 0.886466 -1.22128 0.499906 3.3688 -0.194161 -0.17517 -0.164183 0.469302 -0.623186 0.217916 0.187978 -0.212561 0.498054 -0.0687063 -0.103283 0.107655 0.54934 0.0222622 -0.197659 0.208523 0.140202 -0.101924 0.0559837 -0.0107886 -0.00780114 -0.0759342 -0.203279 -0.0234612 -0.00205841 0.204767 -0.385708 -0.363149 0.156163 0.199327 -0.142365 0.214142 -0.19533 0.24303 -0.0208552 -0.0260141 0.204586 0.00432025 0.24633 -0.312932 -0.0072971 -0.0799765 -0.161126 -0.495937 -0.257098 -0.361566 0.0683322 -0.73862 0.0100892 0.163184
17845 -0.438681 -0.592369 0.359392 1.16597 -2.72149 -0.899964 1.54747 0.961628 -0.217479 0.479198 0.922554 -1.52967 0.706216 3.66688 -0.103342 -0.261645 -0.0647598 0.341002 -0.554275 0.422221 0.0756005 -0.14471 0.663032 -0.110032 -0.105981 0.0496742 0.639497 -0.0349787 -0.159318 0.317673 0.127687 -0.158817 0.273656 -0.0186254 0.0407199 0.037666 -0.244511 -0.101642 -0.057914 0.325528 -0.451545 -0.199857 0.303406 0.0678334 -0.446438 0.288819 -0.17051 0.281675 -0.0427068 -0.160046 0.157013 -0.0045392 0.196565 -0.297231 -0.00384057 -0.126027 -0.129988 -0.486422 -0.219399 -0.41896 0.126057 -0.676138 -0.0119335 -0.131743
3368 -0.636587 -0.867253 0.163633 1.31293 -2.46514 -0.610173 1.55714 1.03403 -0.489711 0.270841 0.889215 -1.29441 0.503066 3.5792 -0.203914 -0.325862 -0.163157 0.268693 -0.575061 0.207788 0.192754 -0.104821 0.528887 -0.177325 -0.124135 0.0437365 0.535531 0.0978776 -0.307646 0.318077 0.131154 -0.0741658 0.0474661 -0.053855 -0.107238 -0.0577384 -0.230613 -0.113731 0.119206 0.329564 -0.478485 -0.291459 0.181272 0.309122 -0.368695 0.278374 -0.270466 0.170042 -0.113709 0.0282889 0.143334 -0.0359407 0.219052 -0.460343 0.0241563 -0.00879468 -0.0821604 -0.429303 -0.26975 -0.397227 0.0869107 -0.633583 -0.0936513 0.0615106
18416 -0.508014 -0.77424 0.0439562 1.24506 -2.76672 -0.699224 1.55358 1.09623 -0.135714 0.276838 0.684076 -1.32391 0.751563 3.75024 -0.138296 -0.429336 -0.0408335 0.311903 -0.474262 0.228947 0.168484 -0.174602 0.40404 -0.106987 -0.253962 -0.00714125 0.553602 0.00809867 -0.270923 0.271607 0.182136 -0.11655 0.0627064 0.0840904 0.118599 -0.00652495 -0.0611615 -0.063891 0.0357987 0.344678 -0.540044 -0.258658 0.188766 0.330038 -0.234444 0.354255 -0.177693 0.33485 0.00458411 0.0480408 0.132077 -0.0878222 0.265474 -0.50747 -0.0222899 -0.128387 0.0779173 -0.302634 -0.204888 -0.391673 0.167861 -0.41514 -0.0667202 0.225375
12387 -0.409723 -0.592512 0.169197 1.31856 -2.61725 -0.451054 1.46286 0.956569 -0.495227 0.260029 0.769565 -1.41897 0.721062 3.31447 -0.158999 -0.346301 -0.00130818 0.587033 -0.660209 0.145635 0.225034 -0.331951 0.409328 -0.0891159 -0.246363 0.0750793 0.563732 -0.290252 -0.112502 0.134834 0.159673 -0.115985 0.0143136 -0.0133051 0.127687 -0.0644246 -0.155063 0.0139849 -0.0458468 0.314823 -0.532467 -0.375092 0.151855 0.133636 -0.165052 0.234185 0.0781523 0.505777 0.125182 0.0690884 0.14823 0.0810166 0.321066 -0.164258 -0.0981799 -0.0621261 -0.12644 -0.108389 -0.0532399 -0.134859 -0.109198 -0.675472 0.0972907 0.380257
16851 -0.328394 -0.652494 0.0692816 1.29748 -2.76879 -0.661161 1.52394 1.05015 -0.389941 0.267516 0.670988 -1.32969 0.826295 3.6423 -0.112435 -0.315694 -0.0983188 0.383127 -0.688699 0.276466 -0.0317864 -0.183991 0.402977 -0.108976 -0.182253 0.0764751 0.566623 -0.00712793 -0.322232 0.258802 0.134588 -0.0177805 0.0590717 0.145664 0.071108 0.0063552 -0.0545047 -0.190524 0.0474294 0.36523 -0.484043 -0.271172 0.220532 0.270966 -0.371217 0.387318 -0.147628 0.386478 0.170832 0.143298 0.204465 -0.0559978 0.225756 -0.372307 -0.0657813 -0.0677032 0.0843225 -0.287104 -0.27678 -0.323751 0.056526 -0.574754 0.000476693 0.319701
18431 -0.420255 -0.748216 0.0516042 1.4281 -2.55081 -0.430253 1.72705 1.17538 -0.539722 0.21121 0.743614 -1.17778 0.598301 3.67719 -0.25352 -0.217435 -0.207272 0.117298 -0.607701 0.157149 0.0478336 -0.304412 0.462325 -0.145107 -0.19714 0.0755551 0.559292 0.0465309 -0.381976 0.219503 0.0657885 -0.00860587 0.0280878 0.00714963 0.0496911 -0.0591501 -0.214725 -0.0245079 0.0697152 0.137897 -0.525745 -0.34656 0.117078 0.440217 -0.270092 0.233193 -0.156839 0.288902 0.0582853 0.174318 0.188829 0.0599797 0.313649 -0.370165 -0.018518 -0.0142997 -0.0611472 -0.381685 -0.293568 -0.29645 0.00470069 -0.620946 -0.0530515 0.340642
15162 -0.351145 -0.426903 0.0774112 0.810885 -1.5228 -0.406289 0.845345 0.633663 -0.149776 0.189416 0.520288 -0.690611 0.389083 2.13446 -0.171755 -0.268532 -0.101491 0.335584 -0.3929 0.165426 0.196486 -0.0895741 0.373266 -0.0363141 0.0363169 -0.0202139 0.239894 0.0377861 -0.167302 0.180538 0.123679 -0.0856688 0.0532212 -0.0261004 -0.00803691 0.0560815 -0.0320006 -0.0629533 0.00317541 0.0879312 -0.30497 -0.278339 0.0678727 0.111057 -0.0901423 0.146376 -0.154125 0.194055 0.0133396 -0.0252572 0.147605 -0.0131423 0.139048 -0.279092 -0.0201146 0.0250493 -0.0777584 -0.233591 -0.179575 -0.200136 0.0970925 -0.342593 -0.0706522 0.179289
9904 -0.463694 -0.608292 0.117248 1.1885 -2.1745 -0.618198 1.27283 0.899756 -0.254988 0.253071 0.744002 -1.05499 0.598991 3.02926 -0.208228 -0.376703 -0.1201 0.498668 -0.619311 0.216972 0.292156 -0.124966 0.559344 -0.0778878 0.0559897 -0.0234759 0.438289 0.0731567 -0.282131 0.303082 0.131531 -0.0143125 0.0834468 -0.0412065 -0.0270925 0.113532 -0.196186 -0.0521031 -0.00905833 0.0878776 -0.352901 -0.338811 0.10112 0.172122 -0.0803574 0.194401 -0.281768 0.264399 -0.00208291 -0.0824982 0.187531 0.00986653 0.206747 -0.37938 -0.055487 0.0618781 -0.119116 -0.420749 -0.245615 -0.28766 0.160728 -0.537042 -0.128111 0.275473
1940 -0.472645 -0.675614 0.0721697 1.36996 -2.63396 -0.767619 1.40854 1.01549 -0.253186 0.273299 0.805454 -1.33323 0.812962 3.61203 -0.189863 -0.363847 -0.16514 0.509319 -0.676307 0.226499 0.254247 -0.181705 0.58921 -0.0701463 -0.00722006 0.0162001 0.5588 0.115568 -0.141491 0.226988 0.139533 -0.0450912 0.154277 -0.0200833 -0.075765 0.156403 -0.283252 -0.0746083 -0.00636662 0.124228 -0.389765 -0.381708 0.124557 0.283872 -0.106943 0.188819 -0.43921 0.28343 -0.00460234 -0.162119 0.200128 -0.0114465 0.306483 -0.408554 -0.0614417 0.010265 -0.131253 -0.59587 -0.261072 -0.36649 0.210673 -0.614668 -0.221482 0.283009
13945 -0.363751 -0.540426 0.112055 1.08163 -2.00349 -0.584789 0.995328 0.786195 -0.232032 0.230453 0.6238 -0.972727 0.582317 2.59256 -0.14025 -0.319403 -0.145825 0.451667 -0.639255 0.156016 0.3214 -0.101756 0.49249 -0.0242776 0.00117787 -0.0268991 0.370757 0.10775 -0.225652 0.232208 0.117215 -0.0275645 0.0742827 -0.0572995 -0.0655488 0.134732 -0.257154 -0.0506402 0.0192768 0.0512715 -0.280737 -0.320183 0.101115 0.150304 -0.105594 0.118126 -0.287005 0.210461 0.010927 -0.0634313 0.117834 -0.036428 0.213287 -0.295323 -0.0705807 0.0174844 -0.120276 -0.390891 -0.20058 -0.233196 0.12627 -0.522088 -0.0892358 0.24158
15155 -0.373417 -0.490476 0.0293975 1.03515 -1.94883 -0.615034 1.09269 0.705349 -0.166215 0.23903 0.601358 -0.97339 0.568523 2.74649 -0.178576 -0.232689 -0.1693 0.420218 -0.608885 0.231726 0.235716 -0.160921 0.468994 -0.0062358 0.0303746 0.0307755 0.49621 0.167606 -0.126584 0.215028 0.0966672 -0.0354725 0.139902 -0.058511 -0.0587748 0.0796937 -0.191376 -0.0120516 -0.00674451 0.0425463 -0.298158 -0.394598 0.0983666 0.298496 -0.118581 0.114843 -0.345837 0.177873 0.0461697 -0.166405 0.208949 -0.00813728 0.255861 -0.312466 -0.123786 0.0233278 -0.174022 -0.583336 -0.304537 -0.306032 0.161193 -0.610276 -0.204579 0.227816
11313 -0.482967 -0.511787 0.028603 0.93276 -1.91358 -0.521783 0.80057 0.634934 -0.0280253 0.220549 0.644636 -0.837096 0.396552 2.54375 -0.0694804 -0.0577515 0.018215 0.450753 -0.569495 0.319462 0.25643 -0.297287 0.502713 -0.00104381 -0.0177873 -0.0743014 0.376916 0.347884 -0.214054 0.192247 -0.0546313 0.00830105 0.170988 -0.109899 0.081613 0.0116564 0.0818083 -0.100784 0.0767808 -0.0340099 -0.30871 -0.186236 0.0638593 0.273728 -0.15167 -0.0275374 -0.26706 0.163922 0.00165356 -0.138669 0.141149 -0.0689518 0.154367 -0.231055 -0.0651727 0.0209743 -0.157134 -0.544204 -0.455607 -0.414025 0.204094 -0.556272 -0.216399 0.181446
2431 -0.421321 -0.724027 0.247646 1.12929 -2.28788 -0.755469 1.5641 1.00616 -0.408053 0.278188 0.939021 -1.18583 0.563434 3.24617 -0.160879 -0.241206 -0.124057 0.399927 -0.601318 0.254838 0.145607 -0.124821 0.565621 -0.133265 0.014285 0.0543213 0.50333 0.0821368 -0.234128 0.236136 0.0500006 0.132329 0.0891999 -0.0104127 0.012608 0.0905898 -0.32029 -0.100552 0.0725352 0.240634 -0.308288 -0.234142 0.195294 0.152473 -0.262055 0.250196 -0.288935 0.199377 -0.0502592 -0.0466006 0.0906996 -0.0742337 0.153406 -0.325569 -0.0145489 -0.0240093 -0.0968943 -0.483712 -0.293637 -0.464204 0.108088 -0.711547 -0.0168001 0.0248134
2679 -0.390609 -0.535821 0.347306 1.23362 -2.17576 -0.724469 1.23707 0.920861 -0.396115 0.523678 0.937199 -1.07753 0.359524 2.92675 -0.149354 -0.257127 0.0311178 0.357235 -0.551755 0.344334 0.273392 -0.061159 0.560873 -0.061158 0.125091 -0.229441 0.351192 0.0813711 -0.367766 0.328156 0.246129 0.0646707 0.23587 -0.0481435 0.266806 -0.0473769 -0.345862 0.235998 0.0130603 0.0658348 -0.45201 -0.540747 0.0902623 0.101536 -0.107331 0.133916 -0.252447 0.255357 0.0869871 -0.0712062 0.230743 0.07997 -0.0494856 -0.208439 -0.0626501 0.0864343 -0.0487152 -0.316056 -0.261968 -0.158124 0.0661526 -0.227483 -0.0340681 0.314923
18571 -0.430604 -0.545107 0.23988 1.09974 -2.14373 -0.606645 1.22166 0.909466 -0.326684 0.477393 0.855757 -0.884004 0.304404 2.76039 -0.155506 -0.215532 -0.0105688 0.359053 -0.477115 0.444325 0.423832 -0.0593702 0.654295 -0.14912 0.0176897 -0.187591 0.30987 0.0744362 -0.536047 0.424391 0.24326 0.128066 0.178598 -0.0179485 0.240573 -0.00241729 -0.339229 0.144857 0.0187764 -0.051092 -0.573325 -0.419849 0.113551 0.157225 -0.0297264 0.160272 -0.346762 0.237137 -0.00863853 -0.103517 0.184397 0.114966 0.103619 -0.346901 -0.0621671 0.208085 -0.0112627 -0.199331 -0.23317 -0.089941 0.138153 -0.115741 -0.190868 0.427057
266 -0.47519 -0.623639 0.369633 1.16312 -2.3677 -0.597454 1.26278 0.974522 -0.302548 0.444968 0.961886 -1.08105 0.378598 3.11131 -0.116432 -0.185665 -0.0510871 0.256435 -0.528193 0.351958 0.27407 -0.106724 0.563564 -0.0879378 -0.0303794 -0.0753459 0.223907 0.124041 -0.55303 0.482356 0.17767 0.0566865 0.149876 0.0140156 0.190916 -0.0145445 -0.253349 0.0983093 0.0781555 0.108286 -0.535069 -0.415428 0.141545 0.171213 -0.164749 0.206813 -0.333929 0.203695 0.0789149 -0.0577575 0.198045 -0.0242197 0.104848 -0.317531 -0.0528439 0.0307433 0.0392897 -0.317312 -0.331417 -0.213376 0.107814 -0.264616 -0.128836 0.330035
10203 -0.529198 -0.808184 0.221807 1.19642 -2.65948 -0.660103 1.59585 1.09044 -0.397811 0.35262 0.930125 -1.42063 0.701082 3.67941 -0.224037 -0.367311 -0.111432 0.247022 -0.493142 0.229059 0.0418409 -0.217845 0.641525 -0.181492 -0.114106 -0.00906657 0.473456 -0.0398924 -0.366712 0.366286 0.127031 -0.0854569 0.0828095 -0.0118488 -0.0238831 0.0105218 -0.152906 -0.131127 0.0521338 0.29859 -0.476475 -0.303234 0.216329 0.188098 -0.303536 0.287126 -0.236453 0.186894 -0.0346776 0.0642468 0.133013 -0.0508386 0.259524 -0.474445 0.0262853 -0.074881 0.0524093 -0.379162 -0.254936 -0.405599 0.0741649 -0.592933 -0.00388491 0.186299
17485 -0.532934 -0.75471 0.107589 1.3883 -2.80336 -0.850898 1.53872 1.07301 -0.0636369 0.298401 0.807893 -1.44442 0.600274 3.87191 -0.0316473 -0.539381 -0.0190655 0.362896 -0.388009 0.361899 0.31217 -0.234939 0.454992 -0.247855 -0.266356 -0.0440639 0.643538 -0.200147 -0.128305 0.18536 0.217683 -0.113644 0.0945077 0.141844 -0.00348779 -0.135407 -0.0236876 -0.106142 0.0671609 0.408641 -0.539128 -0.326869 0.143486 0.327468 -0.29458 0.24794 -0.236148 0.11666 -0.108056 -0.0020808 0.0866525 0.0150426 0.181895 -0.459093 0.111769 -0.0165713 -0.00925277 -0.33868 -0.182268 -0.395643 0.214429 -0.421258 -0.00848148 0.290887
8085 -0.558473 -0.717621 0.260563 1.25004 -2.33744 -0.54256 1.47094 1.15463 -0.334236 0.345365 0.855987 -1.16873 0.27168 3.35388 -0.0819033 -0.377602 0.00747541 0.431714 -0.627443 0.287006 0.265633 -0.149923 0.51294 -0.187363 -0.149507 -0.0990798 0.398368 0.121158 -0.207599 0.209879 0.149757 -0.0515857 0.114758 -0.054865 0.00513193 -0.046472 -0.16492 -0.0944412 0.196948 0.208795 -0.410949 -0.37983 0.146589 0.274279 -0.27925 0.126748 -0.317195 0.10015 -0.0627891 -0.0435114 0.143925 -0.127193 0.0830685 -0.491056 -0.0139491 0.138797 -0.0557748 -0.325269 -0.271623 -0.330976 0.194623 -0.362865 -0.17332 0.253995
16259 -0.498612 -0.719019 0.18599 1.08431 -2.01076 -0.628309 1.39688 0.956437 -0.395129 0.238548 0.761657 -1.11363 0.492627 3.09683 -0.15631 -0.369603 -0.0914534 0.391981 -0.611656 0.209108 0.259347 -0.0159009 0.632412 -0.238499 -0.0383336 -0.0349924 0.4937 0.02754 -0.427003 0.393821 0.0727192 0.0361696 0.0298617 0.00638344 -0.0757921 0.0451585 -0.255132 -0.15343 0.069612 0.233195 -0.25257 -0.112328 0.176586 0.153001 -0.218967 0.265037 -0.261334 0.172683 -0.0885157 0.0267833 0.0280434 -0.0866898 0.119793 -0.426917 -0.011486 0.0821547 0.0496194 -0.385711 -0.221025 -0.436655 0.0904161 -0.542286 -0.00493068 0.11278
12555 -0.627106 -0.785039 0.285631 1.10257 -2.58252 -0.775931 1.55915 1.03667 -0.260736 0.398799 0.972952 -1.31823 0.473443 3.63952 -0.167825 -0.311177 -0.165481 0.193992 -0.527779 0.33044 0.315332 -0.108312 0.615017 -0.149612 -0.0540552 -0.0321453 0.382697 0.0720345 -0.348788 0.363505 0.289619 -0.147322 0.129454 -0.105854 0.00689522 -0.123054 -0.219548 0.00196236 0.130211 0.376065 -0.618528 -0.492453 0.165175 0.239018 -0.338892 0.277303 -0.309634 0.0810264 -0.105234 0.0262099 0.188161 -0.0646729 0.150507 -0.420896 0.0818401 -0.0233506 0.00164106 -0.350785 -0.2854 -0.304003 0.0948829 -0.366725 -0.0298934 0.0521607
17903 -0.562444 -0.712586 0.0104926 1.3155 -2.65184 -0.602336 1.58521 1.17422 -0.282803 0.293869 0.687609 -1.34411 0.697402 3.70289 -0.0711405 -0.522993 0.0420893 0.325934 -0.635462 0.275917 0.102964 -0.149357 0.460636 -0.21353 -0.174536 -0.0537017 0.565565 -0.0454148 -0.220285 0.191373 0.224521 -0.0818259 0.0487869 0.0480822 0.0459948 -0.073789 -0.0416853 -0.127684 0.156765 0.278997 -0.598144 -0.406195 0.237151 0.334946 -0.369336 0.235546 -0.243908 0.217923 -0.015294 0.103632 0.128715 -0.0963844 0.183583 -0.534884 -0.0161595 0.0355561 0.157566 -0.204824 -0.180425 -0.299457 0.207813 -0.34872 -0.144625 0.316851
3752 -0.414764 -0.609197 0.174222 1.10196 -2.1129 -0.666275 1.03403 0.883996 -0.299036 0.407662 0.662277 -0.967149 0.364718 2.62692 -0.118748 -0.261785 -0.0145009 0.405871 -0.623672 0.278293 0.342321 -0.0130173 0.599745 -0.166613 -0.0823706 -0.211857 0.383 0.120951 -0.388693 0.342772 0.213269 0.126616 0.14779 0.00971591 0.209935 -0.0656091 -0.334339 0.0861769 0.0919836 -0.0932848 -0.328226 -0.290404 0.133853 0.18913 -0.107104 0.161346 -0.254606 0.169271 -0.0591876 -0.0753035 0.0775237 -0.0224724 0.0226962 -0.292163 -0.143423 0.253241 0.02096 -0.216119 -0.258679 -0.284037 0.1616 -0.251833 -0.0515013 0.352655
759 -0.502664 -0.738336 0.129882 1.08172 -2.43104 -0.636032 1.50319 1.04788 -0.338909 0.286665 0.767048 -1.1867 0.502999 3.4336 -0.217209 -0.29605 -0.152736 0.222047 -0.443895 0.173977 0.164515 -0.0754967 0.487257 -0.186521 -0.147351 -0.026752 0.435109 0.0738736 -0.342198 0.286416 0.188779 0.0134575 0.0382988 -0.0180049 0.0420249 -0.0269196 -0.251654 -0.0434398 0.12932 0.25258 -0.455939 -0.278441 0.175517 0.315705 -0.218685 0.322143 -0.3069 0.162997 -0.0972993 0.0126415 0.126707 -0.104351 0.150236 -0.465379 -0.0182286 0.0890537 0.0891862 -0.31498 -0.264753 -0.384334 0.123743 -0.416984 -0.0787554 0.176119
1320 -0.557711 -0.578372 0.212916 1.48228 -2.60587 -0.457578 1.33319 1.08177 -0.352838 0.367373 0.832089 -1.17407 0.574978 3.3435 -0.160119 -0.379002 -0.0295612 0.313444 -0.480127 0.226905 0.194552 -0.176992 0.347331 -0.0257078 -0.107781 -0.127836 0.219062 -0.0255228 -0.473054 0.45015 0.221281 -0.129574 0.111515 0.158075 0.272625 -0.0122575 -0.0161709 0.0876997 -0.00847154 0.255596 -0.534088 -0.305432 0.0838128 0.192697 -0.089678 0.254513 -0.135576 0.462678 0.304456 0.0551184 0.231995 -0.0867543 0.275032 -0.367936 -0.124923 -0.0431036 0.154079 -0.202262 -0.26782 -0.10858 0.0301793 -0.299978 -0.0323935 0.616856
4031 -0.362648 -0.640368 0.0899668 1.45147 -2.62464 -0.665619 1.53116 1.10029 -0.434248 0.27837 0.740939 -1.28678 0.878558 3.67579 -0.200084 -0.4193 -0.0672507 0.287262 -0.566207 0.257384 0.0411379 -0.164088 0.413801 -0.153368 -0.149663 0.00117459 0.466432 -0.0492632 -0.26563 0.188132 0.103897 -0.0464649 0.0776811 0.0750651 0.118411 -0.0336319 -0.0974069 -0.10343 0.0731414 0.282547 -0.567443 -0.342109 0.25054 0.306387 -0.406291 0.336018 -0.172211 0.344286 0.0824394 0.124714 0.132463 -0.129136 0.273853 -0.439376 -0.118425 -0.0205134 0.148284 -0.218469 -0.255031 -0.373968 0.131255 -0.461415 0.000537789 0.357288
17799 -0.652947 -0.745707 0.148596 1.19385 -2.76588 -0.806351 1.43314 1.00854 -0.107956 0.309002 0.94615 -1.32537 0.548345 3.51315 -0.0469482 -0.481909 0.0551085 0.493756 -0.497584 0.326442 0.275404 -0.0732931 0.458167 -0.155849 -0.0949872 -0.0937008 0.388566 -0.0201319 -0.0266562 0.122036 0.24584 -0.0612443 0.132142 0.0455363 0.180677 -0.0407457 -0.0793615 0.0442984 0.100595 0.360507 -0.509416 -0.399725 0.119035 0.135568 -0.119628 0.235976 -0.199351 0.296196 0.0316283 -0.0639176 0.124746 -0.171067 0.17259 -0.526548 -0.0111434 -0.000739907 0.0662711 -0.259855 -0.255409 -0.405949 0.255932 -0.447358 -0.0996304 0.190034
18965 -0.50204 -0.69815 0.359187 1.26268 -2.65345 -0.807827 1.48149 0.957773 -0.15121 0.414506 0.928791 -1.48628 0.718433 3.66516 -0.113227 -0.500178 0.00268597 0.439625 -0.478905 0.353723 0.0993238 -0.258728 0.566427 -0.137483 -0.185937 0.0517927 0.550162 -0.0626632 -0.249138 0.315092 0.0838597 -0.0940593 0.178248 0.0540289 0.0269069 0.0124912 -0.00201496 -0.207108 0.00295896 0.312494 -0.392674 -0.237475 0.21713 0.0726091 -0.476132 0.218411 -0.19537 0.265551 0.0542127 0.0085286 -0.0295358 -0.0789966 0.131929 -0.337958 0.0744126 -0.153785 0.0254477 -0.419307 -0.262862 -0.479665 0.0896161 -0.550339 0.0896961 0.118454
9411 -0.550252 -0.697958 0.170236 1.10938 -2.46018 -0.639906 1.43864 1.07874 -0.174661 0.35838 0.778703 -1.22416 0.447937 3.3727 -0.128321 -0.432755 -0.0247823 0.413591 -0.469834 0.321138 0.207415 -0.0554933 0.554564 -0.175716 -0.0706841 -0.098829 0.389462 -0.0255662 -0.138344 0.19397 0.264495 0.000230472 0.0790788 0.0353115 0.0754908 -0.0281996 -0.164026 -0.0812632 0.129052 0.233691 -0.481262 -0.390232 0.182581 0.183319 -0.194838 0.236175 -0.284235 0.222323 -0.0298676 -0.0403049 0.129627 -0.0904729 0.0748211 -0.567053 -0.00820446 0.146823 0.0580567 -0.276597 -0.212598 -0.393942 0.239447 -0.326395 -0.133247 0.320986
5673 -0.457505 -0.636065 0.0305507 1.29375 -2.43997 -0.395738 1.37873 1.01032 -0.454937 0.534854 0.617501 -1.18139 0.170004 3.78963 -0.280457 -0.591628 0.0581308 0.523167 -0.59414 0.313832 0.328184 -0.119074 0.370818 -0.451162 -0.336193 -0.207047 0.520022 -0.164452 -0.0297519 0.0887999 0.10593 -0.192442 0.115794 0.0738191 -0.135155 -0.232546 -0.0151803 -0.120474 0.0651982 0.1087 -0.58367 -0.512421 0.0432677 0.316563 -0.260603 0.0832916 -0.162574 0.149817 -0.241776 -0.109755 0.188542 0.0636517 0.164132 -0.453563 -0.0685587 0.219208 -0.10114 -0.0763147 -0.142692 -0.505263 0.380714 -0.457972 -0.336481 0.542087
5985 -0.500506 -0.542033 -0.00721703 1.1261 -2.00109 -0.476756 1.0954 0.815746 -0.319021 0.327495 0.654081 -0.809553 0.231957 2.84032 -0.11482 -0.319705 0.00920824 0.53309 -0.615678 0.289915 0.427922 -0.0319256 0.399737 -0.215903 -0.0662447 -0.170747 0.338726 0.128209 -0.292596 0.252775 0.145707 -0.0648896 0.0992157 0.0539138 0.0747552 -0.0677235 -0.0221883 0.0168633 0.0799467 0.0807354 -0.457889 -0.348393 0.0335544 0.31789 -0.116898 0.132396 -0.235213 0.226548 -0.0275374 -0.113657 0.216393 -0.0320118 0.145856 -0.363184 -0.0959706 0.113584 0.0145742 -0.213594 -0.243448 -0.327895 0.286524 -0.355971 -0.2758 0.446157
11042 -0.340984 -0.57793 0.157661 1.3582 -2.66717 -0.490104 1.3942 1.02198 -0.249436 0.525386 0.796542 -1.17948 0.276497 3.60494 -0.19036 -0.391583 -0.0542892 0.366797 -0.646731 0.368342 0.25925 -0.0895425 0.345272 -0.263126 -0.154769 -0.0848162 0.288227 -0.105887 -0.200536 0.175044 0.320205 -0.339254 0.0689401 0.0750724 -0.0494886 -0.147087 0.0110006 -0.028392 0.13915 0.239928 -0.718961 -0.759519 0.0537349 0.303193 -0.348424 0.169696 -0.223959 0.145768 -0.0700206 -0.0168752 0.32584 -0.0408133 0.176703 -0.418878 0.0161162 -0.010727 -0.0342391 -0.0260108 -0.115099 -0.251967 0.296464 -0.255837 -0.296167 0.496509
2991 -0.568342 -0.803355 0.2082 1.17522 -2.54817 -0.751851 1.56507 1.13054 -0.270539 0.401615 0.758505 -1.19742 0.352602 3.40139 -0.105781 -0.416062 -0.0738161 0.366999 -0.575832 0.383463 0.288586 -0.00723702 0.58142 -0.216931 -0.0480629 -0.0857231 0.346203 0.00859131 -0.190241 0.201028 0.330435 -0.071863 0.0543498 -0.0105552 0.0358262 -0.0945818 -0.198918 -0.00290245 0.207028 0.265159 -0.614311 -0.678338 0.185734 0.269241 -0.267751 0.270339 -0.327316 0.136474 -0.0874433 -0.0207825 0.221122 -0.153868 0.0758679 -0.541706 -0.046138 0.118961 -0.00504262 -0.124864 -0.225717 -0.327936 0.283271 -0.266964 -0.159284 0.215088
17691 -0.497425 -0.60023 0.3482 1.14927 -2.61057 -0.787832 1.45255 0.97182 -0.180809 0.49331 1.04823 -1.20796 0.436383 3.4197 -0.137807 -0.338511 -0.137258 0.312582 -0.530226 0.410435 0.342005 -0.0301645 0.603049 -0.0945891 0.0101676 -0.0718537 0.192317 0.0215667 -0.320632 0.41407 0.362168 -0.150441 0.1822 -0.0262985 0.149478 -0.0287388 -0.244305 0.188215 0.0770386 0.316221 -0.725295 -0.709677 0.119209 0.133624 -0.285332 0.240705 -0.31293 0.202156 0.0800174 -0.108614 0.261035 -0.105573 0.146394 -0.39669 0.0390402 -0.11133 0.0141777 -0.218377 -0.246299 -0.136342 0.207265 -0.299126 -0.147937 0.199404
12881 -0.481218 -0.691348 0.110655 1.08256 -2.13049 -0.619072 1.38755 0.989189 -0.320051 0.331705 0.746981 -1.07385 0.40724 3.04952 -0.14103 -0.39794 -0.0237297 0.473501 -0.59842 0.298346 0.198385 -0.0826676 0.443977 -0.16902 -0.041719 -0.090088 0.43435 0.0945722 -0.23883 0.21662 0.111042 0.0107566 0.0925501 -0.0294578 -0.0256531 0.00257038 -0.0983072 -0.135145 0.120755 0.195228 -0.386261 -0.323189 0.121512 0.258494 -0.214501 0.157441 -0.296628 0.180724 -0.090083 -0.0540838 0.161465 -0.0730539 0.124767 -0.447319 -0.0583182 0.089945 -0.0711639 -0.317988 -0.258614 -0.380093 0.228112 -0.476148 -0.203446 0.303066
10717 -0.317512 -0.730276 0.0949371 1.17841 -2.52429 -0.642601 1.51237 0.896269 -0.255237 0.260188 0.842808 -1.14871 0.420701 3.5258 -0.160125 -0.0834051 -0.15467 0.380969 -0.753306 0.331545 0.156994 -0.352207 0.431521 -0.161733 -0.108619 0.131114 0.511418 0.209093 -0.169946 0.0758881 0.0654696 -0.179682 0.0386334 -0.027693 -0.0472225 -0.083339 0.0336718 -0.121101 0.0955422 0.202713 -0.520451 -0.540373 0.100238 0.407978 -0.359605 0.174877 -0.218687 0.0974491 -0.0797812 0.0854974 0.253543 -0.0324406 0.208628 -0.28218 0.0677916 -0.120861 -0.183939 -0.43748 -0.376799 -0.483672 0.153131 -0.641468 -0.0638275 -0.00914968
5093 -0.644762 -0.500572 0.139889 1.16265 -2.63354 -0.753084 1.25525 0.846256 -0.0991421 0.438792 1.07696 -1.12513 0.373263 3.30133 -0.0494001 -0.00148898 0.00539113 0.464934 -0.533844 0.399827 0.250888 -0.315633 0.58142 0.0377453 -0.0544878 0.0423353 0.461576 0.309996 -0.0562196 0.192253 0.132167 -0.245487 0.255288 -0.0670006 0.12327 -0.0447093 0.146557 -0.0184702 -0.0193698 0.10611 -0.41905 -0.233224 0.104787 0.171952 -0.270732 0.0559051 -0.141139 0.288109 0.0471631 -0.195585 0.213652 0.0537003 0.154434 -0.168667 0.0773361 -0.158673 -0.230903 -0.650393 -0.43237 -0.376262 0.189911 -0.730037 -0.181741 0.0416679
10310 -0.616874 -0.528547 0.032161 1.15949 -2.45735 -0.631266 1.1924 0.81535 -0.107017 0.382382 0.971337 -1.08058 0.335073 3.25189 -0.052553 -0.0892962 0.0980936 0.597357 -0.633094 0.394246 0.311301 -0.326564 0.522351 -0.0391183 -0.0735227 -0.0354584 0.509866 0.282191 -0.121289 0.164498 0.0573611 -0.10774 0.272687 -0.0326847 0.147806 -0.0342827 0.178106 -0.0714939 -0.0107883 0.109453 -0.350773 -0.15728 0.0495703 0.230575 -0.23764 -0.00400576 -0.124213 0.284235 0.0270152 -0.201589 0.250494 -0.0267028 0.165683 -0.170567 0.0457265 -0.127709 -0.258801 -0.579399 -0.44423 -0.451961 0.254487 -0.709408 -0.182752 0.147299
12861 -0.618211 -0.531069 0.0464704 1.22395 -2.72198 -0.724991 1.34873 0.858759 -0.0887667 0.369276 1.02931 -1.16892 0.381084 3.41638 -0.0853455 -0.0531213 0.0198903 0.550076 -0.585595 0.390342 0.257762 -0.377829 0.555968 -0.0420166 -0.0980303 0.0307787 0.524377 0.331235 -0.0545225 0.133823 0.0742943 -0.193638 0.284209 -0.0434052 0.141835 -0.0747891 0.209196 -0.027099 -0.0317187 0.174414 -0.402808 -0.203758 0.0674713 0.263185 -0.301521 0.0137122 -0.0796696 0.294995 0.0245652 -0.242662 0.276904 -0.006338 0.181642 -0.114167 0.053646 -0.145743 -0.282291 -0.657993 -0.464695 -0.459482 0.2486 -0.738389 -0.178242 0.0193854
3646 -0.220541 -0.697055 0.0674094 1.15781 -2.06722 -0.594217 1.46682 0.896645 -0.346263 0.149722 0.674025 -0.835867 0.399073 3.15056 -0.160217 -0.172211 -0.174006 0.347398 -0.813473 0.276082 0.266122 -0.259658 0.368701 -0.188818 -0.0618855 0.119017 0.409313 0.0958442 -0.280293 0.0475186 0.0889614 -0.0641004 -0.0909777 0.04573 -0.0460947 -0.0421794 -0.219582 -0.0754891 0.119486 0.0732281 -0.531346 -0.679888 0.0758389 0.424981 -0.294159 0.233496 -0.289864 0.0897501 -0.0500864 0.207649 0.200182 -0.0134313 0.126082 -0.28423 0.0656433 -0.0641553 -0.142149 -0.288207 -0.294712 -0.347936 0.0950735 -0.51789 0.0171549 0.265773
3269 -0.286761 -0.466093 0.0237225 0.805626 -1.21851 -0.381278 0.703292 0.507136 -0.116172 0.218288 0.399599 -0.867934 0.443178 2.14602 -0.206907 -0.243767 -0.14267 0.607482 -0.578271 0.117575 0.101598 -0.0356148 0.493411 -0.0964193 0.00883331 -0.12189 0.259161 0.0548889 -0.25051 0.175927 0.21515 0.126986 0.0381372 -0.00407606 0.0817072 0.0586785 -0.116468 -0.0963182 0.0555551 0.11789 -0.172862 -0.223754 -0.0207563 0.0455537 0.0391957 0.0543969 -0.0919179 0.171789 0.00422175 -0.0433503 0.207469 -0.0626603 0.0482339 -0.233821 -0.110853 0.169911 -0.0110706 -0.180947 -0.293541 -0.453092 0.132986 -0.267818 -0.0594623 0.14032
1663 -0.46409 -0.798214 0.0450136 1.37015 -2.1227 -0.750504 1.08697 0.766772 -0.149475 0.469512 0.777451 -1.64236 0.808422 3.61939 -0.41624 -0.312538 -0.321834 0.936313 -0.764289 0.20165 0.0520601 -0.0357259 0.81317 -0.125523 -0.119468 -0.197768 0.355678 -0.0352811 -0.225179 0.109294 0.439401 0.0435473 -0.0355323 0.0255844 0.0393347 0.152426 -0.120907 -0.224552 0.176215 0.21995 -0.548081 -0.414819 -0.0603699 0.0452421 0.0486008 0.146149 -0.133083 0.273528 0.0257691 -0.0470959 0.40601 0.141912 0.135357 -0.528166 0.00213974 0.140804 0.0273397 -0.202046 -0.425665 -0.713669 0.201675 -0.452177 -0.11553 0.241711
9257 -0.174736 -0.318677 0.0533797 0.542223 -0.895364 -0.298399 0.484875 0.351936 -0.0561472 0.159157 0.318052 -0.665401 0.352781 1.55239 -0.155185 -0.160355 -0.114955 0.387605 -0.391784 0.115262 0.0172642 -0.0349409 0.336523 -0.0383443 0.00410383 -0.0757986 0.209227 0.0217158 -0.163659 0.120283 0.141238 0.0705764 0.0305537 -0.0323851 0.0178593 0.0673834 -0.140309 -0.080901 0.0898875 0.0731205 -0.148849 -0.15567 0.0073472 0.0532055 0.0384445 0.0669712 -0.132603 0.101649 0.00142233 -0.0481387 0.1513 -0.0206053 0.0272346 -0.251856 -0.0654821 0.109837 -0.0133226 -0.134848 -0.157305 -0.28849 0.0995123 -0.226328 -0.0836888 0.122749
18906 -0.38177 -0.670435 0.0572262 1.20048 -1.92595 -0.713215 1.07877 0.735139 -0.182432 0.416208 0.734453 -1.4498 0.661608 3.23409 -0.37157 -0.249842 -0.296289 0.870214 -0.741759 0.223096 0.00154947 -0.0164359 0.684309 -0.133226 -0.0647744 -0.182507 0.385676 -0.00411588 -0.276306 0.185854 0.38682 0.120952 -0.000147818 0.0579365 0.0506823 0.13348 -0.270897 -0.177664 0.20727 0.244862 -0.336544 -0.280368 -0.0372739 0.07048 0.125626 0.148367 -0.18972 0.237448 0.0465725 -0.114761 0.372696 0.0550063 0.0551839 -0.490666 -0.0528256 0.166555 0.048295 -0.214809 -0.35202 -0.645991 0.202755 -0.453734 -0.151431 0.224202
17958 -0.456301 -0.822414 -0.0370693 1.60876 -2.40113 -0.890495 1.24494 0.817517 -0.202453 0.51204 1.00739 -1.82497 0.974915 4.06967 -0.543354 -0.334332 -0.488023 0.913875 -0.604854 0.135769 0.118943 -0.0179727 0.957962 -0.110183 -0.104721 -0.191707 0.31311 -0.079994 -0.0725615 -0.00758505 0.539053 0.0187006 -0.181907 0.0414186 -0.0992188 0.312977 -0.12349 -0.168181 0.137672 0.25108 -0.721908 -0.493663 -0.136189 0.00514899 0.0218237 0.188696 -0.168852 0.460982 0.0816359 0.019709 0.58624 0.32851 0.18993 -0.682977 0.207901 0.0490677 0.058239 -0.321713 -0.470026 -0.739744 0.122621 -0.611713 -0.2854 0.352134
12154 -0.388531 -0.656401 0.00566266 1.34266 -2.00125 -0.719169 1.19012 0.730914 -0.184335 0.374892 0.815805 -1.49671 0.777241 3.56228 -0.442988 -0.386554 -0.317257 0.774457 -0.704002 0.176619 0.13802 -0.0462798 0.731609 -0.126785 -0.0504848 -0.139005 0.386607 -0.0333484 -0.136751 0.0979999 0.399081 0.0586424 -0.00945376 0.000185184 -0.0184678 0.22975 -0.26245 -0.102967 0.0870389 0.141005 -0.458349 -0.38841 -0.0584197 0.0965157 0.0979345 0.182902 -0.235374 0.405135 0.0212142 -0.0543314 0.475129 0.148238 0.138017 -0.574483 0.0222279 0.125445 -0.0238858 -0.371004 -0.395599 -0.630189 0.172014 -0.572038 -0.208787 0.327678
62 -0.401745 -0.658816 -0.00731815 1.24537 -1.96859 -0.65654 1.09375 0.724961 -0.0977718 0.386718 0.782337 -1.45122 0.780754 3.44453 -0.426539 -0.374582 -0.295321 0.853734 -0.72923 0.231348 0.156037 -0.0702737 0.80649 -0.0809397 -0.00487867 -0.144961 0.372869 0.000847277 -0.18306 0.132163 0.38017 0.0720677 -0.0560635 0.00572799 -0.0273993 0.215173 -0.13934 -0.133831 0.108407 0.0979589 -0.504094 -0.426546 -0.0330066 0.101185 0.0177963 0.192097 -0.230068 0.369589 0.0757255 -0.0245942 0.436336 0.160018 0.137331 -0.568495 0.0568814 0.121779 -0.0203046 -0.363159 -0.412096 -0.601999 0.173068 -0.53422 -0.232489 0.336409
5762 -0.372607 -0.703201 0.0635547 1.21618 -1.84571 -0.629664 1.06702 0.726957 -0.170773 0.380574 0.730154 -1.45897 0.695925 3.24739 -0.379375 -0.342112 -0.253798 0.812355 -0.771062 0.216891 0.0851406 -0.0579761 0.688193 -0.14795 -0.0844329 -0.163787 0.37331 -0.0384626 -0.195045 0.12337 0.353763 0.0513171 0.0317662 0.00269966 0.0488363 0.145583 -0.183821 -0.184816 0.155187 0.206127 -0.380702 -0.285224 -0.0470687 0.0782884 0.0814371 0.147384 -0.191498 0.233051 -0.00586449 -0.066579 0.37619 0.0849745 0.0906994 -0.505874 -0.0130164 0.147703 -0.0456791 -0.251329 -0.365344 -0.604526 0.192952 -0.469162 -0.126388 0.232168
17378 -0.556417 -0.632071 -0.0458364 1.33217 -2.28549 -0.810607 1.26567 0.843767 -0.12266 0.375765 0.566511 -1.18 0.752904 3.41207 -0.387018 -0.419547 -0.435984 0.683765 -0.630189 0.165986 0.171535 -0.106105 0.625177 -0.038619 -0.0189266 -0.0367649 0.401765 0.072093 -0.217948 0.272176 0.298757 0.133456 -0.0441151 0.097181 -0.0711194 0.0476586 -0.0750961 0.0179093 0.104204 0.282428 -0.167813 -0.328856 -0.0386238 0.0408831 -0.0629955 0.196885 -0.132488 0.301855 0.123866 -0.0415305 0.316633 0.0216471 0.0525826 -0.443255 -0.0842225 0.157102 0.0723965 -0.302777 -0.403065 -0.438377 0.0364986 -0.338224 -0.0522667 0.233029
14789 -0.508829 -0.774144 0.064164 1.20138 -1.99393 -0.723323 1.10731 0.87267 -0.189712 0.477365 0.751338 -1.44338 0.698936 3.27733 -0.30922 -0.327515 -0.280858 0.833907 -0.725887 0.274158 0.127034 -0.0700465 0.637761 -0.138456 -0.104576 -0.144827 0.365675 0.0722958 -0.394248 0.313389 0.305352 0.124428 0.0196074 0.0716872 0.00999306 0.118483 -0.18125 -0.160703 0.179018 0.11922 -0.368531 -0.319333 -0.013779 0.00424028 0.148971 0.148627 -0.193345 0.259748 0.0641794 -0.0929378 0.303383 0.105828 0.0525893 -0.524395 -0.125373 0.282826 -0.0224738 -0.21188 -0.396466 -0.483342 0.175096 -0.339739 -0.117407 0.226713
9535 -0.332774 -0.653951 0.0315096 1.13204 -1.95336 -0.716403 1.01846 0.7877 -0.184061 0.478384 0.736076 -1.40011 0.697188 3.16331 -0.345809 -0.267465 -0.251163 0.698888 -0.657407 0.25129 0.0651779 -0.0546642 0.616609 -0.077909 -0.124152 -0.148563 0.402039 0.0378308 -0.256417 0.208465 0.290864 0.194007 0.0191547 0.0208879 0.0550942 0.153696 -0.259055 -0.133737 0.130573 -0.059399 -0.320327 -0.279921 -0.00400118 0.0488914 0.140652 0.160137 -0.250323 0.228631 0.0463601 -0.10126 0.264075 0.125775 0.0880045 -0.509266 -0.0860757 0.225341 0.00706219 -0.25184 -0.330093 -0.42877 0.184956 -0.414522 -0.12773 0.327651
8714 -0.399072 -0.730967 0.0560054 1.31146 -1.9538 -0.728106 1.07269 0.724494 -0.247305 0.4981 0.816973 -1.56569 0.671726 3.39265 -0.444992 -0.246388 -0.35854 0.848543 -0.737939 0.170877 -0.0235431 -0.0230785 0.766323 -0.162992 -0.111501 -0.187089 0.359593 -0.0413918 -0.256919 0.131208 0.453571 0.0859644 -0.0222625 0.0550876 0.0885754 0.165436 -0.23749 -0.164487 0.166556 0.226239 -0.410207 -0.338466 -0.110034 0.00920259 0.153685 0.153581 -0.104717 0.286024 0.0387271 -0.0797458 0.445639 0.172984 0.0726355 -0.459922 0.0167409 0.156269 0.0297746 -0.174729 -0.39429 -0.694458 0.182135 -0.42314 -0.109317 0.221143
6085 -0.361192 -0.63662 0.0546227 1.05669 -1.85848 -0.697198 1.04778 0.703165 -0.164058 0.370052 0.712589 -1.30761 0.70425 3.05995 -0.37437 -0.343877 -0.284975 0.674372 -0.673815 0.26288 0.103388 -0.0776264 0.643192 -0.0539008 -0.0288324 -0.120645 0.41043 -0.0180646 -0.225822 0.197359 0.296182 0.016707 0.0643867 -0.0482355 -0.0117836 0.146128 -0.206272 -0.182714 0.121168 0.160684 -0.398265 -0.318252 0.00753876 0.124101 0.0475293 0.170258 -0.253429 0.2607 0.0242243 -0.112889 0.312914 0.0674312 0.172066 -0.504599 -0.0975018 0.136061 -0.0844468 -0.216832 -0.292578 -0.402435 0.211579 -0.466162 -0.166197 0.324197
789 -0.348143 -0.617125 -0.0286273 1.2826 -2.14042 -0.801868 1.18693 0.717023 -0.16986 0.422545 0.872045 -1.53062 0.897457 3.63141 -0.517537 -0.33607 -0.405525 0.683062 -0.618755 0.200794 0.0814681 -0.0340804 0.727319 -0.0418452 -0.0480663 -0.1534 0.422434 -0.0709033 -0.0762119 0.0636758 0.384885 0.0251289 0.0174902 -0.0682408 -0.0450962 0.260771 -0.232773 -0.130642 0.0918386 0.133635 -0.587115 -0.461785 -0.0350945 0.189736 0.0613759 0.188508 -0.291354 0.362611 0.00282224 -0.102418 0.465918 0.191797 0.250633 -0.606852 0.0017281 0.0881583 -0.0580495 -0.331599 -0.314428 -0.570705 0.218468 -0.585925 -0.241519 0.382748
16531 -0.474456 -0.615778 0.0490535 1.28809 -2.49189 -0.895639 1.07235 0.825237 -0.162645 0.248908 0.832308 -1.33463 0.710457 3.30483 -0.320996 -0.371881 -0.321509 0.378165 -0.59586 0.173143 0.135877 -0.217136 0.796594 -0.101938 -0.107244 -0.0893722 0.431157 0.175813 -0.199959 0.246339 0.132568 -0.164129 0.112018 -0.0866663 0.0489494 -0.077542 -0.269928 0.152958 0.133495 0.0925704 -0.327464 -0.291862 0.00870909 0.169358 -3.65844e-05 0.0697293 -0.195524 0.382483 0.0372257 -0.0432792 0.326173 -0.00830362 0.109731 -0.454354 -0.00158112 0.0238207 -0.195966 -0.21538 -0.218731 -0.223443 0.0933278 -0.45709 -0.236865 0.391041
12398 -0.454229 -0.633901 0.0885238 1.38743 -2.66442 -0.776352 1.40057 1.01255 -0.166901 0.15971 0.779952 -1.32335 0.713337 3.51302 -0.363713 -0.427303 -0.197359 0.37376 -0.588363 0.258926 0.3387 -0.307954 0.682738 -0.219083 -0.139827 -0.083599 0.417788 0.12246 -0.215891 0.224456 0.0818224 -0.29249 0.121224 -0.0895901 -0.0292756 -0.00196345 -0.203935 0.00504683 0.0477561 0.270105 -0.473239 -0.292379 0.0204536 0.170365 0.0279221 -0.0207447 -0.0437739 0.347588 -0.0118305 0.000317404 0.149009 -0.0486087 0.199453 -0.428012 -0.0181341 -0.0470226 -0.198092 -0.0839214 -0.0442958 -0.130406 0.137824 -0.561697 -0.109308 0.168059
898 -0.483736 -0.641293 0.089241 1.26593 -2.47713 -0.683099 1.02356 0.793111 -0.200076 0.279923 0.851455 -1.21712 0.625713 3.27525 -0.314077 -0.355898 -0.207081 0.209384 -0.737117 0.13743 0.186629 -0.109215 0.470231 -0.147676 -0.378382 0.0336203 0.314814 -0.024033 -0.385591 0.35506 0.152368 -0.338295 0.138093 -0.138397 -0.046432 0.0396666 -0.132138 -0.110209 0.118639 0.163902 -0.261471 -0.176458 -0.0313141 0.179555 0.0899121 0.0861583 -0.0990346 0.231879 -0.0348646 -0.0697138 0.186737 -0.0229693 0.150794 -0.424764 -0.087431 0.103278 -0.206325 -0.143138 -0.0109261 -0.182427 0.184605 -0.41049 0.021861 0.140703
5900 -0.414051 -0.554842 0.0805546 1.37704 -2.72837 -0.822506 1.41869 1.00684 -0.18571 0.160533 0.921612 -1.30341 0.711489 3.55855 -0.302734 -0.399339 -0.241402 0.429352 -0.528704 0.278408 0.236036 -0.23873 0.636071 -0.150485 -0.101744 -0.0755625 0.360473 0.175721 -0.204389 0.20673 0.0276742 -0.289221 0.0711606 -0.0579162 -0.076271 0.0855815 -0.0939478 -0.123902 0.102418 0.422005 -0.52261 -0.245302 0.0120685 0.16017 0.0716707 0.0396484 -0.131549 0.475894 -0.013185 -0.057949 0.123817 -0.11026 0.157064 -0.401673 -0.00788586 -0.00980088 -0.22408 -0.070334 -0.153106 -0.196985 0.0985001 -0.475107 -0.269466 0.152812
14809 -0.409211 -0.607029 0.174202 1.43129 -2.62447 -0.777141 1.2761 0.924752 -0.168375 0.115557 0.762252 -1.21606 0.667874 3.50604 -0.29373 -0.34221 -0.226509 0.414565 -0.613114 0.207334 0.265222 -0.191732 0.701876 -0.141513 -0.0107241 -0.0860247 0.396262 0.148125 -0.231704 0.20249 0.175534 -0.288207 0.112282 -0.0893122 0.0966591 -0.0189688 -0.257411 0.00428614 0.115553 0.29076 -0.478638 -0.366353 0.0701118 0.228836 -0.0291992 0.0332132 -0.185053 0.393969 -0.015543 -0.0169056 0.161044 -0.069467 0.140631 -0.377212 0.0239749 -0.00677893 -0.209868 -0.168513 -0.066116 -0.110921 0.148112 -0.414352 -0.131052 0.174737
938 -0.50426 -0.582816 0.0777423 1.25184 -2.35852 -0.819513 1.18674 0.855921 -0.297554 0.222039 0.815766 -1.04302 0.597343 3.24821 -0.256631 -0.37391 -0.222754 0.357525 -0.563404 0.159921 0.358511 -0.0284004 0.516359 -0.132152 -0.111095 -0.0917588 0.378127 0.156975 -0.17906 0.223746 0.118268 -0.193071 0.0840481 -0.0598446 -0.0166261 0.00806767 -0.284649 0.0125287 0.101013 0.156233 -0.311175 -0.230998 0.0580662 0.221002 0.0913701 0.0556595 -0.186665 0.330016 -0.0471636 -0.113102 0.0861754 -0.0830823 0.148469 -0.38718 -0.123065 0.0337564 -0.172044 -0.213149 -0.102258 -0.118713 0.14624 -0.459561 -0.192172 0.224248
365 -0.235926 -0.712859 0.178955 1.52188 -2.69391 -0.771022 1.29798 1.16632 -0.306024 0.218509 0.840263 -1.26523 0.689262 3.37375 -0.356989 -0.629373 -0.185323 0.199262 -0.888597 -0.0460222 0.360125 -0.0434696 0.457278 -0.0504614 -0.192994 -0.0670946 0.288705 0.298946 -0.218327 0.26275 0.156168 -0.0464217 0.0677502 -0.191842 0.0573172 0.164949 -0.196042 -0.154054 -0.0234411 0.0548048 -0.230962 -0.153865 0.0438528 0.198706 -0.536821 0.222352 -0.298597 0.116714 -0.0770868 0.0468764 0.0923706 0.0165542 0.165988 -0.16669 -0.00569785 0.140235 -0.189074 -0.491944 -0.375926 -0.182306 0.219599 -0.685056 0.105845 -0.0224756
12801 -0.306481 -0.59912 0.194383 1.52036 -2.7029 -0.747452 1.24403 1.00387 -0.244707 0.141382 0.80652 -1.19609 0.588449 3.30004 -0.321632 -0.649294 -0.159774 0.297146 -0.741619 -0.0445444 0.423469 -0.0110609 0.556881 -0.12993 -0.174979 -0.0304371 0.354672 0.203827 -0.237218 0.317852 0.184154 -0.130522 0.101025 -0.0681825 0.0706006 0.121513 -0.179713 -0.0604501 -0.085811 0.0555134 -0.254117 -0.128245 0.008271 0.171833 -0.326079 0.141135 -0.244371 0.181734 -0.084317 -0.0160752 0.127583 0.0326629 0.134153 -0.209594 0.0353729 0.0579056 -0.148026 -0.515766 -0.254703 -0.14288 0.232893 -0.640971 0.0230304 0.180738
17224 -0.270998 -0.565048 0.209819 1.34143 -2.69 -0.745548 1.27559 0.994733 -0.154328 0.207995 0.730011 -1.22623 0.623761 3.35079 -0.290621 -0.504974 -0.169952 0.460982 -0.699892 0.216411 0.253824 -0.194339 0.586224 -0.134431 -0.18701 -0.0279731 0.266197 0.133578 -0.251756 0.268899 0.133441 -0.249129 0.0964215 -0.108877 0.0505919 0.0286136 -0.0440218 -0.182341 0.0709203 0.278434 -0.402614 -0.204659 0.034652 0.0975561 -0.141516 0.129082 -0.190957 0.3241 -0.0664574 0.000618114 0.210125 -0.065742 0.148045 -0.308675 0.00823647 0.0608028 -0.187745 -0.133421 -0.187032 -0.200138 0.193374 -0.524153 -0.0721354 0.181649
10373 -0.483871 -0.627982 0.1583 1.41496 -2.74379 -0.690995 1.37881 0.918455 -0.138503 0.165656 0.834243 -1.25848 0.611745 3.55545 -0.307156 -0.547063 -0.22341 0.33894 -0.692086 0.201312 0.372413 -0.240871 0.569062 -0.110503 -0.21381 -0.0344693 0.366411 0.200857 -0.109246 0.214492 0.171359 -0.262498 0.111794 -0.0870139 0.015375 0.097884 -0.17078 0.0163784 0.0886541 0.337956 -0.404044 -0.259312 -0.00978942 0.204644 -0.121817 0.0882035 -0.231677 0.312449 0.0402424 -0.0192631 0.189798 -0.117422 0.0740508 -0.311917 0.00859793 0.0229925 -0.169312 -0.270136 -0.207333 -0.0997533 0.16686 -0.48484 -0.20916 0.156852
14921 -0.31134 -0.471773 0.263454 1.04367 -2.5022 -0.910755 1.19651 0.958971 -0.212103 0.316889 0.778466 -1.20979 0.60872 3.07831 -0.215901 -0.237479 -0.341292 0.823055 -0.620135 0.3497 0.129058 -0.0911482 0.600088 0.0977462 0.106381 -0.0248501 0.367043 0.23964 -0.248859 0.398779 0.169166 -0.111772 -0.020032 0.102644 -0.0716415 0.0735806 -0.332114 -0.228066 0.261454 0.346609 -0.575912 -0.403131 0.201486 0.166747 -0.068284 0.168489 -0.271671 0.322757 0.200856 -0.197844 0.106541 -0.144041 0.0190672 -0.143325 -0.13572 -0.0409108 -0.11105 -0.0173941 -0.0337287 -0.155144 0.29039 -0.529952 -0.1856 0.354757
4030 -0.414899 -0.583695 0.134776 1.41848 -2.7416 -0.815214 1.3966 0.921319 -0.279197 0.155075 0.87471 -1.21921 0.622621 3.52655 -0.28521 -0.401439 -0.234419 0.457854 -0.664888 0.212171 0.245429 -0.210483 0.577929 -0.127227 -0.121163 -0.0348676 0.432537 0.164919 -0.180243 0.195775 0.163705 -0.334039 0.100378 -0.0819054 -0.035374 0.0776038 -0.197636 -0.0513443 0.122322 0.352543 -0.419054 -0.316257 0.0434618 0.198676 0.0453982 0.0386496 -0.166278 0.332649 -0.0330788 -0.0700579 0.17458 -0.0525786 0.114481 -0.364311 -0.0443152 0.0519441 -0.240162 -0.180845 -0.0732952 -0.129201 0.114257 -0.495017 -0.227317 0.234672
7023 -0.387638 -0.613286 0.0928909 1.16669 -2.35308 -0.600016 1.19564 1.13936 -0.0926885 0.118415 0.514513 -1.14933 0.67368 3.05006 -0.212599 -0.471296 -0.0713486 0.517475 -0.593706 0.115263 0.205669 -0.188149 0.664116 -0.153536 -0.19052 -0.14826 0.275834 0.292239 -0.21838 0.191735 0.105403 0.0291829 0.0622779 -0.075304 0.177694 0.0808106 -0.078886 -0.158301 -0.0171817 0.0434373 -0.37196 -0.362339 0.118844 0.164216 -0.106053 0.0391573 -0.13037 0.396954 -0.121286 0.100176 -0.0477262 -0.163576 0.175361 -0.324139 -0.194135 0.331498 -0.24795 -0.194039 -0.255679 -0.109315 0.0633759 -0.241929 -0.0542099 0.0950868
18544 -0.369132 -0.501676 0.00764976 1.04765 -2.2543 -0.490219 1.08583 1.03601 -0.0186529 0.049253 0.400449 -1.05366 0.709509 2.87426 -0.180545 -0.490368 -0.0216979 0.628036 -0.760001 0.0381461 0.266115 -0.164614 0.718581 -0.12407 -0.051578 -0.167107 0.280574 0.241137 -0.220261 0.182718 0.161182 0.184704 0.144707 -0.0667526 0.302321 -0.0034379 0.00256251 -0.0940659 -0.101182 -0.0688813 -0.37877 -0.475686 0.165206 0.224645 -0.131014 0.04544 -0.0551414 0.217566 -0.183154 0.108328 -0.0409754 -0.127349 0.167161 -0.176166 -0.248206 0.316494 -0.169111 -0.330155 -0.411259 -0.338924 0.0401561 -0.264359 0.121087 0.0463927
15758 -0.480255 -0.679916 0.0517184 1.21343 -2.26996 -0.531041 1.03805 1.07229 -0.0537603 0.12136 0.456002 -1.05438 0.813614 3.09912 -0.138899 -0.438242 -0.00870295 0.50826 -0.628455 0.116346 0.283124 -0.256621 0.721382 -0.0407132 -0.042337 -0.165186 0.34135 0.407709 -0.353954 0.25742 0.11977 0.12255 0.121767 -0.129994 0.203957 0.0335037 0.119092 -0.239137 -0.0551773 -0.0154889 -0.450214 -0.444413 0.17228 0.210947 -0.346013 -0.0318446 -0.190028 0.333322 -0.121542 0.114878 -0.0804432 -0.234891 0.205858 -0.184254 -0.285356 0.390508 -0.265145 -0.466453 -0.498673 -0.277492 0.0854267 -0.342346 0.0284275 0.151482
19274 -0.482266 -0.745987 0.0211209 1.22596 -2.48641 -0.591341 0.918994 0.856898 -0.179305 0.38662 0.66022 -0.979381 0.645838 3.11128 -0.337897 -0.249931 -0.165218 0.272422 -0.568003 0.153795 -0.08265 -0.124874 0.688354 -0.00159435 -0.068344 -0.107165 0.354231 0.00517641 -0.275998 0.164427 0.275957 -0.02013 0.0246309 -0.0717457 0.175653 -0.122453 0.0215466 -0.157541 0.0936565 -0.186036 -0.254561 -0.439083 0.190292 0.099613 0.0450014 0.251492 0.0998256 0.164804 -0.138497 0.146235 -0.0219307 -0.0606939 0.0473041 -0.156474 -0.250491 0.327559 -0.189524 -0.0884681 -0.296632 -0.516935 -0.0307817 -0.511039 0.133832 0.153576
4141 -0.472959 -0.659427 0.20611 1.30333 -2.38067 -0.63047 0.886284 0.805268 -0.29902 0.347387 0.757039 -0.995288 0.656059 3.2431 -0.251553 -0.117456 -0.0525691 0.248389 -0.607115 0.142072 0.0254828 -0.0711133 0.522673 -0.00886963 0.143864 -0.110421 0.493893 -0.0395241 -0.389162 0.229842 0.187349 -0.148915 0.157266 -0.197756 0.0837405 -0.122605 -0.0909771 -0.00468553 0.133071 -0.283885 -0.26112 -0.275377 0.184542 0.247012 0.0372284 0.228479 -0.0126642 0.0514429 -0.19275 -0.0853398 0.115384 -0.00932877 -0.034242 -0.206554 -0.215342 0.120528 -0.132418 -0.171466 -0.111664 -0.547043 0.114635 -0.472629 0.081182 0.146202
8455 -0.454254 -0.607789 0.161541 1.33678 -2.42632 -0.728229 0.768771 0.826595 -0.411656 0.513242 0.902445 -1.07362 0.583049 3.06586 -0.307033 -0.0742629 -0.192698 0.198787 -0.588179 0.151656 0.079393 -0.161654 0.776068 0.0713157 0.138251 -0.224885 0.444784 0.0780991 -0.461365 0.323718 0.156672 0.0620666 0.131932 -0.280962 0.0798897 0.000774391 -0.19231 0.0487817 0.184741 -0.381619 -0.246067 -0.331776 0.128073 0.143116 0.155316 0.1325 -0.088262 0.145798 -0.0728532 -0.040017 0.198857 -0.0508952 0.0334148 -0.320479 -0.214268 0.0256893 -0.189992 -0.16712 -0.262823 -0.644307 0.109768 -0.612841 0.0139806 0.352163
15211 -0.508358 -0.575676 0.189784 1.27431 -2.16012 -0.616154 0.996316 0.908606 -0.30697 0.374029 0.732396 -0.959398 0.666211 2.99574 -0.153416 -0.200967 -0.0527859 0.438032 -0.629855 0.10289 0.153082 -0.155105 0.626504 0.103733 0.212704 -0.151493 0.384493 0.0979199 -0.231486 0.245148 0.114272 0.00926069 0.179667 -0.212663 0.0262875 -0.091004 -0.186208 -0.0595191 0.181914 -0.109662 -0.319116 -0.413046 0.160968 0.0978524 0.0736239 0.109108 -0.2429 0.0627016 -0.0239955 -0.115278 0.2352 -0.000859806 -0.138928 -0.236562 -0.0723887 0.114518 -0.12086 -0.262344 -0.124704 -0.402173 0.0569774 -0.431399 0.0137626 0.390546
17641 -0.582347 -0.699138 0.128373 1.00036 -1.89626 -0.55233 0.909056 0.749829 -0.025016 0.308682 0.444196 -0.859068 0.546001 2.40833 -0.0744053 -0.271288 -0.1513 0.484014 -0.531853 0.260678 0.0123293 -0.105642 0.429924 -0.012095 -0.0949355 0.0438533 0.292224 0.0466794 -0.330146 0.403064 0.155473 -0.0103117 0.136975 0.00737813 -0.0810682 -0.00687393 -0.101805 -0.142234 0.116878 -0.0466192 -0.12758 -0.33436 0.162869 0.139254 0.0250337 0.144397 -0.241886 0.0301898 0.0796012 -0.199781 0.137808 -0.0828228 0.225079 -0.483344 -0.31221 0.203873 -0.106939 -0.319412 -0.211932 -0.223111 0.19758 -0.282925 -0.00418318 0.315146
8538 -0.605654 -0.90215 0.160126 1.21015 -2.01697 -0.549031 1.08442 0.668385 -0.0791055 0.354803 0.62982 -1.07039 0.567744 2.82507 -0.288587 -0.298674 -0.209415 0.565582 -0.691603 0.308555 -0.0788796 -0.115532 0.316559 -0.131754 -0.358632 0.194549 0.281859 -0.143471 -0.273815 0.326365 0.20637 -0.230779 0.143782 0.0463271 -0.0747308 -0.0261875 -0.0190585 -0.311474 0.130972 0.204593 -0.181331 -0.179443 0.088117 0.12882 0.0210601 0.218805 -0.0989188 -0.00577768 -0.0341361 -0.174501 0.149904 0.0212996 0.186968 -0.424272 -0.194942 0.177665 -0.191478 -0.0848699 -0.101172 -0.228881 0.218655 -0.354886 0.112513 0.115433
7882 -0.454465 -0.635338 0.0918591 1.07205 -1.88365 -0.755941 0.849448 0.733699 -0.242659 0.340278 0.625156 -0.989714 0.575528 2.68325 -0.223752 -0.199406 -0.237191 0.311132 -0.45296 0.231466 0.267746 -0.0664409 0.594797 -0.0213538 -0.0794855 -0.1313 0.376103 0.208556 -0.29924 0.347357 0.0966376 0.154127 0.113702 -0.0861096 -0.000604342 0.033264 -0.398123 -0.00931878 0.120392 -0.176496 -0.22532 -0.247418 0.127031 0.13029 0.154485 0.0542142 -0.386953 0.232008 0.0366273 -0.146381 0.118349 -0.0755349 0.230877 -0.445781 -0.224362 0.123433 -0.0420907 -0.231204 -0.255283 -0.217889 0.216393 -0.44977 -0.140885 0.462058
15812 -0.208856 -0.645171 0.385196 1.04708 -2.13115 -0.822548 1.28195 0.960944 -0.458194 0.401203 0.750768 -1.1148 0.355766 3.00862 -0.076072 -0.169124 -0.065103 0.327653 -0.504412 0.399761 0.28084 -0.0687086 0.692188 -0.151872 -0.0597004 -0.0673755 0.483483 0.0356898 -0.392716 0.292973 0.147148 0.171925 0.104872 -0.0282373 0.101651 -0.035548 -0.410301 -0.0200322 0.101071 0.0549665 -0.467056 -0.602495 0.194428 0.183951 -0.0809104 0.166007 -0.434898 0.105899 -0.0094654 -0.0385917 0.200982 0.16205 0.119043 -0.325509 -0.208958 0.149887 -0.113127 -0.253921 -0.250775 -0.140121 0.118281 -0.347836 -0.0923967 0.375915
7052 -0.570575 -0.661216 -0.000623756 1.17273 -2.34582 -0.506074 1.28341 0.887426 -0.00559974 0.304534 0.898408 -1.16922 0.809505 3.1846 -0.123853 -0.436286 0.00742203 0.521771 -0.632176 0.347701 0.218632 -0.276947 0.528828 0.0124249 0.206261 -0.0080195 0.355269 -0.0182464 -0.183303 0.245557 0.0694597 -0.067924 0.0416177 -0.0514018 -0.160234 0.111323 0.015674 -0.126418 0.11338 0.157514 -0.334827 -0.264722 0.110528 0.0807993 -0.163502 0.116804 -0.196604 0.0932826 0.088923 0.0925543 0.0337601 0.0599504 0.0704245 -0.449414 0.186723 -0.00560301 0.0559373 -0.264972 -0.165586 -0.182997 -0.0769851 -0.214938 -0.0956258 0.0558254
635 -0.491132 -0.694846 0.141948 1.23738 -2.39296 -0.589584 1.27687 0.793115 -0.184636 0.221304 0.874381 -1.13516 0.611985 3.27199 -0.305654 -0.340881 -0.0734083 0.548532 -0.669246 0.209128 0.0805931 -0.159675 0.485846 -0.0279739 0.315077 -0.0145615 0.431032 -0.0490863 -0.283551 0.293691 0.0775987 -0.0751186 0.0561815 -0.10403 -0.0537698 0.0649667 0.00207761 -0.137874 0.101843 0.154259 -0.264513 -0.220499 0.0826857 0.211061 -0.102079 0.2116 -0.202904 -0.0259649 -0.0752932 -0.0916947 0.193583 0.0180527 0.129541 -0.318331 -0.031231 -0.0235648 -0.0550487 -0.240286 -0.119193 -0.349827 0.219973 -0.374634 -0.0867057 0.145367
9704 -0.626575 -0.715139 0.173739 1.45625 -2.24686 -0.513482 1.37941 0.944439 -0.25706 0.170583 0.861989 -1.06306 0.63104 3.37404 -0.263457 -0.41251 -0.0646433 0.550834 -0.541183 0.200943 0.046512 -0.193514 0.437313 0.0243601 0.265014 -0.0822298 0.35188 0.0652296 -0.22157 0.264849 0.0456221 0.0533787 0.142632 -0.157705 0.0638232 0.154084 -0.0191541 -0.179114 0.0315887 0.274738 -0.412353 -0.287186 0.0717568 0.172762 -0.132222 0.172918 -0.277954 0.163797 -0.0216445 -0.0960541 0.221256 -0.110714 0.0482042 -0.158709 -0.0564251 0.0634967 -0.0979147 -0.239088 -0.21587 -0.344817 0.214868 -0.326697 -0.198643 0.214001
12117 -0.55192 -0.648401 0.078158 1.29694 -2.33131 -0.574447 1.03713 0.826195 -0.252085 0.259746 0.748823 -0.977136 0.755425 3.22994 -0.24648 -0.316685 -0.103829 0.233714 -0.573174 0.206699 -0.0209814 -0.275698 0.468288 0.201245 0.31982 -0.204748 0.455202 -0.00935872 -0.244195 0.16648 0.242159 -0.120407 0.17879 -0.259255 0.156225 0.0800888 -0.0674926 -0.0188283 0.142261 0.0180959 -0.441592 -0.482135 0.172036 0.114873 0.086469 0.105693 -0.179935 0.150108 -0.0797888 0.0137792 0.193957 -0.00296157 -0.0181213 -0.19168 -0.260038 0.266867 -0.00626755 -0.140496 -0.230119 -0.51597 -0.00910392 -0.498906 -0.10924 0.343394
12867 -0.575404 -0.670965 0.0970975 1.26784 -2.26022 -0.568821 1.29987 0.770796 -0.232753 0.181685 0.897205 -1.03198 0.702124 3.24479 -0.211064 -0.331206 -0.108983 0.474297 -0.664477 0.164581 0.104631 -0.142901 0.416602 0.0175134 0.285924 0.00380678 0.423123 -0.0507615 -0.200516 0.231069 0.0607174 -0.0525639 0.11936 -0.0634746 -0.0604645 0.107622 -0.102671 -0.151943 0.059327 0.218545 -0.296833 -0.146175 0.0871977 0.186201 -0.0479379 0.107881 -0.260058 0.0842542 -0.0576951 -0.0712351 0.127582 -0.0690869 0.130891 -0.309956 0.0329489 -0.101391 -0.0398467 -0.278917 -0.0710979 -0.278105 0.141789 -0.277817 -0.0892852 0.195416
8929 -0.497616 -0.550401 0.10462 1.26924 -2.4874 -0.713276 1.39424 0.944457 -0.19071 0.313362 0.619224 -1.06593 0.776435 3.33204 -0.358665 -0.522803 -0.272782 0.560471 -0.501403 0.251358 0.295467 -0.212971 0.547013 0.061106 0.132209 0.01341 0.30526 -0.0305461 -0.0913737 0.194508 0.109998 -0.0047759 0.14499 -0.0852971 -0.0500578 0.0207537 0.0268258 -0.0876934 -0.0323366 0.347987 -0.359208 -0.367157 0.0302717 0.07791 -0.120856 0.248618 -0.202004 0.207402 0.0643138 -0.0678375 0.273356 0.042165 0.0365576 -0.21581 -0.0415077 0.00356513 -0.0597215 -0.278251 -0.286627 -0.333936 0.134154 -0.205021 -0.0371795 0.190437
3878 -0.546766 -0.621804 0.153788 1.36147 -2.29679 -0.628693 1.4677 0.82602 -0.195376 0.151864 0.822385 -1.20467 0.714151 3.35874 -0.249805 -0.359173 -0.0914762 0.62885 -0.809479 0.211932 0.155288 -0.13471 0.407226 -0.0549259 0.28191 0.0256713 0.523297 -0.0952719 -0.0922055 0.202408 0.205657 0.0248984 0.259059 -0.188572 0.0388879 0.105623 -0.254727 -0.0614624 0.0781166 0.152007 -0.414674 -0.387904 0.0616985 0.31387 0.0601878 0.211356 -0.353604 0.0770855 -0.0444044 -0.184091 0.335286 -0.0491123 0.0606632 -0.379525 -0.116678 -0.0826955 -0.127227 -0.394537 -0.0909841 -0.269547 0.19735 -0.274096 -0.162192 0.148099
9742 -0.577317 -0.534009 0.116224 1.25877 -2.40667 -0.600305 1.32155 0.801571 -0.225762 0.217666 0.830032 -0.97368 0.720929 3.2857 -0.264832 -0.407438 -0.0990457 0.510259 -0.628289 0.18404 0.309733 -0.131074 0.393016 0.112129 0.209343 -0.00703975 0.354529 -0.0738424 -0.108984 0.222755 0.0655981 -0.0820194 0.164433 -0.117623 -0.0226632 0.0534395 -0.125928 -0.00552571 -0.0551943 0.102475 -0.368313 -0.360439 0.100231 0.168368 -0.0685255 0.11473 -0.198565 0.115799 0.0326814 -0.0747293 0.205421 -0.0634491 0.123605 -0.101806 -0.0627826 -0.175394 0.0303803 -0.303955 -0.129695 -0.259658 0.105837 -0.335286 -0.101987 0.180529
146 -0.421701 -0.696497 0.118882 1.33896 -2.3531 -0.584618 1.32618 0.988092 -0.351265 0.321638 0.907586 -1.11814 0.743736 3.24132 -0.315288 -0.352011 -0.0743228 0.570253 -0.628829 0.189719 0.11035 -0.168543 0.449704 -0.0166296 0.184956 -0.0573191 0.420495 -0.0477807 -0.0751251 0.100947 0.106346 0.0146319 0.0793631 -0.132327 -0.00184325 0.0204548 0.0111751 -0.147623 0.0678661 0.0775647 -0.316136 -0.309121 0.127903 0.225463 -0.180081 0.200753 -0.118987 0.0421265 -0.11742 -0.0355265 0.15577 -0.0836687 0.212863 -0.365529 -0.0905613 0.00949261 -0.119913 -0.144653 -0.0742182 -0.365508 0.142734 -0.389018 -0.0115188 0.0800214
765 -0.441761 -0.590979 0.210288 1.01655 -1.97976 -0.47871 1.04648 0.842579 -0.266823 0.276691 0.708188 -0.735863 0.514161 2.4217 -0.0490995 -0.0906528 -0.0149017 0.444229 -0.467041 0.173059 0.170588 -0.134932 0.337762 0.00484585 0.0977609 0.0234654 0.313236 0.0592302 -0.301589 0.266503 0.00658085 0.0909158 0.11509 -0.0651212 0.0103807 0.0457651 -0.131006 -0.0668721 0.0128274 -0.166442 -0.14344 -0.12297 0.116328 0.16805 -0.137933 0.0583235 -0.172501 0.117392 -0.00160623 -0.0369837 0.0490214 -0.111167 0.165935 -0.230788 -0.0766041 -0.0741985 -0.10343 -0.205708 -0.082079 -0.189821 0.139364 -0.278193 0.0465151 0.23194
14216 -0.413534 -0.749187 0.23234 1.16432 -2.22065 -0.515217 1.14423 0.923454 -0.289518 0.359297 0.786992 -0.932857 0.66338 2.85033 -0.116675 -0.0440941 -0.0525764 0.425737 -0.459492 0.213419 0.0941628 -0.168933 0.454676 -0.0154708 0.10758 0.0589013 0.421398 0.0139948 -0.26288 0.213632 0.0589395 0.0360306 0.0737167 -0.086084 -0.00402566 0.00387759 -0.0587002 -0.124137 0.0577625 -0.262632 -0.107515 -0.123071 0.187607 0.220849 -0.258499 0.185218 -0.168801 0.130731 -0.0496618 -0.00126414 0.0281965 -0.159278 0.158719 -0.370371 -0.0951683 0.00773761 -0.141724 -0.193746 -0.0302207 -0.231094 0.13493 -0.207073 0.118535 0.157967
10143 -0.35484 -0.777357 0.226557 1.14709 -2.3881 -0.545281 1.1269 1.05979 -0.315603 0.496984 0.7798 -0.951873 0.655909 3.12915 -0.283609 -0.0930435 -0.124735 0.531574 -0.461771 0.262688 0.0934588 -0.118981 0.533566 -0.0311528 0.0404165 0.0363781 0.337282 0.088454 -0.329226 0.234972 0.17847 -0.094166 -0.0134698 -0.105599 0.0143143 -0.0719611 0.149661 -0.122021 0.106961 -0.347381 -0.13773 -0.26295 0.117914 0.259485 -0.273648 0.331487 -0.117496 0.298375 -0.00183076 -0.000499929 0.16929 -0.151093 0.205612 -0.561784 -0.197786 0.191387 -0.30442 -0.116334 -0.123263 -0.23719 0.233804 -0.20825 0.132171 0.144082
1836 -0.356013 -0.762573 0.248449 1.36579 -2.46425 -0.648393 1.23716 0.879426 -0.29796 0.345953 0.728853 -1.15982 0.831276 3.28649 -0.321081 -0.165735 -0.107629 0.520595 -0.529947 0.269396 0.20662 -0.133354 0.464975 -0.0369955 0.20524 0.00506262 0.538714 0.00214683 -0.20576 0.196478 0.179781 -0.142864 0.18191 -0.226572 0.0478929 -0.0331314 -0.0374406 -0.087367 0.0468852 -0.0927041 -0.277075 -0.182865 0.151634 0.339568 -0.257176 0.251024 -0.144612 0.0669015 -0.127359 -0.138343 0.113708 -0.0769165 0.181301 -0.375924 -0.197143 -0.0238504 -0.240024 -0.26031 -0.048875 -0.313078 0.249458 -0.216787 0.0167946 0.115314
