3840 64
17977 -1.02522 0.409047 0.682867 1.40556 -0.251708 -1.07559 -0.0234746 -0.839416 -1.38231 1.07251 1.47699 -1.12051 0.381201 -0.108087 -0.0489892 0.0427147 0.133449 -0.291635 0.408067 -0.177172 -0.239168 -0.00151698 0.0315125 -0.142727 0.126686 0.0798036 0.141746 -0.411471 -0.0167824 0.00304292 0.136794 0.139509 -0.066583 -0.149863 -0.00825232 -0.0860362 -0.0366279 0.0340157 0.273648 -0.129436 -0.0920028 0.270569 0.0263363 0.154821 -0.0537817 -0.0191142 -0.0521379 -0.00379098 -0.188502 0.161703 0.00233625 -0.00979374 -0.173339 0.00307805 0.299386 0.164486 -0.0403595 0.343676 -0.355214 -0.576558 -0.124629 0.0733528 0.213607 0.195148
4797 -1.31858 0.490158 0.968053 2.04848 -0.306963 -1.56734 0.112017 -1.01314 -1.80791 1.53289 2.0692 -1.58026 0.554231 -0.0539098 -0.0940197 0.223363 0.141411 -0.374379 0.55461 -0.112303 -0.23437 -0.134764 -0.311409 -0.193366 0.128214 0.195654 0.137092 -0.440847 -0.0875566 0.0258791 0.168267 0.0405962 -0.131666 -0.206098 -0.00157138 -0.153935 -0.0957399 -0.0491144 0.360499 -0.273186 -0.130136 0.228568 0.0390429 0.132539 -0.131578 0.0128704 -0.164267 0.0527624 -0.250811 0.226088 -0.197758 -0.0748052 -0.0461398 0.110812 0.444031 0.104262 0.00230257 0.277199 -0.547214 -0.903703 -0.201116 0.451623 0.338304 0.284735
3134 -1.30621 0.566767 0.893827 1.76141 -0.280432 -1.28568 -0.0603725 -0.966491 -1.62694 1.26582 1.80607 -1.3325 0.470887 -0.135285 -0.123097 0.0929235 0.0715048 -0.23672 0.449926 -0.208427 -0.0938677 -0.106036 -0.0570874 -0.0968589 0.0948893 0.124588 0.190881 -0.476412 -0.147625 -0.0501215 0.0948491 0.158771 -0.160632 -0.211602 0.0154176 -0.136961 -0.0359465 0.0469693 0.318634 -0.137474 -0.00677006 0.20114 0.0147253 0.0814979 -0.117598 -0.0241535 -0.0223456 -0.0833462 -0.326169 0.0933181 0.0462991 0.11751 -0.2331 0.0636421 0.381841 0.252156 -0.0646666 0.372147 -0.439222 -0.890048 -0.262135 0.256322 0.276072 0.240475
2641 -1.47726 0.623452 0.980276 1.91472 -0.30843 -1.4566 -0.0582954 -1.04241 -1.71133 1.32862 1.89646 -1.34755 0.555635 -0.194368 -0.108079 0.123561 0.0365122 -0.221437 0.510612 -0.261671 -0.222191 -0.066009 -0.0390246 -0.067577 0.118455 0.147001 0.225111 -0.565731 -0.14482 -0.0465433 0.0227747 0.147378 -0.159231 -0.245997 0.0770746 -0.142386 -0.127304 0.148236 0.427758 -0.119695 -0.0252872 0.222855 0.0179399 0.130644 -0.0876263 -0.096176 -0.0401187 -0.0977033 -0.393135 0.0759351 0.106781 0.113168 -0.281083 0.0395249 0.476616 0.285486 -0.0481253 0.376234 -0.484616 -0.996084 -0.249756 0.254622 0.152625 0.0923979
9640 -1.20154 0.471062 0.683149 1.54874 -0.273951 -1.18492 -0.00191932 -0.865266 -1.51831 1.07912 1.5335 -1.15754 0.364662 -0.185107 -0.0613152 0.0981617 0.130819 -0.32109 0.468297 -0.193418 -0.22114 -0.0262831 0.1803 -0.0760685 0.157561 0.11649 0.201903 -0.456184 -0.033513 -0.00929561 0.086338 0.0779519 -0.12915 -0.175249 0.0229618 -0.0492847 -0.0869167 0.157648 0.195752 -0.024941 -0.0659484 0.134966 0.0483237 0.16109 -0.0439534 -0.0872453 -0.0789713 -0.0518935 -0.295324 0.147637 0.0724761 0.0812402 -0.140525 -0.00980397 0.322444 0.136869 -0.0667858 0.312529 -0.355243 -0.72112 -0.119545 0.230688 0.23028 0.152369
18906 -1.41839 0.557625 0.831031 1.82148 -0.272703 -1.39165 -0.0311917 -1.05928 -1.70028 1.31549 1.88193 -1.39876 0.481477 -0.278251 -0.0853772 0.0927456 0.0470814 -0.261453 0.511893 -0.20347 -0.154043 -0.0878335 0.0535574 -0.0402124 0.15546 0.123197 0.214031 -0.482789 -0.113246 -0.00967671 0.0475898 0.145065 -0.132377 -0.207857 0.0550309 -0.161124 -0.0640888 0.119179 0.264446 -0.0618663 -0.0460606 0.178451 -0.0809094 0.116385 -0.0240139 -0.0706808 -0.0706837 -0.0697211 -0.391804 0.137495 0.138961 0.119471 -0.263929 0.00689895 0.474856 0.194755 -0.135426 0.379036 -0.403602 -1.00988 -0.251009 0.313641 0.153793 0.15164
1170 -1.69556 0.577077 0.774042 2.03721 -0.419105 -1.38937 -0.021347 -0.927882 -1.71705 1.40714 1.83387 -1.4053 0.424575 -0.226721 -0.1176 0.101317 -0.0944064 -0.410048 0.329861 -0.229603 -0.144052 -0.334003 -0.123174 -0.158873 0.118491 0.142701 0.197825 -0.658033 -0.0604075 -0.00805805 -0.0300334 0.130469 -0.235971 -0.211336 0.257258 -0.183635 -0.00594152 -0.121725 0.0456633 0.140589 -0.10341 0.312013 0.0205684 0.116434 0.0446569 -0.0729037 0.094838 -0.175421 -0.501382 0.306032 0.368917 0.00867629 -0.235928 0.146186 0.291673 0.0676548 -0.188502 0.195295 -0.200304 -0.500793 -0.153587 0.384665 0.214475 0.259115
17973 -1.58449 0.489231 0.806604 2.07329 -0.417503 -1.53514 -0.216513 -1.07019 -1.74652 1.10393 1.7139 -1.41208 0.510577 -0.372293 -0.0447312 0.0963581 -0.0242492 -0.196421 0.416895 -0.187517 -0.250666 -0.0534731 0.176779 -0.032235 0.105254 0.0710452 0.203809 -0.401252 0.00910807 -0.0532989 -0.0348894 0.0799726 -0.161278 -0.0972378 0.0375811 -0.107249 -0.0278355 0.0334696 0.217788 0.00555525 -0.0361809 0.203766 -0.0949921 -0.0147758 -0.00283912 -0.104015 -0.0342814 -0.0889746 -0.272896 0.0316011 0.151091 0.0461101 -0.245377 0.0558655 0.238215 0.106323 -0.0768718 0.109974 -0.180452 -0.610622 -0.185876 0.280576 0.0191747 0.0362328
9077 -1.62918 0.607187 0.826703 2.10133 -0.308812 -1.47476 -0.22578 -0.899193 -1.69951 1.07198 1.80746 -1.51385 0.31916 -0.305834 -0.0164978 0.051874 0.183596 -0.249306 0.43684 -0.239115 -0.236656 -0.112907 0.168053 -0.125903 -0.0145053 -0.0526352 0.178117 -0.357943 -0.0512737 -0.0440392 -0.0127468 0.0719158 -0.0436475 -0.0705855 -0.0579203 0.0226087 -0.0323563 0.090715 0.302533 -0.119714 -0.0273249 0.377319 -0.169617 -0.108327 -0.107174 -0.1894 -0.0558494 0.00161731 -0.054826 0.0649535 -0.0466636 -0.00909917 -0.129882 -0.0368861 0.103548 0.0761323 -0.111107 0.24836 -0.163064 -0.547574 -0.0137294 0.123858 0.0343159 0.0397852
4120 -1.38778 0.537549 0.788319 2.00809 -0.553311 -1.61417 -0.185037 -1.03217 -1.58207 1.08649 1.77826 -1.43579 0.397951 -0.13964 -0.144245 -0.0589186 0.126153 -0.308831 0.51343 -0.075388 -0.144641 -0.12659 0.0886137 -0.00647946 0.103838 0.0410003 0.078433 -0.236763 -0.109328 0.0674136 -0.0102531 0.0396283 0.0126898 -0.0715927 0.0894485 -0.100428 0.0177674 -0.0632372 0.117331 -0.0363549 -0.108813 0.351154 -0.152444 0.032405 -0.110208 -0.0792038 -0.0679315 -0.0363923 -0.0283547 0.00912861 0.03087 0.141671 0.0395892 0.0224692 0.110254 0.0364715 -0.121681 0.296745 -0.123025 -0.394094 -0.253683 0.106197 0.181492 0.171715
13794 -1.69475 0.532848 0.85362 2.20171 -0.371646 -1.45734 -0.0441028 -0.962996 -1.83102 1.21423 1.81935 -1.51143 0.417104 -0.192805 -0.0515978 0.0131124 0.224185 -0.300412 0.455623 -0.21488 -0.25526 0.0115443 0.117331 -0.141426 0.11163 0.0214036 0.152093 -0.426817 0.0654073 -0.0107686 -0.00154509 0.180973 0.0818279 -0.127948 0.0433932 0.0379289 -0.0298957 -0.0257115 0.244232 -0.167159 -0.172972 0.411842 -0.182215 0.150035 -0.0503359 -0.1614 -0.0450882 0.0033747 0.0424505 0.264701 0.0591845 -0.0316036 -0.19483 -0.0260245 0.296396 0.0932325 -0.116766 0.289989 -0.156979 -0.44298 -0.158399 -0.0102038 0.091356 0.230015
18617 -1.5839 0.535367 0.824183 2.19572 -0.364894 -1.47899 -0.0767819 -1.03894 -1.8366 1.1765 1.79485 -1.51035 0.338145 -0.216378 -0.0072344 0.0261658 0.230517 -0.35375 0.385021 -0.184025 -0.186416 0.00763995 0.138194 -0.143646 0.0299814 -0.0226267 0.168973 -0.407572 0.166346 -0.0115594 -0.0369352 0.172658 0.0602135 -0.116095 0.00153067 0.0523678 -0.0126567 -0.0344761 0.190387 -0.129474 -0.126902 0.392114 -0.292541 0.155483 -0.0230654 -0.155945 -0.0476847 0.000368437 0.0453199 0.180519 0.135921 -0.0327866 -0.212639 0.0103271 0.273023 0.0760657 -0.171744 0.199123 -0.141373 -0.485151 -0.141067 0.0601228 0.0832448 0.196907
15311 -1.48712 0.616077 0.74098 1.94884 -0.53355 -1.4984 -0.227839 -1.03475 -1.51879 1.23027 1.73716 -1.48321 0.38539 -0.148908 -0.144159 -0.109418 0.0778973 -0.292528 0.470431 -0.0657215 -0.117408 -0.213915 0.118375 -0.112373 0.100605 0.0247996 0.0744934 -0.310805 -0.0277689 0.0331994 -0.0216355 0.0469244 -0.040277 -0.103215 0.115748 -0.184841 0.0528073 -0.0680193 0.0500517 -0.00501161 -0.125382 0.28604 -0.118911 0.0309639 -0.101452 -0.154089 -0.0140358 -0.0158252 -0.122818 0.175044 0.113483 0.0710042 0.0722417 -0.0544605 0.0555974 0.147513 -0.182577 0.287464 -0.133595 -0.304613 -0.204563 0.179098 0.211919 0.191807
2026 -1.61644 0.599262 0.845668 2.05278 -0.335078 -1.35591 0.0491936 -0.929042 -1.75971 1.2505 1.88238 -1.4698 0.335719 -0.20725 -0.0909669 0.0272012 0.196002 -0.249603 0.544451 -0.236036 -0.0666046 -0.130413 0.0103369 -0.108223 -0.0433272 -0.0454674 0.308103 -0.389817 -0.0131358 -0.0144206 0.0141196 0.2463 0.015092 -0.131552 0.0482392 0.0474555 -0.0292001 -0.0051387 0.223126 -0.127219 -0.138003 0.378314 -0.342056 0.12433 -0.0978916 -0.202774 -0.0302686 -0.0800617 0.0172085 0.301705 0.15419 0.0660292 -0.195182 0.063505 0.324016 0.0452479 -0.177501 0.259807 -0.13462 -0.543957 -0.246086 0.0106085 0.116591 0.246084
599 -1.68274 0.569638 0.840246 2.16246 -0.374238 -1.36022 -0.0624793 -0.915777 -1.82569 1.21265 1.81921 -1.41 0.363941 -0.237675 -0.0576441 0.0313124 0.206365 -0.277462 0.397423 -0.207501 -0.27421 -0.0127119 0.00919436 -0.184961 -0.0760903 -0.0826541 0.0843912 -0.41646 -0.0321154 -0.0342211 -0.0190595 0.124714 -0.0279131 -0.128862 0.0869539 0.0242946 -0.0998641 -0.00116475 0.264596 -0.132239 -0.13845 0.43078 -0.178424 0.107291 -0.0318808 -0.180388 -0.0283714 0.0117357 0.0157773 0.182018 0.122143 -0.00235209 -0.216075 -0.00302094 0.289821 0.068481 -0.000779882 0.169964 -0.097322 -0.401692 -0.136262 0.0357356 0.108718 0.218646
12257 -1.56019 0.53292 0.81474 2.0269 -0.367174 -1.44187 -0.276832 -0.898501 -1.70203 1.08894 1.85071 -1.63304 0.357586 -0.249787 -0.0352249 0.029332 0.101549 -0.176933 0.328739 -0.227576 -0.198591 -0.107596 0.193097 -0.0894294 0.173389 0.0318431 0.115892 -0.371526 -0.0165105 -0.0341306 -0.0867704 -0.0161834 -0.0660757 -0.0975557 0.0359882 0.0477653 -0.0525647 0.0530436 0.224499 -0.121994 -0.0701374 0.310633 -0.0693974 -0.0346638 -0.0738452 -0.0231099 -0.054058 0.0177904 -0.0290799 0.0650559 0.0335843 -0.0402784 -0.010129 0.0647889 0.104678 0.0680597 -0.151234 0.259967 -0.101194 -0.490394 -0.091101 0.118725 0.139629 0.137512
3320 -1.40922 0.503435 0.79984 2.19695 -0.402627 -1.41424 -0.276948 -0.917498 -1.67643 1.11895 1.84077 -1.55973 0.335922 -0.3211 -0.000732243 0.0572824 0.0367581 -0.272848 0.30522 -0.165028 -0.232259 -0.250659 0.040339 -0.125702 -0.0247264 -0.0184803 0.165857 -0.403475 -0.0197878 -0.0593868 -0.109523 0.02769 -0.10872 -0.0644913 0.021608 -0.021625 0.00850425 -0.0904159 0.154853 -0.0658256 -0.0718979 0.374263 -0.15651 -0.109043 -0.0730937 -0.080561 0.0139219 -0.0415229 -0.218483 0.155472 0.129249 -0.00977142 -0.231945 0.0679521 0.115902 0.0480781 -0.115433 0.0958864 -0.0415125 -0.394205 -0.0968518 0.201938 0.102943 0.109469
12701 -1.75408 0.592393 0.730852 2.11865 -0.415447 -1.28982 0.111844 -0.940029 -1.76837 1.17107 1.73012 -1.41448 0.245398 -0.141004 -0.0242795 -0.0048083 0.317641 -0.268138 0.441374 -0.326102 -0.0323932 -0.137601 0.206206 -0.198501 0.106026 0.0130935 0.281399 -0.466974 -0.0190749 -0.00155582 0.0634672 0.205186 0.113182 -0.0955626 0.0891433 0.0963468 -0.0383876 -0.0225752 0.192223 -0.0858614 -0.141298 0.329426 -0.12286 0.124808 -0.080932 -0.161382 -0.0325064 -0.0586806 -0.181806 0.275727 0.148937 0.0942609 -0.27269 -0.0786756 0.198324 0.102311 -0.0839365 0.323139 -0.203867 -0.448996 -0.159346 -0.0345768 0.226024 0.199376
8013 -1.65217 0.547258 0.79211 1.92142 -0.379519 -1.11656 -0.0464336 -0.776036 -1.40216 0.95283 1.69156 -1.32263 0.315588 -0.196707 -0.142363 0.0242336 0.238492 -0.214189 0.542824 -0.32033 -0.0534296 -0.148167 0.442824 -0.134946 0.123955 0.0748275 0.311206 -0.490596 -0.125213 -0.0152232 0.0144241 0.273316 -0.0384345 -0.122981 0.0885361 0.056858 0.00795527 0.053052 0.212443 -0.0670006 -0.116891 0.274376 -0.103641 0.0734567 -0.121468 -0.104969 -0.0307543 -0.144174 -0.124657 0.322523 0.115085 0.141716 -0.306296 -0.148406 0.298968 0.199354 -0.135254 0.495168 -0.246974 -0.691515 -0.281886 0.0235939 0.280225 0.362577
19600 -1.47679 0.424239 0.874312 1.94601 -0.293408 -1.27968 -0.100129 -1.02079 -1.56787 1.22084 1.74641 -1.29371 0.463359 -0.36116 -0.0588479 0.0329724 0.0574927 -0.226393 0.549372 -0.149266 -0.189904 -0.0696819 0.29308 -0.0327043 0.0462907 0.000622385 0.296548 -0.508559 -0.11648 -0.0490582 0.00678446 0.185157 -0.103066 -0.125014 0.00340212 -0.085155 -0.0236961 0.193031 0.269119 -0.103142 -0.0764028 0.317656 -0.174277 0.078836 -0.10802 -0.193528 -0.0356726 -0.100919 -0.0790791 0.234285 0.0270092 0.0394848 -0.268853 0.028859 0.420871 0.1135 -0.13718 0.460014 -0.256991 -0.85301 -0.229155 0.117426 0.194104 0.384123
3328 -1.67091 0.68149 0.965165 2.07805 -0.349389 -1.49388 0.0533735 -1.05611 -1.80563 1.35537 2.05486 -1.52575 0.41781 -0.312645 -0.156099 0.0443936 0.159014 -0.258052 0.526141 -0.166574 0.0600464 -0.164973 0.0545746 -0.152231 -0.00684743 -0.0258045 0.184763 -0.422034 -0.21563 -0.0314748 0.0130158 0.208125 -0.080845 -0.234296 0.145229 -0.0938758 -0.0685827 0.0911416 0.407472 -0.0987458 -0.134217 0.60227 -0.318477 0.0549621 -0.132513 -0.197802 -0.132879 -0.0731416 -0.284541 0.203645 0.239645 0.204252 -0.279967 -0.0138683 0.488398 0.246822 -0.144993 0.445211 -0.337091 -1.08763 -0.31053 0.241828 0.167316 0.249367
16531 -1.40003 0.478962 0.758226 1.87528 -0.598501 -1.46307 0.147014 -1.06642 -1.82666 1.211 1.60652 -1.37137 0.259395 -0.490566 -0.100359 0.0869672 0.189868 -0.361702 0.448111 -0.074497 0.0827367 -0.093064 0.14081 -0.324625 -0.0189499 -0.15841 -0.0728784 -0.296135 -0.220818 -0.0823167 0.0981495 -0.0163701 -0.112942 -0.134341 0.0607509 0.047444 -0.108026 0.0986325 0.271916 0.115677 -0.173549 0.71791 -0.23486 0.0575519 -0.18086 -0.0210794 -0.152824 0.00962684 -0.332035 0.265788 0.286325 0.121738 -0.19876 -0.117109 0.155575 0.0403349 0.0461111 0.173174 -0.155657 -0.796153 0.0752982 0.29348 0.209402 0.138707
14595 -1.49385 0.487836 0.757306 1.92598 -0.427234 -1.49309 0.0422906 -1.27023 -1.75151 1.38494 1.53312 -1.31992 0.488715 -0.328249 -0.135681 0.0501312 0.0834218 -0.175828 0.525868 0.0661265 -0.245394 0.111204 0.202884 -0.150611 0.239702 -0.00402945 0.131238 -0.509648 -0.00379614 -0.0787884 0.011765 -0.0532386 0.00408814 -0.144569 0.115195 -0.0884252 -0.0760423 0.0663132 0.248283 -0.106661 0.0115836 0.476403 -0.22269 0.00936074 -0.0996189 -0.132634 -0.075739 -0.0172819 -0.243031 0.0158349 0.109645 0.143929 -0.242387 0.0338243 0.186467 0.0583522 -0.10139 0.227753 -0.169578 -0.713562 -0.165934 0.283601 0.344753 0.496025
12633 -1.42507 0.488013 0.600087 1.78843 -0.424117 -1.45696 -0.0481675 -1.15362 -1.68614 1.13689 1.43494 -1.22516 0.345844 -0.416763 -0.0714796 0.0845809 0.0805604 -0.12525 0.474496 0.0156235 -0.397701 0.050143 0.323465 -0.0717356 0.18338 0.0378776 0.139624 -0.408701 0.041241 -0.0423595 -0.0712423 -0.110269 -0.039614 -0.0346014 0.0809417 -0.0117094 -0.0542379 0.0729788 0.176532 0.0145939 -0.0598022 0.421143 -0.3416 -0.0642561 -0.0930087 -0.103146 -0.121742 -0.0278041 -0.133564 0.0779736 0.120001 0.134637 -0.280847 -0.0665487 0.249877 -0.0280299 -0.13846 0.101108 -0.180646 -0.693807 -0.10972 0.379717 0.244798 0.29369
12365 -1.56728 0.467024 0.716824 1.95109 -0.380433 -1.4026 -0.0201794 -1.15143 -1.87258 1.28504 1.55329 -1.33758 0.381796 -0.483955 -0.111605 0.11632 0.059182 -0.161694 0.548351 0.128932 -0.224931 0.0398446 0.309009 -0.0255435 0.252839 0.0191772 0.143632 -0.497745 0.0416833 -0.0998491 -0.0742576 -0.1322 -0.0597206 -0.108909 0.0261452 -0.013703 -0.0761158 0.0841869 0.113798 -0.0257128 -0.0190186 0.362277 -0.337894 -0.0542756 -0.126171 -0.103662 -0.118814 -0.00855938 -0.129667 0.0861336 0.0973978 0.140261 -0.225259 0.037043 0.250772 -0.0820947 -0.154721 0.1471 -0.0985497 -0.898695 -0.149193 0.499108 0.323054 0.481944
10662 -1.29464 0.373027 0.591052 1.6289 -0.358585 -1.22937 -0.0661939 -1.02743 -1.52788 1.09851 1.27756 -1.07739 0.339903 -0.400477 -0.0750401 0.079889 0.0760902 -0.141195 0.41112 0.0340473 -0.218228 -0.0132441 0.263621 -0.0933368 0.175734 -0.00442454 0.118612 -0.447025 -0.0409237 -0.0674608 -0.073212 -0.0608314 -0.0644439 -0.0574406 0.0767412 -0.0222191 -0.0822423 0.121066 0.209979 -0.00172872 -0.0502917 0.360413 -0.245337 -0.0419211 -0.0876963 -0.0622913 -0.103241 -0.0321755 -0.118383 0.0797355 0.0530462 0.0959755 -0.21311 -0.0243911 0.229635 -0.0129657 -0.0507999 0.119886 -0.173585 -0.695225 -0.070952 0.338899 0.238186 0.322191
2553 -1.45038 0.505611 0.641406 1.82535 -0.439167 -1.51663 0.0586881 -1.21275 -1.78555 1.27057 1.58295 -1.29452 0.381252 -0.377678 -0.121388 0.0537633 0.155803 -0.122719 0.44344 0.0819587 -0.276137 0.0573382 0.262082 -0.115826 0.196163 0.013035 0.135293 -0.468472 0.000614102 -0.0482622 0.00750497 -0.0655913 -0.00397057 -0.0157491 0.13122 -0.0507739 -0.0563595 0.0681809 0.273659 -0.0145351 -0.0232932 0.497401 -0.336146 -0.0590986 -0.138961 -0.00163704 -0.142013 -0.0177101 -0.105479 -0.0163275 0.0807238 0.199176 -0.266315 -0.0664514 0.247389 0.0314898 -0.0835153 0.152894 -0.258437 -0.754746 -0.160322 0.350026 0.282025 0.342758
12584 -1.50964 0.520876 0.684631 1.88039 -0.461199 -1.51676 0.0119353 -1.18312 -1.74658 1.28787 1.54868 -1.26039 0.317261 -0.419538 -0.125235 0.102834 0.0527216 -0.0995273 0.421956 0.0968842 -0.198314 -0.0244782 0.251013 -0.0758851 0.243733 0.0729293 0.130253 -0.508966 -0.000516491 -0.0583054 -0.0214351 -0.0662841 -0.0617398 -0.0631932 0.0868085 -0.0728767 -0.0364492 0.0313838 0.146956 0.00833832 -0.0386666 0.400299 -0.348136 -0.0729938 -0.123127 -0.0377253 -0.110665 -0.0298455 -0.133192 0.0351113 0.0821945 0.160617 -0.283799 -0.0429463 0.270853 -0.0421709 -0.139549 0.141253 -0.206269 -0.764381 -0.182001 0.427709 0.301312 0.39717
14921 -1.6201 0.533559 0.633751 1.99552 -0.605395 -1.61255 0.104965 -1.23434 -1.98814 1.36519 1.64319 -1.38691 0.274964 -0.568852 -0.12082 0.0913339 0.171582 -0.174844 0.432161 0.0307018 -0.123809 -0.107926 0.140918 -0.164573 0.0221675 -0.0477456 0.0549602 -0.321027 -0.138407 -0.0172816 -0.0291189 -0.0702362 -0.0173594 -0.00432722 0.166357 0.00686595 -0.114302 0.0746098 0.231803 0.0879233 -0.144538 0.65694 -0.380185 -0.0359512 -0.132164 -0.112477 -0.147957 -0.00759745 -0.181757 0.140006 0.179092 0.166612 -0.286881 -0.177229 0.279377 -0.00375553 -0.0759281 0.100693 -0.198903 -0.695621 -0.0632833 0.375144 0.269944 0.269244
7692 -1.6393 0.455752 0.684803 2.03605 -0.595408 -1.54913 0.0269391 -1.20545 -1.8659 1.27908 1.62329 -1.3812 0.448184 -0.562387 -0.0452747 0.062494 0.236365 -0.259563 0.384354 -0.188494 -0.223918 -0.10192 0.265291 -0.254983 0.00180283 -0.0624528 0.0595912 -0.288426 -0.164346 -0.00782192 -0.0512039 -0.0184449 0.0471447 0.0326487 0.184027 0.0312354 -0.12083 0.0990437 0.348488 0.0723973 -0.186334 0.711087 -0.230391 0.00165089 -0.106477 -0.114605 -0.081082 -0.0270146 -0.282825 0.268767 0.175783 0.0845159 -0.312103 -0.241586 0.22346 0.0853531 0.00723952 0.15055 -0.24835 -0.518958 0.0474617 0.225516 0.223461 0.131971
13729 -1.61704 0.417452 0.982366 2.10289 -0.532258 -1.34646 -0.0125116 -1.25741 -1.50096 1.42784 1.53818 -1.3625 0.721694 -0.280982 -0.102254 0.0813794 0.128442 -0.0563919 0.529755 -0.412666 -0.273632 -0.00981437 0.286932 -0.364344 0.129141 -0.0650449 0.222815 -0.30233 -0.216259 -0.0352098 -0.164977 0.160054 0.201286 -0.0282309 0.278291 0.0154649 -0.178176 -0.0413231 0.408748 -0.105514 -0.0457529 0.453352 0.0737585 0.103165 -0.0113058 -0.194119 0.0176183 -0.0138673 -0.287676 0.126114 0.0196892 -0.067422 -0.372052 -0.101923 -0.0968483 0.0754094 -0.01166 0.289144 -0.267065 -0.33278 0.00293326 -0.000763923 0.511993 0.407614
12786 -1.53348 0.537689 0.715984 2.09457 -0.725759 -1.66569 0.17424 -1.35659 -1.90042 1.32664 1.62829 -1.42251 0.428024 -0.491981 -0.0421327 0.0916853 0.241074 -0.253627 0.297811 -0.320974 -0.148851 -0.134293 0.16318 -0.306111 0.0321567 0.0746869 0.0617437 -0.186466 -0.135778 0.0347901 -0.0531096 0.0946202 0.12319 -0.0128349 0.182446 0.0649714 -0.13871 -0.0981371 0.26028 0.0628256 -0.18463 0.580858 -0.119515 0.0492443 -0.0927643 -0.0525292 -0.0647737 -0.0360206 -0.294782 0.174902 0.185938 0.072 -0.391222 -0.298527 0.211996 0.147518 -0.0698552 0.235928 -0.329699 -0.489083 -0.00131336 0.235288 0.243218 0.0629703
15585 -1.60397 0.437343 0.835842 2.07808 -0.664171 -1.44073 0.240574 -1.29283 -1.65991 1.35839 1.4963 -1.42342 0.680334 -0.462811 -0.117253 0.0746739 0.187834 -0.268092 0.528471 -0.381026 -0.0909161 -0.0383357 0.097898 -0.255203 0.0951803 0.0608075 0.126813 -0.126054 -0.118686 0.0246463 -0.0728413 0.1447 0.232325 -0.0997243 0.185666 0.0656359 -0.118426 -0.159407 0.21047 -0.0869006 -0.170836 0.641459 -0.0851393 0.0669573 -0.0698173 -0.260279 -0.00383644 -0.0271861 -0.398501 0.188988 0.174275 0.0462141 -0.314898 -0.175719 0.0480297 0.15688 -0.0687066 0.265822 -0.195408 -0.403517 -0.108589 0.0406782 0.167164 0.00476636
2752 -1.27954 0.489022 0.716779 2.18762 -0.595328 -1.58721 0.135718 -1.17534 -1.68435 1.192 1.62102 -1.31927 0.326013 -0.392813 0.149347 0.074836 0.137538 -0.315034 0.382579 -0.312964 -0.144557 -0.227295 0.157279 -0.226888 0.00523142 0.105327 0.26195 -0.189026 -0.0138541 -0.0388406 -0.0333185 0.0818992 0.120572 0.0270206 0.0909017 0.11463 -0.0617034 -0.115102 0.190772 0.0500473 -0.177021 0.517962 -0.244934 0.0288181 -0.187562 -0.147997 -0.0584814 -0.110975 -0.260446 0.235624 0.171058 0.00482048 -0.488519 -0.117545 0.19184 0.0707945 -0.149364 0.256583 -0.313256 -0.518578 -0.0502689 0.262755 0.35253 0.0771839
18327 -1.37579 0.515793 0.714855 2.11714 -0.639974 -1.66358 0.176903 -1.1514 -1.95348 1.18609 1.53048 -1.39313 0.304211 -0.430485 0.0697239 0.0859364 0.133884 -0.20103 0.389414 -0.261112 -0.25736 -0.0875833 0.177191 -0.211252 0.0832587 0.0601404 0.148227 -0.132496 -0.0951825 -0.0309558 -0.016405 -0.0364099 0.0676338 -0.00365225 0.125473 0.165096 -0.130524 -0.0809413 0.241147 0.0973595 -0.167474 0.550414 -0.174863 0.0412685 -0.171952 -0.102833 -0.113473 -0.0439996 -0.288782 0.251486 0.223884 0.0509528 -0.428112 -0.216228 0.124204 0.0512659 -0.115995 0.174685 -0.252381 -0.514729 0.0281464 0.248268 0.271039 0.00742185
18787 -1.47246 0.380927 0.756298 2.1851 -0.508599 -1.65139 0.0595375 -1.34834 -1.82087 1.43788 1.686 -1.26753 0.461968 -0.506685 0.0676621 0.0413811 0.107472 -0.240037 0.443597 -0.0347754 -0.362314 -0.0925237 0.203943 -0.187331 -0.0129356 -0.0605424 0.183702 -0.289722 -0.130913 -0.0158484 0.0101531 0.0890314 0.106686 0.0397186 0.0725265 -0.0242648 -0.0596122 0.109924 0.298522 -0.0071632 -0.178965 0.578965 -0.250643 -0.0139801 -0.0978995 -0.179639 -0.0803715 -0.0452491 -0.0961447 0.184174 0.01702 -0.00341835 -0.385788 -0.128399 0.292801 -0.0469169 -0.0102019 0.256354 -0.280026 -0.486023 0.0392591 0.217513 0.207441 0.261257
11534 -1.53556 0.393962 0.713723 2.24925 -0.694256 -1.66732 0.0831975 -1.30231 -1.80183 1.35218 1.59134 -1.39644 0.514214 -0.555526 0.00449327 0.0478292 0.204111 -0.24422 0.402669 -0.1991 -0.262591 -0.128012 0.302415 -0.314343 -0.033641 -0.0695777 0.109616 -0.269199 -0.126311 -0.0219493 -0.0576029 0.0324701 0.0680893 0.0246347 0.167746 0.0628118 -0.12399 0.0169063 0.311851 0.0414011 -0.16669 0.634682 -0.155182 0.0434691 -0.106063 -0.182752 -0.0577101 -0.0736578 -0.294126 0.29528 0.181841 0.0287255 -0.385451 -0.216702 0.180693 0.105349 -0.0142068 0.198336 -0.241861 -0.448857 0.0404563 0.19533 0.276252 0.174999
9166 -1.61538 0.388552 0.696918 2.19005 -0.64802 -1.50871 0.24678 -1.40449 -1.79349 1.34999 1.49107 -1.3698 0.526858 -0.508724 -0.032695 0.0476116 0.197346 -0.471526 0.448333 -0.194106 -0.0205339 -0.175762 0.135991 -0.213634 0.0341307 0.0752161 0.13234 -0.0878938 -0.0767149 -0.00218255 0.00758273 0.0903529 0.160767 -0.0739506 0.160897 0.0416966 -0.122849 -0.0816236 0.108023 -0.0622537 -0.129437 0.496234 -0.14383 -0.0643609 -0.155255 -0.304986 0.000810763 -0.094388 -0.321724 0.268223 0.164567 0.120662 -0.262454 -0.18657 0.256275 0.199887 -0.106371 0.234381 -0.178341 -0.42095 -0.0747291 0.214751 0.00478259 -0.050969
13562 -1.62127 0.510823 0.843876 2.07663 -0.446841 -1.51001 0.264746 -1.28239 -1.51448 1.42428 1.59957 -1.39297 0.646493 -0.25598 -0.163946 0.015593 0.0728956 -0.0903595 0.66073 -0.0429619 -0.175649 0.072959 0.084141 -0.119793 0.242754 0.0633827 0.277209 -0.41792 -0.00836137 -0.0505443 0.0347718 0.0803972 0.151838 -0.112248 0.226021 -0.0969203 -0.0787895 -0.145505 0.183397 -0.170514 0.0092197 0.476377 -0.29096 -0.0945155 -0.126134 -0.198114 -0.0048046 -0.0231709 -0.163061 0.0173389 0.0364057 0.147442 -0.300942 -0.057118 0.102292 0.0659022 -0.198643 0.207254 -0.191433 -0.540385 -0.240307 0.155953 0.240549 0.238411
16142 -0.776988 0.270428 0.380308 1.02428 -0.210826 -0.724371 0.00181359 -0.56111 -0.892137 0.678325 0.913683 -0.777769 0.202887 -0.140875 -0.030021 0.0302373 0.0849765 -0.123708 0.241528 -0.078285 -0.0455762 -0.0870123 -0.00218444 -0.077391 -0.00112357 0.000650968 0.0685947 -0.142562 -0.0636156 0.00298261 0.000185835 0.0862246 0.0110065 -0.0466596 0.0739589 -0.0355889 -0.0357078 -0.0448812 0.186451 -0.0658115 -0.09589 0.267367 -0.187962 -0.0192884 -0.0574544 -0.0595459 -0.0653521 -0.00993074 -0.0786008 0.12872 0.0584639 0.0366357 -0.128433 -0.0466144 0.184512 0.0998697 -0.0706447 0.135963 -0.168973 -0.377178 -0.149806 0.118902 0.0735396 0.0982791
1013 -1.25927 0.515113 0.834458 1.65186 -0.323422 -1.18698 -0.0518681 -0.920509 -1.40826 1.16783 1.49999 -1.13281 0.435411 -0.0551206 -0.107306 0.0669562 0.0706266 -0.224513 0.378918 -0.208939 -0.12037 -0.0595928 -0.0702477 -0.132387 0.13876 0.132911 0.154952 -0.379931 -0.0872205 -0.0281117 0.0919281 0.198908 -0.0231683 -0.178388 0.0737047 -0.148387 -0.0227412 -0.0588797 0.25229 -0.202625 -0.0389709 0.249645 0.0505603 0.0460167 -0.0824053 -0.0874417 0.0282719 -0.0594612 -0.354376 0.13511 0.0731501 0.055142 -0.224449 -0.0244394 0.22636 0.273187 -0.057108 0.392211 -0.35303 -0.59696 -0.250454 0.169843 0.242065 0.214985
7889 -1.18743 0.41184 0.829986 1.68408 -0.300326 -1.2439 -0.138289 -0.948566 -1.52083 1.22861 1.55755 -1.11497 0.431898 -0.23514 -0.0357544 0.125309 0.0363809 -0.233319 0.403072 -0.215081 -0.257628 -0.10794 0.0842612 -0.126607 0.122484 0.0933796 0.205661 -0.546549 -0.0992758 -0.0848749 0.00818145 0.0862152 -0.151512 -0.126018 0.0334352 -0.0566054 -0.0959029 0.102954 0.299743 -0.0670579 -0.0221279 0.146811 0.0862132 0.0754471 -0.099212 -0.0766235 0.0126113 -0.103811 -0.258182 0.127797 0.0333452 -0.0102298 -0.240326 0.0644783 0.297229 0.1444 -0.0126425 0.255146 -0.326461 -0.673283 -0.0971776 0.22198 0.25984 0.240166
9953 -1.25104 0.481897 0.748544 1.66371 -0.394549 -1.21006 -0.0603703 -0.943238 -1.50779 1.19219 1.51207 -1.18665 0.452965 -0.161561 -0.0978691 0.0933991 0.107929 -0.309012 0.418019 -0.30726 -0.218393 -0.100043 -0.00731225 -0.181456 0.125628 0.120301 0.159303 -0.404207 -0.109185 -0.041181 0.0892224 0.164808 -0.0715883 -0.127609 0.121723 -0.1064 -0.069074 -0.047703 0.252538 -0.0573496 -0.050371 0.271263 0.0916153 0.0580329 -0.0711606 -0.0193469 0.0166477 -0.098611 -0.400691 0.217468 0.0958997 0.0300904 -0.302011 -0.0803957 0.209224 0.228177 -0.058914 0.371049 -0.357703 -0.572558 -0.129903 0.180289 0.33746 0.232553
17537 -1.46643 0.479818 0.83969 1.94672 -0.386343 -1.41701 -0.2381 -0.980029 -1.75885 1.06334 1.49757 -1.2076 0.45003 -0.380469 -0.0671714 0.131771 -0.0634318 -0.133388 0.435408 -0.206293 -0.372712 -0.0622875 0.254909 0.0427233 0.0979896 0.120816 0.203532 -0.437333 -0.0709223 -0.0469301 -0.0415012 0.078753 -0.268765 -0.143238 -0.0253262 -0.0636034 0.00457166 -0.00335852 0.167766 -0.0202559 -0.0821014 0.167894 -0.0150475 -0.0622157 -0.040456 -0.0580479 -0.0570902 -0.0614346 -0.295747 0.0833899 0.112089 0.0855319 -0.221879 0.0670162 0.312773 0.0557999 -0.103714 0.176319 -0.141166 -0.566139 -0.22762 0.246063 0.066868 0.131109
14489 -1.55775 0.42217 0.824254 1.92173 -0.323398 -1.23476 -0.38786 -1.00353 -1.71552 1.15601 1.5237 -1.27364 0.501461 -0.429333 -0.116334 0.0972351 -0.117738 -0.0556234 0.53015 -0.205512 -0.412073 -0.113589 0.2281 0.111683 0.0814563 0.0446255 0.249336 -0.4334 -0.119003 -0.0774898 -0.237301 0.0718508 -0.201379 -0.103208 0.0922322 -0.0945392 0.0238583 -0.0196892 0.160342 -0.0536311 -0.0397148 0.158229 -0.135449 -0.166364 -0.021534 -0.134918 0.0396746 -0.131287 -0.241323 0.0807388 0.156814 0.108388 -0.240285 0.134044 0.248827 0.0682641 -0.183417 0.158139 0.0191587 -0.510282 -0.297787 0.190544 0.144502 0.336836
4432 -1.64959 0.54631 0.834793 1.98994 -0.382055 -1.38904 -0.261359 -1.05628 -1.80147 1.17759 1.69476 -1.34277 0.483885 -0.455508 -0.107407 0.097544 -0.0147788 -0.059987 0.50918 -0.233729 -0.242036 -0.113134 0.153221 0.0336611 0.0758789 0.0520052 0.205653 -0.396358 -0.204512 -0.0405811 -0.222523 0.0236975 -0.167093 -0.14063 0.069165 0.0050647 -0.0534808 0.105478 0.271831 -0.00193367 -0.0968925 0.250523 -0.12828 -0.031858 -0.0597973 -0.106156 -0.0659867 -0.101152 -0.235311 0.0728061 0.159047 0.124387 -0.259812 0.0438553 0.263476 0.0895966 -0.039034 0.0919399 -0.109246 -0.482437 -0.185369 0.0778829 0.0365296 0.0374525
6436 -1.6395 0.513977 0.776567 2.1537 -0.453877 -1.3211 0.0558776 -0.860193 -1.6015 1.11551 1.80862 -1.40293 0.349745 -0.16322 -0.0700699 0.133819 0.260595 -0.242825 0.446306 -0.390545 0.0456264 -0.168863 0.184502 -0.244206 -0.0172279 -0.00658601 0.316574 -0.408736 -0.0519482 -0.0631694 0.0787594 0.241249 0.0702418 -0.0183003 0.06747 0.0964467 -0.0635228 -0.0942818 0.0735718 0.0227506 -0.0439333 0.19583 -0.0973951 0.140061 -0.0751176 -0.182092 0.0913838 -0.076959 -0.103295 0.248371 0.0380596 -0.0181151 -0.335911 -0.0432228 0.165388 0.0259606 -0.0743596 0.163477 -0.225535 -0.487455 -0.0815941 0.179924 0.387235 0.354235
1207 -1.70262 0.545128 0.801595 2.04741 -0.436507 -1.40072 -0.132569 -0.965106 -1.56242 1.07409 1.69597 -1.36697 0.529265 -0.294357 -0.118425 0.150289 0.169976 -0.144616 0.548629 -0.372265 -0.204105 -0.0636179 0.186047 -0.118987 0.0219641 0.0691773 0.195668 -0.257835 -0.098786 -0.0207673 -0.00589826 0.147607 0.0428186 0.0150035 0.0991754 -0.00465419 -0.127002 0.0658046 0.194872 -0.0395204 0.0256092 7.47236e-06 -0.0517398 0.0860035 0.0050989 -0.129431 0.0229793 -0.0677731 -0.155897 0.0837104 0.0445404 0.112748 -0.272379 -0.131487 0.256325 0.133279 -0.125325 0.111061 -0.267809 -0.622693 -0.0930637 0.353157 0.140715 0.0739884
8801 -1.68377 0.517002 0.865744 2.05195 -0.404327 -1.40802 -0.16946 -0.965686 -1.62287 1.25114 1.76401 -1.36996 0.523285 -0.352697 -0.0907486 0.101088 0.083573 -0.012252 0.519964 -0.265722 -0.113497 -0.160683 0.183527 -0.124678 -0.106744 -0.0449261 0.279488 -0.358173 -0.181514 -0.0349204 -0.0531125 0.164983 -0.0390359 -0.0520618 0.0740216 0.00132187 -0.0656733 0.0470296 0.19914 -0.0558047 0.00397724 0.0570459 -0.0651913 -0.0020415 -0.0167385 -0.112667 0.0428343 -0.0718522 -0.140183 0.164089 0.0463972 0.0939116 -0.157011 -0.0420089 0.15371 0.110802 -0.119133 0.0907381 -0.14117 -0.497081 -0.154505 0.217387 0.134763 0.174
14822 -1.53286 0.503133 0.975676 2.11108 -0.306461 -1.5161 -0.203647 -0.847759 -1.70208 1.0494 1.90767 -1.55381 0.441361 -0.146505 -0.131585 0.064536 0.188993 -0.199154 0.358729 -0.254837 -0.190325 -0.144607 0.0533208 -0.0348802 0.0777041 0.0474868 0.0287967 -0.360723 -0.0434469 0.0172023 -0.131922 -0.0139544 -0.0692122 -0.0545944 -0.0321551 -0.026298 -0.00814384 -0.0618835 0.352529 -0.237159 -0.125124 0.368351 -0.0968009 -0.0600485 -0.139144 -0.102034 -0.092307 0.0538245 -0.00111317 -0.0937315 -0.17296 0.0160176 -0.134402 0.0103189 0.266181 -0.00659606 0.0404994 0.215399 -0.25445 -0.586678 -0.155512 0.224407 0.142575 0.162952
9293 -1.56356 0.52934 0.716185 2.15243 -0.408538 -1.45971 -0.0658657 -0.930485 -1.80265 1.08058 1.77287 -1.46312 0.322099 -0.118088 0.0242564 0.0164227 0.172546 -0.265346 0.410962 -0.156729 -0.234547 -0.0471718 0.148595 -0.113215 -0.0234368 -0.0458608 0.268322 -0.404319 0.1633 -0.00383179 0.0796517 0.170594 0.0454003 -0.0515846 -0.0189028 0.0450672 -0.0350034 -0.00788676 0.159848 -0.136506 -0.129192 0.438563 -0.303106 0.0569069 -0.0878097 -0.284786 -0.0772162 -0.0588167 0.00648564 0.117469 0.0789326 0.0180843 -0.195973 0.0737161 0.220309 0.0717557 -0.126956 0.199775 -0.123651 -0.418833 -0.185046 0.0356198 0.0484034 0.16015
15146 -1.75441 0.53151 0.803275 2.03158 -0.419633 -1.37707 -0.112688 -0.997189 -1.8079 1.214 1.65604 -1.45622 0.35587 -0.228295 -0.0900982 0.013452 0.212915 -0.29379 0.407902 -0.215705 -0.0843089 -0.0405562 0.220794 -0.0938826 0.0425816 -0.0282048 0.169072 -0.377036 0.0833886 -0.0268248 -0.0291311 0.187719 0.0575387 -0.11676 0.00499121 0.106194 0.0142578 -0.0471766 0.189227 -0.188109 -0.139529 0.460857 -0.318796 0.0811872 -0.0703526 -0.286909 0.0230815 -0.037724 0.0559973 0.230775 0.159976 0.0689712 -0.209139 0.0387802 0.261617 0.0551005 -0.181485 0.241049 -0.0367752 -0.397378 -0.214056 -0.000759251 0.0452369 0.263834
7888 -1.48954 0.596395 0.846598 2.04068 -0.403491 -1.51087 -0.321534 -0.988323 -1.67272 1.13366 1.79732 -1.45831 0.240293 -0.279903 -0.0705862 0.08038 0.0745819 -0.25616 0.331864 -0.189348 -0.152991 -0.229525 0.049329 -0.107806 0.0531425 0.0264948 0.146083 -0.461733 -0.111318 -0.0441585 -0.0731379 0.0676179 -0.111058 -0.0936899 0.00381231 -0.062963 -0.0174492 -0.0582555 0.186785 -0.123631 -0.0810187 0.288346 -0.195927 -0.084189 -0.0712082 -0.191751 -0.0333465 -0.0102539 -0.148968 0.129874 0.0354661 -0.00112641 -0.166809 0.0255511 0.185405 0.0788972 -0.133496 0.194462 -0.0707038 -0.400553 -0.191329 0.120732 0.106764 0.16843
17521 -1.61349 0.473751 0.820085 2.1142 -0.439298 -1.43185 -0.275697 -0.82665 -1.73083 1.39253 1.81068 -1.46616 0.345945 -0.23706 -0.035427 0.00584815 -0.0244562 -0.334503 0.331584 -0.1641 -0.168612 -0.245177 -0.0334818 -0.168529 0.0491433 -0.0318207 0.132905 -0.451685 -0.0893694 -0.126115 -0.11159 0.0181367 -0.0742053 -0.140385 0.132902 -0.052215 -0.0604023 -0.118731 0.0992722 -0.107788 -0.0752064 0.27523 -0.136866 0.0183844 -0.0879016 -0.100423 0.138234 -0.10613 -0.0893684 0.341512 0.237557 -0.0955618 -0.223439 0.119244 0.130263 0.0112395 -0.128551 0.202898 0.0369049 -0.29432 -0.120686 0.142218 0.127201 0.32734
15432 -1.50893 0.50426 0.761551 2.0991 -0.396392 -1.35298 -0.128198 -0.919675 -1.86445 1.18869 1.72964 -1.48352 0.360477 -0.243549 -0.0375168 0.0300455 0.186557 -0.238558 0.4386 -0.170088 -0.15247 -0.0742289 0.110997 -0.177489 0.0544182 -0.0617265 0.141605 -0.476077 0.0702694 -0.022951 0.0514222 0.136694 -0.0187068 -0.114886 -0.00981501 0.0623465 -0.0740431 0.0238356 0.233981 -0.145514 -0.124722 0.303545 -0.221101 0.144485 -0.0742465 -0.225026 -0.0449707 -0.0214499 0.0324925 0.233797 0.115176 0.0167151 -0.198153 -0.00103084 0.250615 0.0605543 -0.0776887 0.241911 -0.0932279 -0.499646 -0.148516 0.0650128 0.135457 0.266262
3694 -1.38058 0.481888 0.807211 2.00442 -0.361714 -1.30539 -0.140329 -0.905838 -1.69949 1.28582 1.7929 -1.49424 0.430489 -0.185567 -0.0277005 0.0154005 -0.00993447 -0.32888 0.375904 -0.104477 -0.269398 -0.17265 -0.00194375 -0.127943 -0.0336756 -0.0237152 0.145767 -0.515877 0.00545629 -0.0349666 0.0221849 0.0654479 -0.156325 -0.161496 0.0049398 -0.102621 0.00983112 -0.105149 0.145401 -0.148159 -0.150948 0.480727 -0.121044 -0.0389359 -0.0398383 -0.23523 -0.00932156 -0.0229245 -0.232653 0.204761 0.130808 -0.0144084 -0.161812 0.153988 0.217373 0.0830046 -0.0974373 0.160308 -0.112846 -0.329618 -0.1775 0.141811 0.171038 0.18429
12248 -1.57333 0.485712 0.731848 2.10904 -0.377767 -1.47576 -0.0919189 -0.892514 -1.77845 1.12479 1.81462 -1.56645 0.425744 -0.193584 0.0135159 -0.0117224 0.212309 -0.347747 0.441905 -0.166713 -0.247132 -0.0385682 0.174362 -0.166679 0.0924213 -0.00831869 0.214784 -0.394972 0.0558118 -0.0012963 0.0487773 0.146591 0.0233957 -0.0828267 0.0426619 0.0556076 -0.0196425 0.0111986 0.198304 -0.103252 -0.113327 0.310636 -0.258213 0.113602 -0.0737923 -0.133422 -0.0501692 -0.0348976 0.122512 0.189552 0.0940633 -0.027217 -0.180954 0.0572688 0.227089 0.00381772 -0.169244 0.261297 -0.0968593 -0.50358 -0.187546 0.0298725 0.158374 0.324783
514 -1.70564 0.485821 0.767695 2.0973 -0.408412 -1.3366 0.0201295 -0.924707 -1.80967 1.16296 1.75485 -1.50802 0.372812 -0.275321 -0.0685709 0.0546187 0.306887 -0.281491 0.351463 -0.225187 -0.102725 -0.0549909 0.273876 -0.169136 0.105365 0.0227961 0.143251 -0.417873 -0.0320594 0.0118645 -0.017792 0.159434 0.0195623 -0.123306 0.0506782 0.114924 -0.0517416 0.0366149 0.240764 -0.0953166 -0.201557 0.337049 -0.128392 0.177983 -0.075114 -0.170805 -0.064621 -0.00891472 0.0349986 0.393736 0.0929982 0.0079962 -0.170944 -0.0789977 0.323236 0.0817004 -0.096464 0.301504 -0.170361 -0.492873 -0.13285 -0.104134 0.116475 0.255844
14965 -1.54645 0.510927 0.807679 1.89878 -0.42071 -1.18898 -0.045465 -0.707581 -1.61188 0.995554 1.66841 -1.32704 0.371392 -0.0574782 -0.138296 0.0896812 0.213532 -0.226271 0.408074 -0.394773 -0.166311 -0.0763111 0.344546 -0.154991 0.167764 0.163125 0.215933 -0.472974 -0.115966 -0.0245239 0.0657789 0.231726 -0.0757154 -0.151535 0.028101 0.0752543 -0.0132809 -0.050129 0.159258 -0.0516924 -0.108045 0.0716086 0.166659 0.187813 -0.0802245 -0.021785 -0.0095822 -0.0822065 -0.160008 0.24805 0.0341239 0.0691329 -0.236794 -0.0924631 0.227439 0.129275 -0.045231 0.424535 -0.300468 -0.520593 -0.20772 0.0690482 0.445143 0.43358
7959 -1.62506 0.518956 0.671914 1.89977 -0.464519 -1.15651 0.0260512 -0.791782 -1.5349 0.909226 1.61345 -1.39555 0.316449 -0.17332 -0.131525 0.0447159 0.295627 -0.227094 0.352129 -0.392239 0.000798993 -0.138583 0.420467 -0.174612 0.14205 0.10826 0.224815 -0.404944 -0.0738352 0.0367514 0.118009 0.305423 -0.0254212 -0.0961616 0.0889439 0.100065 -0.0157879 -0.0798193 0.115625 0.0423785 -0.159227 0.189003 0.00124325 0.165498 -0.0365043 -0.0876854 -0.0473805 -0.0853687 -0.192221 0.35644 0.196224 0.131359 -0.27662 -0.236616 0.243927 0.203625 -0.170487 0.405337 -0.271065 -0.529298 -0.242443 0.0451265 0.301566 0.290637
5969 -1.72658 0.492888 0.984249 2.15327 -0.439875 -1.25511 -0.255967 -1.11427 -1.58291 1.24091 1.62283 -1.38205 0.503804 -0.222501 -0.188153 0.00150578 0.148482 -0.217351 0.521365 -0.281587 0.105257 -0.143529 0.16565 -0.0765626 0.21822 0.0899103 0.161516 -0.259128 -0.30342 -0.128355 0.0289054 0.244771 0.0532868 -0.156563 0.0694224 0.0182286 0.0849182 -0.1514 0.0401519 -0.11895 -0.0307203 0.154405 -0.0098243 -0.131645 -0.149283 -0.0962814 0.103371 -0.0879882 -0.167167 0.391083 0.0970563 0.0653809 -0.393801 -0.2362 0.0747247 0.186332 -0.156054 0.555593 0.00976137 -0.471558 -0.306307 0.00462375 0.215882 0.422087
8400 -1.75412 0.467123 1.0538 2.14149 -0.366774 -1.44967 -0.0416198 -1.35499 -1.57575 1.48768 1.53349 -1.30884 0.718616 -0.214693 -0.11367 0.0018278 0.00218998 -0.196218 0.598057 -0.226257 -0.146147 0.0675582 0.152676 -0.133437 0.280622 0.0525767 0.193922 -0.308148 -0.131513 -0.10679 0.0297883 0.226404 0.145115 -0.204594 0.102962 -0.108637 -0.0217387 -0.0573483 0.298672 -0.176028 0.0325543 0.326297 -0.080309 -0.0237475 -0.146203 -0.213082 0.0453771 -0.0223028 -0.263795 0.228534 0.0295096 0.00206456 -0.369389 -0.0499476 0.122897 0.169335 -0.0872913 0.458689 -0.194771 -0.525633 -0.159017 -0.0114398 0.193824 0.273599
14940 -1.52287 0.385557 1.14159 2.2393 -0.402949 -1.39914 -0.134655 -1.16791 -1.29694 1.37661 1.52394 -1.2847 0.737837 -0.31901 -0.110039 0.0300494 -0.0274608 -0.0271146 0.56533 -0.309999 -0.197496 0.0495232 0.221323 -0.239019 0.283538 -0.0409323 0.206967 -0.298464 -0.261802 -0.151336 -0.177642 0.17593 0.180648 -0.0935209 0.190538 -0.00844051 -0.0678109 -0.00857591 0.398591 -0.200577 0.0943996 0.253461 0.01046 0.0238647 -0.0663812 -0.144859 0.132826 -0.074178 -0.128779 0.139881 -0.00704905 -0.0967377 -0.49137 -0.0600818 -0.0611637 0.101161 -0.0479677 0.40865 -0.118264 -0.505516 -0.0577664 -0.0489639 0.332654 0.490367
713 -1.20576 0.32278 0.679778 1.67 -0.355492 -1.23508 -0.110882 -0.981971 -1.50304 1.06106 1.30773 -1.11237 0.441402 -0.375825 -0.0281983 0.0615891 0.0603239 -0.248157 0.509436 -0.132643 -0.353326 0.0422283 0.306266 -0.0583622 0.20118 0.0517192 0.155234 -0.308806 0.0127844 -0.0629918 -0.0589657 -0.00295689 0.0123683 -0.0597964 0.0254869 -0.0124152 -0.0225246 0.0867735 0.0963159 0.00299782 -0.0476864 0.253867 -0.115597 -0.0236127 -0.086484 -0.125417 -0.0319655 -0.0406693 -0.175707 0.177435 0.0461973 0.0194412 -0.288302 -0.10015 0.173522 0.0168432 -0.103667 0.266397 -0.159363 -0.571404 -0.0614796 0.262018 0.229937 0.276429
1438 -1.02866 0.347398 0.57033 1.36819 -0.269151 -0.972052 -0.0276147 -0.773711 -1.3124 0.885257 1.23511 -0.98639 0.352074 -0.194795 -0.0408165 0.0567187 0.121021 -0.281648 0.437795 -0.172272 -0.256591 0.0312972 0.232443 -0.0464509 0.139424 0.0972762 0.188887 -0.334558 0.0234842 -0.015463 0.0540221 0.102175 -0.00971887 -0.0949986 0.0100719 -0.0288948 -0.0107342 0.0611288 0.128456 -0.0443386 -0.064835 0.221916 -0.0603421 0.041563 -0.0848135 -0.0941702 -0.0337504 -0.0591695 -0.221263 0.167627 0.0602667 0.057479 -0.223004 -0.0884199 0.237409 0.117164 -0.108214 0.347522 -0.266324 -0.577526 -0.11373 0.164458 0.210979 0.193344
5107 -1.52021 0.236096 0.621212 2.0712 -0.560889 -1.44883 0.137849 -1.22839 -1.50103 1.18434 1.41392 -1.06113 0.624515 -0.469123 0.0160757 -0.0539335 0.108786 -0.161895 0.575944 -0.0318263 -0.348461 -0.0805782 0.334688 0.107301 -0.071199 0.0249149 0.393395 -0.3405 -0.0454194 0.0309959 0.0781006 0.200586 0.0638968 0.0562315 0.114095 -0.0244731 0.0475768 0.30438 0.139394 0.0777234 -0.0672948 0.268789 -0.185843 0.0562352 -0.0903755 -0.31515 0.0137044 -0.239256 -0.00831583 0.17301 -0.0240106 0.180328 -0.0447412 -0.0563343 0.328751 0.164124 -0.0288259 0.255156 -0.2982 -0.398764 -0.143749 0.0898543 0.047118 0.12954
17888 -1.83339 0.544999 0.628274 2.2369 -0.703074 -1.35563 0.210016 -1.12013 -1.68963 1.18843 1.76516 -1.49538 0.230859 -0.376277 -0.00766196 0.10223 0.381984 -0.185384 0.328761 -0.430673 0.118934 -0.434985 0.252478 -0.385778 -0.146867 -0.0680512 0.312368 -0.279269 -0.270092 0.073127 0.0329501 0.258548 0.0776989 0.137846 0.279674 0.207481 -0.125255 -0.0697728 0.288745 0.167145 -0.248248 0.635934 -0.122081 0.0609311 -0.100689 -0.0984243 -0.047291 -0.145205 -0.265327 0.406919 0.234081 0.109728 -0.365975 -0.287078 0.121163 0.139061 -0.0841549 0.241688 -0.37314 -0.472434 -0.0482538 0.214118 0.520669 0.333425
5677 -1.67636 0.315415 0.766758 2.2967 -0.597763 -1.56399 0.00816795 -1.31505 -1.78839 1.28103 1.72001 -1.35137 0.526062 -0.708692 -0.0210262 -0.0119175 0.221382 -0.215238 0.410736 -0.0647731 -0.188793 -0.136408 0.455903 -0.133617 -0.178774 -0.17978 0.215748 -0.284951 -0.235705 -0.0281955 0.0225155 0.116161 0.0415029 0.10008 0.0774062 0.0133876 0.00277706 0.230881 0.247053 0.0719975 -0.163932 0.722967 -0.246098 0.00216695 -0.161927 -0.225697 -0.0448261 -0.117508 -0.0355762 0.282983 -0.0169959 0.0326358 -0.303794 -0.200586 0.290232 0.029395 0.0427153 0.314824 -0.188544 -0.532712 0.030077 0.0635263 0.236375 0.357644
3378 -1.5028 0.508226 0.703997 2.05636 -0.679809 -1.59266 0.111793 -1.14477 -1.81521 1.22508 1.63406 -1.42149 0.415182 -0.387438 -0.0528405 0.0593381 0.268402 -0.286095 0.263438 -0.246531 -0.0796606 -0.146396 0.153031 -0.330383 0.0220346 0.0325281 0.0403658 -0.234508 -0.150006 0.00813663 0.0836991 0.0526821 0.0627033 0.0186661 0.170455 0.0407913 -0.0902832 -0.111786 0.286006 0.0884468 -0.190971 0.673558 -0.104828 0.0387141 -0.120348 -0.00882203 -0.0854321 -0.0277214 -0.314457 0.248473 0.137295 0.056086 -0.346805 -0.265217 0.15225 0.120575 -0.0155683 0.285124 -0.29952 -0.448722 0.00973514 0.19041 0.401145 0.172676
18543 -1.41775 0.511026 0.594468 1.83871 -0.447859 -1.09074 0.0163357 -0.786515 -1.57134 0.926784 1.48907 -1.24417 0.237958 -0.121185 -0.0286678 0.0957102 0.279377 -0.246122 0.362216 -0.364047 -0.0785694 -0.13655 0.351372 -0.217332 0.0832481 0.0824234 0.302893 -0.381674 0.0217965 0.0170893 0.146576 0.243133 0.0106246 -0.00884173 0.0496247 0.174049 -0.0358781 -0.0314254 0.0977778 0.0760014 -0.0958757 0.193541 0.030942 0.160652 -0.0542921 -0.0694725 -0.0114002 -0.138371 -0.212378 0.250016 0.154234 0.0925743 -0.244638 -0.119124 0.110587 0.140297 -0.142228 0.268284 -0.289433 -0.445252 -0.0939684 0.118353 0.449712 0.283096
3273 -1.70584 0.585973 0.65106 2.0321 -0.499764 -1.15263 0.0567195 -0.77811 -1.52544 0.975321 1.6005 -1.23798 0.201116 -0.167504 -0.0084847 0.139318 0.247863 -0.117718 0.313082 -0.461119 0.0130013 -0.314714 0.319314 -0.265053 -0.0436436 0.0511013 0.398352 -0.423316 -0.10658 0.0346751 0.0524619 0.327582 -0.000397658 0.0495845 0.152462 0.219606 -0.123802 -0.0383817 0.216172 0.0813925 -0.134592 0.276491 -0.0395518 0.121984 -0.0648228 -0.199312 0.001579 -0.198583 -0.209805 0.278713 0.200032 0.123367 -0.328625 -0.122341 0.177196 0.179625 -0.184496 0.271573 -0.344324 -0.501979 -0.156247 0.153242 0.472242 0.291283
19025 -1.80033 0.663745 0.720399 2.29458 -0.583701 -1.34008 0.180863 -0.961395 -1.69008 1.15254 1.97106 -1.57862 0.272595 -0.090142 -0.0139357 0.0764238 0.301434 -0.099029 0.388897 -0.505781 0.161725 -0.386142 0.307179 -0.366899 0.00585848 0.0730256 0.487843 -0.462243 -0.120024 0.0563839 0.203222 0.431682 0.0808512 0.0508085 0.216442 0.161953 -0.0840972 -0.169446 0.305455 0.0647529 -0.187945 0.439541 -0.114234 0.106415 -0.103164 -0.143635 -0.0511943 -0.224431 -0.316933 0.344758 0.248151 0.158169 -0.467051 -0.204532 0.153846 0.282186 -0.201332 0.388345 -0.4404 -0.50868 -0.292446 0.0695371 0.609734 0.326111
4292 -1.89474 0.667288 0.684131 2.25902 -0.565831 -1.23339 0.0476855 -0.929643 -1.74023 1.0597 1.92049 -1.5187 0.23638 -0.173615 -0.0332998 0.141389 0.316677 -0.128164 0.38239 -0.551808 0.0913339 -0.420763 0.34985 -0.289038 -0.0892071 0.0384603 0.485043 -0.429105 -0.166963 0.0540779 0.135826 0.419959 -0.0239639 0.0821589 0.147375 0.249497 -0.0965314 -0.0955594 0.179345 0.16033 -0.12882 0.226474 -0.0658001 0.158673 -0.0368928 -0.106908 -0.0146407 -0.270142 -0.305681 0.360776 0.278117 0.188403 -0.41922 -0.168359 0.20917 0.217452 -0.252136 0.310043 -0.389548 -0.599841 -0.233718 0.187829 0.604415 0.399795
9149 -0.725161 0.246046 0.357896 0.941649 -0.180638 -0.646984 -0.00513931 -0.438673 -0.83639 0.531418 0.840578 -0.662201 0.15083 -0.110232 0.0101746 0.0119937 0.060424 -0.0493602 0.116163 -0.0615057 0.02437 -0.0630084 0.0702244 -0.057762 -0.0476683 -0.01728 0.130882 -0.140122 -0.00541534 -0.00763322 0.0252464 0.09943 0.004348 -0.0439018 -0.00372715 0.0578164 -0.0147479 0.0222189 0.0808548 -0.0416437 -0.0531638 0.106316 -0.0786474 0.060901 -0.0241981 -0.104044 -0.00838544 -0.0232183 0.0250544 0.106699 0.057968 0.00387005 -0.0776059 0.0187523 0.0990391 0.014641 -0.0685972 0.0994394 -0.0556926 -0.169842 -0.0425128 -0.0151742 0.0493101 0.0653378
7600 -1.24587 0.4853 0.571598 1.72108 -0.404109 -1.20586 0.000961295 -0.856503 -1.67073 0.942482 1.45256 -1.2347 0.268485 -0.133455 0.00338153 0.0434808 0.181908 -0.272273 0.391293 -0.218023 -0.179709 -0.0286543 0.286714 -0.0661629 0.0798515 0.0800592 0.276178 -0.384411 0.182732 0.0105042 0.191556 0.143056 -0.0274032 -0.0774818 -0.088711 0.147757 -0.0143726 0.0729913 0.106188 -0.0141511 -0.0733891 0.198627 -0.0488359 0.156028 -0.105141 -0.201108 -0.0186316 -0.098374 -0.161615 0.206857 0.13316 0.101857 -0.227933 -0.0444792 0.167303 0.0786383 -0.11663 0.272013 -0.203444 -0.393333 -0.0829781 0.00214501 0.203693 0.0900381
17190 -1.34338 0.507998 0.766101 1.86511 -0.471127 -1.44507 -0.0290976 -0.72593 -2.02175 0.823293 1.52348 -1.30481 0.390282 -0.0895832 -0.0660586 0.157892 0.0709199 -0.36562 0.43149 0.0286421 -0.295337 0.193481 0.301113 0.0034616 0.151586 0.0542218 0.10547 -0.309518 0.143778 -0.0321361 -0.0321739 -0.111365 -0.0962908 -0.226546 -0.141584 0.13293 -0.134263 0.0685425 0.0450212 -0.110349 -0.0110196 0.256841 -0.0763945 0.118493 -0.196248 -0.196323 -0.106983 -0.122558 -0.249516 0.184871 0.0548167 0.0705028 -0.192526 0.0282439 0.136169 -0.0403668 -0.0336999 0.23111 -0.0304153 -0.5963 -0.0278752 0.16536 0.215487 0.233391
16664 -1.78956 0.563947 1.05006 2.26153 -0.565414 -1.73 0.0463614 -0.798702 -1.94263 0.936466 2.06378 -1.40025 0.412624 -0.250474 -0.227398 0.264809 0.00981064 -0.264956 0.561013 0.0510774 -0.255435 0.0421169 0.159424 0.0374501 0.147675 0.111921 0.123305 -0.273577 -0.0601642 0.105327 -0.27263 0.166314 0.0444136 -0.255347 -0.0639867 -0.00618949 -0.0455167 -0.210611 -0.155334 -0.263897 -0.208186 0.458161 -0.0598723 0.251155 0.0144333 -0.277583 -0.169222 -0.109153 -0.256676 0.0773439 -0.00642801 -0.056558 -0.278447 -0.0770096 0.195391 0.000862713 -0.27119 0.581738 -0.0911904 -0.867472 -0.239893 0.286897 0.172315 0.417874
9272 -1.64472 0.530859 0.920113 2.02634 -0.360888 -1.36921 -0.113635 -0.779956 -1.57028 0.872675 1.74777 -1.2309 0.349068 -0.239774 -0.140716 0.188581 -0.00415027 -0.247832 0.528068 -0.0646847 -0.232307 -0.00622642 0.17494 0.118997 0.0887678 0.113725 0.203372 -0.230952 -0.020212 0.0382147 -0.174777 0.22289 0.0376356 -0.191503 -0.0644576 -0.0584265 0.00894177 -0.0869685 -0.0721935 -0.216543 -0.137615 0.320375 -0.192632 0.0679979 0.00121662 -0.27496 -0.055144 -0.0906287 -0.195319 0.105058 0.0566188 0.0230335 -0.27309 -0.0213259 0.289024 0.0808362 -0.267137 0.474616 -0.142295 -0.830473 -0.343583 0.293528 0.181525 0.433045
16820 -1.758 0.501367 0.954034 2.08616 -0.360102 -1.38559 -0.0855629 -0.808447 -1.57512 0.911018 1.71099 -1.18123 0.36291 -0.257209 -0.14477 0.142432 -0.00635286 -0.212032 0.499242 -0.0438962 -0.165969 -0.0141613 0.210133 0.138471 0.111159 0.137647 0.210775 -0.237602 -0.0352045 0.0735755 -0.162856 0.232563 0.0520117 -0.210828 -0.0831686 -0.061992 0.0516179 -0.0558555 -0.0926942 -0.210624 -0.168641 0.291005 -0.145276 0.0835828 -0.00969109 -0.275456 -0.0444319 -0.083879 -0.132429 0.174491 -0.0157365 -0.00408736 -0.255836 -0.0851159 0.310908 0.0530527 -0.263424 0.58611 -0.168874 -0.804998 -0.326601 0.227687 0.142412 0.448018
18607 -1.50555 0.433492 0.832582 2.28196 -0.359132 -1.80076 -0.0929679 -1.20423 -1.72659 1.25443 1.95378 -1.23702 0.503473 -0.422468 0.131571 0.0255886 -0.109975 -0.0229129 0.381164 -0.0387353 -0.295365 -0.0436669 0.346249 0.139958 -0.0667965 0.141135 0.489276 -0.386075 0.213863 0.0323976 -0.110325 0.207586 0.189802 0.0384885 0.024727 -0.038065 0.0217485 0.220236 0.112233 -0.137668 -0.153927 0.407493 -0.204385 -0.0286135 -0.0458968 -0.459018 0.0652256 -0.135369 -0.108075 0.140399 0.00333974 -0.037168 -0.422697 -0.0790044 0.443725 0.0684814 -0.143385 0.454314 -0.337289 -0.547199 -0.0828851 0.205927 0.104933 0.15897
5405 -1.38793 0.396771 0.807017 2.27747 -0.422687 -1.75507 0.0314103 -1.11472 -1.95255 1.08904 1.7802 -1.43913 0.41918 -0.309926 0.172072 0.0120061 -0.0609039 -0.217802 0.413988 -0.235135 -0.177197 -0.10111 0.29803 0.16958 0.00225383 0.267547 0.456394 -0.00351146 0.100777 -0.0250904 -0.11017 0.0165697 0.120957 -0.0546546 0.0118411 0.21248 0.0150757 0.096687 0.03632 0.0611491 -0.087898 0.224122 -0.131393 -0.0178183 -0.2768 -0.203808 0.0188818 -0.2197 -0.15386 0.345646 0.0410053 0.0334186 -0.434478 -0.173896 0.18444 0.00386307 -0.241025 0.362184 -0.311075 -0.539741 -0.0492175 0.194112 0.236764 0.0169463
9300 -1.10835 0.489004 0.730042 2.31561 -0.390401 -1.70317 0.126882 -1.08772 -1.86959 1.03563 1.70227 -1.31455 0.279944 -0.141746 0.338466 -0.0185771 -0.0574755 -0.206416 0.340152 -0.198489 -0.236791 -0.113309 0.19167 0.0728186 0.0508382 0.280627 0.52664 -0.0837138 0.266866 -0.0605843 0.000374305 0.026572 0.187496 -0.00888903 -0.0480369 0.243976 0.0222621 -0.032316 0.0355638 0.0748331 -0.0942792 0.266209 -0.185169 0.0382932 -0.301098 -0.153545 -0.012029 -0.218337 -0.16024 0.179791 0.109309 0.0158796 -0.501929 -0.0368722 0.131991 -0.0293358 -0.275667 0.290961 -0.341991 -0.496918 6.32536e-05 0.201088 0.326056 -0.0869782
17993 -1.25193 0.479272 0.780649 2.31849 -0.385949 -1.71325 0.0543585 -1.13001 -1.76097 1.06534 1.71909 -1.34127 0.366204 -0.203271 0.235117 0.00522473 -0.0830614 -0.13403 0.341804 -0.170243 -0.203301 -0.094794 0.292075 0.0998535 0.0472839 0.265787 0.530679 -0.137017 0.229468 -0.0215252 -0.0608736 0.0602926 0.135562 -0.0562275 -0.0113738 0.169404 0.0187399 0.0562124 0.0336832 0.0274458 -0.0926437 0.290649 -0.173603 0.0174238 -0.224444 -0.243541 0.0281428 -0.199305 -0.190091 0.236716 0.0868565 0.0332916 -0.44095 -0.0518536 0.206221 0.00858143 -0.276475 0.30099 -0.331405 -0.521803 -0.0864561 0.215022 0.296231 0.0254696
12066 -1.40147 0.4246 0.708383 2.15957 -0.311292 -1.37407 0.0571818 -1.00817 -1.76517 1.06557 1.72139 -1.30771 0.242456 -0.226028 0.143781 0.0608238 0.100501 -0.242839 0.47772 -0.30415 -0.117127 -0.190676 0.468326 0.0820419 0.0755224 0.223716 0.601422 -0.303953 0.151064 0.00966409 -0.00689835 0.177729 0.0833157 -0.0394428 0.029336 0.247591 0.00894277 0.116411 0.0705662 0.0486412 -0.0921788 0.132417 -0.161029 0.0803953 -0.209413 -0.284861 0.0461731 -0.233374 -0.0794597 0.383789 0.0732635 0.0635983 -0.378502 -0.0591003 0.249669 0.00011308 -0.303959 0.394884 -0.320835 -0.630142 -0.095883 0.159563 0.398041 0.243331
4879 -1.54366 0.298509 0.844993 2.06318 -0.427973 -1.84801 0.0570504 -1.0203 -1.93808 1.12992 1.93988 -1.53536 0.593422 -0.388442 -0.113483 0.030132 0.0445385 -0.0992995 0.362462 0.0076494 0.0544489 -0.0464248 0.34795 0.1061 -0.00172867 0.0838962 0.25429 -0.220934 -0.0841541 -0.0130103 -0.267779 0.00510239 -0.0439727 -0.140692 0.222395 0.0972029 -0.137382 0.201319 0.155314 -0.0461774 -0.129718 0.409697 -0.0145944 -0.0307955 -0.134443 -0.30145 -0.0139862 -0.0849492 -0.0352715 0.432307 0.101232 0.0330653 -0.172493 -0.28493 0.197404 0.0490375 -0.0979509 0.407434 -0.213411 -0.734885 -0.0751556 0.204301 0.00930777 0.137825
6946 -1.30007 0.433444 0.749705 2.35034 -0.285232 -1.66109 -0.0269221 -1.16231 -1.76874 1.14848 1.78446 -1.294 0.32668 -0.202589 0.260212 -0.00668761 -0.063811 -0.121707 0.346382 -0.0784143 -0.148775 -0.143578 0.272227 0.132957 0.0158728 0.253469 0.572836 -0.227738 0.170693 -0.0447393 -0.0230776 0.0632073 0.11196 -0.0494235 0.0178577 0.126041 0.0480308 0.154474 0.0986397 0.0202763 -0.109717 0.265577 -0.259815 -0.0326154 -0.236 -0.241311 0.0758723 -0.209857 -0.0842112 0.276081 0.064483 0.0293369 -0.393477 -0.0315381 0.292374 0.0600528 -0.278182 0.359572 -0.371694 -0.648256 -0.117765 0.21995 0.336696 0.122036
2692 -1.35551 0.477291 0.755576 2.19915 -0.39441 -1.68454 0.0646404 -1.07431 -1.75459 1.12216 1.71849 -1.28464 0.294748 -0.325988 0.202877 0.0908971 -0.00684497 -0.230102 0.354248 -0.18384 -0.192375 -0.136778 0.323877 0.0408223 0.036731 0.254384 0.464376 -0.15692 0.105146 0.00707793 -0.0924736 0.0674579 0.132693 -0.00728543 0.0641786 0.138977 -0.0536572 0.0938822 0.131827 0.0465837 -0.139347 0.254345 -0.155332 0.0145277 -0.205766 -0.218302 0.000466919 -0.178322 -0.169842 0.260057 -0.000690187 -0.0131037 -0.413949 -0.144279 0.288654 -0.0156656 -0.223151 0.359506 -0.374047 -0.542761 -0.00572188 0.237878 0.256614 0.0474173
8071 -1.33431 0.482714 0.751082 2.36699 -0.415457 -1.73699 0.0543705 -1.14428 -1.9031 1.11483 1.71306 -1.32703 0.286042 -0.213663 0.266058 0.0148562 -0.0448654 -0.17102 0.310118 -0.239328 -0.23229 -0.165118 0.214368 0.0705329 0.00303127 0.285395 0.51173 -0.127934 0.201847 -0.0274131 -0.0882769 0.0438455 0.13286 -0.0348742 -0.0020574 0.207373 0.000298286 -0.00136657 0.0411702 0.0505869 -0.142112 0.250089 -0.141527 0.056415 -0.253025 -0.239153 0.0493196 -0.215765 -0.181848 0.299316 0.132959 0.00236044 -0.467505 -0.0909018 0.228123 0.0100934 -0.286659 0.317783 -0.373286 -0.497053 -0.0332253 0.215949 0.31391 -0.00788962
636 -1.1886 0.473754 0.72292 2.25785 -0.433787 -1.72506 0.060429 -1.08689 -1.84085 1.05114 1.68723 -1.37569 0.374844 -0.224654 0.26758 0.0142852 -0.0420344 -0.177479 0.327294 -0.272901 -0.301836 -0.0976161 0.248082 0.0693399 0.0184884 0.264111 0.447293 -0.0936644 0.175288 -0.0527838 -0.119386 0.00643044 0.108441 -0.0153537 0.0277554 0.225069 -0.0209064 -0.0167202 0.0877148 0.124485 -0.109449 0.235467 -0.128313 0.028913 -0.272816 -0.126239 0.00607782 -0.194881 -0.196723 0.279549 0.147537 -0.0170142 -0.483436 -0.0966722 0.139346 0.0290374 -0.257704 0.233334 -0.382303 -0.497841 0.0093987 0.240909 0.380109 -0.00690649
17900 -1.102 0.452269 0.694634 2.11449 -0.418807 -1.66665 0.0799472 -0.999623 -1.77051 0.946616 1.5883 -1.31101 0.361815 -0.177179 0.258223 0.0148257 -0.0137002 -0.278484 0.396078 -0.262824 -0.419305 0.00644478 0.28619 0.0175522 0.0816709 0.227038 0.426184 -0.142835 0.254132 -0.0526457 -0.0431082 -0.00497713 0.126126 -0.0349057 -0.0510764 0.224467 0.0136164 0.00264881 0.0353734 0.0868928 -0.111687 0.279791 -0.0773581 0.0890971 -0.239387 -0.135468 -0.00809117 -0.162018 -0.193531 0.238396 0.102446 -0.0480177 -0.473668 -0.0539384 0.0837607 -0.0326388 -0.202971 0.230409 -0.316268 -0.381437 0.0412871 0.146295 0.329281 -0.0291283
13113 -1.50874 0.443086 0.904809 2.34291 -0.352327 -1.73359 -0.060438 -1.11648 -1.82433 1.23672 1.84151 -1.36951 0.371746 -0.385957 0.175148 0.0448997 -0.104619 -0.191334 0.34237 -0.144054 -0.256753 -0.0856415 0.318752 0.149671 -0.0131646 0.189367 0.459427 -0.169197 0.128486 0.0218806 -0.159942 0.075013 0.143597 -0.0315156 0.029665 0.0816824 -0.0590622 0.1653 0.100935 -0.0783248 -0.192417 0.355428 -0.26503 -0.0969262 -0.187066 -0.461808 0.0806191 -0.097834 -0.0426098 0.333692 -0.0133545 -0.0927009 -0.421239 -0.143035 0.373988 -0.0700552 -0.241054 0.437316 -0.266077 -0.540571 -0.0943912 0.214236 0.126389 0.12614
464 -1.44136 0.420016 0.874553 2.25016 -0.284885 -1.63048 -0.0909211 -1.00649 -1.69654 1.059 1.67702 -1.13472 0.320819 -0.181683 0.17426 0.018964 -0.122184 -0.117141 0.329796 -0.171051 -0.207878 -0.0804166 0.333562 0.209194 0.130124 0.366342 0.524444 -0.198753 0.178688 0.0158826 -0.116807 0.162653 0.167039 -0.0529599 -0.0396614 0.070566 0.058961 0.0951815 0.0226241 -0.0559627 -0.0843033 0.0943348 -0.0842874 0.0229677 -0.17887 -0.278484 0.0913597 -0.198291 -0.108615 0.260673 -0.0328424 -0.0442409 -0.43498 -0.125931 0.316521 0.016069 -0.285345 0.558885 -0.362814 -0.551324 -0.114754 0.139762 0.227995 0.120262
15575 -1.33936 0.316169 0.892897 2.16396 -0.213066 -1.32158 -0.131392 -1.00371 -1.48344 1.13307 1.52466 -1.14002 0.403165 -0.257504 0.140273 0.022595 -0.182934 -0.02803 0.423697 -0.161483 -0.12424 -0.0750843 0.380437 0.193659 0.246536 0.304866 0.499831 -0.221502 0.154958 -0.0462848 -0.171159 0.121627 0.200193 -0.0472638 -0.0198888 0.0373514 0.0908641 0.0219126 0.00622791 -0.0737526 -0.0399302 0.0714862 -0.147638 -0.029848 -0.171846 -0.223705 0.116973 -0.1566 -0.0718007 0.248265 -0.0727229 -0.0804596 -0.436023 -0.0437278 0.190778 -0.0532043 -0.291681 0.505047 -0.214957 -0.545097 -0.142718 0.156224 0.358992 0.342573
19524 -1.07105 0.309662 0.577564 1.57793 -0.263112 -1.14532 -0.0418623 -0.799431 -1.42865 0.852364 1.2608 -1.03708 0.317708 -0.245486 0.065772 0.0411793 0.0251421 -0.22909 0.380082 -0.11783 -0.263963 0.0307804 0.354969 0.0667506 0.152093 0.160608 0.285241 -0.212746 0.119701 -0.00953486 -0.0126243 0.0267703 0.0476489 -0.0558974 -0.0486047 0.0632722 0.0159199 0.0952904 0.00636164 0.00738132 -0.0876568 0.168321 -0.0613268 0.00775962 -0.128898 -0.171241 -0.0189584 -0.0638986 -0.13616 0.257746 -0.0310184 -0.0332644 -0.25125 -0.127474 0.171711 -0.0384692 -0.142604 0.349506 -0.210907 -0.470158 -0.00897955 0.187175 0.248969 0.190531
14643 -1.41894 0.369838 0.687042 1.95265 -0.496666 -1.50743 0.041133 -1.21167 -1.65366 1.23234 1.55667 -1.22805 0.431074 -0.521021 0.00832452 0.0253691 0.122724 -0.227898 0.450451 -0.0932164 -0.224109 -0.104025 0.294611 -0.152819 0.00192366 -0.0336741 0.21045 -0.284532 -0.112958 -0.0293613 -0.03029 0.0196317 0.0520553 0.0180782 0.0919405 0.0472128 -0.0550137 0.13794 0.228277 0.0979997 -0.157854 0.550611 -0.18876 0.0275049 -0.127366 -0.159579 -0.0744181 -0.0730051 -0.177209 0.284816 0.068886 0.0328219 -0.341949 -0.169342 0.2428 -0.0121452 -0.0454212 0.284436 -0.222352 -0.524384 0.057474 0.187259 0.252695 0.238883
17510 -1.4276 0.435444 0.802535 2.06185 -0.57975 -1.59219 0.0212385 -1.2188 -1.82756 1.364 1.58827 -1.36872 0.449572 -0.519217 -0.0612715 0.07964 0.110648 -0.289246 0.551856 -0.0820948 -0.156949 -0.117869 0.231122 -0.2218 0.111622 -0.0645453 0.106669 -0.344901 -0.162017 -0.0575264 -0.0856921 -0.0508979 -0.0294692 -0.0950376 0.15578 0.00686797 -0.172993 0.0537359 0.281381 0.0294601 -0.143883 0.544217 -0.157015 0.0110578 -0.120872 -0.112772 -0.09096 -0.00583957 -0.202263 0.200319 0.141901 0.0312168 -0.207987 -0.0464848 0.160921 -0.0298374 -0.0162997 0.179551 -0.139657 -0.662339 0.0198592 0.301847 0.296683 0.297095
19407 -1.33545 0.531704 0.6959 2.3067 -0.633455 -1.72098 0.204268 -1.10107 -1.88965 1.0464 1.53731 -1.39598 0.318938 -0.303615 0.161372 0.0685731 0.129228 -0.293346 0.267524 -0.312639 -0.239831 -0.0940901 0.0955368 -0.21177 0.0233923 0.14631 0.163463 -0.120617 0.040689 -0.0262787 -0.0919634 -0.0483195 0.111073 -0.0328292 0.116146 0.202204 -0.0779454 -0.20298 0.147068 0.149675 -0.204573 0.560368 -0.138957 0.0857236 -0.216759 -0.00439516 -0.0840778 -0.0806121 -0.315074 0.249413 0.277337 0.00264207 -0.520681 -0.184985 0.0802956 0.0656944 -0.142803 0.125617 -0.27255 -0.49556 -0.012987 0.268522 0.376566 -0.000181725
5895 -1.216 0.424615 0.76489 2.27361 -0.377195 -1.75181 0.0915156 -1.07004 -1.91949 1.04909 1.68322 -1.29266 0.333067 -0.224093 0.234197 0.00567128 -0.0976915 -0.203379 0.410116 -0.185413 -0.342756 -0.0527909 0.211626 0.145153 0.00443423 0.291391 0.43217 -0.039948 0.177377 -0.0331387 -0.130448 -0.0388398 0.0950425 -0.0801667 -0.0282742 0.20133 0.0298648 0.0513067 -0.000910294 0.0625132 -0.112386 0.135112 -0.0932625 0.075381 -0.264587 -0.133289 -0.00705993 -0.194488 -0.135548 0.301828 0.10059 -0.00229477 -0.443809 -0.0785754 0.201778 -0.041943 -0.243412 0.305577 -0.332055 -0.521913 -0.0257149 0.194151 0.277297 -0.013271
18111 -1.42993 0.488814 0.851554 1.98685 -0.341294 -1.72165 -0.270437 -1.03408 -1.92321 1.1169 1.84107 -1.34679 0.618805 -0.298441 0.0492135 0.0442517 -0.015723 -0.103145 0.230013 -0.0906235 -0.196158 -0.07109 0.124307 0.198091 0.0773674 0.126626 0.360443 -0.332261 0.0976919 -0.0440983 -0.187379 0.147654 -0.0174089 -0.0265449 0.0320346 0.0559985 -0.124508 0.176685 0.171316 -0.114973 -0.0271011 0.322214 -0.129211 -0.10936 -0.0562363 -0.319873 0.136297 -0.116666 -0.156436 0.197739 0.198951 0.0145511 -0.263208 -0.0436172 0.319603 0.182117 -0.204398 0.378165 -0.320029 -0.679605 -0.188851 0.268657 0.100367 0.168585
1224 -1.4682 0.513013 0.798899 1.90915 -0.376061 -1.54448 -0.321412 -1.04937 -2.0028 1.16161 1.69302 -1.43737 0.588292 -0.225124 -0.0821694 0.0424259 0.102753 -0.0819073 0.238001 -0.164208 -0.208116 0.0230757 0.0803556 0.0529208 0.0555625 0.0165588 0.16759 -0.277232 0.0385133 -0.0681647 -0.13084 0.0782117 -0.0591599 -0.13714 0.0431873 0.0996317 -0.122593 0.184299 0.138322 -0.106999 0.0265034 0.261793 0.0144563 0.00177384 -0.00684069 -0.27329 0.119252 -0.0848344 -0.337335 0.216484 0.32331 0.155968 -0.218506 -0.0551652 0.261057 0.305828 -0.155589 0.289052 -0.248749 -0.68006 -0.22145 0.260445 0.184782 0.251107
3606 -1.40893 0.559777 0.846772 2.04055 -0.397693 -1.71884 -0.135171 -1.03095 -1.92056 1.14296 1.78027 -1.43814 0.658505 -0.142006 -0.0655475 0.061509 0.087528 -0.0704354 0.422298 -0.0927669 -0.33358 0.215295 0.133655 -0.0363837 0.0189262 -0.039356 0.23015 -0.2948 0.069109 -0.0794193 -0.100854 0.0641281 0.0614903 -0.13772 0.0987279 0.0275571 -0.115989 0.167735 0.183207 -0.14543 0.0114875 0.385621 0.00409246 0.0684332 0.00925559 -0.289412 0.0725199 -0.0602464 -0.344093 0.0296364 0.253029 0.151062 -0.278689 0.0367924 0.14949 0.256256 -0.0920406 0.249541 -0.210873 -0.612967 -0.171644 0.196044 0.243271 0.269372
16774 -1.62572 0.520165 0.892252 2.17872 -0.401663 -1.75536 -0.244655 -1.20521 -1.98501 1.21916 1.91588 -1.59434 0.776661 -0.288901 -0.123137 -0.00929359 0.116885 0.0255809 0.248488 -0.0536048 -0.143925 0.0899702 0.117587 0.0604737 -0.0214837 -0.0382887 0.147729 -0.305537 -0.0163982 -0.087676 -0.244963 0.0419476 0.00760872 -0.17605 0.196074 0.0368511 -0.183838 0.195481 0.249497 -0.187187 -0.02313 0.392857 0.02056 -0.00355417 -0.0157789 -0.398833 0.141084 -0.0298515 -0.267813 0.241886 0.326978 0.154734 -0.165255 -0.114219 0.260322 0.330829 -0.11244 0.312158 -0.219792 -0.676211 -0.148055 0.187771 0.0861746 0.259671
8503 -1.65149 0.641854 0.851543 2.0394 -0.473087 -1.72158 -0.230655 -1.04182 -1.98197 1.13076 1.91575 -1.5914 0.661669 -0.248979 -0.0955175 0.100326 0.0521052 -0.0590665 0.252769 -0.125346 -0.237914 0.147761 0.135924 0.000507019 -0.0179385 -0.0354079 0.151388 -0.26123 0.0632146 -0.0251823 -0.21707 0.0479428 0.0619773 -0.0950786 0.142548 0.00832077 -0.213268 0.109858 0.185402 -0.140265 -0.0379512 0.449814 -0.101041 -0.0494147 0.0113306 -0.406061 0.0620255 -0.0180042 -0.381252 0.143071 0.264125 0.118416 -0.286929 -0.0773428 0.225993 0.271074 -0.0847894 0.178082 -0.231909 -0.555528 -0.182808 0.318183 0.192608 0.192326
12083 -1.66625 0.403344 0.839328 2.12983 -0.334179 -1.70284 -0.085011 -0.987794 -1.86483 1.16418 2.04159 -1.54227 0.472629 -0.346757 -0.0710821 0.0625195 0.0203122 -0.108432 0.423684 0.050786 -0.09173 0.0412666 0.323366 0.0557612 -0.162144 -0.0359911 0.206915 -0.120138 -0.149429 0.011411 -0.258119 -0.00427917 0.0128907 -0.228145 0.16207 -0.0444191 -0.0785452 0.237574 0.13968 -0.118663 -0.180932 0.444342 -0.149082 0.0961242 -0.0717068 -0.328861 -0.00476928 -0.0727619 -0.132051 0.359933 0.039321 0.0308423 -0.156225 -0.0885624 0.337417 0.0749282 -0.15076 0.3788 -0.149552 -0.72523 -0.0929583 0.124517 0.166744 0.333175
2104 -1.56131 0.57609 0.872049 2.28982 -0.419741 -1.82763 -0.0788397 -1.11067 -1.8939 1.18274 1.82935 -1.62024 0.671024 -0.145625 -0.0450034 -0.0397686 0.140114 -0.0661126 0.263947 -0.114686 -0.14142 0.158147 0.154456 -0.0282386 -0.0752049 -0.0482405 0.254918 -0.201432 0.0517652 -0.0848607 -0.0882517 0.033889 0.0527118 -0.166534 0.204006 0.10193 -0.154482 0.153848 0.255671 -0.107781 -0.0147025 0.393048 -0.10506 -0.00808055 -0.124402 -0.381864 0.119457 -0.0752865 -0.280426 0.294053 0.295229 0.15125 -0.257927 -0.0648008 0.208987 0.294247 -0.170861 0.26584 -0.245991 -0.61428 -0.140683 0.14804 0.239707 0.18104
4905 -1.84219 0.502655 0.891541 2.23338 -0.472506 -1.78337 -0.0533221 -1.12123 -1.9273 1.25883 1.88719 -1.53904 0.658996 -0.411908 -0.159697 0.0146523 0.0792246 -0.0269762 0.369154 -0.103481 -0.147834 0.155317 0.138666 -0.0191305 -0.120584 -0.0859932 0.125212 -0.216433 -0.0377915 -0.0280796 -0.274027 0.0491978 0.0759077 -0.174693 0.184655 0.0322905 -0.127221 0.180858 0.176358 -0.131862 -0.157351 0.42084 -0.0259867 0.0500097 -0.0206875 -0.474799 0.0155133 -0.00713942 -0.244715 0.388858 0.174002 0.06375 -0.293763 -0.191207 0.318536 0.101716 -0.101868 0.399148 -0.170108 -0.546895 -0.0935021 0.161232 0.102808 0.278521
8691 -1.58846 0.402999 0.869342 1.98589 -0.310441 -1.80996 -0.18149 -0.902085 -1.8114 1.16942 1.8732 -1.37317 0.50601 -0.380955 0.025418 0.113172 -0.0611697 -0.0367137 0.347369 -0.156952 -0.250983 0.0921495 0.20128 0.12574 -0.192322 -0.0371269 0.372688 -0.0973938 -0.0985357 -0.0329011 -0.246338 0.124496 0.126418 -0.0329879 0.198322 -0.0196379 -0.13502 0.304706 0.25958 -0.141343 -0.0712467 0.235204 -0.134054 -0.0646285 -0.0657832 -0.426994 0.0899068 -0.0733339 0.00631764 0.26336 -0.0462326 -0.0380712 -0.315306 -0.122482 0.38312 0.0667717 -0.0978682 0.337981 -0.228974 -0.540786 -0.101281 0.176963 0.113168 0.226215
17485 -1.66931 0.540301 0.868008 2.21401 -0.436375 -1.80753 -0.207441 -1.12726 -1.91798 1.14542 1.98492 -1.57659 0.685817 -0.377409 -0.119567 0.052027 0.102475 -0.0152037 0.320532 0.00324733 -0.136603 0.125622 0.215164 0.0469075 -0.131462 -0.0978251 0.174548 -0.265349 -0.0080969 -0.0421641 -0.182288 0.0288405 0.016535 -0.133006 0.0877443 0.0741104 -0.193348 0.245574 0.189819 -0.126246 -0.094814 0.416503 -0.0998772 -0.0179148 -0.00730888 -0.429005 0.0248748 -0.0210967 -0.188192 0.221001 0.221902 0.0967107 -0.201123 -0.0655452 0.308885 0.170618 -0.0985803 0.240225 -0.168158 -0.629139 -0.156495 0.320078 0.171211 0.298778
19566 -1.37748 0.441899 0.671474 1.72619 -0.350984 -1.30057 -0.0812774 -0.835473 -1.79865 0.967706 1.49306 -1.29944 0.44564 -0.186507 -0.0722085 0.0486045 0.120011 -0.244943 0.366551 -0.151019 -0.200936 0.132005 0.313209 0.017153 0.0678267 0.0715952 0.184083 -0.205361 0.0547086 -0.0334564 -0.0737309 -0.018767 -0.0201002 -0.173608 0.0402419 0.0930125 -0.0796163 0.166038 0.0778498 -0.0288301 -0.0444784 0.187674 0.0533825 0.128803 -0.0931109 -0.235988 0.0267807 -0.0769762 -0.259753 0.302569 0.116928 0.084526 -0.195554 -0.112449 0.200111 0.106121 -0.150476 0.329089 -0.200072 -0.578828 -0.0602273 0.167679 0.234923 0.19854
13415 -1.82058 0.411692 0.916291 2.10419 -0.518469 -1.62218 0.0849512 -0.900896 -2.1043 1.16013 1.90066 -1.53173 0.431772 -0.44366 -0.151446 0.131352 0.00719483 -0.247776 0.463599 -0.0801271 -0.156493 0.01979 0.303523 0.0569976 0.00661528 0.104621 0.0829526 -0.0888983 -0.174517 0.0589975 -0.270275 -0.0247823 -0.0361751 -0.235944 0.0347876 0.0679379 -0.121013 0.116699 0.00977125 -0.0966409 -0.217614 0.199738 0.0588245 0.227668 -0.130052 -0.29755 -0.126762 -0.0742172 -0.18771 0.484368 -0.0524931 -0.0699568 -0.254299 -0.287495 0.364835 -0.0677633 -0.143287 0.526165 -0.182718 -0.743346 -0.0860739 0.226139 0.0905038 0.271855
16447 -1.33906 0.304222 0.695809 1.7876 -0.322049 -1.26838 -0.0769143 -0.883866 -1.77137 1.00015 1.46295 -1.22258 0.348146 -0.309207 0.0250207 0.0533441 0.0339445 -0.256812 0.343914 -0.179713 -0.227456 -0.0234919 0.444896 0.116182 0.139674 0.213668 0.270923 -0.177913 0.0478891 0.0016214 -0.110133 0.0392379 -0.0169636 -0.137806 -0.0565165 0.152117 0.00271868 0.136593 -0.00287266 0.025008 -0.107391 0.0831071 0.0161481 0.0827198 -0.177614 -0.184621 0.0217018 -0.104319 -0.121583 0.445436 -0.0198779 -0.0343385 -0.252655 -0.190929 0.249195 -0.035964 -0.20917 0.46889 -0.218301 -0.563001 -0.0147753 0.129934 0.227379 0.258325
16282 -1.90531 0.624677 0.888805 2.1386 -0.404851 -1.16415 -0.271178 -0.961084 -1.58541 1.05638 1.52886 -1.23279 0.461006 -0.244984 -0.149979 0.175061 0.145188 -0.144815 0.342429 -0.462891 -0.168332 -0.084757 0.293589 -0.0991939 -0.0339437 0.131071 0.258011 -0.147808 -0.171486 -0.0220541 -0.034949 0.276433 0.0123692 0.00306842 0.130917 0.0265999 -0.118771 0.0555023 0.0782681 0.0179453 0.105608 -0.179489 0.102403 0.0353053 -0.00536135 -0.11709 0.106703 -0.170771 -0.200129 0.0629194 0.0241428 0.150695 -0.191585 -0.148981 0.14539 0.248975 -0.235429 0.219317 -0.337201 -0.597713 -0.0818068 0.310513 0.393418 0.263498
17099 -1.51579 0.486589 0.703208 1.75173 -0.341754 -1.12059 -0.148935 -0.769534 -1.40587 0.85515 1.24887 -1.0354 0.384911 -0.16773 -0.0877402 0.0924861 0.162371 -0.238747 0.393508 -0.242671 -0.259129 0.0569249 0.230946 -0.0260581 0.0813661 0.0693292 0.188535 -0.223703 -0.00468651 -0.0164871 0.0453155 0.140575 -0.00887021 -0.075039 -0.0272138 0.0278795 -0.0302352 0.0501868 0.00415274 -0.0593709 0.021774 0.0102378 0.056583 0.0825265 -0.00818756 -0.121534 0.0305329 -0.0558237 -0.124256 0.049408 0.00816725 0.0722034 -0.104971 -0.0132985 0.139263 0.0984734 -0.121493 0.255613 -0.175882 -0.459094 -0.11067 0.17128 0.235506 0.261676
18429 -1.79479 0.536109 0.805342 2.10357 -0.422166 -1.31805 -0.27012 -1.08907 -1.72067 1.10055 1.68215 -1.25045 0.457607 -0.279645 -0.122957 0.0788967 0.168801 -0.272781 0.38822 -0.253398 -0.30217 -0.0796076 0.166814 -0.0123883 0.0295206 0.104475 0.212911 -0.219311 -0.0764598 0.0314926 0.0775704 0.222279 -0.0605264 -0.0282424 -0.0739259 -0.0576633 0.0485697 0.0278384 -0.0931509 -0.0218469 -0.0221516 -0.0634538 0.0783987 0.148559 -0.00322542 -0.110009 0.0908629 -0.0688935 -0.14431 0.137668 -0.0498852 0.0211295 -0.253296 -0.148605 0.288167 0.0843398 -0.112089 0.356998 -0.265154 -0.532199 -0.113729 0.264568 0.238217 0.278202
18491 -1.64203 0.553716 0.832395 2.14688 -0.412957 -1.42021 -0.202019 -0.990647 -1.74567 1.11883 1.63038 -1.29458 0.445594 -0.37442 -0.0222532 0.0760275 0.0743696 -0.147006 0.433951 -0.215921 -0.31421 -0.071322 0.191917 0.0130974 0.0954175 0.043429 0.268775 -0.408924 -0.0180708 -0.0294436 -0.124624 0.0851373 -0.0387665 -0.0428902 0.0383335 0.0414046 -0.0613418 0.154795 0.239882 -0.0414334 -0.000840692 0.183869 -0.136641 0.0240521 -0.0656499 -0.164671 -0.000449601 -0.124678 -0.11678 -0.00727038 0.0902892 0.116562 -0.286836 -0.00116681 0.223087 0.0975491 -0.063288 0.164416 -0.177278 -0.47882 -0.160127 0.123107 0.0998548 0.0766574
14504 -1.71875 0.601945 0.851847 2.21167 -0.347002 -1.38103 -0.0170641 -0.900756 -1.77224 1.18516 1.77702 -1.42004 0.320636 -0.20191 -0.0707611 0.0211355 0.16948 -0.380321 0.465596 -0.154435 -0.175875 0.0182553 0.15102 -0.121919 0.059216 -0.0309199 0.161032 -0.423533 0.107293 -0.0367651 0.0286727 0.159479 0.0705223 -0.151716 0.0444946 -0.0271342 -0.00443119 -0.0610377 0.151307 -0.168489 -0.14625 0.389003 -0.267273 0.144053 -0.0589675 -0.174925 -0.0555201 0.00123989 -0.00172622 0.210777 0.151287 0.00909345 -0.167706 0.0752341 0.282301 0.0443945 -0.158344 0.273799 -0.0901102 -0.478678 -0.203522 0.0654364 0.13205 0.275551
13023 -1.59756 0.555155 0.745787 2.14622 -0.420445 -1.50204 -0.0679478 -0.942536 -1.84667 1.06776 1.72187 -1.46573 0.348726 -0.191914 -0.0272092 0.0320951 0.206915 -0.396131 0.395944 -0.132325 -0.221945 0.00751977 0.127983 -0.087177 0.0936444 -0.0223258 0.190287 -0.441091 0.172202 -0.0273954 0.0795815 0.0950783 0.000361809 -0.0776338 -0.0188587 0.0416254 -0.0674328 -0.0161278 0.240159 -0.0908915 -0.08012 0.326585 -0.279599 0.0585467 -0.0823504 -0.195432 -0.0600512 -0.0621288 -0.0334478 0.151646 0.139498 0.0295383 -0.231639 0.0322943 0.226942 0.0652261 -0.119762 0.187357 -0.0715095 -0.459414 -0.142258 0.0852823 0.106095 0.177616
8971 -1.63365 0.524793 0.824868 2.20217 -0.369938 -1.4303 -0.113291 -0.931726 -1.81858 1.14251 1.78174 -1.51411 0.328867 -0.208919 -0.0566752 -0.0123305 0.268122 -0.368519 0.436375 -0.195563 -0.251517 -0.0352764 0.196911 -0.133814 0.0514851 -0.0375082 0.173799 -0.435826 0.074987 -0.0096789 0.0239396 0.135555 0.00616614 -0.11544 -0.034052 0.086556 -0.0240953 0.024614 0.193463 -0.178142 -0.111807 0.412674 -0.273896 0.115547 -0.0927137 -0.250193 0.0165388 -0.023607 0.049064 0.186035 0.111066 0.00403724 -0.212708 -0.0309297 0.265442 0.0414988 -0.134048 0.258455 -0.0738531 -0.458044 -0.127585 0.0446689 0.106249 0.263038
7857 -1.5731 0.553594 0.764901 2.12023 -0.390558 -1.44668 -0.103155 -0.973686 -1.80134 1.15266 1.77561 -1.49806 0.287754 -0.169243 0.00620657 0.00939266 0.197296 -0.296229 0.334289 -0.164442 -0.116348 -0.0631049 0.158908 -0.171618 -0.044544 -0.0822004 0.200459 -0.456367 0.0798089 -0.0373544 0.0806815 0.201298 -0.0207526 -0.0719825 0.0138771 0.0549327 0.0219991 -0.0104958 0.261978 -0.141028 -0.116983 0.46094 -0.302578 0.0894031 -0.100796 -0.153769 -0.0512524 -0.060771 -0.00391998 0.210692 0.126899 -0.00566174 -0.243271 -0.0109609 0.224442 0.120808 -0.148322 0.176262 -0.135587 -0.473975 -0.127297 0.0342814 0.127318 0.181731
1651 -1.56983 0.542053 0.846103 2.11502 -0.362642 -1.42191 -0.129952 -0.860991 -1.64123 1.05507 1.82016 -1.56241 0.418953 -0.362568 -0.0909862 0.00101469 0.1676 -0.146407 0.452525 -0.258354 -0.0868628 -0.115036 0.206053 -0.0965124 -0.0221911 -0.0411221 0.151807 -0.389317 -0.00837133 -0.00307507 -0.0714019 0.0819027 0.0100964 -0.055103 0.038153 0.00619578 -0.0130803 0.101367 0.268243 -0.0862336 -0.0404277 0.346164 -0.20555 -0.021406 -0.0989386 -0.0871391 -0.0925822 0.000299024 -0.0570565 0.066822 -0.0136015 0.101018 -0.070861 -0.0576818 0.184245 0.0635303 -0.110373 0.191915 -0.117334 -0.449442 -0.0691257 0.0450031 0.140831 0.149616
619 -1.6058 0.628776 0.78122 1.94221 -0.559237 -1.50349 -0.102927 -1.17027 -1.62523 1.16504 1.58142 -1.3514 0.506037 -0.284585 -0.144096 -0.021487 0.153666 -0.183998 0.563388 -0.0992805 -0.149346 -0.0482447 0.115462 0.0483804 0.0528692 0.0931153 0.13362 -0.198082 -0.0479046 0.0448906 0.0433804 0.10683 0.0737522 -0.0462987 0.128779 -0.119336 -0.0123755 0.0824986 0.178404 -0.0271219 -0.0934898 0.300703 -0.158132 -0.0678905 -0.0737217 -0.113659 -0.0784299 -0.0484097 -0.204897 0.00696265 0.143218 0.254221 -0.0549321 -0.175483 0.209627 0.208541 -0.105124 0.271396 -0.201059 -0.383698 -0.23228 0.0857205 0.0522996 0.0136339
4691 -1.59056 0.425486 0.717804 2.09166 -0.598334 -1.57618 0.224939 -1.36098 -1.73222 1.33523 1.54996 -1.2999 0.50871 -0.469918 -0.101438 0.0710128 0.109443 -0.340319 0.439537 -0.0699292 -0.0761177 -0.160688 0.158813 -0.159559 0.180982 0.147979 0.142426 -0.283097 -0.142169 0.0199331 -0.0271269 0.0409397 0.116652 -0.0943174 0.240975 -0.0697639 -0.151076 -0.0767866 0.111645 -0.0088537 -0.174489 0.615406 -0.0310729 -0.0698606 -0.120599 -0.260103 -0.0353629 -0.0899197 -0.313166 0.132469 0.0732814 0.138852 -0.118478 -0.120371 0.194627 0.0646837 -0.058044 0.21349 -0.224229 -0.371441 -0.105281 0.273628 0.163089 0.139786
16828 -1.82537 0.537154 0.811976 2.0926 -0.489261 -1.48656 -0.0198167 -1.22903 -1.87981 1.33258 1.57491 -1.3969 0.562345 -0.292908 -0.175752 0.019362 0.0928433 -0.325443 0.56303 -0.140669 -0.180241 0.017998 0.154824 0.00190089 0.230092 0.145212 0.167728 -0.20908 0.0219816 0.0236264 0.13396 0.217577 0.089523 -0.138852 0.0915828 -0.220533 0.0453404 -0.167563 0.0180895 -0.157124 -0.0841722 0.413002 -0.165045 -0.121597 -0.0549739 -0.230183 -0.0694113 -0.0309532 -0.405701 0.172507 0.0617745 0.152012 -0.186092 -0.157749 0.210385 0.199415 -0.144483 0.406759 -0.161722 -0.434939 -0.30159 0.151032 0.0608213 0.129934
5905 -1.81724 0.510333 0.788348 2.13707 -0.483421 -1.37241 -0.0163882 -1.1949 -1.78992 1.25912 1.6129 -1.44565 0.616509 -0.282825 -0.155527 0.00756356 0.149145 -0.327504 0.598764 -0.195797 -0.155776 0.00707362 0.12305 0.0110959 0.106198 0.142135 0.203708 -0.0806 -0.062344 0.0167728 0.149244 0.200464 0.0734845 -0.110641 0.0946762 -0.163247 0.0290044 -0.108559 0.0590943 -0.101245 -0.0493954 0.266939 -0.143287 -0.110621 -0.0679168 -0.196208 -0.0746504 -0.0642531 -0.325028 0.182326 0.0531734 0.181558 -0.163063 -0.21687 0.160834 0.240804 -0.152109 0.40728 -0.215284 -0.487877 -0.262883 0.143421 0.137234 0.152056
1449 -1.56144 0.439982 1.03087 2.19962 -0.547255 -1.50581 0.0246037 -1.28677 -1.6804 1.53104 1.50832 -1.40044 0.639938 -0.200785 -0.081688 0.0113266 0.0984422 -0.0323872 0.545377 -0.368612 -0.198061 0.0498097 0.161948 -0.385999 0.116698 -0.112055 0.130371 -0.22322 -0.223194 -0.0644839 -0.146578 0.0909731 0.241948 -0.0596434 0.281744 0.00694933 -0.15723 -0.0850291 0.50443 -0.128115 -0.0603656 0.541671 -0.0104016 0.0798808 -0.0675278 -0.106607 0.0134032 0.0210409 -0.30544 0.190296 0.107652 -0.0628398 -0.42972 -0.152539 -0.128975 0.105635 -0.00230982 0.293883 -0.250569 -0.369086 0.020236 -0.00703463 0.451592 0.317596
16299 -1.1009 0.362346 1.03961 2.24571 -0.37368 -1.44907 0.0715264 -1.11424 -1.34123 1.15322 1.43878 -1.33912 0.655949 -0.0324697 0.156763 -0.0176352 -0.123093 -0.0133358 0.58331 -0.444714 -0.350671 0.0802295 0.362088 -0.125407 0.312885 0.191881 0.528015 -0.252056 0.107976 -0.108393 -0.217766 0.111607 0.258274 -0.0865533 0.110599 0.13838 -0.0185628 -0.165226 0.263728 -0.124746 0.0436642 0.143807 0.014689 0.156356 -0.148731 -0.0611062 0.076683 -0.109502 -0.162276 0.0570316 0.0358264 -0.140784 -0.519263 0.0766625 -0.206497 -0.00266971 -0.242389 0.325907 -0.234 -0.399295 -0.0930078 -0.0611519 0.539512 0.277396
15314 -1.35232 0.413616 1.13967 2.04203 -0.388054 -1.35684 0.000995001 -1.24232 -1.38742 1.48782 1.5093 -1.3378 0.746118 -0.16347 -0.0919856 -0.0141527 0.0446696 -7.67163e-05 0.638522 -0.282289 -0.305524 0.171838 0.155643 -0.310904 0.216592 -0.107994 0.208988 -0.413343 -0.15353 -0.0905888 -0.0966479 0.138319 0.156348 -0.195623 0.128245 -0.0695444 -0.102203 0.00861338 0.568974 -0.27043 0.0259786 0.370118 0.0124868 0.245311 -0.0354675 -0.0534784 -0.000520873 0.0701622 -0.206252 0.0699704 0.00436037 -0.103549 -0.422631 0.0564193 0.000710349 0.0824824 -0.0438756 0.418319 -0.207748 -0.549181 -0.120204 -0.201443 0.422389 0.485893
17695 -1.39693 0.295002 1.1265 2.06684 -0.413852 -1.32582 0.00777145 -1.1975 -1.44263 1.44838 1.51539 -1.34593 0.755645 -0.294411 -0.118043 0.0324601 -0.0532043 0.0423165 0.708059 -0.276676 -0.156209 0.100545 0.3972 -0.193124 0.317117 -0.00911838 0.313908 -0.411539 -0.15856 -0.0938765 -0.211856 0.145303 0.216754 -0.173606 0.184309 0.0110972 -0.119197 -0.00588941 0.422071 -0.228848 0.0077004 0.28891 -0.00971022 0.150345 -0.0788663 -0.172337 0.00690291 -0.000256575 -0.119975 0.177756 -0.029047 -0.108242 -0.358014 -0.0115082 -0.0529469 0.0108944 -0.0865774 0.436104 -0.0978202 -0.5319 -0.0782076 -0.122134 0.37756 0.497402
14251 -1.65131 0.342189 0.879133 2.07233 -0.32548 -1.11508 -0.180288 -1.0252 -1.52336 1.17795 1.61785 -1.38119 0.428017 -0.404348 -0.145283 0.0559042 0.0473474 -0.196037 0.685504 -0.20243 -0.0654336 -0.121923 0.371961 0.0204975 0.216767 0.0160048 0.306982 -0.42717 -0.159813 -0.106524 -0.104884 0.114357 -0.0801522 -0.139766 0.0112277 0.0451656 0.0394692 0.038728 0.0800417 -0.0741702 -0.00942398 0.148761 -0.195753 -0.0283412 -0.120246 -0.125354 0.0504026 -0.11061 -0.075583 0.349882 0.0621078 0.0594356 -0.254454 -0.00707697 0.146381 -0.01903 -0.205805 0.378301 0.0228442 -0.712763 -0.192566 0.168957 0.354438 0.595095
1303 -1.62063 0.528555 0.822578 2.05536 -0.331231 -1.16421 0.000259734 -0.82883 -1.5634 1.08776 1.7435 -1.3651 0.231277 -0.199359 -0.0881678 0.0369573 0.23991 -0.299186 0.528018 -0.297186 -0.0954463 -0.157989 0.327004 -0.107185 0.11264 0.0450423 0.309986 -0.485516 -0.0121326 -0.0223473 0.00764829 0.263756 -0.0103339 -0.140349 -0.0170206 0.0869232 0.0340017 -0.00127075 0.155044 -0.148074 -0.126864 0.29139 -0.195248 0.119974 -0.0862488 -0.167392 -0.0172551 -0.0735996 -0.0565775 0.325808 0.133131 0.0818773 -0.285288 -0.0580598 0.323202 0.076926 -0.215067 0.430062 -0.194674 -0.692853 -0.25115 0.0625932 0.265732 0.399992
12285 -1.41819 0.510319 0.766135 1.84586 -0.270097 -1.14115 0.0128349 -0.800595 -1.36967 0.997473 1.5957 -1.1572 0.238943 -0.166775 -0.0349245 0.0273243 0.190558 -0.243396 0.475743 -0.23266 -0.036765 -0.13603 0.233299 -0.0951159 0.0489828 0.0607413 0.328743 -0.442367 -0.0285523 -0.0202776 0.0684402 0.273721 -0.017109 -0.119455 0.0165815 0.0519506 -0.00168024 0.0674824 0.244782 -0.126671 -0.118685 0.316577 -0.203325 0.105265 -0.104487 -0.185121 -0.0242249 -0.107321 -0.0647858 0.274095 0.0911894 0.0775554 -0.261628 -0.0579724 0.368358 0.166615 -0.174254 0.433032 -0.30273 -0.728411 -0.225045 0.0908158 0.192978 0.252126
9848 -1.72852 0.741707 1.16678 2.27122 -0.360512 -1.61122 0.0866716 -1.13645 -1.75422 1.51342 2.26998 -1.54922 0.453061 -0.131723 -0.112638 0.0507043 0.112793 -0.189625 0.515605 -0.324988 0.12221 -0.263704 -0.122995 -0.181655 -0.020234 0.136506 0.381842 -0.457364 -0.297443 -0.0272324 0.131011 0.391937 -0.00533689 -0.20874 0.130775 -0.122231 -0.0368695 -0.0297486 0.479549 -0.253869 -0.093686 0.454773 -0.132483 0.0367319 -0.211332 -0.1419 -0.0151418 -0.141466 -0.305247 0.227188 0.0551265 0.105011 -0.434346 -0.10278 0.458891 0.33178 -0.131113 0.658964 -0.542093 -0.957264 -0.346813 0.137639 0.287393 0.234187
242 -1.62319 0.721802 1.02492 2.13135 -0.37309 -1.4389 0.0357838 -1.08562 -1.60518 1.38065 2.10997 -1.41775 0.391974 -0.0708968 -0.122043 0.0310221 0.119638 -0.169234 0.476675 -0.283473 0.127072 -0.240583 -0.104044 -0.134408 0.0164689 0.137831 0.352946 -0.458291 -0.272779 -0.00604018 0.117365 0.326466 -0.00109349 -0.186667 0.157405 -0.125285 -0.0669838 0.00685714 0.392599 -0.196583 -0.094995 0.335559 -0.108961 0.0480665 -0.159036 -0.149562 -0.0163576 -0.140853 -0.301656 0.175868 0.0936819 0.140583 -0.32206 -0.109053 0.405021 0.340515 -0.0978823 0.566404 -0.53066 -0.861376 -0.367375 0.133684 0.227715 0.157177
19578 -1.54215 0.687232 1.0117 1.93889 -0.267312 -1.3803 -0.00286205 -0.994648 -1.64442 1.31135 1.89325 -1.27195 0.427378 -0.0774355 -0.098807 0.0458413 0.105036 -0.22479 0.473355 -0.223484 -0.116645 -0.0489242 -0.144374 -0.110022 0.0299407 0.123081 0.245406 -0.42804 -0.155689 -0.0217617 0.135731 0.222189 -0.0597004 -0.245766 0.0631449 -0.154838 -0.072753 0.132132 0.405122 -0.217752 -0.0262909 0.321279 -0.00852018 0.106755 -0.128445 -0.119294 -0.0181901 -0.0700597 -0.342395 0.104806 0.0544228 0.112323 -0.270183 -0.0432435 0.418927 0.335503 -0.0554351 0.512437 -0.50689 -0.878593 -0.219603 0.137993 0.182773 0.105392
5790 -1.4563 0.683501 0.981484 1.85276 -0.27805 -1.41754 -0.0309018 -1.04505 -1.5679 1.3325 1.95958 -1.3635 0.443177 -0.114291 -0.131728 0.0356008 0.0988491 -0.223341 0.482846 -0.183783 -0.0627731 -0.0982296 -0.185371 -0.0821807 0.0462627 0.114183 0.199528 -0.403061 -0.237129 -0.0235599 0.0915613 0.22901 -0.0811055 -0.260116 0.070046 -0.174389 -0.0485999 0.0679928 0.396675 -0.250787 -0.0723231 0.329123 -0.0907341 0.0685115 -0.142053 -0.0992748 -0.0355103 -0.0392646 -0.266921 0.10603 0.0356624 0.084711 -0.239264 -0.0329584 0.435613 0.295362 -0.0602469 0.517002 -0.455777 -0.882482 -0.282301 0.137844 0.0615984 0.0718671
7919 -1.85294 0.859669 1.20967 2.36823 -0.436468 -1.80242 0.0469259 -1.21159 -1.97495 1.56655 2.46101 -1.68471 0.498703 -0.145463 -0.143482 0.0210644 0.187297 -0.258219 0.503079 -0.289681 0.0526419 -0.191298 -0.147914 -0.192265 -0.0655052 0.105229 0.27083 -0.492982 -0.246356 -0.00449984 0.124842 0.335671 -0.0531511 -0.272918 0.16867 -0.163539 -0.0989932 0.0476876 0.554784 -0.299714 -0.144312 0.569086 -0.187292 0.0330177 -0.216987 -0.203736 -0.039669 -0.126762 -0.32598 0.218427 0.162236 0.175474 -0.372896 -0.153219 0.567224 0.470186 -0.0983461 0.647203 -0.618839 -1.06723 -0.403053 0.123394 0.10518 0.0608577
16880 -1.71706 0.756818 1.05964 2.20409 -0.399809 -1.59812 0.0244229 -1.17044 -1.90042 1.47834 2.2741 -1.54803 0.378136 -0.170391 -0.0774362 0.0301397 0.163087 -0.212428 0.510626 -0.265001 0.0440748 -0.19993 -0.0844472 -0.109513 -0.0466553 0.0881747 0.344793 -0.502979 -0.197928 -0.00651522 0.172346 0.304388 -0.0894261 -0.238382 0.0287876 -0.0720223 -0.0866854 0.142586 0.456552 -0.215499 -0.114404 0.476431 -0.163856 0.0893991 -0.193937 -0.162011 -0.0557415 -0.0943242 -0.26397 0.192204 0.10697 0.144736 -0.311887 -0.139123 0.493357 0.351094 -0.0871954 0.591687 -0.548941 -0.970802 -0.281594 0.0357895 0.164456 0.0821485
447 -1.41952 0.565549 0.938756 2.10193 -0.298584 -1.38421 -0.0713668 -0.973015 -1.74635 1.22661 1.90971 -1.47833 0.27891 -0.0779964 -0.0261161 -0.0404024 0.180913 -0.281288 0.448041 -0.1456 -0.108025 -0.0200805 0.00625353 -0.169741 -0.028327 -0.025346 0.20338 -0.458178 0.0259636 -0.0531899 0.15491 0.191201 0.00108117 -0.176288 -0.0521079 0.0522081 -0.0122195 0.0417567 0.236978 -0.268775 -0.0826111 0.412609 -0.264507 0.0937932 -0.137605 -0.167898 0.025719 -0.00524116 -0.00656258 0.248205 0.0987221 -0.0312393 -0.233302 -0.0360003 0.286325 0.16261 -0.0874735 0.324676 -0.214793 -0.584235 -0.167119 -0.0782061 0.00817998 0.0818674
10773 -1.51066 0.559211 0.971519 2.22095 -0.281431 -1.46574 0.115505 -0.936006 -1.72245 1.34469 1.97965 -1.49409 0.391483 -0.126953 -0.0648038 0.00176511 0.226995 -0.369832 0.567314 -0.175575 -0.0890278 -0.0460659 -0.0377561 -0.218422 -0.0319804 -0.050418 0.228692 -0.453194 0.0066978 -0.0262062 0.0762031 0.232346 0.107163 -0.200461 0.0891568 -0.0413372 -0.057733 0.0310392 0.330949 -0.226584 -0.101055 0.42823 -0.239598 0.195582 -0.0934521 -0.219622 -0.0306858 -0.0365583 0.0142244 0.207671 0.0820163 -0.0147719 -0.215249 0.0458605 0.316141 0.103464 -0.121342 0.308536 -0.194864 -0.523073 -0.127445 -0.0592293 0.101059 0.211483
195 -1.59936 0.572227 0.845262 2.15234 -0.404751 -1.52443 -0.113739 -1.00075 -1.80219 1.16828 1.77301 -1.42393 0.335934 -0.197334 -0.0151905 0.0311312 0.123089 -0.273042 0.34945 -0.190349 -0.291227 -0.0284833 0.201224 -0.163078 0.0359025 -0.0223308 0.17474 -0.412884 0.0170446 -0.0484138 -0.0192261 0.177191 -0.00882676 -0.140981 -0.000453538 0.0700923 -0.0283272 -0.0534193 0.267658 -0.141666 -0.169416 0.446553 -0.239584 0.138268 -0.069998 -0.119496 0.0108596 -0.0434741 0.059525 0.206513 0.141944 -0.0610395 -0.289359 0.0683021 0.256357 0.0195252 -0.103311 0.253071 -0.0515288 -0.416995 -0.143895 -0.0174176 0.107468 0.2719
13229 -1.62912 0.58157 0.825721 2.17642 -0.336456 -1.40477 -0.0745655 -0.835439 -1.83963 1.20999 1.77558 -1.44354 0.281701 -0.171065 -0.00441118 -0.00936449 0.228933 -0.431807 0.414957 -0.156371 -0.178737 -0.0143206 0.00161829 -0.130389 0.00802066 -0.0421331 0.136235 -0.383002 0.0762429 -0.0387598 0.038555 0.139777 0.042414 -0.17374 -0.0106907 0.0550662 -0.0366369 0.0307954 0.202147 -0.19153 -0.12176 0.368066 -0.216902 0.183482 -0.0601544 -0.124336 0.00245024 -0.0279825 0.0122336 0.252603 0.148114 -0.0273994 -0.239913 0.0355554 0.302193 0.0960852 -0.0976495 0.292852 -0.144894 -0.526588 -0.157001 0.0189525 0.0712749 0.236824
2117 -1.61644 0.540494 0.844734 2.2313 -0.393625 -1.51541 -0.0918607 -0.983557 -1.83395 1.18224 1.79236 -1.44203 0.329236 -0.218113 -0.0545313 0.023804 0.252821 -0.357198 0.427013 -0.205319 -0.179214 -0.0586724 0.113321 -0.148644 0.0835998 -0.000283655 0.141209 -0.417257 0.0602067 -0.0295191 -0.0262288 0.164497 0.051983 -0.109228 0.00382647 0.0390246 -0.0374392 -0.0508509 0.181467 -0.176237 -0.144673 0.44003 -0.278009 0.121815 -0.0491186 -0.144381 -0.0267566 0.0180784 0.034825 0.218078 0.120901 -0.0120138 -0.185009 -0.0287441 0.256799 0.0519772 -0.145259 0.211182 -0.0684159 -0.40953 -0.138585 0.0594326 0.108142 0.277689
17677 -1.59981 0.587443 0.809193 2.15182 -0.370829 -1.32206 -0.0338021 -0.843722 -1.86014 1.19182 1.83309 -1.46632 0.289617 -0.159331 -0.0498319 0.0597286 0.183162 -0.349587 0.436198 -0.172839 -0.119016 -0.0918185 0.175857 -0.0976112 0.0697639 0.0401172 0.21479 -0.446909 0.0466269 0.000163722 0.0650993 0.138892 0.00703575 -0.119686 0.00475239 0.0272907 -0.0213505 -0.0232931 0.150239 -0.113926 -0.120004 0.312055 -0.167088 0.108714 -0.0818324 -0.196771 -0.0491171 -0.0705421 -0.0972238 0.205903 0.0922047 0.0550529 -0.234663 -0.0041792 0.26087 0.0576742 -0.110625 0.28127 -0.163317 -0.475661 -0.149143 0.0833466 0.132779 0.141826
3297 -1.6572 0.58972 0.902046 2.12356 -0.363496 -1.558 -0.238954 -0.901599 -1.64166 1.1377 1.91604 -1.50795 0.373917 -0.33656 -0.073121 0.0133693 0.121195 -0.165751 0.352471 -0.198185 -0.238368 -0.119621 0.297867 -0.088824 0.0204519 -0.0169525 0.158361 -0.338051 -0.0650836 -0.0139511 -0.0998417 0.16406 -0.080333 -0.0716949 -0.00866746 -0.0588117 -0.000514181 0.00861859 0.200032 -0.128967 -0.0717268 0.358619 -0.237016 -0.0356254 -0.0534863 -0.104277 -0.0619809 -0.00498503 -0.0329227 0.0330935 0.0269782 -0.0300691 -0.184715 -0.0282273 0.208217 0.0629733 -0.0949387 0.237465 -0.090323 -0.483334 -0.114103 0.103954 0.0241445 0.132681
8782 -1.64914 0.400249 0.83677 2.1838 -0.384542 -1.27522 -0.161208 -1.07466 -1.68412 1.17456 1.50834 -1.27371 0.456912 -0.604642 -0.0539624 0.083303 0.0793765 -0.0280094 0.585255 -0.129923 -0.092243 -0.156321 0.397372 -0.114071 -0.00121486 -0.082349 0.214331 -0.31835 -0.0253583 -0.0896511 -0.113618 0.124491 0.00642552 -0.0451005 0.036991 0.0923424 -0.0815954 0.190017 0.196595 -0.0644612 0.0326031 0.0756096 -0.272186 0.000732244 -0.102641 -0.208898 -0.0377317 -0.124525 -0.0137107 0.115556 0.128656 0.153588 -0.133162 -0.0108595 0.317606 0.144136 -0.0998836 0.106361 -0.10227 -0.7288 -0.150024 0.170104 -0.056035 0.113839
5994 -1.47917 0.550489 0.889083 2.08073 -0.343475 -1.44322 -0.183081 -0.897724 -1.69458 1.15606 1.76981 -1.44964 0.330205 -0.376708 -0.0733267 0.047511 0.10408 -0.17651 0.468605 -0.188618 -0.231712 -0.089265 0.137851 -0.0880082 0.0233469 -0.0514182 0.0928102 -0.401363 0.00805719 -0.0282528 -0.0528954 0.0378348 -0.104885 -0.1084 -0.118291 -0.0358901 -0.0136915 0.0496282 0.188337 -0.132785 -0.0849355 0.280874 -0.169148 -0.0409409 -0.088422 -0.122568 -0.073288 0.0615442 -0.0817207 0.0342498 -0.0114617 0.0370668 -0.167546 0.00237994 0.212416 0.0068489 -0.0950216 0.260605 -0.106968 -0.50685 -0.0736592 0.116951 0.074936 0.141148
8864 -1.42015 0.515785 0.698477 2.0358 -0.39845 -1.45623 -0.0228342 -0.965159 -1.87397 1.02639 1.68166 -1.51453 0.365233 -0.162536 -0.0546012 0.0326537 0.209002 -0.276149 0.395243 -0.0704482 -0.234246 0.0599153 0.188142 -0.146973 0.128715 -0.024812 0.222191 -0.586256 0.278713 -0.0367468 0.18155 0.108893 -0.0665609 -0.156912 -0.131507 0.173427 -0.0189362 0.0988808 0.153937 -0.101074 0.0016678 0.287867 -0.166562 0.188001 -0.105186 -0.135652 -0.0646075 -0.067683 -0.0744052 0.115794 0.170047 0.0946103 -0.21774 0.103675 0.17029 0.0620735 -0.147476 0.155166 0.0137957 -0.518845 -0.129153 -0.0144558 0.175271 0.300236
9617 -1.54022 0.489349 0.690944 2.02161 -0.596302 -1.59971 0.0606886 -1.21745 -1.74367 1.31067 1.67767 -1.31447 0.405705 -0.575391 0.00824481 0.0807587 0.223027 -0.316966 0.380065 -0.245892 -0.239173 -0.196862 0.232046 -0.311802 -0.104298 -0.0327156 0.122921 -0.357545 -0.160419 0.017279 0.00164555 0.136629 0.0343112 0.0400947 0.202788 -0.0081162 -0.154509 0.111456 0.395807 0.0595588 -0.232091 0.736627 -0.219837 -0.0206325 -0.120833 -0.212505 -0.106002 -0.085077 -0.256406 0.273302 0.122777 0.0510612 -0.354675 -0.280602 0.338918 0.179578 0.00776474 0.300561 -0.376242 -0.604048 0.0247757 0.202351 0.211826 0.0984478
16379 -1.48495 0.460974 0.743812 2.19756 -0.673829 -1.67056 0.118525 -1.2803 -1.81005 1.37041 1.6728 -1.40681 0.412871 -0.453587 -0.0262055 0.085973 0.241922 -0.274868 0.394364 -0.25808 -0.122964 -0.167165 0.189095 -0.399406 -0.0254737 -0.0804944 0.087052 -0.325071 -0.16733 -0.0178415 0.0150589 0.0649657 0.0586238 -0.00817726 0.189201 0.076465 -0.149079 0.00425238 0.337409 0.0650386 -0.178127 0.66825 -0.0940002 0.082078 -0.0940718 -0.146006 -0.0660267 -0.0397641 -0.358023 0.300982 0.181087 0.0243494 -0.348313 -0.226376 0.139387 0.135688 -0.00419583 0.226709 -0.319805 -0.509912 0.0698147 0.240534 0.329927 0.147615
18178 -1.66606 0.428191 0.675666 2.10171 -0.692007 -1.55992 0.153331 -1.20179 -1.94808 1.248 1.50984 -1.42309 0.380671 -0.501832 -0.0952785 0.0723202 0.289719 -0.316918 0.356544 -0.219221 -0.159286 -0.0535627 0.267611 -0.288967 0.00197476 -0.0522462 0.0102821 -0.212621 -0.187691 0.0112647 -0.054005 -0.0192424 0.0349239 -0.0299968 0.199377 0.130356 -0.183886 0.00533445 0.29888 0.0857242 -0.210117 0.684956 -0.129191 0.0717646 -0.124542 -0.1238 -0.102169 -0.0150504 -0.249797 0.344899 0.161285 0.060309 -0.305864 -0.300552 0.134169 0.0457668 -0.0144297 0.238272 -0.220936 -0.486183 0.0897677 0.172085 0.256331 0.156896
1263 -1.51713 0.415785 0.725875 2.18532 -0.562257 -1.70446 0.0854226 -1.33564 -1.83999 1.40953 1.66415 -1.32921 0.414716 -0.513753 0.0140041 0.0450594 0.154053 -0.204342 0.38747 -0.0898545 -0.193876 -0.154456 0.331349 -0.211516 0.0762297 0.024886 0.199109 -0.338464 -0.159378 -0.0135946 -0.0509198 0.0310787 0.113757 0.000976183 0.2163 0.0535767 -0.135315 0.104491 0.366263 -0.0101647 -0.168318 0.603801 -0.192808 -0.00660458 -0.130173 -0.191767 -0.0314766 -0.0941713 -0.191424 0.245077 0.101398 0.0938725 -0.30762 -0.197486 0.262377 0.109603 -0.0645677 0.271443 -0.322215 -0.585291 -0.0495333 0.26335 0.249329 0.205863
17728 -1.46816 0.417789 1.09456 1.97605 -0.417345 -1.48019 -0.185547 -1.07952 -1.43936 1.56943 1.64619 -1.28602 0.635125 -0.158145 -0.0266296 0.0574898 -0.190063 -0.262136 0.450788 -0.273357 -0.155238 -0.160071 -0.1175 -0.244327 0.203032 0.110565 0.212907 -0.481747 -0.225501 -0.191131 -0.0914034 0.171635 -0.105801 -0.252591 0.154796 -0.155621 -0.0430611 -0.128223 0.372958 -0.160421 0.0114425 0.283813 0.1398 0.0152238 -0.131683 -0.0878013 0.176752 -0.165972 -0.295038 0.301632 0.122523 -0.18672 -0.40754 0.163661 0.018342 0.145849 -0.0383968 0.36715 -0.111722 -0.354015 -0.136881 -0.0361393 0.372321 0.461196
19390 -1.67888 0.443732 0.951162 2.08674 -0.476377 -1.36954 0.0625906 -1.35148 -1.57423 1.37021 1.60704 -1.46007 0.76624 -0.298981 -0.163105 -0.0167248 0.0897698 -0.143507 0.550613 -0.122259 -0.110361 0.0714099 0.229755 -0.144776 0.187571 0.0477839 0.152906 -0.248806 -0.0231419 -0.0220123 -0.02844 0.129711 0.225453 -0.0968411 0.167213 -0.121997 -0.064501 -0.115714 0.16197 -0.206046 -0.0206311 0.4049 -0.179702 -0.0503221 -0.0708992 -0.173719 0.00131578 0.0560263 -0.195188 0.0500617 0.051099 0.08909 -0.190265 -0.103279 0.104802 0.11648 -0.123963 0.327289 -0.161735 -0.527562 -0.217949 0.100608 0.18091 0.268445
17140 -1.54844 0.65481 0.850169 2.0351 -0.462488 -1.48247 -0.142288 -1.04436 -1.50387 1.13917 1.78902 -1.51985 0.41898 -0.138809 -0.109234 -0.048244 0.173828 -0.25622 0.531253 -0.120043 -0.211137 -0.0753237 0.129381 -0.0717595 0.0417627 0.0186171 0.12856 -0.141148 -0.0556154 0.050515 -0.0605519 0.100188 0.135927 -0.0258465 0.143984 -0.0663824 -0.000207539 -0.0296196 0.179663 -0.0806078 -0.0839395 0.395702 -0.172094 -0.00784953 -0.100577 -0.103788 -0.0299718 -0.00816402 0.0039388 -0.0284343 -0.0257334 0.0772784 -0.017757 -0.0350776 0.0506371 0.102029 -0.12161 0.237249 -0.224938 -0.374557 -0.156244 0.0999412 0.210731 0.149626
13245 -1.69443 0.548098 0.833624 2.03781 -0.400172 -1.44018 -0.230557 -1.03467 -1.76363 1.11616 1.686 -1.30802 0.481889 -0.42188 -0.0574957 0.0796134 0.0800561 -0.176436 0.418749 -0.214072 -0.238746 -0.0600448 0.295536 0.00678524 0.0457198 0.0759394 0.217341 -0.339231 -0.0188376 -0.0279957 -0.147196 0.0874004 -0.0109101 -0.0446961 0.0549145 -0.0067994 -0.0757229 0.104855 0.21008 -0.0269702 -0.032824 0.150682 -0.203133 -0.0153506 -0.0554578 -0.0955492 -0.0326101 -0.0942396 -0.100643 0.0221364 0.0744802 0.113419 -0.267567 -0.068205 0.284235 0.0964198 -0.0562286 0.166846 -0.183523 -0.536414 -0.180606 0.123582 -0.0359354 -0.0134485
12160 -1.51493 0.479439 0.677963 1.96099 -0.408634 -1.53986 0.0252622 -1.06075 -1.62038 1.35006 1.67864 -1.47422 0.481038 -0.361621 0.0343057 0.171864 0.0612437 -0.184689 0.620103 -0.0737845 -0.370421 -0.0745776 0.0950056 -0.146332 0.180877 0.0913057 0.195795 -0.377811 -0.0458737 0.00829928 0.0150529 -0.00339906 -0.186969 -0.120327 0.0567088 0.00722343 -0.116705 0.16346 0.337972 0.00790728 -0.138189 0.0490961 -0.117626 0.160574 0.0195563 -0.214192 -0.231557 0.0418192 -0.170293 0.195616 0.0696697 -0.0544449 -0.0244173 0.0506019 0.280099 0.0447262 -0.129632 0.0227103 -0.343214 -0.65302 -0.0707441 0.38744 0.158635 0.00906656
7994 -1.49464 0.454488 0.76442 1.76921 -0.392138 -1.2498 -0.247281 -0.861073 -1.68978 1.18137 1.50112 -1.23357 0.555297 -0.28663 -0.149532 0.148641 -0.0191905 -0.210145 0.412201 -0.182865 -0.357446 -0.0186582 0.0993082 -0.0314648 0.245371 0.119627 0.132804 -0.547333 -0.0714147 -0.0670538 -0.0519088 0.0124672 -0.237901 -0.147112 0.0976124 -0.165628 -0.0382466 -0.0228391 0.107828 0.0324915 -0.0156172 0.106318 0.127389 0.0491688 0.0302131 -0.0196539 0.0365742 -0.108263 -0.38415 0.0873977 0.17282 0.0362174 -0.177595 0.104706 0.249268 0.0963137 -0.077518 0.175105 -0.149908 -0.556724 -0.193937 0.31566 0.29907 0.35837
9241 -1.54164 0.529082 0.776915 1.85857 -0.463136 -1.35375 -0.233754 -0.904983 -1.77642 1.19175 1.6332 -1.34015 0.542216 -0.284197 -0.143657 0.121685 -0.0172171 -0.177989 0.374642 -0.216622 -0.277774 -0.0790128 0.0510086 -0.0442529 0.197465 0.112846 0.127801 -0.466962 -0.161383 -0.0340389 -0.11166 -0.00164196 -0.216775 -0.13269 0.200665 -0.168276 -0.0927253 -0.0623851 0.164003 0.0609527 -0.0511909 0.213115 0.109459 0.0120901 0.0141213 0.0264546 0.0223247 -0.0993852 -0.421519 0.0100004 0.229474 0.0516293 -0.26575 0.0466016 0.201905 0.0946508 -0.057848 0.19227 -0.144411 -0.464629 -0.201605 0.285597 0.319596 0.27908
11412 -1.72316 0.50571 0.810904 1.99934 -0.473986 -1.43483 -0.145961 -0.933431 -1.80126 1.157 1.75942 -1.32325 0.51357 -0.410814 -0.109664 0.149137 0.127918 -0.143045 0.505156 -0.376781 -0.224355 -0.0938602 0.105144 -0.00324608 0.0857556 0.0292711 0.292501 -0.395229 -0.247251 -0.0485518 -0.0254749 0.0814122 -0.119369 -0.0156557 0.13582 0.0187957 -0.0871601 0.090872 0.213042 0.127155 -0.0422159 0.177582 0.0449207 0.084025 -0.010673 -0.00659537 -0.0256416 -0.134708 -0.169655 0.0489463 0.135779 0.0541109 -0.327913 -0.0214283 0.240509 0.0430976 -0.0380059 0.193927 -0.180804 -0.531271 -0.0776436 0.259864 0.228501 0.160662
17330 -1.63352 0.560057 0.859416 2.13836 -0.371361 -1.52266 -0.237444 -0.918701 -1.59006 1.12685 1.83674 -1.52662 0.368229 -0.263382 -0.0636407 0.0280966 0.115724 -0.168486 0.356932 -0.281021 -0.13573 -0.126847 0.16761 -0.111612 -0.0830645 -0.0448501 0.181195 -0.268562 -0.00127529 -0.0248958 -0.0397676 0.178315 0.00526699 0.016591 0.0298508 -0.0205532 -0.0228637 0.0400146 0.214993 -0.125235 0.0442349 0.208936 -0.239701 -0.0369999 -0.0297036 -0.115507 0.0103579 -0.0469995 0.0202481 0.0139681 -0.0344477 0.0555769 -0.0991739 -0.00882698 0.139679 0.0985216 -0.162477 0.0981649 -0.155166 -0.551643 -0.0288187 0.20299 0.142288 0.1632
